#include "pattern_eval.h"

#include <immintrin.h>


namespace eval {


void pattern_activations(int ret[N_ALL_MASKS], board::Board b) {
    for (size_t mask_idx = 0; mask_idx < N_ALL_MASKS; mask_idx++) {
        uint64_t mask = all_masks[mask_idx];
        uint64_t own_bits = pext(b.own, mask);
        uint64_t opp_bits = pext(b.opp, mask);

        int instance = ternary_twos[own_bits] + ternary_ones[opp_bits];
        ret[mask_idx] = instance;
    }
}


int score(board::Board b) {
    int score = 0;

    for (size_t mask_idx = 0; mask_idx < N_ALL_MASKS; mask_idx++) {
        // Extract patterns bits from board
        uint64_t mask = all_masks[mask_idx];
        uint64_t own_bits = pext(b.own, mask);
        uint64_t opp_bits = pext(b.opp, mask);

        // Determine index into weights array from pattern and instance
        uint16_t instance = ternary_twos[own_bits] + ternary_ones[opp_bits];
        uint8_t pattern = mask_base[mask_idx]; 
        uint16_t weight_idx = pattern_start[pattern] + instance;

        score += weights[weight_idx];
    }

    return score;
}


// Utility functions for different flips of masks
uint64_t flip_vert(uint64_t x) {
    return __builtin_bswap64(x);
}

uint64_t flip_horiz(uint64_t x) {
    const uint64_t k1 = 0x5555555555555555;
    const uint64_t k2 = 0x3333333333333333;
    const uint64_t k4 = 0x0f0f0f0f0f0f0f0f;
    x = ((x >> 1) & k1) +  2*(x & k1);
    x = ((x >> 2) & k2) +  4*(x & k2);
    x = ((x >> 4) & k4) + 16*(x & k4);
    return x;
}

uint64_t flip_diag(uint64_t x) {
   uint64_t t;
   const uint64_t k1 = 0x5500550055005500;
   const uint64_t k2 = 0x3333000033330000;
   const uint64_t k4 = 0x0f0f0f0f00000000;
   t  = k4 & (x ^ (x << 28));
   x ^=       t ^ (t >> 28) ;
   t  = k2 & (x ^ (x << 14));
   x ^=       t ^ (t >> 14) ;
   t  = k1 & (x ^ (x <<  7));
   x ^=       t ^ (t >>  7) ;
   return x;
}

uint64_t flip_adiag(uint64_t x) {
    uint64_t t;
    const uint64_t k1 = 0xaa00aa00aa00aa00;
    const uint64_t k2 = 0xcccc0000cccc0000;
    const uint64_t k4 = 0xf0f0f0f00f0f0f0f;
    t  =       x ^ (x << 36) ;
    x ^= k4 & (t ^ (x >> 36));
    t  = k2 & (x ^ (x << 18));
    x ^=       t ^ (t >> 18) ;
    t  = k1 & (x ^ (x <<  9));
    x ^=       t ^ (t >>  9) ;
    return x;
}


inline uint64_t pext(uint64_t src, uint64_t mask) {
    return _pext_u64(src, mask);
}


int16_t weights[total_instances] = {
    -2, 32, -13, 27, 51, -2, -6, 26, -42, 41, 59, 40, 43, 59, 55, 16,
    -31, -12, -23, -26, -11, 23, 27, 53, -6, -16, -22, 46, 25, 1, 57, 41,
    3, 16, 8, -37, 56, 37, 66, 36, 15, 40, 13, -28, 4, 17, 6, 58,
    -18, -25, 6, -21, -24, 14, -1, 47, 36, 36, 69, 56, -21, 50, 15, 27,
    0, 60, 64, 41, 67, 43, 25, 56, -32, -36, 9, 20, 19, 63, 5, 18,
    25, 22, 58, 26, 31, 46, 51, -19, 1, -11, 15, -12, 28, 0, 9, 32,
    -5, -1, 5, 15, 33, 107, 19, 6, 38, 12, -24, 2, 47, 44, 66, 62,
    23, 45, -30, -5, -11, 8, 31, 27, 9, 9, 37, -33, 47, 29, 29, 40,
    38, 50, 17, 25, 22, 14, 29, -4, -16, -8, 32, 26, 44, -44, 21, 54,
    -13, 2, 18, -36, -34, -43, -59, -22, -28, 4, 33, -27, -1, -46, -37, -16,
    -35, -5, 42, 155, -131, 49, 10, 79, -44, -56, 89, 58, 36, 25, -8, -11,
    24, 32, 39, 28, 51, 42, 121, 64, -57, -23, 67, -10, -33, 45, 106, 17,
    10, -37, 124, 29, 22, 89, 28, 28, 47, 24, -10, 1, -32, -2, 19, -2,
    8, -16, 24, -3, -25, -35, -9, -16, -6, 72, -89, 57, -44, -37, -22, -92,
    -89, 30, -51, -9, 37, -1, -6, -42, 46, 39, 1, -24, 58, 19, -20, -1,
    -46, 21, -2, 46, 191, -82, 64, -31, 178, 10, 2, 65, -6, 10, 28, -18,
    71, 34, -25, 70, 50, 12, -20, 33, -9, -20, -11, 45, 40, 50, 56, 135,
    37, 2, 93, 131, -23, 104, 59, 19, -27, 53, 36, 11, -5, -30, 22, 23,
    4, 70, 120, 30, -26, 1, -36, 18, 7, 0, 32, -38, -34, -66, 73, -7,
    -94, 131, 21, 40, 11, 25, 17, 19, -33, 48, 13, -14, -8, 39, 31, -21,
    19, -28, 5, 20, 22, 22, 80, -44, -26, 45, 75, 22, 106, 36, -5, 115,
    -7, 15, 74, 15, -16, 89, -3, -16, 109, 29, -19, 83, 42, -26, 61, -11,
    -35, 62, -37, 10, 39, 12, -64, -24, -2, -79, 100, 8, -7, 62, -48, 34,
    49, 8, -82, 11, 20, -9, 3, -18, 10, 25, 29, 26, 94, -45, 65, 66,
    73, -1, 118, -8, -86, 167, 11, -9, -9, -13, -4, 19, -6, -29, 130, 25,
    -42, -32, -17, -52, 8, -25, -96, 209, -160, -217, 219, -44, 148, 29, 20, -36,
    238, 45, 12, 95, 20, -12, 48, -9, -138, 116, -40, -67, -19, -23, -3, 1,
    -28, -100, 119, -6, -207, 41, 12, -12, 32, -2, 18, -9, 64, 25, 57, -12,
    86, 51, -7, -73, 35, 101, 58, 50, -16, 75, 36, 59, -51, 53, 16, 2,
    182, 56, 107, 180, 42, 34, 141, 112, 35, 25, 12, 63, 7, 17, 44, 20,
    107, 27, 2, 0, 57, 30, 45, -184, 205, 84, -2, -67, 211, -171, 247, -2,
    -82, 215, 61, 6, 45, 65, 27, 133, -15, -274, 248, -14, -44, 144, -61, 10,
    41, -32, 23, 111, -57, -75, -47, -9, -43, 67, -33, -27, -164, -29, -46, -91,
    -132, -42, -50, -40, -72, -96, -43, -9, -96, -115, -60, -48, 45, -44, 196, 11,
    -38, 79, -28, 88, 142, -13, -59, 73, -16, -50, -107, -107, -104, -58, -30, -80,
    -61, -11, -60, -112, -92, -89, -30, -35, -404, 332, -171, -240, -233, 124, -213, -590,
    -22, 149, -122, 30, -82, -96, 127, -252, 159, -33, 359, -503, -104, -121, -255, 77,
    27, 94, -7, -126, -186, -102, 325, -464, -117, -64, -37, -33, -123, -66, 12, 24,
    10, -63, 1, 82, -50, 107, -98, 58, 107, 23, -18, 2, 128, -12, 80, 61,
    45, -96, 442, 36, -210, 86, 16, 203, -145, 52, -9, -76, -87, -66, 8, -42,
    -64, -103, -23, -92, -80, -88, -108, -13, -18, -373, 40, -55, -230, -238, 103, -60,
    169, 12, 387, 283, 30, -118, 15, -13, 0, 230, -11, 21, 298, -24, -327, 128,
    36, 53, 100, -47, -94, -20, -65, -143, 82, 14, -154, 9, 4, 33, 48, 47,
    -1, -16, -43, 19, -10, -33, -125, -73, 47, 13, -1, -67, 16, 7, -58, -287,
    -22, -65, -251, 114, 7, -56, -86, -8, 28, 24, 98, 31, 5, -16, 36, 22,
    -39, -82, -29, 66, 28, 52, -41, 38, 33, 29, -375, 198, -105, -208, 185, -16,
    15, -57, -32, -17, 174, 18, -168, -22, -64, 80, 222, 13, -175, 24, 13, -134,
    -168, 84, -199, 27, -40, -139, 98, -135, -120, 105, 60, 5, 98, 52, 132, 202,
    89, 11, 2, -44, 3, 24, 18, -111, 31, 91, 36, 20, -52, 25, 28, -17,
    -220, 204, 53, -102, 21, 79, -12, -24, 13, -14, 206, 84, 22, 11, -41, 34,
    41, -36, -106, -33, 55, 42, 21, -63, 67, 26, 126, -255, 824, 68, 422, 211,
    266, 337, 97, 59, 318, -278, -77, -52, 4, 174, 349, 122, 49, 320, -123, -107,
    -63, 448, 28, -70, 87, 60, 120, 8, 94, -56, 391, 39, -177, 42, 53, 225,
    137, 59, 22, 116, -21, 144, 97, -32, 81, -41, 138, -17, 52, -85, 75, 32,
    44, 221, 161, 138, 330, 154, 14, 433, -347, 74, 64, 323, 20, -88, -39, 43,
    12, -54, 18, 141, 40, 75, -52, -67, -12, 8, -7, 12, -232, 721, 154, 42,
    27, 182, 139, 83, 10, 21, 6, -33, -16, 208, 58, 120, 265, 8, -1, 37,
    70, -72, 5, 31, 158, 167, 52, -167, 257, -47, 34, 73, -36, 25, 188, 31,
    5, 57, 49, -36, -81, -84, -39, -40, -12, -217, -32, 24, -45, -59, -101, -23,
    -18, 53, 37, -10, -19, -147, 39, 167, -98, 201, -31, 7, 62, 27, -31, -37,
    -106, -19, -33, -39, -177, -111, 18, -34, -28, -99, -2, -11, 95, -66, -41, -11,
    -88, 132, 30, 340, -148, 46, -487, 365, 74, -41, 57, 169, -94, 434, 7, -94,
    -489, 76, -165, -11, 85, 49, 359, 94, 113, 327, 49, 284, 101, 102, -110, 388,
    47, 64, 60, 39, -17, -33, -73, -65, -9, 12, 12, -78, 16, -7, -38, -92,
    -7, -11, 73, 129, 236, 28, 21, 142, 132, -62, 295, 45, 90, 114, 60, 1,
    -18, -44, -12, -5, 1, 2, -51, 40, 21, -22, -44, 9, 14, 0, 0, 0,
    0, 0, 0, 0, 0, 0, 0, 0, 0, 0, 0, 0, 0, 0, 0, 0,
    0, 0, 0, 0, 0, 0, 0, 0, 53, -171, -77, 105, -182, -12, 18, -37,
    155, 10, -73, 100, 62, -90, 69, -3, 120, 124, -12, -122, -77, 72, -63, 6,
    7, -1, 125, 20, 274, 102, 63, 18, 40, 13, 156, 77, 23, 77, 29, 18,
    -72, 106, -63, 30, 110, -5, -86, 107, 26, -67, -57, -34, -8, 132, 0, 0,
    0, 0, 0, 0, 0, 0, 0, 0, 0, 0, 0, 0, 0, 0, 0, 0,
    0, 0, 0, 0, 0, 0, 0, 0, 0, 35, -97, 90, 133, -141, 216, -72,
    85, 148, 34, 3, 150, 101, -23, 64, -44, 121, 87, -12, 63, 25, 112, 82,
    28, -74, 94, 89, 22, 127, -276, 20, -531, -334, -115, -288, -413, 59, 82, 232,
    139, 26, 50, -54, 93, 81, -6, -136, 47, 112, 26, 13, -71, 111, 109, 0,
    0, 0, 0, 0, 0, 0, 0, 0, 0, 0, 0, 0, 0, 0, 0, 0,
    0, 0, 0, 0, 0, 0, 0, 0, 0, 0, 21, 82, -196, 97, 604, 412,
    16, 134, 137, -15, -70, 138, 36, -112, -112, -133, -61, -25, -75, -196, -124, 28,
    -102, -117, -168, -88, -27, 13, -119, 290, 54, -172, -36, -142, -114, 167, 0, -31,
    1, 48, -92, -155, -135, -45, -36, -62, -26, 96, 12, -100, -123, -136, -90, 21,
    0, 0, 0, 0, 0, 0, 0, 0, 0, 0, 0, 0, 0, 0, 0, 0,
    0, 0, 0, 0, 0, 0, 0, 0, 0, 0, 0, 98, 65, -263, -85, 387,
    24, -37, 80, 163, 63, -180, 75, -7, -160, 31, -16, -108, 59, 119, 397, -146,
    35, -39, 148, -47, 102, 80, 3, 165, 370, -71, 402, -257, 92, 177, -455, 26,
    122, -148, 37, -50, 1, -4, 49, 61, 53, 102, 269, 50, 27, 97, -47, -21,
    156, 0, 0, 0, 0, 0, 0, 0, 0, 0, 0, 0, 0, 0, 0, 0,
    0, 0, 0, 0, 0, 0, 0, 0, 0, 0, 0, 0, 72, 401, 107, -17,
    194, 11, -33, -79, -51, 100, 139, 229, 166, 27, 55, -13, 200, 109, 40, 14,
    -40, 161, 138, 68, -21, 206, 122, 30, -71, 288, 73, -96, -491, 41, -51, -18,
    117, 212, 257, 184, 74, -10, -16, 153, 79, 32, -24, -53, 151, 153, 24, -60,
    167, 129, 0, 0, 0, 0, 0, 0, 0, 0, 0, 0, 0, 0, 0, 0,
    0, 0, 0, 0, 0, 0, 0, 0, 0, 0, 0, 0, 0, 122, -46, 109,
    14, -131, -173, -21, 68, 96, 122, 215, 197, 175, 39, -27, -30, 104, 15, 32,
    -90, -189, 131, 90, 11, -74, 151, 76, 42, -313, 75, 59, 46, -327, 45, -59,
    79, 97, 223, 53, 153, 39, -63, -40, 97, 66, 0, -115, -79, 97, 61, 6,
    -75, 141, 99, 0, 0, 0, 0, 0, 0, 0, 0, 0, 0, 0, 0, 0,
    0, 0, 0, 0, 0, 0, 0, 0, 0, 0, 0, 0, 0, 0, 22, -469,
    -112, -38, 203, -55, 140, 381, -196, -40, -139, 43, 67, -83, 66, -19, -43, 135,
    -27, 74, -559, 17, -33, -5, -2, 101, 127, -24, 111, -71, 20, -206, -122, 129,
    -10, -639, -87, 168, -275, 12, -84, 62, -105, -132, 280, -52, 71, 177, 18, -76,
    227, 75, -67, 229, 0, 0, 0, 0, 0, 0, 0, 0, 0, 0, 0, 0,
    0, 0, 0, 0, 0, 0, 0, 0, 0, 0, 0, 0, 0, 0, 0, -1,
    -133, 366, -33, 5, 133, -43, 60, -40, -37, 56, 181, 10, -114, -214, -142, -40,
    -88, -125, -120, -335, -15, -66, -133, -194, 27, -60, -56, -85, 44, 51, -64, 104,
    30, 264, -66, -67, 116, 42, 7, -111, -223, -186, -24, -89, -150, -254, -224, -25,
    -46, -137, -233, -26, -51, 0, 0, 0, 0, 0, 0, 0, 0, 0, 0, 0,
    0, 0, 0, 0, 0, 0, 0, 0, 0, 0, 0, 0, 0, 0, 0, 0,
    6, 46, 156, -13, 258, 36, -33, 469, 117, -62, 51, 82, -2, -139, -203, -196,
    -62, -150, -141, -204, -208, -30, -98, -185, -213, -16, -82, -36, -191, -492, 41, 161,
    312, 88, -39, -273, -58, -58, -79, -26, -145, -248, -210, -96, -123, -134, -171, -84,
    -55, -121, -177, -208, -91, -23, 0, 0, 0, 0, 0, 0, 0, 0, 0, 0,
    0, 0, 0, 0, 0, 0, 0, 0, 0, 0, 0, 0, 0, 0, 0, 0,
    0, -688, 0, 0, 389, 0, 1, -562, 0, 0, -228, -246, 967, 96, -134, -60,
    -301, 311, -104, -79, -21, 0, 251, 388, 962, 230, 197, 133, -18, -51, 694, 482,
    0, 576, -876, 0, 0, -155, 49, 139, -118, -47, 110, -150, -167, 464, -95, 177,
    -21, 78, -114, -126, -109, 472, 173, 0, 0, 0, 0, 0, 0, 0, 0, 0,
    0, 0, 0, 0, 0, 0, 0, 0, 0, 0, 0, 0, 0, 0, 0, 0,
    0, 0, 0, 0, -79, -393, 78, 227, -74, 0, 0, 48, 113, 476, 152, -15,
    28, 107, 212, 142, -1, 24, -75, 149, 223, 74, 57, 230, 37, 35, 14, 240,
    523, 147, 0, -244, 29, 0, 250, 337, 539, 264, 173, 35, 67, 121, -2, 4,
    -27, 319, 242, 77, 24, -69, 149, 68, 0, 0, 0, 0, 0, 0, 0, 0,
    0, 0, 0, 0, 0, 0, 0, 0, 0, 0, 0, 0, 0, 0, 0, 0,
    0, 0, 0, -222, -304, -47, 71, 607, 0, 561, 0, -29, -92, 189, -416, -42,
    -39, -388, -41, -110, -96, -149, -35, -503, 24, -272, -109, -269, -44, -152, 1, 0,
    0, 47, 84, 373, 344, -10, 390, -21, 131, 96, -13, -69, -269, -269, -53, -60,
    17, -570, 298, -19, 112, -78, -258, -365, -32, 0, 0, 0, 0, 0, 0, 0,
    0, 0, 0, 0, 0, 0, 0, 0, 0, 0, 0, 0, 0, 0, 0, 0,
    0, 0, 0, 0, 202, 3, 0, -17, 0, 329, 61, 0, 0, 455, 0, 0,
    -279, 9, -79, -66, -244, 159, 77, 0, 0, 137, 319, -176, 197, 185, 273, 396,
    -34, 0, 350, 167, -245, 22, -29, 0, 175, 490, 0, 46, -209, -462, -104, 34,
    138, -110, 90, 0, 82, -175, -270, -93, 110, 186, 0, 0, 0, 0, 0, 0,
    0, 0, 0, 0, 0, 0, 0, 0, 0, 0, 0, 0, 0, 0, 0, 0,
    0, 0, 0, 0, 0, -92, -284, 387, -70, -89, 457, -165, -222, 368, -25, -34,
    -86, 36, -119, -168, -114, -30, -95, -120, -46, -192, 19, -42, -122, -157, 31, -5,
    -65, -668, 274, -29, -140, -196, 32, -121, 172, 6, 291, -69, 93, -52, -117, -102,
    -4, -56, -105, -210, -30, 55, 21, -67, -156, 68, 45, 0, 0, 0, 0, 0,
    0, 0, 0, 0, 0, 0, 0, 0, 0, 0, 0, 0, 0, 0, 0, 0,
    0, 0, 0, 0, 0, 0, -10, -1565, 226, 75, -366, 185, -48, 140, 219, 28,
    172, 270, 141, -36, -117, -53, 52, -20, -24, -58, 61, 108, 14, 5, -80, 88,
    63, -87, -498, -106, -56, -17, 207, 3, -140, 678, 43, 118, 196, 140, 25, -76,
    -54, 108, 69, -126, -187, -199, 110, 86, 41, -121, 146, 123, 0, 0, 0, 0,
    0, 0, 0, 0, 0, 0, 0, 0, 0, 0, 0, 0, 0, 0, 0, 0,
    0, 0, 0, 0, 0, 0, 0, 689, 0, 0, -556, 0, 98, 436, -6, -30,
    -278, 0, 0, 43, -389, 79, 37, 119, 447, -125, 0, -26, -155, -367, -113, -89,
    407, -231, 103, -24, 0, 77, 433, -14, 964, -151, 0, -152, 405, 0, -82, 99,
    -16, 171, 289, -90, -463, 0, 7, 141, 53, -245, -99, 44, 277, 0, 0, 0,
    0, 0, 0, 0, 0, 0, 0, 0, 0, 0, 0, 0, 0, 0, 0, 0,
    0, 0, 0, 0, 0, 0, 0, 0, -2, 251, 439, 99, 737, 1053, 13, 376,
    540, 114, 140, 256, 211, -51, -133, -43, 29, 8, -72, -98, -180, 142, 43, -39,
    -86, 99, 106, 14, -201, -251, 25, 100, -104, 57, -171, -71, 76, 298, 240, 145,
    -6, -48, -55, 45, 52, -68, -169, -135, 100, 85, 53, -78, 164, 145, 0, 0,
    0, 0, 0, 0, 0, 0, 0, 0, 0, 0, 0, 0, 0, 0, 0, 0,
    0, 0, 0, 0, 0, 0, 0, 0, 0, -52, -533, 55, -18, -49, 731, -92,
    358, 356, 88, 171, 406, 208, 34, -50, -8, 64, 4, -14, 4, -160, 119, 125,
    109, -89, 159, 146, 25, -414, 150, 28, -490, -374, 54, 256, -357, 83, 184, 72,
    205, 70, 31, -22, 108, 133, -77, -24, 31, 129, 145, 114, -138, 245, 168, 0,
    0, 0, 0, 0, 0, 0, 0, 0, 0, 0, 0, 0, 0, 0, 0, 0,
    0, 0, 0, 0, 0, 0, 0, 0, 0, 0, 26, -898, 64, 682, 0, 0,
    -362, -693, 0, -64, 227, 20, -33, 13, -352, 71, 29, -301, 223, -143, -65, 50,
    -416, 21, 49, -52, 85, 784, -1, 0, 308, -1, 0, -340, 0, 0, 88, 0,
    41, -152, -93, -274, -22, -819, -42, 172, -955, 299, 184, 59, -175, -329, 538, 532,
    0, 0, 0, 0, 0, 0, 0, 0, 0, 0, 0, 0, 0, 0, 0, 0,
    0, 0, 0, 0, 0, 0, 0, 0, 0, 0, 0, -22, 0, 0, -392, -515,
    9, -407, -244, -97, 67, -226, 792, 210, 18, 164, -5, 88, -46, 89, -77, 5,
    277, 104, 182, 67, 157, -52, 317, 78, 0, -108, 0, 0, 78, -240, -392, 309,
    177, -175, 230, 67, 114, -32, 219, 250, 190, -37, -277, -9, 202, 13, -11, 460,
    91, 0, 0, 0, 0, 0, 0, 0, 0, 0, 0, 0, 0, 0, 0, 0,
    0, 0, 0, 0, 0, 0, 0, 0, 0, 0, 0, 0, 53, 0, 0, 240,
    0, -43, -747, 0, -89, 11, -665, -207, 0, -27, -299, -266, 38, -53, -212, -505,
    -588, -159, 22, -133, -233, -183, -22, -8, 90, 0, 20, 0, 0, 612, -283, 0,
    28, -87, 203, -74, -34, -195, -191, -325, -225, 27, -454, 115, -79, -81, -225, -177,
    27, 98, 0, 0, 0, 0, 0, 0, 0, 0, 0, 0, 0, 0, 0, 0,
    0, 0, 0, 0, 0, 0, 0, 0, 0, 0, 0, 0, 0, 206, 0, 21,
    -710, 0, -45, -865, 15, -245, 408, 0, -310, -10, -157, -234, -145, 68, -37, 326,
    -126, -405, -126, -146, -153, 22, 218, -185, -693, 0, 0, -535, 0, 0, -232, 0,
    0, -465, 0, 0, 13, 384, 4, 259, 256, 598, 449, 0, 0, 95, -236, 363,
    215, 8, 275, 0, 0, 0, 0, 0, 0, 0, 0, 0, 0, 0, 0, 0,
    0, 0, 0, 0, 0, 0, 0, 0, 0, 0, 0, 0, 0, 0, 12, 64,
    533, -8, 64, 177, -84, 406, 515, 63, 227, 207, 92, -158, -232, -188, -100, -111,
    -100, -233, -135, 2, -80, -123, -243, -8, -68, 70, 21, 673, 133, -311, -53, 44,
    -1066, 406, -48, 6, -14, 46, -109, -207, -206, -75, -70, -104, -359, -212, -53, 23,
    -71, -261, 56, -23, 0, 0, 0, 0, 0, 0, 0, 0, 0, 0, 0, 0,
    0, 0, 0, 0, 0, 0, 0, 0, 0, 0, 0, 0, 0, 0, 0, 25,
    -211, 124, 80, -127, 146, 69, -268, 39, 60, 209, -4, 61, -129, -156, -158, -35,
    -54, -103, -197, -331, 30, 21, -26, -196, 46, 9, 100, -445, -365, 33, -730, -162,
    -91, -736, -540, 62, 61, 200, 48, -50, -81, -168, 69, 16, -82, -211, 14, 31,
    61, -6, -228, 138, 82, 0, 0, 0, 0, 0, 0, 0, 0, 0, 0, 0,
    0, 0, 0, 0, 0, 0, 0, 0, 0, 0, 0, 0, 0, 0, 0, 0,
    -344, 0, 2, 19, 0, 0, -474, 324, -249, 60, 0, -23, 252, 80, 45, -216,
    538, -283, -293, 0, -348, 158, 151, 108, -73, 477, 36, -343, 0, 0, 71, 0,
    0, 237, -126, 0, 10, 0, 0, 32, -430, 16, -66, -194, -366, -565, 0, 0,
    -43, 88, 577, 373, 81, -116, 0, 0, 0, 0, 0, 0, 0, 0, 0, 0,
    0, 0, 0, 0, 0, 0, 0, 0, 0, 0, 0, 0, 0, 0, 0, 0,
    0, 155, 467, 680, 79, -288, 438, 44, 364, -70, 132, 128, 236, 99, -86, -117,
    -112, 2, -31, -40, -138, -13, 38, -27, -54, -135, 125, -23, 88, -36, 1671, 181,
    -168, -257, 42, -374, -641, 55, -60, 8, 58, -35, -82, -99, 20, 52, 9, -52,
    -118, 45, 25, -20, -138, 141, 95, 0, 0, 0, 0, 0, 0, 0, 0, 0,
    0, 0, 0, 0, 0, 0, 0, 0, 0, 0, 0, 0, 0, 0, 0, 0,
    0, 0, 120, -19, 1012, 83, 31, 183, 79, 487, 396, 110, 201, 234, 125, -13,
    -49, -78, 123, 24, -5, 25, -164, 67, 78, 21, -98, 157, 97, 148, -468, 539,
    212, -282, 233, 184, -185, 278, 125, 178, 130, 147, 27, -12, -29, 190, 83, 29,
    109, -24, 101, 114, 79, -33, 192, 170, 0, 0, 0, 0, 0, 0, 0, 0,
    0, 0, 0, 0, 0, 0, 0, 0, 0, 0, 0, 0, 0, 0, 0, 0,
    0, 0, 0, 0, 0, 0, 0, 0, 0, 0, 0, 0, 0, 0, 0, 0,
    0, 0, 0, 0, 0, 0, 0, 0, 0, 0, 0, 0, 0, 0, 0, 0,
    0, 0, 0, 0, 0, 0, 0, 0, 0, 0, 0, 0, 0, 0, 0, 0,
    0, 0, 0, 0, 0, 0, 0, 0, 0, 0, 0, 0, 0, 0, 0, 0,
    0, 0, 0, 0, 0, 0, 0, 0, 0, 0, 0, 0, 0, 0, 0, 0,
    0, 0, 0, 0, 22, 67, 120, -93, 35, 109, -55, 325, 20, 1, -268, 325,
    196, -373, 128, -139, -91, 370, 8, -639, 250, 387, -348, 118, -233, 242, 395, -10,
    -177, 573, -261, -111, 0, -124, 0, -302, 28, -42, 300, 289, -268, 267, -242, -316,
    347, 21, -267, 219, 308, -66, 281, -252, 120, 347, 0, 0, 0, 0, 0, 0,
    0, 0, 0, 0, 0, 0, 0, 0, 0, 0, 0, 0, 0, 0, 0, 0,
    0, 0, 0, 0, 0, -9, -473, 287, 400, 560, 0, 170, 0, 297, -63, -161,
    292, 242, -370, 18, -288, -175, 194, -58, -321, 104, 252, -287, 295, -275, -161, 257,
    -15, -36, 132, 188, -162, -216, 38, 582, 109, -37, -310, 574, 129, -302, 100, -338,
    -28, 360, -21, -193, 389, 13, -236, 138, -220, -124, 372, 0, 0, 0, 0, 0,
    0, 0, 0, 0, 0, 0, 0, 0, 0, 0, 0, 0, 0, 0, 0, 0,
    0, 0, 0, 0, 0, 0, 0, 0, 0, 0, 0, 0, 0, 0, 0, 0,
    0, 0, 0, 0, 0, 0, 0, 0, 0, 0, 0, 0, 0, 0, 0, 0,
    0, 0, 0, 0, 0, 0, 0, 0, 0, 0, 0, 0, 0, 0, 0, 0,
    0, 0, 0, 0, 0, 0, 0, 0, 0, 0, 0, 0, 0, 0, 0, 0,
    0, 0, 0, 0, 0, 0, 0, 0, 0, 0, 0, 0, 0, 0, 0, 0,
    0, 0, 0, 0, 0, 0, 0, -17, -40, 280, -116, -395, -177, -186, 184, 257,
    15, -218, 254, 126, -122, 151, -331, -108, 200, -34, -244, 178, 225, -3, 104, -226,
    24, 200, -69, -276, 354, -208, -224, -210, -134, 200, 248, 55, -44, 333, 250, -82,
    10, -103, -75, 135, -25, -241, 134, 165, -98, 115, -205, -10, 196, 0, 0, 0,
    0, 0, 0, 0, 0, 0, 0, 0, 0, 0, 0, 0, 0, 0, 0, 0,
    0, 0, 0, 0, 0, 0, 0, 0, 24, 61, 901, 201, -180, -33, 232, 107,
    -359, 47, -7, 350, 258, -157, -19, -266, -119, 155, -31, -118, 4, 190, -27, 60,
    -244, 27, 117, -52, -256, 470, -41, 124, -138, -138, 117, 314, 61, 51, 323, 229,
    -118, 36, -183, -150, 46, -21, -167, 150, 216, -124, 99, -204, -89, 177, 0, 0,
    0, 0, 0, 0, 0, 0, 0, 0, 0, 0, 0, 0, 0, 0, 0, 0,
    0, 0, 0, 0, 0, 0, 0, 0, 0, 0, 0, 0, 0, 0, 0, 0,
    0, 0, 0, 0, 0, 0, 0, 0, 0, 0, 0, 0, 0, 0, 0, 0,
    0, 0, 0, 0, 0, 0, 0, 0, 0, 0, 0, 0, 0, 0, 0, 0,
    0, 0, 0, 0, 0, 0, 0, 0, 0, 0, 0, 0, 0, 0, 0, 0,
    0, 0, 0, 0, 0, 0, 0, 0, 0, 0, 0, 0, 0, 0, 0, 0,
    0, 0, 0, 0, 0, 0, 0, 0, 0, 0, 22, -507, 318, 76, -376, -279,
    142, 252, 179, -35, -165, 171, 124, -192, -60, -274, -163, 121, -123, -240, 15, 110,
    -13, 37, -279, -31, 90, -69, -642, -105, -185, -137, -170, -99, 194, 443, -34, -32,
    106, 180, -122, -105, -221, -122, 10, -99, -337, -6, 177, -146, 65, -302, -104, 115,
    0, 0, 0, 0, 0, 0, 0, 0, 0, 0, 0, 0, 0, 0, 0, 0,
    0, 0, 0, 0, 0, 0, 0, 0, 0, 0, 0, 32, -203, 203, 159, 33,
    -215, 148, -57, 258, -31, -143, 186, 129, -174, -64, -170, -119, 113, -112, -227, 16,
    65, -117, -13, -264, -28, 53, -27, -82, 1, -45, -264, -285, 119, -205, -277, -26,
    -143, 192, 160, -169, -57, -261, -185, -4, -66, -140, 220, 188, -172, 15, -152, -156,
    126, 0, 0, 0, 0, 0, 0, 0, 0, 0, 0, 0, 0, 0, 0, 0,
    0, 0, 0, 0, 0, 0, 0, 0, 0, 0, 0, 0, 0, 0, 0, 0,
    0, 0, 0, 0, 0, 0, 0, 0, 0, 0, 0, 0, 0, 0, 0, 0,
    0, 0, 0, 0, 0, 0, 0, 0, 0, 0, 0, 0, 0, 0, 0, 0,
    0, 0, 0, 0, 0, 0, 0, 0, 0, 0, 0, 0, 0, 0, 0, 0,
    0, 0, 0, 0, 0, 0, 0, 0, 0, 0, 0, 0, 0, 0, 0, 0,
    0, 0, 0, 0, 0, 0, 0, 0, 0, 0, 0, 0, 0, 119, 0, 227,
    -458, 0, 20, 153, 0, 3, -7, 130, 89, 183, -335, 749, -345, -135, 325, 296,
    -835, 886, 456, -161, 68, 204, -322, 54, 1, -36, 0, 0, 0, 0, 0, 0,
    0, 79, -137, -28, 285, 215, 435, 353, 293, 692, 329, -611, 709, 302, -298, 226,
    -323, -478, 469, 0, 0, 0, 0, 0, 0, 0, 0, 0, 0, 0, 0, 0,
    0, 0, 0, 0, 0, 0, 0, 0, 0, 0, 0, 0, 0, 0, 14, 0,
    0, 0, 0, 0, 0, 0, 263, 44, 0, -71, 659, -194, 205, -595, -250, 725,
    281, -311, 594, 329, -48, 176, -350, -672, 455, -26, 0, 0, -74, 0, 0, 0,
    0, 0, -24, -41, 737, 108, 4, 1152, -688, 225, 474, 193, -562, 573, 677, -591,
    493, -160, -150, 306, 0, 0, 0, 0, 0, 0, 0, 0, 0, 0, 0, 0,
    0, 0, 0, 0, 0, 0, 0, 0, 0, 0, 0, 0, 0, 0, 0, 0,
    0, 0, 0, 0, 0, 0, 0, 0, 0, 0, 0, 0, 0, 0, 0, 0,
    0, 0, 0, 0, 0, 0, 0, 0, 0, 0, 0, 0, 0, 0, 0, 0,
    0, 0, 0, 0, 0, 0, 0, 0, 0, 0, 0, 0, 0, 0, 0, 0,
    0, 0, 0, 0, 0, 0, 0, 0, 0, 0, 0, 0, 0, 0, 0, 0,
    0, 0, 0, 0, 0, 0, 0, 0, 0, 0, 0, 0, 0, 0, 0, 0,
    240, 432, 158, 214, 137, -31, 190, 252, -570, 141, -64, 360, 186, -44, 412, 37,
    324, 367, 177, -84, 309, 575, 322, 276, 47, 392, 348, 221, -27, 338, 21, -682,
    361, 310, 280, 631, 262, 186, 417, 463, 110, 223, -40, 249, 313, 150, -283, 416,
    379, 257, 336, -110, 375, 388, 0, 0, 0, 0, 0, 0, 0, 0, 0, 0,
    0, 0, 0, 0, 0, 0, 0, 0, 0, 0, 0, 0, 0, 0, 0, 0,
    0, 258, 835, 923, 153, -91, 348, 122, 73, 501, 267, 128, 434, 497, 105, 167,
    82, 173, 162, 153, 55, 296, 370, 377, 274, -13, 354, 282, 187, 270, 248, 189,
    346, 180, 124, 0, 221, 271, 242, 464, 440, 119, 151, 30, 175, 325, 136, -45,
    385, 249, 192, 342, -4, 302, 434, 0, 0, 0, 0, 0, 0, 0, 0, 0,
    0, 0, 0, 0, 0, 0, 0, 0, 0, 0, 0, 0, 0, 0, 0, 0,
    0, 0, 0, 0, 0, 0, 0, 0, 0, 0, 0, 0, 0, 0, 0, 0,
    0, 0, 0, 0, 0, 0, 0, 0, 0, 0, 0, 0, 0, 0, 0, 0,
    0, 0, 0, 0, 0, 0, 0, 0, 0, 0, 0, 0, 0, 0, 0, 0,
    0, 0, 0, 0, 0, 0, 0, 0, 0, 0, 0, 0, 0, 0, 0, 0,
    0, 0, 0, 0, 0, 0, 0, 0, 0, 0, 0, 0, 0, 0, 0, 0,
    0, 0, 0, 322, -84, 62, -347, 0, -386, 277, -218, -667, 283, 60, 525, 513,
    1, 64, -106, 35, 171, 102, -299, 190, 282, 26, -41, -149, 76, 173, 278, 0,
    0, 171, -35, 0, 305, -35, 109, 247, 19, 379, 353, -74, -91, -125, 68, 109,
    135, -110, 388, 259, 258, 135, -129, -103, 291, 0, 0, 0, 0, 0, 0, 0,
    0, 0, 0, 0, 0, 0, 0, 0, 0, 0, 0, 0, 0, 0, 0, 0,
    0, 0, 0, 0, 380, 0, -74, 165, -153, 23, -185, 0, 65, 243, 262, 428,
    426, 127, 125, -49, 138, 304, 161, 241, 201, 172, 76, 213, -71, -3, 397, 275,
    448, 561, 499, -178, 7, 59, -85, 249, 180, -60, 818, 345, 120, 59, -142, 276,
    259, 161, -79, 265, 274, 28, 308, -2, 40, 443, 0, 0, 0, 0, 0, 0,
    0, 0, 0, 0, 0, 0, 0, 0, 0, 0, 0, 0, 0, 0, 0, 0,
    0, 0, 0, 0, 0, 0, 0, 0, 0, 0, 0, 0, 0, 0, 0, 0,
    0, 0, 0, 0, 0, 0, 0, 0, 0, 0, 0, 0, 0, 0, 0, 0,
    0, 0, 0, 0, 0, 0, 0, 0, 0, 0, 0, 0, 0, 0, 0, 0,
    0, 0, 0, 0, 0, 0, 0, 0, 0, 0, 0, 0, 0, 0, 0, 0,
    0, 0, 0, 0, 0, 0, 0, 0, 0, 0, 0, 0, 0, 0, 0, 0,
    0, 0, 0, 0, 0, 0, 47, 0, 0, 0, 0, 0, 124, 0, 0, -456,
    -651, 198, 190, -343, 376, -238, -230, 596, -1, -636, -220, 359, -199, -172, -400, -1251,
    340, -240, 0, 0, 0, 0, 0, 0, 0, 0, -376, -781, 347, 344, -235, 289,
    -255, 89, 76, -269, -8, -137, 792, -561, 435, -549, -46, 434, 0, 0, 0, 0,
    0, 0, 0, 0, 0, 0, 0, 0, 0, 0, 0, 0, 0, 0, 0, 0,
    0, 0, 0, 0, 0, 0, 0, -165, 0, 0, 0, 0, 0, 0, -46, 0,
    -316, -707, 495, -90, -535, 844, -306, 135, 365, -128, 523, 97, 76, -517, -80, 254,
    -517, 352, -26, -251, 0, -285, -27, 0, 530, -50, 0, -391, -911, 715, 115, -47,
    -211, -702, -516, 247, 94, -20, 59, 382, -125, 185, -260, -759, 411, 0, 0, 0,
    0, 0, 0, 0, 0, 0, 0, 0, 0, 0, 0, 0, 0, 0, 0, 0,
    0, 0, 0, 0, 0, 0, 0, 0, 0, 0, 0, 0, 0, 0, 0, 0,
    0, 0, 0, 0, 0, 0, 0, 0, 0, 0, 0, 0, 0, 0, 0, 0,
    0, 0, 0, 0, 0, 0, 0, 0, 0, 0, 0, 0, 0, 0, 0, 0,
    0, 0, 0, 0, 0, 0, 0, 0, 0, 0, 0, 0, 0, 0, 0, 0,
    0, 0, 0, 0, 0, 0, 0, 0, 0, 0, 0, 0, 0, 0, 0, 0,
    0, 0, 0, 0, 0, 0, 0, 0, 0, -304, 336, 148, -15, 21, -574, -490,
    -6, 179, -238, -130, 97, 23, -522, -180, -483, -379, -47, -219, -897, 286, 3, -430,
    -180, -459, -199, 16, -403, -543, 0, 291, 93, 0, 593, -281, 125, -182, -312, -262,
    9, -406, -216, -19, -216, -197, -295, -347, 174, 61, -465, -259, -581, -361, -10, 0,
    0, 0, 0, 0, 0, 0, 0, 0, 0, 0, 0, 0, 0, 0, 0, 0,
    0, 0, 0, 0, 0, 0, 0, 0, 0, 0, -298, 0, 0, -382, -134, 20,
    90, -222, 0, -226, -284, 101, 77, -435, -133, -443, -351, -135, -280, -428, -266, 116,
    -303, -94, -465, 128, 39, -315, -181, -23, -72, 804, 149, 258, -21, 0, -199, -103,
    60, 53, -241, -176, -518, -104, -175, -305, -347, -113, -26, -253, -135, -546, -200, 11,
    0, 0, 0, 0, 0, 0, 0, 0, 0, 0, 0, 0, 0, 0, 0, 0,
    0, 0, 0, 0, 0, 0, 0, 0, 0, 0, 0, 0, 0, 0, 0, 0,
    0, 0, 0, 0, 0, 0, 0, 0, 0, 0, 0, 0, 0, 0, 0, 0,
    0, 0, 0, 0, 0, 0, 0, 0, 0, 0, 0, 0, 0, 0, 0, 0,
    0, 0, 0, 0, 0, 0, 0, 0, 0, 0, 0, 0, 0, 0, 0, 0,
    0, 0, 0, 0, 0, 0, 0, 0, 0, 0, 0, 0, 0, 0, 0, 0,
    0, 0, 0, 0, 0, 0, 0, 0, 0, 0, 0, 0, -269, -69, -364, -373,
    -2, -383, -270, -371, 0, -159, -429, -82, -23, -428, -330, -276, -387, -155, -321, -445,
    -153, -159, -349, -166, -516, -343, -188, -299, -821, -450, -184, -456, -141, -331, 293, 195,
    -231, -238, -120, -30, -312, -355, -364, -496, -317, -290, -229, 84, -69, -58, -164, -439,
    -344, -87, 0, 0, 0, 0, 0, 0, 0, 0, 0, 0, 0, 0, 0, 0,
    0, 0, 0, 0, 0, 0, 0, 0, 0, 0, 0, 0, 0, -264, 18, 682,
    -400, -600, 8, -253, -17, 350, -214, -401, 123, 2, -382, -301, -415, -383, -320, -299,
    -568, -115, 20, -467, -243, -448, -299, -54, -276, -308, -746, -228, 298, -260, -404, 87,
    -231, -259, -487, 77, -55, -370, -370, -602, -359, -260, -137, -290, 140, -5, -337, -269,
    -156, -337, 113, 0, 0, 0, 0, 0, 0, 0, 0, 0, 0, 0, 0, 0,
    0, 0, 0, 0, 0, 0, 0, 0, 0, 0, 0, 0, 0, 0, 0, 0,
    0, 0, 0, 0, 0, 0, 0, 0, 0, 0, 0, 0, 0, 0, 0, 0,
    0, 0, 0, 0, 0, 0, 0, 0, 0, 0, 0, 0, 0, 0, 0, 0,
    0, 0, 0, 0, 0, 0, 0, 0, 0, 0, 0, 0, 0, 0, 0, 0,
    0, 0, 0, 0, 0, 0, 0, 0, 0, 0, 0, 0, 0, 0, 0, 0,
    0, 0, 0, 0, 0, 0, 0, 0, 0, 0, 0, 0, 0, 0, 0, 264,
    0, 0, 0, 0, 0, 0, 0, 0, 264, 0, 167, 189, -374, 453, 174, -64,
    47, 280, -158, 579, -15, 102, 689, 249, -30, -96, 545, 0, 0, 0, 0, 0,
    0, 0, 0, -26, -421, 211, 215, -385, -27, 280, -361, -516, 282, -116, 123, -294,
    242, -357, -86, -444, 2, 0, 0, 0, 0, 0, 0, 0, 0, 0, 0, 0,
    0, 0, 0, 0, 0, 0, 0, 0, 0, 0, 0, 0, 0, 0, 0, 0,
    -219, 0, 0, 0, 0, 0, 0, 0, 0, -38, -93, 121, 285, -474, 391, -122,
    -318, -109, 123, -471, 331, 551, -381, 646, -432, -439, 304, 95, 0, 0, 0, -45,
    0, 0, 0, 0, 16, -577, 125, 85, -480, -289, -121, -156, -15, 31, -321, 420,
    840, -172, 18, 275, -369, -149, 0, 0, 0, 0, 0, 0, 0, 0, 0, 0,
    0, 0, 0, 0, 0, 0, 0, 0, 0, 0, 0, 0, 0, 0, 0, 0,
    0, 0, 0, 0, 0, 0, 0, 0, 0, 0, 0, 0, 0, 0, 0, 0,
    0, 0, 0, 0, 0, 0, 0, 0, 0, 0, 0, 0, 0, 0, 0, 0,
    0, 0, 0, 0, 0, 0, 0, 0, 0, 0, 0, 0, 0, 0, 0, 0,
    0, 0, 0, 0, 0, 0, 0, 0, 0, 0, 0, 0, 0, 0, 0, 0,
    0, 0, 0, 0, 0, 0, 0, 0, 0, 0, 0, 0, 0, 0, 0, 0,
    0, 0, -183, -355, 666, 74, -423, 0, -405, 0, 269, -185, -348, 150, -77, -326,
    158, -356, -61, 124, -172, -762, -91, 247, 52, 223, -315, 145, 195, -129, -61, 73,
    -911, -792, 0, -269, -28, 39, -31, -229, 463, 195, -75, 69, -215, -60, -33, -183,
    -727, -2, -4, -148, 25, -365, -26, 199, 0, 0, 0, 0, 0, 0, 0, 0,
    0, 0, 0, 0, 0, 0, 0, 0, 0, 0, 0, 0, 0, 0, 0, 0,
    0, 0, 0, 38, -168, 147, 125, -5, 390, -338, 0, 1, 51, -76, 45, 208,
    -254, -95, -291, -119, -83, -135, -562, 146, -72, -78, 13, -335, -71, -52, -75, 125,
    24, -606, -561, -156, -204, -36, 0, -52, 39, 414, 236, 97, -61, -367, 4, 7,
    -136, -774, 107, 86, 91, 87, -256, -40, 156, 0, 0, 0, 0, 0, 0, 0,
    0, 0, 0, 0, 0, 0, 0, 0, 0, 0, 0, 0, 0, 0, 0, 0,
    0, 0, 0, 0, 0, 0, 0, 0, 0, 0, 0, 0, 0, 0, 0, 0,
    0, 0, 0, 0, 0, 0, 0, 0, 0, 0, 0, 0, 0, 0, 0, 0,
    0, 0, 0, 0, 0, 0, 0, 0, 0, 0, 0, 0, 0, 0, 0, 0,
    0, 0, 0, 0, 0, 0, 0, 0, 0, 0, 0, 0, 0, 0, 0, 0,
    0, 0, 0, 0, 0, 0, 0, 0, 0, 0, 0, 0, 0, 0, 0, 0,
    0, 0, 0, 0, 0, -438, -112, 300, 239, 0, 45, 561, 0, -734, -182, -193,
    -122, -116, -495, -296, -331, -340, -272, -240, -363, -381, -144, -378, -215, -264, -217, -223,
    -178, -180, -98, -901, 339, 0, 280, -7, 0, -150, -499, -128, -122, -247, -260, 172,
    -348, -209, -166, -157, -358, -147, -371, -81, -398, -241, -74, 0, 0, 0, 0, 0,
    0, 0, 0, 0, 0, 0, 0, 0, 0, 0, 0, 0, 0, 0, 0, 0,
    0, 0, 0, 0, 0, 0, -436, -336, -288, -515, 0, -159, -662, 0, 164, -256,
    -339, -105, -19, -521, -511, -196, -300, -254, -225, -439, -221, -168, -174, -357, -543, -213,
    -207, -26, 328, -323, -306, 778, -273, 161, 395, 0, -253, -726, -5, -29, -174, -184,
    -460, -472, -170, -274, -259, -24, 104, -252, -99, -299, -313, 18, 0, 0, 0, 0,
    0, 0, 0, 0, 0, 0, 0, 0, 0, 0, 0, 0, 0, 0, 0, 0,
    0, 0, 0, 0, 0, 0, 0, 0, 0, 0, 0, 0, 0, 0, 0, 0,
    0, 0, 0, 0, 0, 0, 0, 0, 0, 0, 0, 0, 0, 0, 0, 0,
    0, 0, 0, 0, 0, 0, 0, 0, 0, 0, 0, 0, 0, 0, 0, 0,
    0, 0, 0, 0, 0, 0, 0, 0, 0, 0, 0, 0, 0, 0, 0, 0,
    0, 0, 0, 0, 0, 0, 0, 0, 0, 0, 0, 0, 0, 0, 0, 0,
    0, 0, 0, 0, 0, 0, 0, 0, -108, 0, 0, 0, 0, 0, 0, 0,
    0, 614, 0, -267, 542, -444, 215, -552, 273, 0, -126, -4, 0, 0, -30, 0,
    -3, -23, 195, -124, 0, 0, 0, 0, 0, 0, 0, 0, 120, 0, 201, 520,
    -337, 385, -2, -68, -23, 229, -1, -124, 0, 0, 216, 508, 420, 159, 0, 0,
    0, 0, 0, 0, 0, 0, 0, 0, 0, 0, 0, 0, 0, 0, 0, 0,
    0, 0, 0, 0, 0, 0, 0, 0, 0, 288, 0, 0, 0, 0, 0, 0,
    0, 0, -309, -37, -52, -154, -467, -154, -431, -954, 85, -108, -555, -184, 23, -329,
    -274, -574, 83, 23, 487, 0, 0, 0, -8, 0, 0, 0, 0, -171, -316, 2,
    -34, -711, -324, -72, -249, -315, 361, -142, -188, -87, -342, -796, -216, -454, -126, 0,
    0, 0, 0, 0, 0, 0, 0, 0, 0, 0, 0, 0, 0, 0, 0, 0,
    0, 0, 0, 0, 0, 0, 0, 0, 0, 0, 0, 0, 0, 0, 0, 0,
    0, 0, 0, 0, 0, 0, 0, 0, 0, 0, 0, 0, 0, 0, 0, 0,
    0, 0, 0, 0, 0, 0, 0, 0, 0, 0, 0, 0, 0, 0, 0, 0,
    0, 0, 0, 0, 0, 0, 0, 0, 0, 0, 0, 0, 0, 0, 0, 0,
    0, 0, 0, 0, 0, 0, 0, 0, 0, 0, 0, 0, 0, 0, 0, 0,
    0, 0, 0, 0, 0, 0, 0, 0, 0, 0, 0, -341, -882, -188, -276, -450,
    -126, -197, -108, -147, -119, -345, 61, -30, -379, -256, -458, -321, -207, -193, -475, -170,
    -13, -249, -138, -387, -147, -68, -277, -603, -254, -189, -542, 90, -495, -96, -203, -119,
    -114, 141, 70, -300, -206, -332, -154, -121, -211, -450, -137, -45, -261, -20, -482, 15,
    2, 0, 0, 0, 0, 0, 0, 0, 0, 0, 0, 0, 0, 0, 0, 0,
    0, 0, 0, 0, 0, 0, 0, 0, 0, 0, 0, 0, -279, 79, 145, 15,
    -160, -85, -205, -343, 281, -95, -115, 183, 198, -269, -139, -198, -271, -119, -153, -453,
    -27, 42, -97, -61, -301, 39, 35, -286, -687, -4, -114, 33, 4, 119, -441, -119,
    -104, -35, 236, 103, -80, -48, -184, 89, -82, -191, -405, -44, -69, -44, 43, -429,
    21, 115, 0, 0, 0, 0, 0, 0, 0, 0, 0, 0, 0, 0, 0, 0,
    0, 0, 0, 0, 0, 0, 0, 0, 0, 0, 0, 0, 0, 0, 0, 0,
    0, 0, 0, 0, 0, 0, 0, 0, 0, 0, 0, 0, 0, 0, 0, 0,
    0, 0, 0, 0, 0, 0, 0, 0, 0, 0, 0, 0, 0, 0, 0, 0,
    0, 0, 0, 0, 0, 0, 0, 0, 0, 0, 0, 0, 0, 0, 0, 0,
    0, 0, 0, 0, 0, 0, 0, 0, 0, 0, 0, 0, 0, 0, 0, 0,
    0, 0, 0, 0, 0, 0, 0, 0, 0, 0, 0, 0, 0, 0, -358, 319,
    -315, -279, 0, 330, 222, -20, -452, -14, -139, 212, 320, -292, -169, -226, -262, -43,
    -118, -364, 44, 15, -358, -21, -396, -199, 150, -326, -128, -484, -935, -402, 0, -514,
    -306, 8, -36, -258, 30, 260, -86, -49, 10, -89, -107, -158, -506, 96, 187, -47,
    171, -381, -25, 151, 0, 0, 0, 0, 0, 0, 0, 0, 0, 0, 0, 0,
    0, 0, 0, 0, 0, 0, 0, 0, 0, 0, 0, 0, 0, 0, 0, -157,
    -15, -45, -364, -38, 0, -345, -1, -22, -12, -69, 204, 307, -207, -72, -107, -225,
    52, -152, -564, 32, 33, -231, 93, -416, -194, 190, -273, -651, -384, 31, -307, 0,
    -38, -63, -454, -95, -358, 77, 257, 46, -92, -326, -103, 145, -127, -424, -160, -142,
    -148, 81, -402, 90, 194, 0, 0, 0, 0, 0, 0, 0, 0, 0, 0, 0,
    0, 0, 0, 0, 0, 0, 0, 0, 0, 0, 0, 0, 0, 0, 0, 0,
    0, 0, 0, 0, 0, 0, 0, 0, 0, 0, 0, 0, 0, 0, 0, 0,
    0, 0, 0, 0, 0, 0, 0, 0, 0, 0, 0, 0, 0, 0, 0, 0,
    0, 0, 0, 0, 0, 0, 0, 0, 0, 0, 0, 0, 0, 0, 0, 0,
    0, 0, 0, 0, 0, 0, 0, 0, 0, 0, 0, 0, 0, 0, 0, 0,
    0, 0, 0, 0, 0, 0, 0, 0, 0, 0, 0, 0, 0, 0, 0, 0,
    0, 0, 0, 0, 0, 0, 0, 0, 0, 0, -427, 0, 0, 338, -84, -392,
    0, -19, -75, -509, 0, 0, 0, -32, -44, -275, 878, -48, 0, 0, 0, 0,
    0, 0, 0, 0, 0, 320, -44, -117, 338, 407, 0, 0, -14, -387, -73, 0,
    0, 0, 486, -68, -519, 0, -98, 0, 0, 0, 0, 0, 0, 0, 0, 0,
    0, 0, 0, 0, 0, 0, 0, 0, 0, 0, 0, 0, 0, 0, 0, 0,
    0, 0, 0, 0, 0, 0, 0, 0, 0, 0, 0, -506, -13, 0, 110, -530,
    -7, -286, -484, 0, 981, -205, -144, -300, -594, -433, -423, -629, -38, -16, 0, 0,
    -16, -12, 0, 0, 0, 0, -327, -75, 0, -27, -289, -703, -114, 602, -165, 840,
    1172, 0, -340, -23, -340, 31, 453, -410, 0, 0, 0, 0, 0, 0, 0, 0,
    0, 0, 0, 0, 0, 0, 0, 0, 0, 0, 0, 0, 0, 0, 0, 0,
    0, 0, 0, 0, 0, 0, 0, 0, 0, 0, 0, 0, 0, 0, 0, 0,
    0, 0, 0, 0, 0, 0, 0, 0, 0, 0, 0, 0, 0, 0, 0, 0,
    0, 0, 0, 0, 0, 0, 0, 0, 0, 0, 0, 0, 0, 0, 0, 0,
    0, 0, 0, 0, 0, 0, 0, 0, 0, 0, 0, 0, 0, 0, 0, 0,
    0, 0, 0, 0, 0, 0, 0, 0, 0, 0, 0, 0, 0, 0, 0, 0,
    0, 0, 0, 0, -32, -588, -216, 437, -215, -42, -218, -39, 514, -71, -21, 141,
    295, -302, -249, -331, -263, -95, -160, -472, -201, -28, -226, -101, -312, -122, -44, -125,
    -870, -64, -66, -588, 101, -774, -231, 0, -94, -27, -46, 98, -120, -172, -146, -37,
    -21, -204, -466, -41, 138, -122, 31, -390, 187, 42, 0, 0, 0, 0, 0, 0,
    0, 0, 0, 0, 0, 0, 0, 0, 0, 0, 0, 0, 0, 0, 0, 0,
    0, 0, 0, 0, 0, -52, -295, 176, 281, -300, 39, 376, 0, 326, -152, -151,
    182, 228, -201, -189, -245, -148, 56, -178, -406, -27, 17, -40, 11, -271, 276, 77,
    -148, -120, 0, -87, -318, 0, -298, -235, 0, -176, 19, 50, 148, -66, -133, -170,
    -100, -20, -173, -468, -141, 3, 32, 103, -313, 76, 148, 0, 0, 0, 0, 0,
    0, 0, 0, 0, 0, 0, 0, 0, 0, 0, 0, 0, 0, 0, 0, 0,
    0, 0, 0, 0, 0, 0, 0, 0, 0, 0, 0, 0, 0, 0, 0, 0,
    0, 0, 0, 0, 0, 0, 0, 0, 0, 0, 0, 0, 0, 0, 0, 0,
    0, 0, 0, 0, 0, 0, 0, 0, 0, 0, 0, 0, 0, 0, 0, 0,
    0, 0, 0, 0, 0, 0, 0, 0, 0, 0, 0, 0, 0, 0, 0, 0,
    0, 0, 0, 0, 0, 0, 0, 0, 0, 0, 0, 0, 0, 0, 0, 0,
    0, 0, 0, 0, 0, 0, 0, -148, -16, 64, 554, 0, 12, 150, 0, 22,
    -45, -71, 365, 343, -194, -133, -322, -207, -33, -91, -243, -77, 37, -237, 53, -39,
    -149, 169, -170, -236, -422, -479, -401, 0, -232, -421, -90, 11, -218, 142, 403, -116,
    -155, -169, 141, 178, -99, -510, 98, 57, 91, 247, -234, 103, 224, 0, 0, 0,
    0, 0, 0, 0, 0, 0, 0, 0, 0, 0, 0, 0, 0, 0, 0, 0,
    0, 0, 0, 0, 0, 0, 0, 0, -144, -95, 167, 68, -109, 296, -721, -12,
    30, -46, 39, 195, 373, -109, 7, -133, 59, 148, -109, -31, -209, 385, 77, 204,
    -295, 32, 226, -270, 213, -296, -289, 162, 0, -344, 164, -174, -201, -40, 150, 234,
    21, -34, -209, 185, 111, -281, -403, -229, 172, -51, 236, -356, 207, 221, 0, 0,
    0, 0, 0, 0, 0, 0, 0, 0, 0, 0, 0, 0, 0, 0, 0, 0,
    0, 0, 0, 0, 0, 0, 0, 0, 0, 0, 0, 0, 0, 0, 0, 0,
    0, 0, 0, 0, 0, 0, 0, 0, 0, 0, 0, 0, 0, 0, 0, 0,
    0, 0, 0, 0, 0, 0, 0, 0, 0, 0, 0, 0, 0, 0, 0, 0,
    0, 0, 0, 0, 0, 0, 0, 0, 0, 0, 0, 0, 0, 0, 0, 0,
    0, 0, 0, 0, 0, 0, 0, 0, 0, 0, 0, 0, 0, 0, 0, 0,
    0, 0, 0, 0, 0, 0, 0, 0, 0, 0, -144, 0, 0, 0, 0, 15,
    0, 0, 12, -205, -262, 427, -374, -3, 80, -493, 245, 153, 131, -103, 283, 84,
    -78, 196, -212, 325, 631, 52, 0, 0, 0, 0, 0, 0, 0, 0, -129, -238,
    488, 687, -555, 538, -108, -333, 339, -195, -165, 0, 496, -382, 352, -445, -403, 320,
    0, 0, 0, 0, 0, 0, 0, 0, 0, 0, 0, 0, 0, 0, 0, 0,
    0, 0, 0, 0, 0, 0, 0, 0, 0, 0, 0, -734, 0, 0, 0, 0,
    0, 0, 0, 0, -556, -331, 0, 336, -173, 368, -383, -569, -238, -103, -272, 0,
    -176, 455, 389, -348, 328, 425, 102, 0, 0, 0, 0, 0, 0, 0, 0, -501,
    -278, 174, -221, -549, -91, -695, -193, 7, -115, -288, 0, 125, -294, 325, -142, -462,
    381, 0, 0, 0, 0, 0, 0, 0, 0, 0, 0, 0, 0, 0, 0, 0,
    0, 0, 0, 0, 0, 0, 0, 0, 0, 0, 0, 0, 0, 0, 0, 0,
    0, 0, 0, 0, 0, 0, 0, 0, 0, 0, 0, 0, 0, 0, 0, 0,
    0, 0, 0, 0, 0, 0, 0, 0, 0, 0, 0, 0, 0, 0, 0, 0,
    0, 0, 0, 0, 0, 0, 0, 0, 0, 0, 0, 0, 0, 0, 0, 0,
    0, 0, 0, 0, 0, 0, 0, 0, 0, 0, 0, 0, 0, 0, 0, 0,
    0, 0, 0, 0, 0, 0, 0, 0, 0, 0, 0, 0, 0, -107, 339, -220,
    393, 268, -306, 265, 227, -518, 169, 55, 513, 324, -23, 432, -101, 143, 508, 196,
    172, 1228, 422, 317, 608, -160, 349, 170, 380, -262, 304, 334, 453, 0, 149, 0,
    0, 271, 307, 654, 518, 230, 48, 13, 446, 188, 189, -77, 157, 487, 247, 328,
    4, 338, 515, 0, 0, 0, 0, 0, 0, 0, 0, 0, 0, 0, 0, 0,
    0, 0, 0, 0, 0, 0, 0, 0, 0, 0, 0, 0, 0, 0, 273, -251,
    157, -228, 0, 24, 1003, 0, 45, 205, 347, 281, 394, 81, 139, 278, 46, 254,
    116, 33, 337, -109, 185, 250, -39, 283, 380, 482, -284, 0, -524, 732, 0, 0,
    -107, 0, 273, 251, 392, 261, 161, 148, 193, 260, 517, 224, -48, 311, 312, 167,
    420, 67, 194, 476, 0, 0, 0, 0, 0, 0, 0, 0, 0, 0, 0, 0,
    0, 0, 0, 0, 0, 0, 0, 0, 0, 0, 0, 0, 0, 0, 0, 0,
    0, 0, 0, 0, 0, 0, 0, 0, 0, 0, 0, 0, 0, 0, 0, 0,
    0, 0, 0, 0, 0, 0, 0, 0, 0, 0, 0, 0, 0, 0, 0, 0,
    0, 0, 0, 0, 0, 0, 0, 0, 0, 0, 0, 0, 0, 0, 0, 0,
    0, 0, 0, 0, 0, 0, 0, 0, 0, 0, 0, 0, 0, 0, 0, 0,
    0, 0, 0, 0, 0, 0, 0, 0, 0, 0, 0, 0, 0, 0, 0, 0,
    83, -84, -12, 343, 0, 2, 624, 0, 822, 79, -357, 1079, 271, -54, -3, 162,
    -113, 29, 26, -398, 222, 350, 132, 41, -174, 11, -44, 72, -117, 207, 349, -163,
    0, 0, 0, 0, 154, 155, 327, 283, -19, 40, -87, 25, 191, 39, -295, 502,
    390, 147, 66, -165, 10, 287, 0, 0, 0, 0, 0, 0, 0, 0, 0, 0,
    0, 0, 0, 0, 0, 0, 0, 0, 0, 0, 0, 0, 0, 0, 0, 0,
    0, 154, 71, 0, 399, -57, 10, 987, 0, 664, 154, 4, 547, 311, -155, 178,
    -155, -187, 279, 48, -635, 121, 249, 145, 96, -187, -114, 29, 150, -449, 213, 369,
    -143, 0, 325, 0, 0, 158, -92, 188, 443, -146, -154, -206, -290, 49, 295, -152,
    378, 410, -108, 148, -45, -203, 440, 0, 0, 0, 0, 0, 0, 0, 0, 0,
    0, 0, 0, 0, 0, 0, 0, 0, 0, 0, 0, 0, 0, 0, 0, 0,
    0, 0, 0, 0, 0, 0, 0, 0, 0, 0, 0, 0, 0, 0, 0, 0,
    0, 0, 0, 0, 0, 0, 0, 0, 0, 0, 0, 0, 0, 0, 0, 0,
    0, 0, 0, 0, 0, 0, 0, 0, 0, 0, 0, 0, 0, 0, 0, 0,
    0, 0, 0, 0, 0, 0, 0, 0, 0, 0, 0, 0, 0, 0, 0, 0,
    0, 0, 0, 0, 0, 0, 0, 0, 0, 0, 0, 0, 0, 0, 0, 0,
    0, 0, 0, -50, 0, 0, 0, 0, 0, 20, 0, 8, -859, 136, 14, 86,
    472, -148, 219, 632, 33, 441, 64, 125, 338, 693, -195, -73, 764, 388, 0, 0,
    0, 0, 0, 0, 0, 0, 0, -575, 10, 349, 572, 533, 195, 0, 98, 353,
    705, 0, 5, 249, 0, 811, -679, -317, 534, 0, 0, 0, 0, 0, 0, 0,
    0, 0, 0, 0, 0, 0, 0, 0, 0, 0, 0, 0, 0, 0, 0, 0,
    0, 0, 0, 0, 0, 0, 0, 0, 0, 0, 0, 0, 0, 239, 0, 0,
    138, -17, -517, 0, -85, -436, -38, -246, 0, 0, 342, 0, -749, -382, 88, 0,
    0, 0, 0, 0, 0, 0, 0, 0, 862, 0, 0, 13, 51, 42, 0, -314,
    18, 395, 399, 0, 549, 0, 40, -379, 756, -124, 0, 0, 0, 0, 0, 0,
    0, 0, 0, 0, 0, 0, 0, 0, 0, 0, 0, 0, 0, 0, 0, 0,
    0, 0, 0, 0, 0, 0, 0, 0, 0, 0, 0, 0, 0, 0, 0, 0,
    0, 0, 0, 0, 0, 0, 0, 0, 0, 0, 0, 0, 0, 0, 0, 0,
    0, 0, 0, 0, 0, 0, 0, 0, 0, 0, 0, 0, 0, 0, 0, 0,
    0, 0, 0, 0, 0, 0, 0, 0, 0, 0, 0, 0, 0, 0, 0, 0,
    0, 0, 0, 0, 0, 0, 0, 0, 0, 0, 0, 0, 0, 0, 0, 0,
    0, 0, 0, 0, 0, 0, 136, 92, 232, -205, 111, -88, 201, 0, 237, 279,
    264, 783, 413, -223, -156, -322, -231, 62, 59, -259, 130, 0, -144, -49, -330, 36,
    -35, 1, -24, -164, 517, 10, 1, -248, -379, 0, 39, 104, 249, 236, -237, 21,
    -470, -158, 31, -34, -323, 262, -44, -45, 86, -422, 115, 130, 0, 0, 0, 0,
    0, 0, 0, 0, 0, 0, 0, 0, 0, 0, 0, 0, 0, 0, 0, 0,
    0, 0, 0, 0, 0, 0, 0, 176, 619, 118, 444, 167, 226, 657, 0, 193,
    40, -196, 544, 211, -201, -86, -106, -185, 72, -54, -248, 385, 121, -163, 51, -429,
    164, 231, 167, -505, 251, -64, -297, 0, -494, -51, 0, 52, 30, 344, 186, -74,
    241, -199, -24, 129, -6, -45, 97, 197, 130, 198, -370, 170, 357, 0, 0, 0,
    0, 0, 0, 0, 0, 0, 0, 0, 0, 0, 0, 0, 0, 0, 0, 0,
    0, 0, 0, 0, 0, 0, 0, 0, 0, 0, 0, 0, 0, 0, 0, 0,
    0, 0, 0, 0, 0, 0, 0, 0, 0, 0, 0, 0, 0, 0, 0, 0,
    0, 0, 0, 0, 0, 0, 0, 0, 0, 0, 0, 0, 0, 0, 0, 0,
    0, 0, 0, 0, 0, 0, 0, 0, 0, 0, 0, 0, 0, 0, 0, 0,
    0, 0, 0, 0, 0, 0, 0, 0, 0, 0, 0, 0, 0, 0, 0, 0,
    0, 0, 0, 0, 0, 0, 0, 0, 0, 153, 0, 255, 148, 0, 391, 181,
    0, 241, 155, 21, 256, 298, -149, -21, -25, -82, 53, 95, -210, 20, 87, 77,
    6, -174, 89, 173, 80, 395, 428, -201, -292, 0, -33, -234, 129, 117, 95, 368,
    308, 17, -43, 57, -30, 30, 115, -181, 240, 175, 70, 165, -276, 228, 240, 0,
    0, 0, 0, 0, 0, 0, 0, 0, 0, 0, 0, 0, 0, 0, 0, 0,
    0, 0, 0, 0, 0, 0, 0, 0, 0, 0, 182, -35, 842, 674, 0, 334,
    58, -605, 467, 143, 199, 436, 303, -32, 2, -87, -39, 223, 29, -95, 33, 147,
    80, 55, -109, 158, 227, 125, 832, 364, 80, -582, 185, 165, -69, -723, 80, 85,
    558, 346, 99, 108, -119, 129, 247, 6, -149, 149, 276, 171, 300, -270, 283, 346,
    0, 0, 0, 0, 0, 0, 0, 0, 0, 0, 0, 0, 0, 0, 0, 0,
    0, 0, 0, 0, 0, 0, 0, 0, 0, 0, 0, 0, 0, 0, 0, 0,
    0, 0, 0, 0, 0, 0, 0, 0, 0, 0, 0, 0, 0, 0, 0, 0,
    0, 0, 0, 0, 0, 0, 0, 0, 0, 0, 0, 0, 0, 0, 0, 0,
    0, 0, 0, 0, 0, 0, 0, 0, 0, 0, 0, 0, 0, 0, 0, 0,
    0, 0, 0, 0, 0, 0, 0, 0, 0, 0, 0, 0, 0, 0, 0, 0,
    0, 0, 0, 0, 0, 0, 0, 0, 0, 0, 0, 0, -276, 0, 0, 0,
    0, 0, 0, 0, 0, -182, 139, 67, 361, 352, 69, 0, 792, 111, 235, 178,
    375, 73, 285, 493, -140, 350, 664, 3, 0, 0, 0, 0, 0, 0, 0, 0,
    32, 212, 502, 725, 169, 215, -8, 115, 279, 132, 207, 0, 278, 387, 831, 449,
    -11, 91, 0, 0, 0, 0, 0, 0, 0, 0, 0, 0, 0, 0, 0, 0,
    0, 0, 0, 0, 0, 0, 0, 0, 0, 0, 0, 0, 0, 0, 0, 0,
    0, 0, 0, 0, 0, 0, 12, 467, 1, -431, -240, 15, 0, 0, 52, -145,
    -89, 0, 1, 186, 155, -350, 0, 279, 119, 0, 0, 0, 0, 0, 0, 0,
    0, 51, 0, 3, -254, -283, 7, 0, 0, 22, -920, 0, 0, 192, 0, -108,
    -494, -242, 616, 0, 0, 0, 0, 0, 0, 0, 0, 0, 0, 0, 0, 0,
    0, 0, 0, 0, 0, 0, 0, 0, 0, 0, 0, 0, 0, 0, 0, 0,
    0, 0, 0, 0, 0, 0, 0, 0, 0, 0, 0, 0, 0, 0, 0, 0,
    0, 0, 0, 0, 0, 0, 0, 0, 0, 0, 0, 0, 0, 0, 0, 0,
    0, 0, 0, 0, 0, 0, 0, 0, 0, 0, 0, 0, 0, 0, 0, 0,
    0, 0, 0, 0, 0, 0, 0, 0, 0, 0, 0, 0, 0, 0, 0, 0,
    0, 0, 0, 0, 0, 0, 0, 0, 0, 0, 0, 0, 0, 0, 0, 237,
    89, 492, 368, 452, 160, 66, 0, 176, 174, 28, 376, 407, -200, -66, 88, -107,
    177, 98, -177, 276, 280, -88, 58, -193, -16, 76, 282, 23, -383, 260, 61, 0,
    201, 0, 0, 125, -66, 506, 421, -172, 278, -227, -90, 226, 27, -186, 369, 12,
    77, 235, -289, 138, 305, 0, 0, 0, 0, 0, 0, 0, 0, 0, 0, 0,
    0, 0, 0, 0, 0, 0, 0, 0, 0, 0, 0, 0, 0, 0, 0, 0,
    289, 92, -76, 518, -3, 390, 773, 13, 537, 153, 145, 596, 299, -113, -109, -255,
    -177, 107, 11, -193, 238, 81, 141, 61, -211, 29, 208, 367, 273, -144, -116, 318,
    24, -179, -409, 0, 83, 110, 276, 314, -38, 105, -71, -22, 299, -1, -139, 258,
    203, 9, 243, -291, 185, 316, 0, 0, 0, 0, 0, 0, 0, 0, 0, 0,
    0, 0, 0, 0, 0, 0, 0, 0, 0, 0, 0, 0, 0, 0, 0, 0,
    0, 0, 0, 0, 0, 0, 0, 0, 0, 0, 0, 0, 0, 0, 0, 0,
    0, 0, 0, 0, 0, 0, 0, 0, 0, 0, 0, 0, 0, 0, 0, 0,
    0, 0, 0, 0, 0, 0, 0, 0, 0, 0, 0, 0, 0, 0, 0, 0,
    0, 0, 0, 0, 0, 0, 0, 0, 0, 0, 0, 0, 0, 0, 0, 0,
    0, 0, 0, 0, 0, 0, 0, 0, 0, 0, 0, 0, 0, 0, 0, 0,
    0, 0, 256, -38, 764, 131, 63, -87, 197, -66, 471, 181, 127, 389, 429, -48,
    68, 49, -56, 66, 61, -249, 169, 173, 137, -10, -117, 137, 223, 307, -27, -185,
    314, -318, 370, -277, 60, 9, 117, 49, 256, 247, 58, 84, -132, 110, 57, 81,
    -214, 266, 225, 199, 271, -170, 238, 293, 0, 0, 0, 0, 0, 0, 0, 0,
    0, 0, 0, 0, 0, 0, 0, 0, 0, 0, 0, 0, 0, 0, 0, 0,
    0, 0, 0, 230, 260, 916, 345, 250, 483, 171, 77, 666, 182, 167, 491, 417,
    44, 60, -10, 93, 331, 110, -163, 125, 269, 146, 264, -76, 175, 358, 318, 223,
    463, 326, -182, 170, 165, 315, 797, 176, 173, 484, 437, 156, 131, -7, 174, 338,
    141, -10, 373, 430, 249, 388, 83, 227, 454, -14, -199, 195, 180, -77, 360, -264,
    -385, 5, -30, 8, 328, 219, -203, 234, -149, 24, 240, 2, -263, -76, 239, -235,
    -28, -370, -361, 149, 9, -222, 158, 252, 34, 234, -282, -388, 385, -9, 67, 273,
    93, -639, 239, -181, -159, 344, 28, -185, 3, 352, -119, 0, -238, -140, 341, -60,
    -174, 160, 232, -279, 396, -361, -252, -223, -72, -39, 237, 420, -412, 162, -337, 0,
    40, -55, -260, -120, 180, -470, 64, -139, -420, 590, 7, -191, 98, 71, -65, 220,
    -205, -590, 132, 33, 48, 100, 83, -28, 405, -170, 65, 625, 40, -238, 72, 277,
    -296, 128, -246, -677, 300, 78, -263, 102, 262, 213, 543, -124, -802, 393, -64, 16,
    274, 14, -396, 315, -149, -145, 325, 6, -185, -98, 300, -9, 0, 84, -138, 431,
    -31, -257, 236, 133, -44, 218, -336, -452, 337, -50, 134, 186, 289, -244, 130, 0,
    0, 0, 23, -233, -10, 303, -178, 191, -150, 79, 422, -46, -70, 185, 149, -210,
    434, -119, -128, -102, -80, -80, 183, 155, -341, 535, -51, -314, 96, -68, -120, -153,
    110, -485, -123, -137, -283, 13, 8, -288, 104, 314, -434, 391, -143, -175, 189, -67,
    -133, 425, 259, -441, -171, -270, -194, -94, -60, -151, -64, 0, 0, 0, -351, -50,
    58, -142, -150, 141, 109, -148, 609, -129, -21, -242, -53, 80, 379, -83, -445, 3,
    -360, 0, 30, 11, -364, -53, 150, -430, 25, -62, -430, 292, -37, -308, 115, 299,
    207, 392, -291, -406, 434, -103, -22, 409, -102, -424, 240, -221, -401, 357, -10, -356,
    44, 229, -357, -45, -93, -326, 397, 27, 84, 35, 262, 225, 189, -105, 67, 37,
    41, 381, 306, 190, -241, 428, -91, 309, 448, 42, 71, 212, 377, 179, 0, -97,
    185, 443, -86, -132, 91, 25, -338, 202, -183, -670, -168, -109, -112, 892, 187, -429,
    167, -449, 0, 214, -42, -315, -286, 137, -487, -215, -234, -249, 253, 17, 195, 229,
    17, -210, 202, -330, -428, 116, 135, 96, 289, 279, -71, 359, 53, 960, 501, 12,
    -272, 124, 322, 10, 50, -126, -273, 258, -75, -274, 168, 190, 102, 518, -205, -304,
    175, -123, 17, 144, -130, -559, 241, -200, -206, 305, -15, -178, -209, 95, -92, 0,
    -199, -51, 352, -75, -263, 169, 27, -155, 130, -196, -710, -30, -28, 229, 327, 354,
    -225, -286, 0, 0, 0, -6, -222, -171, 266, -108, 20, -231, 60, 353, -48, -131,
    151, 30, 48, 459, 64, -221, 276, -76, -215, 311, -12, -445, 664, -395, 73, 426,
    -62, -288, -77, 136, -416, -18, -336, -447, 84, -90, -47, 96, 351, 474, 841, -111,
    -339, 1082, -96, 253, 530, 388, -420, -126, -261, 0, -340, 0, 0, 0, 0, 0,
    0, 0, 0, 0, -43, -19, 323, 61, 10, 657, -429, -561, -287, 23, 387, 413,
    380, -231, -185, -108, 0, 180, 18, -49, -115, 277, 51, 237, -135, 35, 438, 0,
    -139, 278, 253, -373, 483, -242, -621, -418, -18, -50, 303, 139, -439, 269, -291, -27,
    299, 73, -242, -67, 261, -366, 200, 60, -190, 270, 30, -34, 171, 297, 179, 570,
    -114, -94, 360, 14, 232, 410, 179, -314, 331, 113, 223, 503, 128, -115, 177, 570,
    -291, 0, 320, -416, 562, -62, 111, -126, 93, 60, 120, 63, -142, -227, -62, -254,
    153, 165, -492, -265, -278, 0, 66, -99, -170, -409, 97, -364, -222, -78, -376, 146,
    6, -114, 144, -17, -437, 187, -84, -459, -91, 36, 1, 86, 226, -127, 378, -61,
    -118, 513, 152, -253, 70, 285, -518, 158, 2, -467, 699, -10, -401, -65, 194, 208,
    382, -8, -458, 224, -19, 1, 154, 245, -593, -249, -362, -395, -216, -131, 0, -290,
    234, -147, 0, -335, -12, 120, 1, -133, 31, 63, -44, 20, -689, -498, -205, 0,
    0, 0, 0, 0, 0, 0, 0, 0, 12, -192, -398, 320, 400, 0, -464, 15,
    190, -53, -208, -308, 204, -103, 361, -88, -261, 157, -37, -169, 194, 124, -203, 449,
    14, -219, 19, -275, -187, -208, -33, -946, -876, -593, -295, 129, 7, -173, 92, 36,
    -5, 417, 21, -34, 638, -3, 161, 209, 268, -471, -229, -290, -377, -47, -93, 124,
    -213, 0, 0, 0, -358, 93, 147, 4, -184, 217, 143, -174, 466, -85, -502, -289,
    38, 151, 314, 244, -376, -159, -161, 0, -111, 66, -114, -91, 293, -400, 27, 69,
    -279, 425, 195, -18, 220, 293, 171, 500, -197, -653, 627, 299, 477, 175, 681, -130,
    423, 14, 697, 360, 344, 290, 339, 78, -61, 81, -63, -121, 460, 76, -336, 279,
    382, 509, 667, -251, -309, -23, 16, 193, 223, -83, -441, 239, -95, 405, 336, 134,
    212, 599, 390, 220, 0, 40, 303, 346, 191, 266, 308, 508, 211, 495, 411, 215,
    413, 99, 236, 182, 251, -393, -79, 150, 0, -196, 58, 99, 383, 164, -152, 277,
    -183, -230, 367, 338, 411, -138, 51, 677, 267, -551, -99, 149, 431, 457, 1045, 441,
    303, -120, 111, 15, 672, 279, 57, 275, 170, -593, 10, -234, 23, 107, 631, -156,
    501, 0, 0, 143, -155, -253, 340, 300, 616, 297, 112, -158, 352, -215, 580, 549,
    454, 104, 183, 491, -193, 0, -517, 393, 399, 350, 232, -88, 597, -47, 412, 247,
    -515, -922, 440, -58, -482, 596, -67, 244, 0, 0, 0, 159, 307, 10, 401, 346,
    648, -231, 193, 458, 149, 49, 498, 400, 78, 316, 100, -369, 429, 33, 156, 266,
    -140, -582, 392, -48, 121, 503, 177, 93, 81, 344, -621, -17, -358, -492, 247, 65,
    -19, 308, -1206, 435, 271, 265, -746, 152, 14, 212, 331, 183, -650, 54, -333, 13,
    64, 33, -336, 15, 0, 0, 0, 378, 99, 211, 153, 77, 596, -29, -418, 298,
    545, -293, -189, -7, 207, 345, -77, -239, 64, 19, 0, 76, 180, -272, -26, 288,
    -189, 90, -38, 38, 299, 58, -275, 521, 244, 512, 185, -50, -90, 199, -59, 292,
    -378, 139, -145, -44, -119, -101, -118, 144, 228, 124, 205, -105, 155, -38, -368, 285,
    170, 161, 254, 110, 244, 538, 16, -754, 366, 92, 384, 249, 135, 55, 692, -426,
    441, 260, 345, 523, 171, 0, -15, 0, 288, 916, 481, 109, 83, -486, -191, -229,
    117, 157, -46, 59, -28, -25, -12, 420, -512, -118, -178, 0, 249, 174, 28, 82,
    186, -632, 195, -97, -160, 147, 63, 84, 179, -92, -218, 160, 89, -379, -88, 160,
    486, 110, 445, -28, 835, -203, 482, 332, 193, -226, -214, 241, -427, 47, -25, -169,
    112, 32, -224, 99, 121, 115, 387, -46, -48, 261, -109, 143, -11, -255, -583, 273,
    120, 389, 358, 282, 234, 100, 416, 378, 0, 31, 454, 287, 214, 379, 154, 200,
    394, 544, 270, 247, 77, 372, 443, 971, 500, 58, -350, 0, 0, 0, 301, 439,
    129, 335, 506, 217, 72, 547, 326, 214, 371, 515, 406, 478, 142, 337, -89, 272,
    31, 175, 660, 71, 370, 216, -36, -141, 531, 110, -281, 234, 182, -625, -287, -222,
    -409, 65, 389, 642, 579, -44, -9, 926, 252, -78, 41, 253, 305, 159, 449, -266,
    221, -173, 0, 223, 0, 0, 0, 0, 0, 0, 0, 0, 0, 197, 358, 508,
    -10, 83, 597, 58, 434, 41, 323, 577, 676, 112, 66, 90, 99, 0, 702, 254,
    194, -2, 350, 152, 256, 216, 447, 425, 235, 286, 576, 707, 699, 100, -51, 235,
    1005, 370, 470, 192, 237, -223, 325, 146, 729, 752, 203, 215, 647, 752, -141, 700,
    411, 77, 479, 385, 175, 207, 435, 434, 1040, -132, -110, 478, 179, 63, -282, 188,
    -317, 289, -223, 521, 569, 386, 481, 447, 330, 96, 0, -268, 627, 8, 162, -129,
    355, 529, 417, -71, 874, 999, 261, 131, -339, 57, 160, -252, 208, -174, 0, 415,
    65, -151, 89, 509, -403, 280, -48, -320, 456, 522, -108, -137, 187, 128, -105, -254,
    -47, 0, 226, 355, 293, 406, 143, -8, 188, 0, 673, 360, 527, 295, 607, -114,
    295, 118, -435, 1162, 387, -192, -51, -426, 414, 202, 99, -215, 318, 295, 108, 184,
    233, -119, 200, -139, 0, -289, 41, 397, 431, 0, 0, 0, -256, -180, 17, 0,
    0, 0, 0, 0, 0, 0, 0, 0, 0, 0, 0, 0, 0, 0, 0, 0,
    0, 0, 0, 0, 0, 0, 0, 0, 0, 0, 262, -150, 60, 469, 193, 953,
    -250, 84, 320, 261, 167, 135, 151, -175, 418, 89, 135, 218, 251, 255, 132, 445,
    -282, -96, 282, -320, 351, 429, 326, 547, 344, 603, 386, 271, 0, 352, 179, 148,
    505, 511, -391, -1, 12, 336, -17, 88, 492, 131, 0, 0, 0, -397, 207, 273,
    85, -54, 378, 268, -61, 417, 391, -642, -115, 486, 638, 748, 534, 1, 116, 582,
    0, 165, 232, 329, 335, 531, 135, 554, 304, 524, 430, -212, -217, 168, 48, -546,
    289, -448, -217, 72, -375, -161, -166, 258, -521, -29, 283, -269, 751, -245, -136, -830,
    -55, -113, -590, -660, -422, 78, -255, -161, -239, 317, -453, 507, -430, -114, -217, -148,
    -191, 79, 164, -528, 38, -434, -793, 25, -250, -243, -332, -412, 266, 0, -622, 18,
    28, -154, -268, 337, -94, -223, 666, 99, -143, -731, -138, -804, 27, 304, -250, -292,
    -675, 0, -156, -106, -446, -221, 84, -291, -510, 49, -302, 324, -186, -480, -157, -158,
    -839, 552, -850, -151, -20, -140, -97, 13, 186, -690, 232, 26, 293, 736, -111, -168,
    -273, -1, -167, -402, 51, -133, 547, -211, -533, -9, -497, 127, -196, 17, 260, 453,
    -241, -119, 292, -76, -375, 254, -12, -234, 370, -19, -166, -25, 621, -411, 0, 159,
    -120, 467, -78, -396, 244, 177, -88, 706, -873, -23, -538, -100, -39, 166, 315, -182,
    -119, 0, 0, 0, 101, -121, -348, -385, -181, 51, 101, -252, 675, -364, 273, -390,
    129, 191, 112, -139, -154, -694, -317, -33, 41, 29, 14, 95, -260, 223, -279, -424,
    27, -396, 294, -641, -405, -279, -151, -558, -288, -236, 176, -248, -405, 538, -432, -259,
    0, -206, 107, 227, 109, -510, -158, -241, -340, -77, -553, 321, 391, 0, 0, 0,
    -189, -156, 116, -675, -281, -139, 213, -679, 492, 0, 0, 0, -515, -125, -420, 170,
    -221, -434, 0, 0, 375, -391, -370, -829, 132, -486, -783, -77, -421, -11, -160, -398,
    53, -234, -932, 230, -149, -729, -766, -239, -410, -88, -107, -502, -146, -579, -702, -318,
    -311, -117, -399, -216, -519, -1009, -247, -197, 181, -224, -160, 75, -868, -151, -453, -473,
    -207, -664, -128, -102, 359, -37, -501, 168, -160, -664, 268, 6, -131, 135, 79, -436,
    0, -52, -43, 456, 55, -32, 118, 8, 125, 347, -418, -558, -517, -461, -286, -146,
    272, -39, -494, -586, 0, -206, 121, -21, -418, 108, -978, -599, 285, -412, 751, -221,
    -655, 169, -123, -404, -94, -587, -828, -382, -270, -212, -320, -62, -327, 133, -163, -48,
    495, -29, -255, -384, 91, -610, -12, 165, -565, 523, -172, -274, -327, -339, -106, 4,
    347, -706, 329, -173, -331, 67, 106, -594, -541, -492, -618, -199, -625, -262, -547, -194,
    -371, 0, -527, -249, -18, -426, -751, -186, -103, -345, 359, 1, -749, 146, -206, -106,
    449, -39, -296, -526, 0, 0, 0, -310, -247, -167, 84, -208, -299, -311, -372, 49,
    -365, 63, 109, -22, -89, 377, -276, 312, 17, -310, -261, -215, 295, -350, -657, -16,
    -278, 408, -9, -211, -756, -143, -478, 0, -515, -44, -97, 0, 0, 0, 0, 0,
    0, 0, 0, 0, 0, 0, 0, 0, 0, 0, 0, 0, 0, 0, 0, 0,
    0, 0, 0, 0, 0, 0, -323, -139, 10, -84, -189, -190, 0, 0, 0, 26,
    -238, -161, 264, -691, -505, 0, 0, 0, -343, -251, -31, 296, 603, 0, -212, -262,
    -25, -115, -708, 675, 104, 35, -399, 5, -246, -322, -179, 35, -359, 304, -144, 486,
    -250, -170, 130, -27, 382, -371, 317, -236, 87, -66, -146, 157, -208, 654, 44, -138,
    -215, -48, -21, -356, 186, -220, -5, 15, -1, -45, 309, 165, -282, 375, 249, 386,
    -289, 186, -339, 0, 21, 530, 588, -166, -473, 74, -261, -13, -49, 0, -210, 0,
    -296, -161, -456, -155, -182, -754, -108, 0, -68, 305, -143, -375, 391, -1101, -394, 306,
    -383, -101, -209, -521, -149, -438, -758, 85, -49, 177, -654, -24, -242, 342, 93, -167,
    109, 8, -171, 230, 88, -531, -453, -313, -603, -52, 318, -90, 210, -150, -285, -535,
    -515, 2, 133, 209, -525, 449, -257, -229, -44, 89, -562, -656, -270, 10, 202, -299,
    -340, -578, 111, -413, 0, -231, -173, -313, -421, -496, -443, -605, 129, 20, -189, -135,
    -121, 0, 0, 0, 0, 0, 0, 0, 0, 0, -323, -530, -486, 15, 112, 0,
    -319, -94, 160, -116, -71, -15, -59, -41, 334, 43, -135, 166, -238, 85, 209, -51,
    -201, 629, 209, -91, 761, -70, -168, -530, 83, -413, -445, -19, -945, 187, -72, -287,
    -533, -351, -193, 334, 154, -299, 267, -240, -197, 145, 142, -424, -731, -309, -243, -409,
    -402, -509, -405, 0, 0, 0, -529, 414, -76, -100, -140, 189, -60, -255, 526, -62,
    -557, 341, -134, -131, 185, 177, -331, -524, -292, 0, -392, 46, -30, -82, 287, -416,
    -403, 233, -213, 486, -274, -405, 91, 392, -599, 360, -58, -197, -136, -227, 275, 269,
    131, -267, 125, -448, 215, 350, -213, -392, -20, 271, -341, 186, -16, -217, 153, -175,
    -253, -15, -171, -57, 564, -387, 150, 13, -77, 107, 267, 137, -330, 432, -387, 208,
    567, -55, 217, -135, -51, -316, 0, -832, -6, 423, -244, -456, -97, -26, -575, 103,
    -154, -285, -233, -37, 255, 422, 549, -393, 64, -350, 0, 416, -238, -590, -463, 205,
    -715, -237, -408, -170, 331, -351, -324, 294, -131, -124, 360, -197, -1081, -70, 8, 16,
    153, 213, -8, 324, -15, 64, 244, -351, -504, 183, -312, 410, -81, -146, 196, 158,
    -214, -339, 115, 14, -75, -87, -131, -788, 786, -256, -123, 83, -101, -549, 231, -269,
    0, 483, -306, 5, -53, 683, -342, 0, -321, 312, 280, -182, -408, -3, 146, 165,
    902, -24, -164, -131, 13, 129, 618, 289, -316, -257, 0, 0, 0, -105, -373, -155,
    152, 308, 309, -544, -36, 153, -139, -351, 85, 67, -451, 864, -62, -99, -266, -108,
    -72, -42, 197, -387, 281, -426, -276, 271, -265, -498, -94, -438, -501, 109, -642, -599,
    -518, -113, -235, -339, -219, -221, 571, -87, -28, -284, -224, 102, 426, 272, -698, -461,
    -298, 103, -32, -74, -311, -244, 0, 0, 0, -536, -67, -128, -294, -595, -289, 74,
    -165, -60, -748, -648, 137, -23, -35, 162, 219, -268, -58, -527, 0, 270, -220, -247,
    -179, 270, -282, -205, -114, -343, 307, -28, -214, -97, -178, 119, 254, -270, -444, 40,
    112, 156, 488, 220, -114, 503, -98, 193, 75, -42, -469, -7, 490, -240, 175, -304,
    -153, 681, -15, -162, 44, -88, -385, 513, -364, -443, -86, 67, 316, 352, 323, -109,
    469, -170, 634, 246, 33, 117, 317, 144, 14, 0, -608, 350, 356, -50, -239, -25,
    455, -265, 543, -384, -348, -357, -36, 385, -143, 393, 75, 74, 204, 0, 388, -262,
    -272, -478, 374, -603, -115, -50, -222, 319, 53, 561, -264, 265, -157, 529, -262, -630,
    16, 293, -29, 785, 454, -326, 905, -407, 455, 338, 213, -52, 509, 195, 476, 517,
    279, -55, 588, 28, 20, -100, -76, 479, 427, -186, -193, 152, 49, 410, 156, 135,
    -517, 338, -436, 393, 442, -63, 161, 18, -89, 284, 0, -217, 310, 562, -71, -134,
    33, 130, 554, 234, -128, -456, -274, 248, 706, 373, 352, 149, 71, 0, 0, 0,
    75, -56, 83, 532, 318, 468, -280, 459, 743, -105, -219, -115, -137, -616, 365, 591,
    126, 11, 103, -364, 45, 334, -278, 518, 351, 104, 366, -133, -91, -172, -98, -98,
    -122, -390, -690, 9, 43, 124, 1245, 222, 302, 186, 333, 132, 206, 138, 423, 425,
    493, -148, 13, 109, 0, -103, 0, 0, 0, 0, 0, 0, 0, 0, 0, 57,
    -155, -334, -48, -227, -434, -394, 118, -81, 295, 842, 520, 231, -45, 106, -635, 0,
    363, -30, 68, -337, 740, 323, 392, -388, 432, 629, -300, -264, 16, -150, -282, 189,
    -222, -522, -40, -102, -142, -143, 20, -394, -151, -396, 408, 940, -129, -114, -272, -100,
    -25, -91, -89, -220, -36, -236, -484, 130, -16, 43, 44, -50, 89, 36, -365, 51,
    123, -203, -512, -25, -417, -82, 492, -272, -224, -320, 579, 549, 0, -499, -175, 839,
    -382, 60, 193, 38, 62, 283, 296, -130, 235, -288, -173, -445, -150, -157, -332, -84,
    0, -43, -37, -16, -1000, 135, 30, -401, -243, -554, 67, -194, -79, 155, 63, -242,
    273, -262, -287, -82, -3, 110, 88, 64, -70, 52, -157, 295, 494, -62, -366, 58,
    -39, -453, -362, 133, -352, 116, -103, -341, 51, 327, 350, 76, -240, -660, 349, -149,
    87, -112, 324, -391, -312, -345, -7, -285, -5, -394, -234, 110, 65, 0, -54, 119,
    290, -21, 120, 334, 30, -419, 10, -55, -102, -108, 0, 0, 0, 0, 0, 0,
    0, 0, 0, 96, -444, -274, 329, 434, 0, -304, 388, 318, -56, -353, -262, 244,
    -247, 184, -566, -311, 55, -356, -482, 11, -601, -677, 570, 187, 136, 516, -162, 48,
    -220, -151, -469, -614, -7, -625, 193, -147, -408, -97, 57, 63, 840, -93, 16, 396,
    -116, 252, 376, 200, -366, -253, -624, -198, 17, -164, -1071, -407, 0, 0, 0, -183,
    223, -111, -146, 10, -44, -174, -101, 21, 117, -296, -312, -29, 372, -100, 400, -221,
    12, -152, 0, 68, -165, -260, -155, 358, -184, 139, -19, -117, 511, -320, -261, -242,
    135, -527, 580, -468, -379, 424, 365, 217, -377, 2, -406, -324, -457, -571, 559, -9,
    -751, -240, 26, -279, 274, -127, -70, 460, -193, -446, 475, 417, -768, 799, 8, 81,
    338, -476, -38, 411, -332, -552, 75, -551, -310, 471, -297, -94, -10, 521, -448, 0,
    -517, 1226, 500, -313, -277, 181, -65, -278, 856, 397, 164, -360, 28, 153, -291, -211,
    3, -84, 166, 0, 893, 18, -111, -271, 210, -245, -170, -312, -241, 35, -227, -417,
    176, 423, 124, 279, -336, 45, -231, 158, -40, 344, 344, -292, -284, -733, -203, 832,
    33, 402, 368, 322, -373, -798, -92, -169, 131, 545, -102, 48, 0, -260, 1241, -276,
    66, -213, -162, 281, -226, 323, -104, 569, -25, 574, 543, 97, 321, 202, 0, 71,
    0, 232, 766, 655, -459, -332, 186, -447, -185, 396, 241, 284, -78, 462, 597, 421,
    378, -210, 381, 0, 0, 0, 86, -543, -761, 54, 259, 564, 173, 262, 587, -410,
    -173, -571, -16, -11, 695, -341, -344, 561, -400, 224, -435, 68, -341, -34, -23, -504,
    -105, 27, 15, -518, -120, -700, 184, -665, -855, -337, -59, 532, -172, 461, -61, 202,
    -266, 0, -80, 22, 458, 257, 333, -350, -231, 11, 32, 203, 27, -98, 722, 0,
    0, 0, -198, 446, 333, -418, -471, -142, -535, -332, 201, -386, -344, -43, 36, 372,
    266, -88, -487, -42, -170, 0, -269, -110, -118, -87, 406, -127, 33, -150, -242, 415,
    -398, -525, -259, 6, -356, -278, -543, -548, -217, -430, -287, -98, -466, -689, -264, -695,
    -457, -275, -369, -579, -673, -281, -805, -507, -633, -733, 44, -173, -194, 274, -285, 108,
    -170, -551, -344, -23, -52, 139, 148, -55, -390, 458, -486, 297, 342, -387, 59, -39,
    22, -91, 0, 261, 15, 425, -480, -165, -163, -311, -657, 113, -749, -458, -150, -267,
    -58, -57, -9, -436, 3, -258, 0, 265, -259, -147, -46, -225, -421, -186, -140, -376,
    96, -326, -502, -177, -324, -423, -231, -605, -838, -411, -173, -149, -266, 136, -302, 148,
    -403, 363, 358, -264, -444, -275, -209, -518, -82, -232, -302, -110, -373, -627, -413, -223,
    -404, 77, -393, -516, -222, -541, -467, -442, -572, -690, -648, -625, -553, -503, -631, -495,
    -538, -136, -467, 0, -446, -326, -293, -472, -530, -418, -351, -397, -447, -248, -120, -169,
    -355, -81, 385, -159, -608, -606, 0, 0, 0, -547, -429, -381, -183, -365, 108, -541,
    -16, 33, -438, -203, -248, -274, -378, 8, 52, -506, -244, -378, -310, -640, -380, -649,
    18, -194, 174, 28, -423, -442, -348, -216, -693, -363, -526, -488, -590, -361, -888, 46,
    -281, 99, 55, -594, -237, 373, -315, 171, 297, 15, -610, -315, -214, 0, -362, 0,
    0, 0, 0, 0, 0, 0, 0, 0, -600, -572, -450, -620, -571, 107, -575, -709,
    -432, -255, 158, -170, -145, -332, -265, -135, 0, 270, -329, -236, -567, 189, -398, -12,
    -434, 126, 102, -384, -390, -98, 99, -243, -53, -165, -71, -68, -203, -171, -421, -284,
    -592, 26, -531, -504, 243, -219, -140, -69, 70, -424, -225, -114, -449, -97, -249, -198,
    -115, 207, 132, -461, -45, 345, -278, -268, 449, 164, -126, -394, 223, -396, 254, -216,
    -423, -323, -145, 61, 495, 0, -318, -181, 403, -294, -322, -573, -193, -618, -405, -88,
    -469, -156, -308, 232, 67, -678, -693, -443, 95, 0, 260, 27, -744, -712, -15, -95,
    -671, -493, -180, -125, -62, 444, -494, -162, -992, 184, 607, 581, 164, 141, 100, 148,
    0, 146, 444, -499, 0, 400, -514, 460, 19, -354, -82, -233, -220, 482, 88, -513,
    -679, -359, 72, 206, 964, -329, 15, 68, -237, 107, 153, 431, -356, -351, -745, -83,
    -255, -27, -87, 238, 0, 0, 0, 35, -81, 117, 0, 0, 0, 0, 0, 0,
    0, 0, 0, 0, 0, 0, 0, 0, 0, 0, 0, 0, 0, 0, 0, 0,
    0, 0, 0, 0, 0, -416, -467, -514, -193, -424, -392, -499, -92, -303, -392, -248,
    -418, -733, -121, -295, -542, 368, 399, -150, -392, -91, -539, -652, -696, 209, -324, 6,
    66, -402, -421, 681, 156, 299, -226, 47, 521, 101, 447, 763, 285, -267, -150, -33,
    453, 58, -103, -162, 148, 0, 0, 0, -356, 639, -467, -296, -453, -280, 50, 26,
    127, -656, -716, -749, -41, 543, 152, 68, 8, -142, 0, 0, 246, -343, -195, -378,
    436, 19, 181, -267, 383, 356, -541, -462, -210, -476, -501, -303, -795, -670, -205, -224,
    -65, 334, -704, -658, 564, -929, -127, 404, -385, -384, -55, -141, -314, -82, -472, -182,
    -352, -334, -342, -255, -127, -636, -106, 5, 6, 126, -337, -394, -142, -133, -886, 290,
    -941, 93, 609, -411, -398, -1437, 150, 34, 0, -303, -40, 699, -462, -567, 259, 30,
    -436, 123, -112, -441, -209, 1, -383, 470, 248, -1004, -763, -251, 0, 641, -102, -315,
    -480, -480, -722, -66, -328, -845, 17, -351, -625, 123, -568, -610, 162, -141, -523, -111,
    -242, 566, -308, 117, -66, -68, -590, 26, -46, -447, -56, -340, -131, -387, -58, 100,
    -39, 189, -468, -637, 171, 130, 244, 174, -403, -218, 106, -314, -349, -242, -59, -554,
    1, -584, 209, 154, -235, -213, -704, 120, -169, 0, -628, -147, 531, -284, -541, -178,
    150, -839, -404, -263, -165, -460, 370, 151, 211, -52, 547, -276, 0, 0, 0, -224,
    82, -403, 9, 430, 207, -401, 211, 721, -143, -121, -894, -475, -610, 32, -165, 245,
    52, -803, -323, -207, -367, -746, 71, 271, -540, 365, -355, -812, -338, -142, -501, -278,
    -127, -597, -602, -543, 508, -690, -280, -157, -28, -94, -700, -24, -412, -161, 42, 32,
    -539, -706, -501, 66, 769, -456, -581, 107, 0, 0, 0, 0, -52, -175, -370, -879,
    -55, -648, -575, 0, -141, -167, 0, -653, -465, -359, -275, -455, -419, 0, 0, -113,
    -409, -347, -281, -123, -394, -590, -487, -215, 115, -184, -96, 133, 221, -78, 327, -590,
    -86, 254, -150, 209, -78, 382, -341, -32, -532, -427, 242, -261, -730, -477, -284, -570,
    -503, -149, -86, -169, -159, 50, -1, 135, 101, -201, 46, -189, -114, 341, 468, 551,
    401, -102, 558, -235, 634, 693, 51, 162, 1030, -396, 189, 0, -347, -21, 210, -227,
    218, -182, -94, -325, -170, -619, -716, 200, 126, 548, 88, 63, 91, -407, -150, 0,
    190, -343, -311, -361, 724, 637, -258, 147, 364, 415, -131, 138, 191, 442, -49, 85,
    -261, -298, -32, 343, 0, 489, 909, 175, 1078, -157, 777, 977, 75, -397, -494, 823,
    -13, 32, 504, 376, 1100, -85, -176, -243, -64, 538, 802, -127, 379, 875, -121, 467,
    314, 385, -555, -542, -432, 373, -442, -419, -111, -475, 0, 0, 0, -66, -209, -72,
    -159, -311, -158, -260, -144, -27, 222, -289, -385, 0, 0, 0, 0, 0, 0, 0,
    0, 0, -286, -466, -59, -43, -316, 0, -213, -352, -100, 0, 0, 0, 0, 0,
    0, 0, 0, 0, 0, 0, 0, 0, 0, 0, 0, 0, 0, 0, 0, 0,
    0, 0, 0, 0, 0, 0, 0, 0, 0, 0, 0, 0, 0, 0, 0, 0,
    0, 0, 0, 0, 0, 0, 0, 0, 0, 0, 0, 0, 0, 0, 0, 0,
    0, 0, 0, 0, 0, 0, 0, 0, 0, 0, 0, 0, 0, 0, 0, 0,
    0, 0, 0, 0, 0, 0, 0, 0, 0, 0, 0, 0, -265, -201, -336, -113,
    221, -459, -470, -91, -22, -222, -789, 765, -442, -332, 188, -532, -449, 234, -195, 36,
    -27, 156, -30, -205, -285, -562, -184, -179, -78, -537, 35, -259, -415, -354, 112, -339,
    -390, -393, 92, -68, -417, 240, -570, 133, 408, -307, -148, -268, 35, -150, 0, 180,
    -28, 769, -494, -302, 344, -616, -201, 30, 79, -858, 0, -764, -477, -703, -412, -695,
    -753, -121, 0, 164, -907, -759, -541, -504, -404, -539, -649, -1099, 134, -169, -118, -3,
    -289, 153, -397, -62, -189, -660, 246, 224, 350, 250, 469, 907, -129, 75, 445, -289,
    -801, 393, 231, 183, 405, -176, -772, 150, 16, -324, 135, 583, 562, 966, -150, 287,
    242, -116, 452, 346, 395, -366, -369, 3, -307, -219, -4, -49, -47, 165, -363, 0,
    -141, 77, 331, 112, 119, 885, 508, 178, 442, -97, -479, 0, 0, 0, 0, 0,
    0, 0, 0, 0, 0, 68, 53, -371, 242, 481, 0, -826, 441, 533, -293, -147,
    -433, -236, -372, 225, -495, 161, -232, -205, -145, 30, -153, -220, 95, -115, 446, 606,
    -376, -644, -203, -751, -243, -494, -406, -834, -91, -8, 119, -4, 669, 647, 809, 349,
    472, 171, 10, 365, 670, 527, -137, -9, -179, 75, 148, 87, 24, 157, 0, 0,
    0, -306, 480, 498, -267, -296, -317, -69, -203, 236, -249, -199, -503, 171, 576, 538,
    608, 59, 45, -292, 0, 480, -270, -48, -261, 414, 268, 354, -215, 439, 518, 257,
    -20, 376, 234, -76, 528, -590, -658, -95, 247, 142, 339, 19, -274, -6, -220, -10,
    254, 196, -123, -331, 548, -491, -4, -460, -298, 370, 206, 13, 403, 263, -127, 225,
    -66, -534, 409, 292, 460, 555, 321, -299, 274, -50, 119, 659, 67, -284, -387, 409,
    -362, 0, 41, 58, 452, 150, -98, 74, 378, -166, -21, -202, -687, -281, -11, 173,
    15, 437, -687, -288, 194, 0, 363, 75, -455, -213, 297, -315, -60, -26, -615, 375,
    199, 74, 186, 15, -170, 408, -425, -814, 426, 370, 233, 319, 869, 365, 946, 388,
    -100, 486, 104, 170, 275, 282, 190, -30, -361, -42, 262, 302, 286, 665, 962, -275,
    627, -20, -132, 426, 151, 181, 239, 139, -481, 38, -532, -58, 142, -35, -145, 127,
    559, -253, 0, -388, -290, 309, 37, 23, 617, 256, 111, 300, 350, -588, 125, 25,
    351, 429, 196, 259, -88, 0, 0, 0, 71, -124, -123, -20, -227, -392, -285, 75,
    484, 314, -384, 296, 215, 154, 604, -19, -87, 119, 369, -104, 463, 327, -81, 1028,
    31, 188, -668, -43, -64, 268, 53, -535, -481, -762, -53, 3, 200, -138, 426, 415,
    -244, 522, 16, -847, -688, 105, 31, 292, 640, -297, -198, -581, -341, -441, -93, -209,
    87, 0, 0, 0, -299, -147, 99, 108, -135, 381, 161, -436, 334, 127, 344, 79,
    296, 35, 173, 246, -309, -474, -841, 0, 271, 199, -181, 53, 323, -670, -123, 33,
    -274, 503, 352, 367, 398, 466, -90, 713, -70, -95, 161, 250, 401, 218, 329, 178,
    605, -147, 443, 820, 162, 286, 93, 110, -480, -176, 192, 108, 421, 420, 399, 430,
    -10, -127, -87, 65, 345, 176, 18, 1042, 548, 280, -205, 392, -239, 622, 174, 197,
    142, 40, 146, 0, 0, 665, 385, 85, 248, -165, 554, 202, -217, 425, 180, -455,
    -99, 255, 258, 186, 404, -733, 1, -244, 0, -412, 296, -184, -335, 412, -335, -240,
    126, 9, 284, 205, 427, 769, 722, -58, 373, -141, -214, 521, 179, 376, 160, -186,
    108, 437, 696, -91, 134, 452, -20, 486, 789, -50, -118, 435, 189, 568, 165, 221,
    -35, -90, 88, 386, 168, -274, 144, 159, 147, 239, -5, -504, 232, -60, 383, 391,
    133, 106, -47, 72, 364, 0, 119, 393, 213, 245, 272, 688, -31, 296, 97, -61,
    -1001, -479, 685, 992, 1144, 212, 67, 265, 0, 0, 0, 309, 55, -58, 726, 36,
    832, 285, 593, 580, 266, -464, 108, 96, -61, 354, 144, 260, 375, 173, -460, 482,
    125, -45, 447, 438, -276, -432, 294, -283, 261, 475, -2, -251, -61, -634, 278, 264,
    203, 256, 96, 14, 254, 69, 280, 450, 182, 691, 157, 159, -154, 166, -230, 0,
    278, 0, 0, 0, 0, 0, 0, 0, 0, 0, 251, 179, 220, 272, -73, 1158,
    -211, 157, -351, 414, 506, 492, 85, 92, 229, 1, 0, 91, 317, 300, 91, 511,
    678, 193, 104, 398, 462, -85, 203, 101, 362, 86, -322, 269, -414, -536, 24, 42,
    502, 40, -674, 186, 271, -17, 174, -199, -319, -223, 68, 226, -423, -182, -490, 152,
    5, -34, 202, 402, 92, 152, -524, -263, -198, 227, 276, 214, 106, -368, 386, -574,
    -193, 423, -109, 124, -323, -556, 52, 0, -237, -347, 184, -157, -117, 204, 213, 448,
    216, 630, -414, 603, -64, -493, -80, 460, -523, -117, -650, 0, 188, -23, 31, -194,
    215, -409, -350, -232, -484, 160, 88, 144, 449, -574, -213, 336, 466, -212, 367, 225,
    93, 98, 551, -21, 734, -86, 44, 681, 120, -73, -121, -105, -335, 7, -371, -517,
    166, 10, 472, 44, 232, -233, 311, -137, -55, -4, -75, 194, -149, 345, -526, -431,
    -722, -617, -314, -345, -374, -493, -52, -363, 0, -32, -24, 303, -107, -1034, -331, -63,
    -54, -54, -305, -130, -334, 0, 0, 0, 0, 0, 0, 0, 0, 0, -166, 22,
    -391, 66, 102, 0, -296, 41, 115, -225, 139, -851, 80, -167, 552, -140, -313, 75,
    -212, -263, -79, -252, -513, 298, -193, -977, 407, -342, -861, 155, 347, -344, -106, -262,
    -536, 595, 51, -245, -238, 143, 7, 483, -188, -474, 507, -164, -184, 177, 199, -631,
    -400, -417, -545, -222, -383, -269, -830, 0, 0, 0, -153, -195, -166, -103, -104, -17,
    259, -74, 318, 767, -98, -494, -53, -159, 199, 278, -499, -310, -32, 0, -334, -141,
    -141, -517, 244, -361, -384, -118, -281, 485, 384, 271, 534, 557, 359, 862, -261, -360,
    636, 430, 230, 548, 549, 500, 419, 441, 166, 770, 457, 308, 5, 558, 6, 173,
    306, -636, 902, 313, 157, 429, 680, 340, 850, 227, -96, 672, 287, 395, 284, 474,
    -243, 553, -144, 64, 500, -67, -383, 81, -96, -421, 0, -48, 328, 849, 342, 93,
    234, 436, 68, 0, 384, 268, 441, 385, 857, 21, 389, -448, 62, 127, 0, 411,
    171, 11, 450, 821, -407, -443, 33, -465, 492, 272, 733, 113, 171, -51, -37, 484,
    379, 676, 489, 465, 214, -651, 234, -24, 105, 186, 572, 856, 551, 215, 274, -411,
    443, 103, 2, 402, 502, 510, 722, 372, 615, 171, 271, 237, 298, 516, 634, 295,
    475, 25, 570, 649, 772, 724, 562, 257, 495, 399, 455, 0, 554, 732, 661, 456,
    570, 281, 606, 59, 238, 372, -210, 137, 531, 174, 253, 452, -5, 637, 0, 0,
    0, 602, 415, 611, 424, 226, 322, -4, 915, 1061, 320, 673, 484, 176, 0, 468,
    111, -491, 654, 432, 244, -173, 203, 147, 98, 119, -206, 294, 121, 144, -180, 77,
    335, -22, -193, 58, 245, 318, 495, 276, 69, -26, 41, -9, 71, -183, 373, 592,
    47, 501, -179, -108, 37, -337, 54, -100, 56, 190, 0, 0, 0, -43, 241, 195,
    659, 509, 536, 377, 8, 357, -35, -286, 86, 386, 203, 632, 501, -744, 23, -196,
    0, 643, 482, 295, 423, 718, -74, 56, 558, 46, 538, 180, 407, 98, 237, 300,
    106, 568, 210, -139, 146, 134, 209, 15, 59, 141, -101, -197, 74, 88, -48, 542,
    281, -427, -64, 48, -319, 216, 343, 121, 366, -2, -120, 272, 211, 388, 314, 527,
    909, 416, 526, 65, 936, 533, 993, 392, 775, 308, 303, 192, -106, 0, 616, 1002,
    804, 300, 437, 68, 345, 207, -559, -136, 575, 531, 360, 566, 279, 189, -366, 364,
    2, 0, 159, 598, 77, 856, 477, -48, 255, 552, 246, 757, 214, 308, 538, 185,
    215, -16, -226, -395, 103, 248, 320, 224, 443, 227, 546, 344, 593, 715, 176, -88,
    331, 279, -30, 61, 544, -151, 469, 201, 188, 114, 297, 615, 696, 230, 223, 306,
    210, 442, 248, 248, -678, -635, -475, -464, -443, -312, -275, -434, 35, -499, 0, -611,
    -217, -191, -60, -229, -254, -228, -36, -243, -613, -911, -268, -264, -116, 829, 252, -585,
    -500, 0, 0, 0, -180, -359, -433, 63, -210, -183, -624, -133, -16, -7, -238, 220,
    -111, 80, -159, -42, 114, -221, -26, -353, 99, 141, 5, 595, -636, 545, 531, -281,
    -401, -556, -321, -598, -497, -614, -551, -440, -172, -900, -230, 68, 318, 286, -238, 138,
    0, -275, 158, 524, 587, -552, -468, -96, 0, -448, 0, 0, 0, 0, 0, 0,
    0, 0, 0, -64, -178, 192, 171, 298, 28, -675, -704, -765, -136, 253, 305, 95,
    -375, -348, -270, 0, 418, -36, -78, -518, 42, 44, 264, -441, 115, 271, 118, 19,
    -231, 389, -223, 277, 61, -157, 84, 24, 501, 315, 219, -402, -74, 22, 627, -174,
    66, 223, -361, 400, -404, -7, -526, -186, -18, 88, 144, -19, 329, -115, 159, -297,
    20, 12, 165, -50, 536, 15, -187, 598, -785, 417, 373, -38, 632, -367, 21, 58,
    0, -135, 249, 229, -50, -104, 85, 239, -233, 154, -358, 41, -105, -239, -847, 179,
    278, -309, -166, -424, 0, -214, -291, -544, 40, 63, -786, -351, -410, -970, 20, 0,
    0, 0, 0, 0, 0, 0, 0, 0, 0, 0, 0, 0, 0, 0, 0, 0,
    0, 0, 0, 0, 0, 0, 0, 0, 0, 0, 0, 0, 0, 0, 0, 0,
    0, 0, 0, 0, 0, 0, 0, 0, 0, 0, 0, 0, 0, 0, 0, 0,
    0, 0, 0, 0, 0, 0, 0, 0, 0, 0, 0, 0, 0, 0, 0, 0,
    0, 0, 0, 0, 0, 0, 0, 0, 0, 0, 0, 0, 0, 0, 0, 0,
    88, -31, -112, 22, -330, -117, -379, -318, 4, -93, 164, 133, -571, -130, 450, -930,
    -195, -27, -234, -629, -171, 44, -1066, -526, -814, -894, -86, 238, 221, 448, 345, -264,
    -151, 285, 414, -246, 39, 470, 952, 291, -126, 6, -281, 0, 144, 0, 0, 0,
    0, 0, 0, 0, 0, 0, -10, -77, 26, 126, 110, 277, 75, -650, -703, 162,
    689, 374, 386, 16, -112, 0, 0, -41, -62, 95, -456, 462, 346, -325, -395, 415,
    394, 265, 285, 508, 645, -395, 363, -229, -295, 283, 134, 31, 672, -102, -351, 244,
    147, 79, 494, -306, 423, -118, 133, 14, 393, 203, -119, 747, 197, -123, 148, -578,
    -670, 559, -518, -595, -240, 1, 319, 477, 233, -230, -11, 145, -441, 104, -146, 122,
    -159, -163, -1325, 0, 177, 47, 141, 125, -692, 258, 125, -715, 432, -196, -216, -320,
    182, -7, 752, 544, -1167, -1217, -128, 0, 248, 435, -51, -79, 764, -232, -92, 375,
    -213, 505, 531, 872, 137, 862, -843, 177, 764, -152, -68, 90, 179, 348, 717, 72,
    656, 88, 189, 594, 383, 123, -339, 207, -93, 12, -246, -54, 327, 194, 716, 13,
    488, -26, 432, 337, -28, -268, 65, 227, 159, 221, -263, 404, -202, 615, 490, 422,
    352, -33, 95, 424, 0, 383, 251, 587, 503, -175, 159, -126, -229, 407, -138, 0,
    176, 645, 401, 478, -39, -1170, 131, 0, 0, 0, 620, 437, -7, 239, -61, 122,
    572, 328, 669, 240, -484, 613, 463, -2, -187, -19, -21, 0, -55, -252, -160, 17,
    -505, 0, -1099, 762, 218, -317, 255, 0, 770, -487, 0, 0, 320, 131, 134, 45,
    470, 174, -57, -230, 193, -22, 36, 270, 649, -176, -409, -171, -142, -245, 242, -433,
    -786, -206, 61, 0, 0, 0, -233, -240, 277, -600, -476, 89, -11, 16, -41, 0,
    0, 0, -202, -429, -248, -229, -412, -98, 0, 0, -226, 309, 252, -160, 729, -247,
    -479, 26, -552, 470, 344, 483, 444, 480, 287, 113, -119, 21, 207, 292, 273, 415,
    -45, -82, 546, 67, -139, 84, 49, 696, 113, 461, -336, 397, 296, -362, 277, 215,
    380, 529, -213, 532, 146, 122, 136, 156, 262, 658, 427, 345, 208, 376, -305, 753,
    493, 512, 178, -59, 106, 32, 0, 2, 531, 885, 248, 752, 786, 591, -4, 81,
    -245, 49, -461, 498, 306, 73, 217, -444, 515, -276, 0, -19, 564, -240, 29, 562,
    138, 75, 781, 303, 913, 367, 498, -43, 202, 66, 270, 145, 48, 216, 372, -39,
    615, 133, 369, 631, 850, 739, 723, 450, 646, 552, 163, 24, 624, 621, 729, 45,
    346, 233, 240, 822, 743, 827, 262, 135, 86, 289, 445, 313, 264, -466, -430, -475,
    -429, -116, -112, -68, -704, -33, 130, 0, -328, -24, 121, -88, 118, 166, 64, 28,
    -74, -231, 89, -30, -107, 3, 54, 515, 427, -438, 0, 0, 0, -220, -163, -297,
    34, -207, -486, -340, 79, 285, 217, 35, 185, -725, -371, -366, -62, -448, 949, 207,
    39, -387, -93, -328, -51, -168, 542, 635, -176, -256, 60, 982, -89, -300, -63, 2,
    -44, 0, 0, 0, 0, 0, 0, 0, 0, 0, 0, 0, 0, 0, 0, 0,
    0, 0, 0, 0, 0, 0, 0, 0, 0, 0, 0, 0, 442, -310, 759, 388,
    119, 200, 139, -173, 474, -66, 55, -134, 475, -612, 201, 0, 0, 0, 145, 181,
    -523, 874, 315, 0, -309, 393, 392, 312, 244, 398, 676, 415, 832, -133, 8, 407,
    409, 443, 697, 226, 4, 721, 97, 342, 759, 268, 119, 89, 558, -139, 230, 405,
    -37, 649, 369, 319, 311, 449, -14, 259, 94, -327, 348, 347, -49, 593, 141, 3,
    546, 100, 791, 414, 371, -137, 561, 101, 58, 0, 251, 849, 600, 87, -329, 87,
    407, -225, 428, 234, 212, 123, 346, 19, -63, -197, -38, 74, -193, 0, 207, 47,
    34, -310, 484, -135, -56, 347, -418, 411, 416, 489, 197, 209, 11, 512, 190, 162,
    141, 519, 310, 327, 788, 685, 498, 565, 325, 1194, 565, 645, 575, 501, 450, 574,
    192, 611, 726, 426, 283, 223, 407, 695, 895, 550, -225, 675, 291, 517, 409, 379,
    -243, -287, -129, -123, 376, 102, 234, 18, 170, -115, 0, 192, 17, 208, 178, -160,
    746, 394, -160, 304, 770, -256, -163, 0, 0, 0, 0, 0, 0, 0, 0, 0,
    91, -40, -204, 219, 257, 0, -25, -13, 501, 221, 154, 433, 314, 140, 454, 305,
    139, 206, 199, 168, 389, -2, 133, 388, 405, 112, 791, 98, 121, 186, 332, -276,
    -334, -237, 142, 339, 363, 290, 314, 321, 699, 756, 442, 512, 684, 463, 473, 390,
    418, -104, -117, 17, -287, 136, 192, 132, 149, 0, 0, 0, 89, 441, 549, 260,
    216, 506, 353, 324, 643, 17, -119, 413, 493, 576, 550, 378, 87, 245, 50, 0,
    384, 419, 471, 450, 450, 349, 375, 488, 499, 594, -43, 126, -252, 176, 138, 347,
    -211, -372, -306, 6, 195, -156, 111, -1, 181, -155, -178, 8, -80, 82, -282, 144,
    56, 158, -223, -134, -99, 12, 106, -136, 175, 131, 397, -141, -245, -68, 28, 157,
    -144, 142, 101, 234, -22, -53, -113, -21, 157, -159, 70, 89, 176, -14, -76, -49,
    -72, 90, -128, 160, 42, 129, -90, -336, -48, -34, 136, -152, -17, 112, 79, -94,
    -81, -66, -86, 107, -235, -21, 111, 35, -120, -242, -167, 39, 195, -109, 152, 189,
    219, -152, -96, -292, 71, 241, -52, 218, 23, 335, -14, -224, -94, 53, 56, -161,
    204, 154, 94, -79, 20, -216, 94, 224, -43, 290, 171, 564, 130, -397, -97, 94,
    243, -38, 85, 158, 309, 41, -91, 7, 26, 137, -169, 95, 43, 60, 38, -21,
    10, -16, 190, -88, 45, -118, 467, -235, -357, -260, 57, 210, -6, 114, 177, 168,
    -145, -100, 116, -4, 155, -157, 178, 7, 175, -78, -31, 79, -86, 33, -230, 100,
    284, 405, -224, -420, -327, -77, 150, -125, 151, 146, 155, -186, 124, -216, -119, -61,
    -286, 8, 193, 256, -59, -237, -141, -10, 30, -182, 171, 222, 565, -59, -263, -51,
    -18, 131, -188, -45, -49, 20, -106, -44, 110, -50, -22, -175, 213, -93, 44, -257,
    -140, -123, -123, 8, -253, -41, 76, 447, -254, -844, -224, -59, 111, -155, -71, -46,
    -57, -49, -5, -178, -120, 12, -259, -55, -58, -8, -94, -320, -170, 28, 171, -101,
    191, 28, 275, -172, -351, -21, 21, 178, -174, 168, -16, 405, -204, -289, -13, -61,
    70, -282, 88, 96, 283, -225, -125, 79, 79, 166, -44, 96, -114, 157, -244, -484,
    18, 68, 169, -116, 114, 168, 270, 28, -122, -113, 54, 146, -74, -54, -222, 352,
    1, -107, -151, -30, 121, -83, 90, 62, 297, -45, -423, -41, -7, 126, -57, 21,
    48, -46, 89, 60, 58, -27, 94, -152, -26, 84, 8, -137, -258, -212, 60, 171,
    -125, 247, 79, 368, -132, -531, -21, 85, 180, -82, 33, 41, 128, -204, -326, -105,
    -7, 96, -119, 135, 39, -62, -118, -242, -249, 90, 235, -36, 143, 184, 361, -17,
    3, -23, 57, 169, -85, 89, 42, 101, 20, 24, -17, 50, 130, -147, 111, 45,
    -19, 2, 60, -33, -13, 156, -138, 28, 87, -76, 47, -170, -189, 17, 193, -62,
    71, 64, -20, -12, 43, 41, -13, 140, -123, 76, 84, 34, -21, 78, -38, -36,
    72, -249, 213, 218, 229, -42, -614, 134, -7, 146, -122, 141, 6, 274, -211, -106,
    37, -110, -99, -231, 174, -11, 122, -84, -441, -106, 34, 222, 50, -109, 119, -66,
    225, 127, 49, 12, 137, -90, -24, 16, -58, 87, 47, -85, 9, 91, -147, 96,
    -149, -6, 9, 49, 1, -74, 63, -91, 5, 97, 109, -138, -74, -26, 31, 182,
    -67, 98, 107, -30, 8, 95, 50, -81, 35, -188, 53, 39, 30, -4, 39, 2,
    -82, 4, -216, 151, 97, 434, -262, -229, -259, 9, 137, 8, 128, 3, -93, -155,
    -78, -302, -47, 95, -230, 137, 72, 186, -220, -403, -307, -6, 45, -24, 34, 28,
    552, -54, -263, 68, -7, 124, -118, 90, 224, 248, 0, 109, -65, -43, 42, -143,
    -19, -4, 83, -198, 89, -26, -127, 65, -210, 212, 168, 552, -137, 214, 280, -106,
    28, -159, -83, 127, 206, -15, -261, 182, -117, -3, -236, -81, 126, -43, -106, -400,
    -15, 1, 186, -152, 140, 32, 356, -195, -120, -27, 70, 176, 38, 138, 85, 462,
    -273, -6, 15, -22, 42, -159, 227, 148, 289, 4, -78, 66, 56, 98, -133, 15,
    34, 206, 56, 16, -88, 62, 155, -68, -21, -19, -64, -48, -46, -55, -42, 50,
    -187, -60, -135, -78, -113, 27, -138, -26, 86, -138, -191, 118, -63, 140, -36, -141,
    -7, 129, -125, -29, -9, -74, -9, -26, 229, -23, 64, -115, -81, 52, -57, 12,
    43, -40, -113, 91, -229, 132, -3, 494, -219, -409, -75, -38, 156, -142, 96, 307,
    228, -137, -235, 35, -131, 49, -154, 52, 115, 385, 15, -58, 60, 6, 148, -171,
    -21, 124, 36, -79, -31, -403, -6, 87, -181, -40, 6, -131, -72, -63, -88, -34,
    39, -175, -24, -33, 2, -110, -25, -66, -96, 6, -247, -9, 81, 24, -96, -323,
    -237, -74, 110, -157, -56, -6, -83, -109, 93, -59, -50, 63, -168, -22, 0, -28,
    -98, -102, -36, 138, 302, 230, 127, -12, 625, 35, -593, 85, 123, 250, 124, -131,
    -27, 188, -205, 50, -187, 99, 182, 110, 116, 255, 125, 83, -174, -179, 117, 196,
    100, 553, -63, 326, 272, -407, 974, 136, 351, 150, 335, -450, 211, 370, 82, -147,
    210, 209, 61, 86, -282, -290, 341, 16, 57, 110, 86, 206, -78, 73, 294, -153,
    191, 249, 104, 87, 31, 213, 416, 79, -174, 91, -47, 313, -68, -107, 116, -71,
    -211, -327, -162, 128, 155, 25, 399, 328, -6, 397, 666, 179, 99, -179, 105, 606,
    -75, -6, 922, 275, -196, 425, 153, 68, -357, -131, -193, 277, 173, -498, -210, 109,
    187, -221, -766, -248, 451, 409, -664, 552, 86, 219, 219, -51, 138, 114, 68, -5,
    8, 240, 52, -144, -180, -37, 329, -66, 6, 8, 242, 215, 446, 371, -560, 800,
    -270, -354, 36, 48, 115, 405, 528, 24, -288, 46, -109, 80, 102, 41, -62, 228,
    296, 283, 18, 6, 170, 78, 361, 253, -287, -26, 294, -310, -339, -119, -46, 54,
    -869, 322, 454, 612, -294, -495, -2, -185, 60, 246, 477, -45, 126, 114, -178, -81,
    180, -128, -157, -32, -47, -448, -173, -17, 459, -56, -22, -52, -83, -262, -219, -6,
    -296, -132, -185, -128, -269, -300, -250, -306, -196, 109, -45, -34, 764, 256, 38, 614,
    233, 703, -31, 376, -22, 91, 26, -92, -69, -72, 110, -454, 368, -31, -14, -121,
    87, -227, -51, 50, -262, -155, 12, 231, 22, -306, 591, 49, 113, 458, 358, 168,
    540, 290, -51, 27, 513, 525, 330, -154, 199, 182, -16, 238, -111, 498, 98, -767,
    150, 97, 169, -73, -53, -269, -129, -489, -780, 190, 177, -37, -197, 201, -188, 241,
    -143, -232, 150, 205, 274, 276, 260, 132, 476, 122, -184, 130, 251, 222, -118, 454,
    -137, 193, 59, -503, 82, 96, 126, -5, -97, -379, -387, -101, -73, -211, 14, 47,
    -123, 262, -190, 176, 239, -88, -99, 147, 313, -110, 8, 520, 367, -66, 78, -182,
    149, 32, -57, 381, -359, 105, 4, -221, -62, 199, 67, -111, -71, -99, 288, 125,
    -310, 290, 135, 192, -4, 42, -97, 291, -121, -95, -18, 80, 126, -4, 23, -163,
    64, -83, -7, 8, -23, 15, -210, 76, 6, 15, -103, 82, 10, 30, 313, -134,
    -226, 10, -252, -75, -71, 127, 104, 158, -56, 94, -70, -65, -34, -101, -5, -24,
    7, -183, 28, 100, 78, 10, 96, 51, 13, 165, -157, 331, -41, 165, -113, -81,
    199, -24, 148, -148, 98, -211, 21, -82, -136, 235, 70, 5, -55, 15, 14, 209,
    145, -403, -386, 75, 198, 14, 332, -233, 325, -137, -587, -201, 90, 144, -13, 19,
    -55, -83, -29, 57, 65, -102, 11, -142, 113, 102, 293, 113, 178, 42, -51, 31,
    -160, -103, -171, -12, -90, -355, -73, 160, 212, 65, 112, 10, -23, -47, -12, 216,
    -47, 64, -130, 59, 43, 117, -4, 156, 158, 137, 50, -124, -433, 201, 398, 64,
    -253, 92, 87, 7, -25, 50, 370, 679, -176, -65, 280, 73, -21, -13, 302, -14,
    551, 404, -521, 473, 99, 226, -100, 135, 252, 147, 90, -532, 74, 120, 79, 28,
    268, 155, -131, 222, 78, 53, 125, 114, -112, 355, -110, 198, -58, 48, 49, 169,
    62, -141, 405, 98, 637, 344, 34, 432, 159, 76, -122, 82, -142, 0, 270, -63,
    357, 254, 265, -218, 213, 141, 352, 101, -494, -180, -8, -196, 19, -131, 28, -117,
    -141, 479, -388, 162, 67, 250, 241, 455, 471, -258, 71, 296, 32, 79, -41, 118,
    272, 90, -64, 626, 44, 77, 315, 55, 217, 30, 474, 275, 159, 103, 94, 177,
    74, 121, -105, -136, 11, -116, 92, -12, -101, -200, 288, 37, -69, 0, -8, 117,
    -44, 148, 5, -10, -417, 163, -31, 21, 308, 103, 99, 80, 173, 116, -114, -322,
    -32, 76, 33, 39, -72, 198, 4, 99, 132, 104, 228, -21, 208, 31, 244, 201,
    576, -132, -827, -492, 64, -33, -290, 105, 185, 215, -169, 165, -246, 70, 111, -67,
    105, 11, 178, 176, -87, 248, 134, 239, -76, 316, -293, 40, 156, -197, 9, 113,
    195, 93, 60, -52, -92, 1, -78, 66, -97, -58, -235, 154, -28, 83, -27, 67,
    190, -45, 102, -65, -18, 26, 118, -263, -241, 7, 78, 228, 161, 107, -16, -44,
    -30, 102, 131, -44, 43, -138, 166, 37, 74, 5, 93, 214, -164, -270, -290, -237,
    -475, 214, -139, -367, 115, -211, -228, -172, -248, 14, 122, -441, -416, -208, -183, -98,
    -212, 521, 503, 48, 275, -208, 257, -133, -371, 276, -418, -163, 368, 398, -235, -231,
    -273, -3, 204, -46, 0, 418, -103, 192, 30, -96, 82, 25, 13, 387, 111, -61,
    228, -365, -165, 78, -573, -131, -631, 424, -633, -643, 247, -147, -108, 6, -303, 40,
    134, -512, 694, 468, -145, -111, 208, -375, 143, 879, -20, -31, 697, -115, -476, -393,
    324, -191, 379, 364, -191, 388, 99, -103, 325, 40, 341, 655, -6, -413, 41, 9,
    222, 81, -145, 153, 326, -346, -928, 126, 32, -333, -460, 139, -594, 330, -244, 124,
    -91, -21, 113, -51, -34, 102, 233, -230, -29, 110, 72, -133, -168, -7, -401, 152,
    24, 24, 83, -160, 164, -123, 563, -272, 188, 377, -145, 278, 54, 242, 233, 178,
    309, -38, -154, 470, 584, 106, 325, 14, 6, 69, 147, -418, 258, 137, -170, -315,
    66, -304, -134, -100, -169, -321, -97, -225, 503, 155, -130, 302, 665, 309, 203, 295,
    320, -1203, -693, -337, -65, 407, 608, -690, -116, -187, 46, -13, 162, -529, 851, -362,
    -430, 317, -152, 58, -28, -63, -284, -53, -280, 56, -171, -3, -721, -104, -189, 194,
    254, -706, 349, 106, -28, 394, 60, 370, -349, 506, 632, 11, 77, -274, 44, -55,
    -71, -222, 214, 308, -773, -8, -18, -140, -111, -275, 146, -14, 41, -174, 14, -180,
    239, -154, 78, -119, -89, 656, 129, -664, -190, -178, 182, -100, -187, 63, -172, -651,
    104, -219, -141, -216, 155, -53, 33, 177, -246, -197, -222, 46, -266, -399, -57, 336,
    -186, -164, 55, -234, 206, -115, -66, 122, 454, -96, -409, 34, -204, 102, -42, -166,
    -261, 312, -89, 133, 224, -187, 18, -136, 615, 297, 750, -1130, -495, -31, -115, 58,
    -195, -51, 71, -4, -268, -347, 407, -197, -68, -31, -84, 16, -47, -399, -93, 115,
    -36, 99, -264, 199, 49, 496, -111, -832, -21, -88, 7, -74, -284, 5, 383, -238,
    -500, 305, -89, 69, 154, 117, -56, 305, -59, -45, -64, 19, 111, -97, 8, 40,
    233, -28, -55, 121, 40, 102, -52, -47, -217, -160, -109, -193, -140, -96, -171, -163,
    -72, -225, -79, -221, -110, 22, -128, 149, -197, -176, 604, 597, -511, 98, 338, 55,
    152, 64, -134, -218, -173, -227, -155, 140, -92, -96, -126, 32, -195, 69, -112, -30,
    -31, 31, 246, 46, 318, 344, -64, 539, -79, -265, 5, -26, -238, 229, 92, -407,
    66, -307, 244, -74, -158, 54, 93, -386, 107, 124, -498, 133, 80, -200, -192, -28,
    -263, -179, 201, -245, 159, -50, 72, 29, -107, -196, -180, -74, -59, 67, -85, -93,
    -33, 77, 0, -102, -52, 149, -16, -64, -42, -342, -433, -328, -182, -158, -574, 349,
    -26, 83, 109, -88, -128, 87, -285, 103, 17, -105, -121, -137, -70, -141, 59, -106,
    125, 140, -50, -151, -166, -104, 144, -525, 446, -124, -595, -176, 8, -350, 185, -233,
    290, 71, -446, 60, -104, 47, -563, -737, 150, -259, -224, -461, 384, -250, -69, -358,
    -146, 8, 594, -265, -320, -124, -111, 22, -306, -49, 125, 350, -294, -525, 70, -73,
    -145, -13, 586, 246, -610, -31, 517, 295, -117, 143, -355, 705, 373, 484, 324, -1,
    78, -265, -199, -109, -114, 46, 406, -11, -94, 55, -135, 119, 213, 98, 151, 250,
    84, -266, 618, -25, 110, -74, 280, -386, 160, -23, -303, 144, -36, 49, 178, -51,
    181, 609, 53, -211, 85, -44, -33, 38, 122, -124, 310, 106, -56, 684, 8, 180,
    -87, -8, 51, 250, 1, 143, 393, -19, 66, -74, -84, -151, -171, -20, -147, -67,
    -217, -136, -180, -39, -210, -19, -83, -48, 34, -77, 20, 220, -86, 122, 151, 1,
    -163, 609, 62, 157, -35, -38, -60, -100, -109, -147, -113, -119, 8, -160, -19, -45,
    73, -88, 67, 61, -168, 9, 95, -6, -478, 208, 150, -724, -857, -257, -97, -62,
    -19, -246, 81, -314, -147, -161, -216, 16, 224, -132, -18, 297, -478, -169, 804, -15,
    139, -354, 62, -138, -9, 62, 148, 157, -42, 115, -84, -60, -76, -67, -55, -41,
    -97, -101, 68, -174, 64, -113, 82, -160, 38, 100, -157, -17, -209, 143, -14, 102,
    -122, -217, 5, -29, 127, -84, -4, -29, -32, -107, 59, 20, -91, 45, -88, 49,
    -38, 25, -14, -98, 181, 90, 221, -136, 181, 530, 149, 85, -75, 29, 131, 284,
    -68, 257, 28, 238, -45, 49, 54, 64, 342, 119, 271, -128, 381, 16, -104, -43,
    191, 443, 15, 127, -334, -91, 17, -90, -130, 180, 243, 72, 287, 169, 589, 21,
    92, 224, 179, 284, -2, -37, 167, -40, 94, -152, 383, 137, 36, -150, 45, 78,
    237, 148, -745, 355, 110, 332, -116, 112, -159, 222, 278, 119, -53, 77, 265, 54,
    53, 4, 164, 177, -400, 63, 129, 244, -12, 9, 60, 758, -133, -72, 495, 252,
    668, -279, -92, 43, 526, -50, 456, 420, 157, 99, -219, 172, 83, 224, 519, -111,
    -242, 246, 415, 139, 160, 10, -434, -245, -305, -211, 224, 287, -168, 199, 129, 202,
    95, 96, 81, 197, 316, -61, 318, 323, 229, -130, 121, 37, 108, 172, -107, 131,
    -445, 380, 41, 183, 9, 231, 192, -27, 248, -14, 181, 209, -123, -5, 58, 262,
    12, 64, 159, 373, -24, -106, 29, 71, 210, 66, 302, 83, 164, 139, -561, 372,
    93, 246, -379, 210, 317, 253, -490, -380, 211, 52, 560, -262, 222, 596, 58, -120,
    -774, -151, 133, 307, -101, 272, 462, -42, 257, 602, -270, 157, 137, -79, -65, -70,
    -8, -69, -174, -69, 160, 263, -124, 204, 36, -102, -33, -501, 100, 46, 171, -68,
    -55, 372, 129, -45, 31, -163, 79, 173, -67, 67, -123, -51, 18, 396, -205, -16,
    192, -152, 317, -94, 22, 54, -154, -151, 166, 536, -203, 327, 199, 276, -155, 166,
    -37, 146, 456, 39, -227, -251, 205, -28, -546, 33, 189, 171, -88, 187, 76, 342,
    0, -77, 94, 233, 361, 66, 295, -455, 310, 20, -153, 18, 180, 200, -69, 216,
    271, 219, -28, 209, 17, 189, 217, 91, 204, -151, 229, 41, -79, -9, 187, 339,
    -196, 306, -39, 186, -448, -580, 649, 220, 123, 84, 132, -74, 273, 50, 279, 434,
    153, 242, 66, -55, 162, 158, 119, -181, 38, 172, 316, -87, -78, 45, 356, -40,
    -389, 189, 163, 351, 76, 3, -309, 37, -105, -233, 13, 110, -55, 63, 121, -73,
    224, -46, -113, -33, 236, 347, -2, 293, 195, 337, 140, 2, -92, 191, 279, 20,
    141, 67, 131, 99, 242, 119, 175, 266, -13, 274, 243, 83, 41, 181, 141, 103,
    165, 124, 41, 322, 235, -68, -233, 120, 179, 426, 97, 144, 198, 17, 106, 118,
    137, 150, 233, -27, 228, 204, 144, 111, 277, 148, 103, 294, -526, 75, 164, 342,
    -235, -132, -594, 104, 96, 58, 5, -104, -151, 44, 195, -54, 33, 226, -196, 15,
    -318, -117, -4, 105, -280, 242, 371, -41, 94, 230, 122, 494, 166, 171, 139, 377,
    115, 160, 77, 6, 34, -6, -30, 130, 320, -30, 206, 141, 120, 46, 129, 125,
    70, 223, -104, 163, 52, 237, 171, -75, -179, 217, 363, 132, 182, 138, 57, -18,
    126, 221, 87, 173, -4, 160, 134, 112, 100, 201, 167, 38, 110, -228, -169, 143,
    444, -662, 162, 573, 144, 135, 246, 32, 99, 352, -228, -393, 446, 88, 246, -102,
    29, -441, 499, -252, -57, 251, 56, -61, -649, 132, -405, 432, -526, 177, 31, 102,
    39, -11, 256, -39, 172, -47, -60, -88, 220, 482, -59, 224, -28, 145, 59, 510,
    332, 100, 44, -164, -90, -93, 440, -7, -255, 398, 34, 174, 241, -19, -155, 105,
    -92, -93, -104, 188, -31, 63, 60, -112, 175, 191, 12, 240, 57, 401, -73, 200,
    208, 124, -521, -293, 112, 121, 419, 326, -345, 148, 219, -212, 41, 81, 59, 261,
    225, -3, -262, 63, 43, 77, -107, 153, 199, -15, 148, -13, 585, -64, -144, -2,
    179, 192, 59, -39, -117, -87, -150, -174, -95, 43, 129, -119, -38, -100, -83, -72,
    -22, -58, 43, 49, 161, 26, 73, 171, 218, -427, -348, 175, 266, 9, -5, 63,
    -26, 63, 77, 36, 42, 112, -50, -157, 36, 76, 36, 74, 108, 11, 304, -177,
    -34, 209, 577, 164, 168, -159, -38, 107, 31, 160, 136, 54, -64, -509, 511, 13,
    229, -74, -75, -7, -266, -46, -40, -523, 171, 209, -76, -83, -2, 139, 14, 412,
    -263, 157, 260, 3, 16, -111, -161, -166, -87, -141, 74, 103, -165, 37, -44, -175,
    -49, 35, 7, 45, 85, -63, 55, 112, 39, -66, -235, 254, 89, 149, -57, -1,
    -53, -106, -92, -78, -105, 53, 123, -63, 19, -8, -17, 1, -46, 97, 221, 274,
    -599, 28, -348, 261, -79, -311, -36, 160, -95, 384, 406, -178, 273, 34, 211, 149,
    58, 262, -288, 268, 64, -48, -149, 179, -557, 161, 456, 66, 224, -191, -187, 418,
    227, 265, 80, -87, -8, -318, -744, 602, 267, 207, 369, 331, 72, -126, -96, -2,
    249, 52, -505, -91, 21, 29, -126, 348, 366, -116, 311, -424, 67, -59, -169, -10,
    -7, 211, -26, 125, -277, -241, -31, -66, 1, 55, -276, -245, -133, -644, 169, 203,
    -40, -170, -667, 350, 380, 539, 775, -264, -22, 795, 126, -42, -214, -10, 181, 509,
    303, 572, 116, 208, -224, -38, 276, -7, -375, 189, 244, -320, -160, -85, 315, -75,
    -29, 418, -403, 136, 40, -110, -158, -65, 263, 182, -125, 238, 67, 60, 66, 139,
    94, 143, 303, -110, 140, 145, -428, -228, 382, -223, 266, -139, 406, 164, 346, 183,
    115, 577, -180, -343, -120, -897, -595, 43, 13, 71, 158, 3, -156, 154, -139, -120,
    -45, 450, -235, -589, -356, -86, -847, -282, -676, 21, 556, -78, 0, -63, 460, -270,
    -203, -32, 164, -350, -298, -43, -179, -363, -35, -5, -98, 89, 187, -126, 202, 44,
    20, 120, 160, -366, 40, -35, -239, 158, -77, -345, -248, 4, -141, -288, -270, -14,
    -215, -192, -395, -381, -7, 107, -23, -659, -382, -357, -310, -446, -23, -212, -254, 74,
    118, 107, -44, -263, -305, -78, -239, -189, -79, -69, 108, -4, -237, -110, -181, -26,
    -14, 164, 149, 0, 834, 353, 164, 448, 187, -153, -116, -51, 15, -162, 149, -38,
    406, -5, 313, 173, 49, 178, 322, -213, -331, -129, 251, -145, -65, -183, -71, 407,
    -190, 52, 35, -425, -335, 64, 111, -205, 2, -132, 22, -112, -117, -106, 62, 345,
    298, 1, -281, 300, 210, -422, 113, 19, 295, 177, -172, -291, 450, 331, -474, 182,
    61, 244, -226, -81, 80, 80, -161, -52, -224, 68, -240, 38, 219, -243, -53, 152,
    -85, -86, 106, 287, -49, 79, 483, 198, -45, -298, 156, 127, 271, 137, -151, -271,
    29, -188, -90, -288, 108, 161, 143, 45, -219, -31, 10, -49, -126, 131, 274, 24,
    -67, -168, 257, -65, -96, 60, 66, 79, -21, -173, -327, -283, -239, -195, -183, -15,
    -29, -188, -57, -230, -131, -200, -92, -89, -26, 90, -189, -89, 27, 334, 8, -82,
    -150, 81, 104, -1, -56, -154, -222, -199, -105, -109, -27, -31, -130, -75, -116, -77,
    -109, -3, 26, -3, 204, -406, 579, 240, 706, 442, -662, -135, 70, 330, -81, -357,
    -272, -17, -96, -249, -236, 110, -76, -212, 37, -537, 58, 226, -550, -314, 122, 556,
    162, 84, -222, 256, -22, 310, 149, 88, 188, 26, -81, -167, -161, -187, -85, -84,
    -6, 87, -160, 4, -201, -34, -120, -72, -25, 0, 154, -211, -145, -79, 26, 74,
    -227, -381, 103, 112, 73, -13, -93, -76, -112, -73, 8, -10, -22, -110, -29, -4,
    52, -49, 128, 111, 102, 378, -172, 411, 238, 416, -39, 164, 80, 118, 99, 437,
    -16, -324, 263, -410, -4, 134, -192, -97, 556, -283, -223, 155, 144, -202, 61, 44,
    77, -533, -749, -296, 207, -327, -245, 257, 18, 146, 105, 183, -151, -26, 217, -15,
    397, 151, 67, 149, 302, 7, -269, 47, -252, 261, 135, 322, 37, 414, -318, -160,
    73, -406, 216, 133, 298, -319, 523, 5, 275, 313, 223, -308, -114, 28, 11, 295,
    -138, -1, 278, -65, 207, 140, 46, 201, -164, 213, 476, -53, -434, -40, -69, 378,
    51, -90, 139, 551, -304, -186, 241, 87, 337, -216, 5, 109, -56, 485, 121, -220,
    79, 256, -51, 331, 142, 410, 74, 10, 317, 63, 207, 132, -14, -196, -182, -206,
    -180, -97, -50, -74, -6, -45, -189, -43, -118, -96, 25, -67, 177, -323, 136, -490,
    884, -8, 382, 473, -80, 195, -63, 116, -107, -200, -49, 4, 71, 62, -45, 1,
    105, -46, -53, -94, 100, 144, 116, 49, -185, 218, 185, -116, -153, 62, -429, 137,
    -16, 60, 24, -191, 32, 251, -258, -399, 104, -3, 157, 55, 170, -353, 44, -46,
    -249, 115, 290, 49, 214, 92, 287, 20, 301, -127, 98, 171, -11, 69, -64, -83,
    -15, -21, -30, -62, -15, -126, 98, -277, 3, -2, 21, 213, 23, -41, -64, -176,
    -37, 228, 54, -601, 2, 51, 219, 80, 101, -52, -3, -13, 44, 118, -11, -34,
    -134, 94, 55, 106, -73, 225, 242, -301, -464, -268, -37, -372, -203, -742, -622, 0,
    -197, -257, 24, -154, -218, 366, -224, -23, 141, -343, -473, -891, -239, 217, -590, -144,
    -32, -6, -31, 5, 164, -325, -362, -336, -232, -359, -307, -400, 480, -8, -256, 61,
    284, -527, -476, 261, -96, -86, 71, 292, 53, 419, -544, 282, 76, -311, -223, -293,
    255, 113, -46, 220, -73, -83, -218, 224, -25, 434, -111, 187, 80, -7, -247, -421,
    -331, -156, -264, -250, -154, -40, -669, 309, -200, -515, -1215, 366, -109, 405, 166, -42,
    105, 219, 113, -111, 103, -178, 255, 78, 414, 834, -362, -184, -261, 261, -438, 259,
    207, 238, -822, -271, 473, -326, -208, -373, 12, 108, 85, -107, -71, 184, -80, -225,
    -164, 30, -58, -71, 17, -95, 164, 52, 56, 219, -277, 132, 24, 170, -357, -529,
    -238, -201, -20, -16, -327, -5, 30, 176, 112, 297, 178, -308, -104, -338, -238, -59,
    -41, -180, -316, -4, 159, 667, 97, 130, -162, -266, -155, 606, -281, 582, -72, -316,
    -22, -217, -405, -248, 219, -189, 525, 139, 139, -14, -38, 53, 52, 567, 146, 167,
    -25, -1, -183, 295, -364, -105, 226, -206, -325, -36, -25, -496, -603, -155, -117, -1,
    -458, -399, -227, -584, 24, -108, -273, 388, -358, -343, 55, 14, -447, -558, -302, 70,
    -11, -443, -517, 14, -163, -68, -33, 231, -223, -13, 15, -319, -232, -330, -585, -330,
    -589, -472, -264, 143, -200, -291, -116, -138, -56, -460, -196, 71, -80, -326, 279, -285,
    -801, 70, -470, 0, -132, -252, -583, 31, 526, 782, -465, -250, -424, -432, -249, 296,
    -197, 0, 59, 284, 378, -168, 226, -1080, 528, -692, -203, 96, -96, -497, -129, -33,
    -182, 37, -327, 280, -341, -182, -136, -233, 94, -103, -689, -198, 219, -317, -129, 59,
    -47, -342, -708, -268, -77, 363, 147, -18, -76, -234, -96, 14, 31, 28, -117, -299,
    -30, -23, 41, -697, -31, -413, -92, -386, -60, -65, 70, -118, 171, -276, -171, 22,
    -39, -166, 68, 92, 6, 124, 119, -262, -229, 262, -65, -113, -9, -32, 474, -501,
    -163, -255, 129, -51, 121, 260, 52, 122, -154, -264, -33, 403, -141, 71, -279, 10,
    240, 42, 31, -230, -187, -278, -160, -103, -135, -36, -156, -9, -98, -121, -306, -90,
