#include "pattern_eval.h"

#include <immintrin.h>


namespace eval {


const int weight_intercept = -150;


void pattern_activations(int ret[N_ALL_MASKS], board::Board b) {
    for (size_t mask_idx = 0; mask_idx < N_ALL_MASKS; mask_idx++) {
        uint64_t mask = all_masks[mask_idx];
        uint64_t own_bits = pext(b.own, mask);
        uint64_t opp_bits = pext(b.opp, mask);

        int instance = ternary_twos[own_bits] + ternary_ones[opp_bits];
        ret[mask_idx] = instance;
    }
}


int score(board::Board b) {
    int score = weight_intercept;

    for (size_t mask_idx = 0; mask_idx < N_ALL_MASKS; mask_idx++) {
        // Extract patterns bits from board
        uint64_t mask = all_masks[mask_idx];
        uint64_t own_bits = pext(b.own, mask);
        uint64_t opp_bits = pext(b.opp, mask);

        // Determine index into weights array from pattern and instance
        uint16_t instance = ternary_twos[own_bits] + ternary_ones[opp_bits];
        uint8_t pattern = mask_base[mask_idx]; 
        uint16_t weight_idx = pattern_start[pattern] + instance;

        score += weights[weight_idx];
    }

    return score;
}


// Utility functions for different flips of masks
uint64_t flip_vert(uint64_t x) {
    return __builtin_bswap64(x);
}

uint64_t flip_horiz(uint64_t x) {
    const uint64_t k1 = 0x5555555555555555;
    const uint64_t k2 = 0x3333333333333333;
    const uint64_t k4 = 0x0f0f0f0f0f0f0f0f;
    x = ((x >> 1) & k1) +  2*(x & k1);
    x = ((x >> 2) & k2) +  4*(x & k2);
    x = ((x >> 4) & k4) + 16*(x & k4);
    return x;
}

uint64_t flip_diag(uint64_t x) {
   uint64_t t;
   const uint64_t k1 = 0x5500550055005500;
   const uint64_t k2 = 0x3333000033330000;
   const uint64_t k4 = 0x0f0f0f0f00000000;
   t  = k4 & (x ^ (x << 28));
   x ^=       t ^ (t >> 28) ;
   t  = k2 & (x ^ (x << 14));
   x ^=       t ^ (t >> 14) ;
   t  = k1 & (x ^ (x <<  7));
   x ^=       t ^ (t >>  7) ;
   return x;
}

uint64_t flip_adiag(uint64_t x) {
    uint64_t t;
    const uint64_t k1 = 0xaa00aa00aa00aa00;
    const uint64_t k2 = 0xcccc0000cccc0000;
    const uint64_t k4 = 0xf0f0f0f00f0f0f0f;
    t  =       x ^ (x << 36) ;
    x ^= k4 & (t ^ (x >> 36));
    t  = k2 & (x ^ (x << 18));
    x ^=       t ^ (t >> 18) ;
    t  = k1 & (x ^ (x <<  9));
    x ^=       t ^ (t >>  9) ;
    return x;
}


inline uint64_t pext(uint64_t src, uint64_t mask) {
    return _pext_u64(src, mask);
}


int16_t weights[total_instances] = {
    0, 51, -20, 59, 88, 0, -51, 12, -88, 70, 90, 60, 92, 115, 80, -11,
    -58, -40, -65, -66, -61, 18, 23, 33, -89, -71, -108, 73, 50, 14, 120, 106,
    37, -16, -16, -86, 101, 97, 96, 91, 80, 95, 3, -20, -13, -1, -3, -17,
    -30, -21, 5, -83, -88, -59, -19, 47, 9, 58, 95, 64, -112, -37, -65, 42,
    47, 49, 99, 77, 100, 17, -4, 8, -92, -85, -64, -7, -14, 22, -91, -74,
    -95, 0, 61, -24, 42, 83, 38, -53, 23, -55, 27, -23, 25, 37, 38, 48,
    -2, -20, -3, -60, -16, 61, -7, 17, 31, -57, -65, -50, 57, 75, 50, 135,
    103, 36, -45, -78, -85, 47, 120, 99, 66, 72, 79, -18, 69, 43, -3, -16,
    -36, 57, 12, 41, -15, -19, -15, -33, 48, -81, 53, 84, 61, -127, 17, -20,
    -16, 37, 68, -15, -5, -28, -88, -40, -29, -75, -43, -130, -29, -69, -72, -87,
    -78, -81, 44, 271, -26, 116, 19, 80, -51, -59, -34, 117, 229, 30, 39, 63,
    24, 40, 53, -25, -27, -23, 66, 20, -116, -31, -22, -81, -155, 73, 172, 139,
    70, 68, 180, 25, 100, 123, 76, 134, 121, 81, 55, 56, -22, 33, 36, -24,
    -22, -24, 22, 0, -46, -71, -37, -61, -16, 103, 53, 41, 27, -27, -71, 6,
    -276, 28, -19, 12, 35, 22, 2, -79, 42, 20, -72, -93, -56, -1, -54, -48,
    -115, -35, -85, 7, 81, -227, -9, 114, 32, -86, 67, -111, -8, 98, 160, 30,
    181, 68, -22, 34, 83, -101, -60, -154, -120, 38, -167, -87, 4, -66, 44, 120,
    -24, -56, 165, 57, -39, 140, -21, 52, 1, 85, 103, 88, 46, -14, 54, 49,
    -23, -30, 56, 43, -10, 8, -37, -1, -30, -67, -51, -183, -103, -89, 35, -163,
    -202, -53, 14, -21, 20, 57, 58, 32, -39, 55, 12, -88, -107, -116, 9, -48,
    -24, -91, -66, -47, 0, -20, -42, -72, -88, 89, 64, -42, 21, 40, -95, 233,
    22, 88, 42, 31, 2, 44, -43, -86, 232, 44, 36, 108, 52, -15, -1, -56,
    -79, 213, -49, -53, 52, -4, -99, -15, -14, -81, 93, 35, 25, 77, -67, 52,
    47, 11, -146, 21, 43, 4, 20, -23, 12, 14, -54, -188, 182, -150, -34, 2,
    -3, -223, 63, -41, -109, 257, 15, -20, -40, -36, -43, -19, -33, 15, 195, 30,
    -54, -76, -44, -76, -38, -108, -175, 147, -240, -366, -278, 48, 280, 131, 77, 61,
    554, 150, 233, 155, 17, 252, 94, -9, -14, 250, 1, -124, 135, -52, -48, -265,
    -68, 456, 183, 62, -308, 151, 38, 30, 63, -1, 43, 32, 110, 63, 87, -7,
    113, 71, 3, -80, 129, 146, 78, 70, -5, 102, 57, 17, -169, -366, 45, 106,
    -121, 1, -42, 29, 47, -46, 233, 156, 71, 41, 14, 96, 10, 19, 32, 46,
    143, 53, 5, 3, 80, 43, -4, -311, 70, 20, 77, 77, 194, 271, 379, -2,
    -323, -6, 154, 108, 157, 51, -56, 56, -88, -766, 569, -34, -196, -33, -66, -59,
    -211, -93, 245, -364, -96, -123, 36, -128, -3, -103, -38, -23, -122, -8, -41, -105,
    -147, -23, -69, -39, -139, -101, -25, 14, -102, -126, -48, -84, -11, -147, -297, -23,
    -161, 31, -203, -112, 161, -32, -164, 133, -7, -54, -120, -130, -115, -74, -54, -144,
    -115, -9, -65, -144, -119, -111, -66, 108, 6, -32, -180, -28, 328, 658, 85, 599,
    87, 391, 22, 18, 720, -202, 459, 19, 351, -43, 72, -95, -69, 6, 369, -164,
    372, 71, -39, -633, -668, -71, 185, 318, -633, 466, 882, -30, -106, -211, 4, 23,
    55, -135, -145, 72, -151, -44, -23, 73, 184, 61, -70, -56, 146, -54, -30, 144,
    -165, -285, 376, -29, -197, -35, -53, 144, 132, 2, 67, -58, -104, -103, 7, -86,
    262, -364, -66, -118, -101, -144, -173, -3, -20, 184, 347, -143, -347, 46, -367, 266,
    -15, 154, 718, 650, 262, 330, 100, 214, 671, -311, -57, 262, -2, 166, -329, 42,
    -105, 329, 9, -51, 218, -115, 32, 287, 92, 70, 168, 215, 38, 72, 149, 94,
    35, 16, -31, 44, 3, -19, -93, -20, 75, 50, -1, -63, 39, 9, -184, -122,
    158, -80, -479, -73, 29, -497, -386, 29, 63, 29, 118, 57, 7, -26, 54, -4,
    -27, -86, 69, 84, 49, 45, -51, 40, 10, -35, -79, -410, -223, 627, -40, -141,
    975, 229, 10, -7, -501, 20, 369, -420, -89, -85, 73, -122, -37, -230, -158, -67,
    -403, 40, 175, -134, -52, 106, 649, -186, 12, 184, 5, 151, 230, 70, 183, 304,
    124, 38, 16, -53, 33, 29, 30, -28, 136, 115, 55, 29, -58, 42, 14, -119,
    -810, -589, 96, -499, 0, 67, -93, -357, 9, 58, 245, 108, 44, 0, -52, 60,
    10, -55, -88, 125, 82, 54, 12, -81, 64, 6, -18, -20, 135, -513, -616, -345,
    -35, -189, 388, 132, 329, 45, -133, -251, -171, -173, 45, 241, -48, 286, -532, -297,
    -26, 103, -319, 241, -412, 72, 136, 346, 90, -269, 605, 206, -117, 325, 70, 459,
    -134, 76, 67, 103, 35, 212, 93, 40, 62, -165, 245, 56, 97, -40, -10, -22,
    83, -152, 8, 200, -406, -390, 81, -607, -181, 140, 54, 762, 71, -107, -22, -33,
    62, -84, 2, 437, 114, 145, -84, 85, 36, 3, 20, -80, -527, -2, 810, -109,
    -202, 617, 70, -270, 166, -326, 137, -1, 10, -164, 71, 215, 249, -83, 594, -235,
    43, 70, 112, 219, 216, -163, 21, 555, 732, -89, 190, 147, -204, -214, 689, 25,
    -46, 51, 69, -23, -90, -103, -21, -67, -26, -297, -138, 42, -40, -82, -110, -23,
    -46, -44, -227, -502, -156, -382, -87, -60, -296, -373, -56, 13, 14, 43, -23, -62,
    -118, -24, -56, -74, -234, -147, 33, -51, -51, -114, -16, -38, 32, -545, -173, 574,
    -146, -326, -368, -655, 353, 93, 155, 92, 290, 342, -122, -142, 402, 572, -123, -10,
    -321, -226, -215, -157, -132, 140, -424, 54, 209, 32, 24, 498, -139, 22, 120, 485,
    8, 28, 60, 43, -7, -50, -85, -68, -47, -61, 20, -115, 32, -9, -58, -120,
    -24, -46, -89, 37, -455, -136, -296, -672, -142, 51, -105, 3, 72, 103, 63, -5,
    -45, -66, -26, -63, -62, -71, -122, 30, -4, -48, -89, -35, -32, 0, 0, 0,
    0, 0, 0, 0, 0, 0, 0, 0, 0, 0, 0, 0, 0, 0, 0, 0,
    0, 0, 0, 0, 0, 0, 0, 0, -8, 6, 0, 13, 8, 371, -12, -17,
    371, -4, -126, 68, 56, -109, 36, -6, 242, 142, -55, -167, 284, 54, -165, 85,
    7, 310, 151, -50, -1, -5, -46, -447, 0, 151, -450, 0, 13, -40, 61, -15,
    -192, -36, -107, -103, 88, -56, -172, 296, -53, -165, -233, -62, 21, 133, 0, 0,
    0, 0, 0, 0, 0, 0, 0, 0, 0, 0, 0, 0, 0, 0, 0, 0,
    0, 0, 0, 0, 0, 0, 0, 0, 0, 17, -87, 25, 67, -463, 128, -2,
    -162, 68, 50, 39, 304, 124, -10, 78, -25, 188, 109, -19, 7, 27, 139, 90,
    19, -55, 137, 132, 27, 157, 0, -73, -440, 0, -174, 323, 0, 83, 109, 342,
    162, 42, 54, -48, 126, 93, -7, -131, 93, 141, 19, 14, -56, 142, 138, 0,
    0, 0, 0, 0, 0, 0, 0, 0, 0, 0, 0, 0, 0, 0, 0, 0,
    0, 0, 0, 0, 0, 0, 0, 0, 0, 0, 7, 35, -140, 153, 0, -190,
    -3, 0, 558, -17, -107, 47, 28, -136, -121, -151, -39, -23, -108, -297, -230, 19,
    -154, -149, -176, -83, -33, -15, 397, 352, 36, -134, -115, -302, -116, 568, 8, 11,
    29, 41, -121, -177, -149, -44, -35, -90, -137, 3, -3, -137, -195, -155, -115, 18,
    0, 0, 0, 0, 0, 0, 0, 0, 0, 0, 0, 0, 0, 0, 0, 0,
    0, 0, 0, 0, 0, 0, 0, 0, 0, 0, 0, 52, 0, 21, -281, 0,
    31, 82, 0, 0, 158, -486, 911, 1, -157, -323, -119, 779, -569, 237, -93, -232,
    -80, -178, -165, -182, 1442, -193, -232, -50, 0, -243, 0, 0, -554, 0, 0, 25,
    350, 161, -97, -202, -437, -126, 106, 234, 94, -101, 0, -34, 397, -1013, -196, 219,
    -65, 0, 0, 0, 0, 0, 0, 0, 0, 0, 0, 0, 0, 0, 0, 0,
    0, 0, 0, 0, 0, 0, 0, 0, 0, 0, 0, 0, 96, 640, 534, 61,
    -167, -385, 54, -16, 216, 149, 244, 355, 218, 63, 65, 17, 278, 156, 39, -1,
    -152, 212, 197, 76, -13, 262, 147, 11, 623, 134, -112, -264, 12, -128, -225, 402,
    163, 366, 259, 250, 130, -13, 8, 214, 123, 32, -54, -236, 207, 210, 33, -54,
    215, 168, 0, 0, 0, 0, 0, 0, 0, 0, 0, 0, 0, 0, 0, 0,
    0, 0, 0, 0, 0, 0, 0, 0, 0, 0, 0, 0, 0, 171, 673, 396,
    159, -175, 389, 60, -305, 499, 182, 264, 199, 228, 57, -44, -27, 150, 61, 22,
    -269, -267, 169, 123, 32, -82, 171, 95, 3, 528, 523, 33, -45, -162, -147, -245,
    5, 143, 299, 86, 215, 77, -97, -29, 162, 110, -1, -143, -138, 140, 103, -12,
    -78, 179, 108, 0, 0, 0, 0, 0, 0, 0, 0, 0, 0, 0, 0, 0,
    0, 0, 0, 0, 0, 0, 0, 0, 0, 0, 0, 0, 0, 0, 121, 0,
    73, 540, 0, 0, 492, 0, 0, -29, 0, 6, 195, -44, -42, 30, 222, -244,
    -170, -583, 0, -6, -393, -84, 89, 607, 159, -84, 0, 0, 85, -38, 0, 556,
    -47, 0, -151, 0, -4, 22, -48, -874, -142, 88, 701, -235, -719, -119, -40, 359,
    -824, -137, 57, 163, 0, 0, 0, 0, 0, 0, 0, 0, 0, 0, 0, 0,
    0, 0, 0, 0, 0, 0, 0, 0, 0, 0, 0, 0, 0, 0, 0, -17,
    -278, -155, -65, -450, 415, -172, -359, 415, -26, 137, 188, 26, -122, -232, -167, -29,
    -111, -171, -112, -401, -7, -82, -175, -229, 71, -78, -110, -397, -806, -282, -688, -1,
    -15, -170, 148, -57, 131, 72, 23, -122, -222, -204, -14, -103, -200, -277, -286, -18,
    -60, -165, -258, -8, -44, 0, 0, 0, 0, 0, 0, 0, 0, 0, 0, 0,
    0, 0, 0, 0, 0, 0, 0, 0, 0, 0, 0, 0, 0, 0, 0, 0,
    -21, -190, -531, 27, -236, -121, 192, -269, 197, -55, 102, 63, 7, -143, -209, -228,
    -56, -172, -186, -233, -380, -42, -134, -224, -250, -9, -116, -104, -303, -352, 11, -19,
    -16, 50, 315, -282, -41, -5, -115, -22, -140, -262, -236, -67, -155, -180, -299, -190,
    -73, -141, -238, -224, -79, -30, 0, 0, 0, 0, 0, 0, 0, 0, 0, 0,
    0, 0, 0, 0, 0, 0, 0, 0, 0, 0, 0, 0, 0, 0, 0, 0,
    0, 2, 0, 0, 97, 0, 0, 0, 0, 0, 217, 0, 0, 264, -594, 206,
    -389, 240, -466, 149, 0, 0, -7, -123, 977, 340, 683, 145, -398, 0, 0, -1,
    0, 0, 0, 0, 0, 351, 0, 0, 221, -851, -78, 64, -400, -1, 435, 0,
    0, 417, 133, 315, 769, 906, 630, 0, 0, 0, 0, 0, 0, 0, 0, 0,
    0, 0, 0, 0, 0, 0, 0, 0, 0, 0, 0, 0, 0, 0, 0, 0,
    0, 0, -46, 0, 0, -6, 11, 172, -174, 0, 0, 63, -369, -72, 230, 55,
    -33, 119, 334, 124, -30, 169, 18, 287, 326, -100, 89, 401, 53, 160, 0, 0,
    250, 0, 0, 16, 0, 0, 222, 60, -30, 341, 325, 27, 60, 257, -11, 19,
    -118, 44, 403, 24, -46, -38, 334, 100, 0, 0, 0, 0, 0, 0, 0, 0,
    0, 0, 0, 0, 0, 0, 0, 0, 0, 0, 0, 0, 0, 0, 0, 0,
    0, 0, 0, -198, 0, 0, -39, 741, 0, -93, 0, 0, -173, 728, -215, -122,
    -134, -330, -8, -279, -97, -177, -30, -282, -13, -162, -243, -265, -45, -146, -74, 0,
    0, -543, 266, 0, 455, 0, 0, 29, -81, 0, 160, -283, -609, -329, 235, 34,
    -139, -879, -208, 53, 157, -287, -257, -298, -29, 0, 0, 0, 0, 0, 0, 0,
    0, 0, 0, 0, 0, 0, 0, 0, 0, 0, 0, 0, 0, 0, 0, 0,
    0, 0, 0, 0, 68, 0, 0, 0, 0, 0, 0, 0, 0, 159, 0, 0,
    -32, 114, 15, -428, 49, 0, -241, 0, 0, -88, -18, -2, -115, 326, -74, -233,
    -1, 0, -10, -1, 0, 0, -5, 0, -136, 0, 0, -5, -868, -299, -906, 589,
    -398, -313, 0, 0, -196, 245, -222, -228, 452, -335, 0, 0, 0, 0, 0, 0,
    0, 0, 0, 0, 0, 0, 0, 0, 0, 0, 0, 0, 0, 0, 0, 0,
    0, 0, 0, 0, 0, -93, -554, 129, 138, 323, 668, -49, 130, 666, -7, 66,
    -89, 74, -81, -155, -112, 33, -76, -177, -181, -467, 46, -25, -111, -169, 77, 17,
    -36, -196, 244, 95, 181, -419, 33, -531, 11, 36, 420, -37, 143, -21, -112, -78,
    54, -30, -136, -210, -74, 88, 54, -76, -148, 118, 63, 0, 0, 0, 0, 0,
    0, 0, 0, 0, 0, 0, 0, 0, 0, 0, 0, 0, 0, 0, 0, 0,
    0, 0, 0, 0, 0, 0, 35, 2, 398, 362, -2, 810, -93, 2, 788, 63,
    292, 385, 190, 8, -138, -55, 106, 8, -64, -145, 65, 122, 56, -10, -84, 114,
    72, -65, -167, 10, 163, -660, -7, -246, -50, -25, 81, 260, 64, 179, 64, -69,
    -30, 149, 88, -128, -206, -216, 150, 98, 20, -134, 188, 120, 0, 0, 0, 0,
    0, 0, 0, 0, 0, 0, 0, 0, 0, 0, 0, 0, 0, 0, 0, 0,
    0, 0, 0, 0, 0, 0, 0, 52, 0, 0, 0, 0, 0, -5, -6, 0,
    734, 0, 0, 674, 384, 183, -191, -384, 0, 156, 0, 0, 1088, 126, 9, 188,
    468, 0, -415, -2, 0, -68, -3, 0, -133, -21, 0, 601, 0, 0, 639, -966,
    -724, -137, -360, -117, -512, 0, 0, 404, -497, -485, -583, 404, -553, 0, 0, 0,
    0, 0, 0, 0, 0, 0, 0, 0, 0, 0, 0, 0, 0, 0, 0, 0,
    0, 0, 0, 0, 0, 0, 0, 0, 143, 2, 253, -14, 0, 641, 322, 335,
    121, 171, 172, 315, 252, -22, -143, -21, 96, 11, -99, -253, -484, 153, 87, -45,
    -71, 161, 118, -78, -279, -272, -56, -430, -65, -115, -276, -18, 86, 292, 281, 205,
    30, -51, -45, 104, 77, -124, 94, -278, 154, 119, 65, -86, 209, 159, 0, 0,
    0, 0, 0, 0, 0, 0, 0, 0, 0, 0, 0, 0, 0, 0, 0, 0,
    0, 0, 0, 0, 0, 0, 0, 0, 0, 38, 396, 346, 83, 34, 175, -366,
    -2, 34, 112, 278, 482, 259, 65, -47, 25, 138, 29, -66, -129, -282, 122, 145,
    90, -112, 206, 145, -16, 584, 102, -50, -538, 0, -166, -181, 0, 104, 193, 103,
    262, 106, 34, -21, 132, 136, -97, -75, -91, 152, 174, 96, -164, 274, 163, 0,
    0, 0, 0, 0, 0, 0, 0, 0, 0, 0, 0, 0, 0, 0, 0, 0,
    0, 0, 0, 0, 0, 0, 0, 0, 0, 0, 459, 0, 0, 0, 0, 0,
    0, 0, 0, -951, 0, 0, -1007, -434, -1171, 52, -153, -470, -852, 0, 0, 197,
    0, -606, -313, -182, 376, -1, 0, 0, 0, 0, 0, 0, 0, 0, 178, 0,
    0, -438, -212, -327, 41, -105, 38, 56, 0, 0, 237, -46, 0, -263, -106, 568,
    0, 0, 0, 0, 0, 0, 0, 0, 0, 0, 0, 0, 0, 0, 0, 0,
    0, 0, 0, 0, 0, 0, 0, 0, 0, 0, 0, -169, 0, 0, -244, 0,
    0, -73, 0, -336, 123, -146, 1086, 175, -63, 36, -71, 184, -6, 103, -272, 172,
    328, 123, -44, -55, 281, 96, 228, 0, 0, 145, 0, 0, 163, -178, -567, 319,
    74, -5, 237, -16, 123, 47, 272, 137, 260, 272, -380, 4, 228, -102, 107, 361,
    81, 0, 0, 0, 0, 0, 0, 0, 0, 0, 0, 0, 0, 0, 0, 0,
    0, 0, 0, 0, 0, 0, 0, 0, 0, 0, 0, 0, -52, 0, 0, 250,
    0, 0, 0, 0, 0, -71, -517, 143, -154, -74, -546, -439, 265, 72, -330, 47,
    -420, -208, -106, -290, -328, -266, -127, -143, 0, 0, -251, 0, 0, -9, -114, 0,
    -32, 300, 354, -79, -142, -347, -419, -234, -85, -49, 28, 272, -94, -114, -286, -235,
    -85, -4, 0, 0, 0, 0, 0, 0, 0, 0, 0, 0, 0, 0, 0, 0,
    0, 0, 0, 0, 0, 0, 0, 0, 0, 0, 0, 0, 0, 472, 0, 1,
    77, 0, 8, 14, 0, 1, 352, 0, 0, -199, 703, -472, -617, 55, -32, -473,
    0, 0, -136, 619, 600, -296, 1064, -753, 0, 0, 0, 0, 0, 0, 0, 0,
    0, -185, 0, 0, -131, 0, 0, -714, 19, 0, -642, 0, 0, -527, 0, 392,
    -412, -144, -317, 0, 0, 0, 0, 0, 0, 0, 0, 0, 0, 0, 0, 0,
    0, 0, 0, 0, 0, 0, 0, 0, 0, 0, 0, 0, 0, 0, -23, -33,
    -505, 42, -52, 350, -148, 0, 469, 73, 338, 252, 105, -150, -244, -223, -58, -138,
    -95, -269, -138, 10, -91, -151, -271, 18, -78, -147, -311, -217, 184, -106, 0, -60,
    -60, -12, -14, 44, 39, 53, -93, -234, -213, -47, -71, -136, -300, -480, -58, -9,
    -140, -317, 61, -38, 0, 0, 0, 0, 0, 0, 0, 0, 0, 0, 0, 0,
    0, 0, 0, 0, 0, 0, 0, 0, 0, 0, 0, 0, 0, 0, 0, 117,
    42, 197, 2, 213, 386, -300, 123, 725, 75, 200, -132, 88, -146, -191, -230, -30,
    -65, -142, -279, -237, 20, 29, -60, -242, 54, -25, -62, -172, -9, -54, -377, -289,
    -370, -292, 0, 67, 228, 412, 58, -36, -128, -193, 71, -10, -145, -270, 50, 37,
    63, -47, -256, 150, 61, 0, 0, 0, 0, 0, 0, 0, 0, 0, 0, 0,
    0, 0, 0, 0, 0, 0, 0, 0, 0, 0, 0, 0, 0, 0, 0, 0,
    298, 0, 0, 0, 0, 0, 0, 0, 0, 582, 0, 0, 375, 480, -292, 40,
    128, -1191, 143, 0, 0, -194, 600, 2, -763, -147, -702, -5, 0, 0, 0, 0,
    0, 0, 0, 0, 796, 0, 0, 342, 8, 0, 151, 0, 0, -399, 0, 0,
    -70, 0, 270, -28, 0, -301, 0, 0, 0, 0, 0, 0, 0, 0, 0, 0,
    0, 0, 0, 0, 0, 0, 0, 0, 0, 0, 0, 0, 0, 0, 0, 0,
    0, 83, -163, 85, 177, -477, 182, -37, 159, 520, 139, 103, 272, 113, -61, -147,
    -146, 32, -19, -97, -144, -236, 14, -29, -76, -157, 137, -43, 24, -544, 2, -99,
    -977, 0, -501, -796, 0, 92, -114, 213, 73, -33, -85, -110, 48, 7, -39, -284,
    -325, 35, 14, -70, -171, 173, 44, 0, 0, 0, 0, 0, 0, 0, 0, 0,
    0, 0, 0, 0, 0, 0, 0, 0, 0, 0, 0, 0, 0, 0, 0, 0,
    0, 0, 71, -85, 313, 148, -75, 590, -40, 373, -1, 148, 226, 320, 137, -18,
    -93, -99, 141, 7, -63, -121, -349, 55, 62, -31, -144, 154, 74, 113, -17, 61,
    -22, -239, 11, -28, -342, -182, 175, 364, 279, 178, 27, -36, -42, 194, 65, -8,
    93, -127, 106, 101, 35, -63, 179, 133, 0, 0, 0, 0, 0, 0, 0, 0,
    0, 0, 0, 0, 0, 0, 0, 0, 0, 0, 0, 0, 0, 0, 0, 0,
    0, 0, 0, 0, 0, 0, 0, 0, 0, 0, 0, 0, 0, 0, 0, 0,
    0, 0, 0, 0, 0, 0, 0, 0, 0, 0, 0, 0, 0, 0, 0, 0,
    0, 0, 0, 0, 0, 0, 0, 0, 0, 0, 0, 0, 0, 0, 0, 0,
    0, 0, 0, 0, 0, 0, 0, 0, 0, 0, 0, 0, 0, 0, 0, 0,
    0, 0, 0, 0, 0, 0, 0, 0, 0, 0, 0, 0, 0, 0, 0, 0,
    0, 0, 0, 0, -13, 0, 47, 163, 0, 4, -328, 0, 0, -8, -238, 231,
    88, -517, 285, -144, -55, 541, 12, -422, 175, 473, -227, 244, -147, 166, 550, -53,
    64, 51, 115, 0, 0, 0, 0, 0, 51, 216, 317, 208, -298, 297, -81, -399,
    325, 54, -189, 204, 169, -275, 447, -95, 217, 488, 0, 0, 0, 0, 0, 0,
    0, 0, 0, 0, 0, 0, 0, 0, 0, 0, 0, 0, 0, 0, 0, 0,
    0, 0, 0, 0, 0, -50, -100, 95, 188, 0, 0, 0, 0, 0, -95, -75,
    190, 151, -492, 104, -167, -271, 56, -81, -560, 14, 132, -207, 480, -172, -139, 271,
    -37, -66, 0, 455, -13, 0, -57, -4, 0, -28, -495, 443, -42, -433, 154, -449,
    -428, 414, 2, -27, 391, -14, -541, 63, -140, -65, 480, 0, 0, 0, 0, 0,
    0, 0, 0, 0, 0, 0, 0, 0, 0, 0, 0, 0, 0, 0, 0, 0,
    0, 0, 0, 0, 0, 0, 0, 0, 0, 0, 0, 0, 0, 0, 0, 0,
    0, 0, 0, 0, 0, 0, 0, 0, 0, 0, 0, 0, 0, 0, 0, 0,
    0, 0, 0, 0, 0, 0, 0, 0, 0, 0, 0, 0, 0, 0, 0, 0,
    0, 0, 0, 0, 0, 0, 0, 0, 0, 0, 0, 0, 0, 0, 0, 0,
    0, 0, 0, 0, 0, 0, 0, 0, 0, 0, 0, 0, 0, 0, 0, 0,
    0, 0, 0, 0, 0, 0, 0, -32, 133, 298, 172, -37, 201, -103, 0, 180,
    45, -227, 347, 129, -95, 201, -305, -92, 321, -21, -119, 104, 271, 99, 174, -151,
    154, 290, -118, 171, -5, -436, -201, 130, 94, -3, 0, 96, 135, 368, 279, -28,
    -93, -178, -38, 197, 4, -218, 132, 182, 86, 181, -124, 127, 293, 0, 0, 0,
    0, 0, 0, 0, 0, 0, 0, 0, 0, 0, 0, 0, 0, 0, 0, 0,
    0, 0, 0, 0, 0, 0, 0, 0, 16, 17, 482, 623, 0, 386, 59, 0,
    247, 87, 66, 503, 282, -141, -104, -227, -108, 80, -10, -42, 30, 279, 67, 83,
    -180, 97, 177, -58, -257, 508, 157, 189, 0, -24, 0, 0, 102, 186, 386, 240,
    -117, -4, -131, -118, 11, 20, 8, 193, 282, -38, 118, -138, -79, 273, 0, 0,
    0, 0, 0, 0, 0, 0, 0, 0, 0, 0, 0, 0, 0, 0, 0, 0,
    0, 0, 0, 0, 0, 0, 0, 0, 0, 0, 0, 0, 0, 0, 0, 0,
    0, 0, 0, 0, 0, 0, 0, 0, 0, 0, 0, 0, 0, 0, 0, 0,
    0, 0, 0, 0, 0, 0, 0, 0, 0, 0, 0, 0, 0, 0, 0, 0,
    0, 0, 0, 0, 0, 0, 0, 0, 0, 0, 0, 0, 0, 0, 0, 0,
    0, 0, 0, 0, 0, 0, 0, 0, 0, 0, 0, 0, 0, 0, 0, 0,
    0, 0, 0, 0, 0, 0, 0, 0, 0, 0, 27, -287, 195, 129, 0, 0,
    -155, -71, 0, -15, -181, -73, 101, -235, -91, -305, -170, 9, -110, -238, -82, 108,
    36, -65, -262, 35, 84, -100, -223, -156, -139, -249, 0, -295, -285, 0, -8, 20,
    12, 173, -130, -220, -282, -155, -44, -82, -562, 23, 148, -198, 72, -281, -47, 134,
    0, 0, 0, 0, 0, 0, 0, 0, 0, 0, 0, 0, 0, 0, 0, 0,
    0, 0, 0, 0, 0, 0, 0, 0, 0, 0, 0, 56, 49, 163, 193, 459,
    13, -46, -5, 208, -7, -77, 125, 89, -210, -227, -145, -175, -61, -105, -159, -156,
    143, -234, -69, -220, 78, 15, -40, -422, -293, 72, -277, 8, -661, -204, 17, 13,
    -111, 63, 137, -197, -151, -261, -311, -117, -26, -197, 347, 183, -303, 25, -116, -138,
    181, 0, 0, 0, 0, 0, 0, 0, 0, 0, 0, 0, 0, 0, 0, 0,
    0, 0, 0, 0, 0, 0, 0, 0, 0, 0, 0, 0, 0, 0, 0, 0,
    0, 0, 0, 0, 0, 0, 0, 0, 0, 0, 0, 0, 0, 0, 0, 0,
    0, 0, 0, 0, 0, 0, 0, 0, 0, 0, 0, 0, 0, 0, 0, 0,
    0, 0, 0, 0, 0, 0, 0, 0, 0, 0, 0, 0, 0, 0, 0, 0,
    0, 0, 0, 0, 0, 0, 0, 0, 0, 0, 0, 0, 0, 0, 0, 0,
    0, 0, 0, 0, 0, 0, 0, 0, 0, 0, 0, 0, 0, -266, 0, 0,
    26, 0, 10, 4, 0, 0, 210, 276, 55, 562, -491, 383, -592, 219, -54, 91,
    0, 335, 182, 199, 120, 164, 110, 870, 0, 0, 0, 0, 0, 0, 0, 0,
    0, 430, 58, 165, 100, 138, -134, -41, -31, 542, 24, 0, 51, 142, -139, 193,
    -1141, -25, 245, 0, 0, 0, 0, 0, 0, 0, 0, 0, 0, 0, 0, 0,
    0, 0, 0, 0, 0, 0, 0, 0, 0, 0, 0, 0, 0, 0, -14, 0,
    0, 0, 0, 0, 0, 0, 0, 230, 736, 0, 790, -293, 91, -541, -312, 413,
    199, -123, -109, -290, -480, 84, -623, -313, 164, -645, 0, 0, 0, 0, 0, 0,
    0, 0, 314, 99, 0, 653, -167, -37, -57, 259, 781, 161, -73, 375, 266, -552,
    126, -391, -387, 434, 0, 0, 0, 0, 0, 0, 0, 0, 0, 0, 0, 0,
    0, 0, 0, 0, 0, 0, 0, 0, 0, 0, 0, 0, 0, 0, 0, 0,
    0, 0, 0, 0, 0, 0, 0, 0, 0, 0, 0, 0, 0, 0, 0, 0,
    0, 0, 0, 0, 0, 0, 0, 0, 0, 0, 0, 0, 0, 0, 0, 0,
    0, 0, 0, 0, 0, 0, 0, 0, 0, 0, 0, 0, 0, 0, 0, 0,
    0, 0, 0, 0, 0, 0, 0, 0, 0, 0, 0, 0, 0, 0, 0, 0,
    0, 0, 0, 0, 0, 0, 0, 0, 0, 0, 0, 0, 0, 0, 0, 0,
    175, -14, 290, 351, -75, 475, 263, -2, 223, 140, -86, 436, 174, -33, 426, 29,
    335, 376, 140, -81, 185, 639, 394, 284, 38, 427, 395, -22, -5, -255, -649, -108,
    0, 244, 0, 0, 294, 220, 434, 487, 122, 149, -172, 209, 340, 80, -243, 284,
    356, 306, 312, -130, 419, 440, 0, 0, 0, 0, 0, 0, 0, 0, 0, 0,
    0, 0, 0, 0, 0, 0, 0, 0, 0, 0, 0, 0, 0, 0, 0, 0,
    0, 238, 309, 437, 170, -50, 268, 348, 0, 201, 292, 194, 472, 481, 100, 152,
    140, 213, 49, 127, 66, 271, 474, 335, 215, 61, 358, 226, -44, 0, 0, 42,
    0, 0, -316, 0, 0, 299, 379, 601, 434, 27, 106, -4, 147, 384, 72, -150,
    288, 328, 233, 349, -31, 297, 484, 0, 0, 0, 0, 0, 0, 0, 0, 0,
    0, 0, 0, 0, 0, 0, 0, 0, 0, 0, 0, 0, 0, 0, 0, 0,
    0, 0, 0, 0, 0, 0, 0, 0, 0, 0, 0, 0, 0, 0, 0, 0,
    0, 0, 0, 0, 0, 0, 0, 0, 0, 0, 0, 0, 0, 0, 0, 0,
    0, 0, 0, 0, 0, 0, 0, 0, 0, 0, 0, 0, 0, 0, 0, 0,
    0, 0, 0, 0, 0, 0, 0, 0, 0, 0, 0, 0, 0, 0, 0, 0,
    0, 0, 0, 0, 0, 0, 0, 0, 0, 0, 0, 0, 0, 0, 0, 0,
    0, 0, 0, 242, -263, 93, 162, 0, 34, -92, 0, 145, 349, 167, 637, 532,
    83, 99, -163, 53, 277, 96, -385, -72, 362, 53, -61, -131, -107, 76, 239, 0,
    0, -80, -34, 0, 379, -12, 0, 294, 15, 578, 429, -64, -34, -94, 117, 70,
    109, -421, 331, 113, 266, 48, -114, -74, 383, 0, 0, 0, 0, 0, 0, 0,
    0, 0, 0, 0, 0, 0, 0, 0, 0, 0, 0, 0, 0, 0, 0, 0,
    0, 0, 0, 0, 331, 0, 89, 541, -45, 108, 376, 0, 246, 291, 541, 461,
    405, 98, 15, 107, 53, 242, 107, 314, 25, 57, -47, 261, -195, -239, 374, 86,
    -97, 0, -203, -3, 0, -43, -6, 0, 240, 19, 733, 426, 118, 22, -180, 226,
    367, 147, -98, 285, 234, 80, 270, 38, 39, 486, 0, 0, 0, 0, 0, 0,
    0, 0, 0, 0, 0, 0, 0, 0, 0, 0, 0, 0, 0, 0, 0, 0,
    0, 0, 0, 0, 0, 0, 0, 0, 0, 0, 0, 0, 0, 0, 0, 0,
    0, 0, 0, 0, 0, 0, 0, 0, 0, 0, 0, 0, 0, 0, 0, 0,
    0, 0, 0, 0, 0, 0, 0, 0, 0, 0, 0, 0, 0, 0, 0, 0,
    0, 0, 0, 0, 0, 0, 0, 0, 0, 0, 0, 0, 0, 0, 0, 0,
    0, 0, 0, 0, 0, 0, 0, 0, 0, 0, 0, 0, 0, 0, 0, 0,
    0, 0, 0, 0, 0, 0, 576, 0, 0, 0, 0, 0, 0, 0, 0, -245,
    -111, 127, 303, -388, 388, 235, -44, 503, -27, -29, -281, 114, -532, -168, -348, 1,
    469, 0, 0, 0, 0, 0, 0, 0, 0, 0, -222, 0, 96, 383, 332, 513,
    541, 240, 643, -247, 0, 66, 581, -104, 453, -745, 42, 756, 0, 0, 0, 0,
    0, 0, 0, 0, 0, 0, 0, 0, 0, 0, 0, 0, 0, 0, 0, 0,
    0, 0, 0, 0, 0, 0, 0, 0, 0, 0, 0, 0, 0, 0, -61, 0,
    -187, -187, 0, 155, -7, 108, -289, -93, -20, -784, -204, 0, 232, -8, -28, 213,
    -15, 542, -134, 0, 0, -13, -4, 0, 0, -4, 0, -211, -343, 0, -51, -615,
    -94, -330, -37, -168, -15, -9, -102, 410, -15, -259, -337, -365, 715, 0, 0, 0,
    0, 0, 0, 0, 0, 0, 0, 0, 0, 0, 0, 0, 0, 0, 0, 0,
    0, 0, 0, 0, 0, 0, 0, 0, 0, 0, 0, 0, 0, 0, 0, 0,
    0, 0, 0, 0, 0, 0, 0, 0, 0, 0, 0, 0, 0, 0, 0, 0,
    0, 0, 0, 0, 0, 0, 0, 0, 0, 0, 0, 0, 0, 0, 0, 0,
    0, 0, 0, 0, 0, 0, 0, 0, 0, 0, 0, 0, 0, 0, 0, 0,
    0, 0, 0, 0, 0, 0, 0, 0, 0, 0, 0, 0, 0, 0, 0, 0,
    0, 0, 0, 0, 0, 0, 0, 0, 0, -107, 312, 182, 203, 0, 0, -151,
    0, 0, -160, -135, 45, 8, -544, -267, -641, -273, -51, -256, -960, 263, 85, -554,
    0, -415, -377, 115, -321, -126, 0, -142, -233, 0, -236, -191, 68, -44, -145, -242,
    108, -365, -231, 238, -297, -261, -314, -591, -274, -133, -93, -43, -587, -438, -110, 0,
    0, 0, 0, 0, 0, 0, 0, 0, 0, 0, 0, 0, 0, 0, 0, 0,
    0, 0, 0, 0, 0, 0, 0, 0, 0, 0, -293, 0, 0, -490, 0, 9,
    188, 0, 0, -164, -103, 373, 3, -502, -360, -397, -93, -168, -301, -833, -255, 21,
    -117, -293, -477, 37, 142, -215, -109, 245, 321, -109, 0, -140, -16, 0, -171, 214,
    72, 81, -185, -152, -502, -165, -300, -331, -537, -257, -31, -600, -188, -528, -304, 9,
    0, 0, 0, 0, 0, 0, 0, 0, 0, 0, 0, 0, 0, 0, 0, 0,
    0, 0, 0, 0, 0, 0, 0, 0, 0, 0, 0, 0, 0, 0, 0, 0,
    0, 0, 0, 0, 0, 0, 0, 0, 0, 0, 0, 0, 0, 0, 0, 0,
    0, 0, 0, 0, 0, 0, 0, 0, 0, 0, 0, 0, 0, 0, 0, 0,
    0, 0, 0, 0, 0, 0, 0, 0, 0, 0, 0, 0, 0, 0, 0, 0,
    0, 0, 0, 0, 0, 0, 0, 0, 0, 0, 0, 0, 0, 0, 0, 0,
    0, 0, 0, 0, 0, 0, 0, 0, 0, 0, 0, 0, -158, -15, 0, -517,
    0, 0, -214, 0, 0, -33, -242, 52, 13, -422, -364, -409, -263, -276, -303, -358,
    -397, -11, -282, -261, -320, -372, -88, -277, -361, -276, -139, -149, 0, -555, -230, 161,
    -187, -159, -262, -52, -274, -406, -452, -608, -243, -269, -345, 131, -100, 96, -145, -373,
    -418, -85, 0, 0, 0, 0, 0, 0, 0, 0, 0, 0, 0, 0, 0, 0,
    0, 0, 0, 0, 0, 0, 0, 0, 0, 0, 0, 0, 0, -157, 82, 0,
    -632, 0, 0, -203, 0, 97, -111, -250, 76, 28, -402, -308, -409, -342, -558, -294,
    -517, -37, 48, -492, -187, -420, -216, -9, -274, -85, -97, -298, -462, 0, -854, -102,
    0, -187, -454, 8, -58, -407, -394, -643, -540, -343, -75, -336, 241, 44, -347, -293,
    -114, -401, 143, 0, 0, 0, 0, 0, 0, 0, 0, 0, 0, 0, 0, 0,
    0, 0, 0, 0, 0, 0, 0, 0, 0, 0, 0, 0, 0, 0, 0, 0,
    0, 0, 0, 0, 0, 0, 0, 0, 0, 0, 0, 0, 0, 0, 0, 0,
    0, 0, 0, 0, 0, 0, 0, 0, 0, 0, 0, 0, 0, 0, 0, 0,
    0, 0, 0, 0, 0, 0, 0, 0, 0, 0, 0, 0, 0, 0, 0, 0,
    0, 0, 0, 0, 0, 0, 0, 0, 0, 0, 0, 0, 0, 0, 0, 0,
    0, 0, 0, 0, 0, 0, 0, 0, 0, 0, 0, 0, 0, 0, 0, 254,
    0, 0, 0, 0, 0, 0, 0, 0, 399, 0, -252, 109, -234, -311, 436, 312,
    0, 377, -63, 0, -566, 113, 209, -334, -28, -122, 0, 0, 0, 0, 0, 0,
    0, 0, 0, -70, -343, 0, -826, -15, 0, 0, 0, 0, 206, -152, 0, 0,
    222, -1046, 0, -2, -331, 0, 0, 0, 0, 0, 0, 0, 0, 0, 0, 0,
    0, 0, 0, 0, 0, 0, 0, 0, 0, 0, 0, 0, 0, 0, 0, 0,
    691, 0, 0, 0, 0, 0, 0, 0, 0, -44, 0, 0, 467, -359, 586, -88,
    -89, 0, 666, -43, -306, 537, -177, 491, 222, -15, -566, -60, 0, 0, 0, 0,
    0, 0, 0, 0, 400, -601, 0, 237, -16, -21, -66, -58, -47, 323, -30, -19,
    695, -91, -235, -153, -68, -19, 0, 0, 0, 0, 0, 0, 0, 0, 0, 0,
    0, 0, 0, 0, 0, 0, 0, 0, 0, 0, 0, 0, 0, 0, 0, 0,
    0, 0, 0, 0, 0, 0, 0, 0, 0, 0, 0, 0, 0, 0, 0, 0,
    0, 0, 0, 0, 0, 0, 0, 0, 0, 0, 0, 0, 0, 0, 0, 0,
    0, 0, 0, 0, 0, 0, 0, 0, 0, 0, 0, 0, 0, 0, 0, 0,
    0, 0, 0, 0, 0, 0, 0, 0, 0, 0, 0, 0, 0, 0, 0, 0,
    0, 0, 0, 0, 0, 0, 0, 0, 0, 0, 0, 0, 0, 0, 0, 0,
    0, 0, -24, 0, 346, -244, 0, 0, -68, 0, 0, -187, -172, 163, -77, -350,
    148, -289, -1, 155, -192, -330, -51, 334, 265, 265, -166, 326, 267, 3, -42, -188,
    -157, 0, 0, 0, 0, 0, 76, 2, 491, 280, 7, 160, -281, -58, 193, -55,
    -727, 121, 163, -11, 130, -289, 33, 242, 0, 0, 0, 0, 0, 0, 0, 0,
    0, 0, 0, 0, 0, 0, 0, 0, 0, 0, 0, 0, 0, 0, 0, 0,
    0, 0, 0, 298, 0, 0, 0, 0, 368, 220, 0, 0, 136, -76, 153, 302,
    -194, -56, -251, -27, -255, -6, -212, 506, 34, 82, 147, -193, 151, 40, -161, -18,
    -212, 68, 0, 0, -167, 0, 0, -24, 234, 267, 361, 304, -147, -100, 111, -58,
    -106, -299, 144, 105, 228, 150, -145, 8, 223, 0, 0, 0, 0, 0, 0, 0,
    0, 0, 0, 0, 0, 0, 0, 0, 0, 0, 0, 0, 0, 0, 0, 0,
    0, 0, 0, 0, 0, 0, 0, 0, 0, 0, 0, 0, 0, 0, 0, 0,
    0, 0, 0, 0, 0, 0, 0, 0, 0, 0, 0, 0, 0, 0, 0, 0,
    0, 0, 0, 0, 0, 0, 0, 0, 0, 0, 0, 0, 0, 0, 0, 0,
    0, 0, 0, 0, 0, 0, 0, 0, 0, 0, 0, 0, 0, 0, 0, 0,
    0, 0, 0, 0, 0, 0, 0, 0, 0, 0, 0, 0, 0, 0, 0, 0,
    0, 0, 0, 0, 0, -368, -4, 0, 0, 0, 0, 0, 0, -454, -61, 60,
    -84, -8, -527, -407, -490, -382, -578, -226, -457, -326, 27, -154, -188, -343, -294, -232,
    -222, -52, 0, -684, -37, 0, -388, -6, 0, -35, -689, -31, -121, -434, -333, -129,
    -661, 10, -192, -608, -409, -212, -504, -88, -405, -7, 28, 0, 0, 0, 0, 0,
    0, 0, 0, 0, 0, 0, 0, 0, 0, 0, 0, 0, 0, 0, 0, 0,
    0, 0, 0, 0, 0, 0, -387, -4, 0, 0, -1, 0, -178, 0, 0, -275,
    -436, -341, 76, -662, -555, -59, -406, -144, -290, -338, -612, 155, -425, -349, -547, -251,
    -178, -621, -38, 0, -93, -27, 0, -186, -11, 0, -167, -391, -120, 169, -124, -401,
    -370, -747, -412, -412, -175, 106, 145, -142, -20, -311, -1256, 109, 0, 0, 0, 0,
    0, 0, 0, 0, 0, 0, 0, 0, 0, 0, 0, 0, 0, 0, 0, 0,
    0, 0, 0, 0, 0, 0, 0, 0, 0, 0, 0, 0, 0, 0, 0, 0,
    0, 0, 0, 0, 0, 0, 0, 0, 0, 0, 0, 0, 0, 0, 0, 0,
    0, 0, 0, 0, 0, 0, 0, 0, 0, 0, 0, 0, 0, 0, 0, 0,
    0, 0, 0, 0, 0, 0, 0, 0, 0, 0, 0, 0, 0, 0, 0, 0,
    0, 0, 0, 0, 0, 0, 0, 0, 0, 0, 0, 0, 0, 0, 0, 0,
    0, 0, 0, 0, 0, 0, 0, 0, 0, 0, 0, 0, 0, 0, 0, 0,
    0, 0, 0, -306, -39, -293, 434, -702, 43, 0, 0, 0, 0, 0, -12, 0,
    0, -15, 0, 0, 0, 0, 0, 0, 0, 0, 0, 0, 136, 0, -48, 374,
    -6, 0, -1, 0, 0, 0, 0, 0, 0, 0, 242, -101, 0, 0, 0, 0,
    0, 0, 0, 0, 0, 0, 0, 0, 0, 0, 0, 0, 0, 0, 0, 0,
    0, 0, 0, 0, 0, 0, 0, 0, 0, 0, 0, 0, 0, 0, 0, 0,
    0, 0, 599, 0, 0, 0, -278, -75, 49, -570, 0, -299, -2, -233, 0, -3,
    -73, -174, -112, -416, -145, 0, 0, 0, 0, 0, 0, 0, 0, -45, 0, 119,
    -17, -120, -89, -14, -223, 0, -319, -31, -153, -12, -43, -251, -664, -71, 96, 0,
    0, 0, 0, 0, 0, 0, 0, 0, 0, 0, 0, 0, 0, 0, 0, 0,
    0, 0, 0, 0, 0, 0, 0, 0, 0, 0, 0, 0, 0, 0, 0, 0,
    0, 0, 0, 0, 0, 0, 0, 0, 0, 0, 0, 0, 0, 0, 0, 0,
    0, 0, 0, 0, 0, 0, 0, 0, 0, 0, 0, 0, 0, 0, 0, 0,
    0, 0, 0, 0, 0, 0, 0, 0, 0, 0, 0, 0, 0, 0, 0, 0,
    0, 0, 0, 0, 0, 0, 0, 0, 0, 0, 0, 0, 0, 0, 0, 0,
    0, 0, 0, 0, 0, 0, 0, 0, 0, 0, 0, -233, -193, 327, -409, -385,
    -187, -6, -59, -319, -84, -267, 44, -7, -384, -272, -558, -321, -189, -219, -454, -224,
    76, -190, -86, -386, -74, -27, -312, -191, -287, -403, -373, 0, -873, -155, 17, -26,
    -90, 132, 81, -287, -221, -376, -141, -165, -267, -542, -157, 44, -200, -55, -472, 58,
    -23, 0, 0, 0, 0, 0, 0, 0, 0, 0, 0, 0, 0, 0, 0, 0,
    0, 0, 0, 0, 0, 0, 0, 0, 0, 0, 0, 0, -6, -47, 56, 0,
    -54, 1, 299, 0, 54, -24, 70, 105, 166, -286, -179, -106, -262, -148, -208, -530,
    -252, 98, -78, -76, -215, 81, 28, -109, -39, 0, -461, -371, 0, -62, -196, 0,
    -68, 30, 417, 40, -123, -101, -346, 93, -133, -295, -689, -230, -191, -61, -11, -472,
    -21, 85, 0, 0, 0, 0, 0, 0, 0, 0, 0, 0, 0, 0, 0, 0,
    0, 0, 0, 0, 0, 0, 0, 0, 0, 0, 0, 0, 0, 0, 0, 0,
    0, 0, 0, 0, 0, 0, 0, 0, 0, 0, 0, 0, 0, 0, 0, 0,
    0, 0, 0, 0, 0, 0, 0, 0, 0, 0, 0, 0, 0, 0, 0, 0,
    0, 0, 0, 0, 0, 0, 0, 0, 0, 0, 0, 0, 0, 0, 0, 0,
    0, 0, 0, 0, 0, 0, 0, 0, 0, 0, 0, 0, 0, 0, 0, 0,
    0, 0, 0, 0, 0, 0, 0, 0, 0, 0, 0, 0, 0, 0, 111, 0,
    498, 11, 0, 784, -358, 0, 0, 73, -7, 272, 376, -218, -188, -255, -229, -3,
    -60, -459, 152, 145, -188, -5, -505, -95, 266, -218, -34, -128, -378, -67, 0, -4,
    -13, 5, 75, -110, -19, 395, -22, -27, -564, -92, -88, -191, -258, -105, 324, 136,
    167, -325, 29, 221, 0, 0, 0, 0, 0, 0, 0, 0, 0, 0, 0, 0,
    0, 0, 0, 0, 0, 0, 0, 0, 0, 0, 0, 0, 0, 0, 0, 687,
    0, -50, 0, 0, 0, 144, -1, 0, 93, 40, 378, 351, -194, -24, -232, -233,
    10, -152, -573, -3, 174, -53, 180, -566, 36, 202, -355, -65, -92, -55, -64, 0,
    -259, -40, 0, 47, -266, 41, 301, 128, -130, -244, -222, 200, -280, -493, -252, 104,
    -92, 39, -486, 105, 214, 0, 0, 0, 0, 0, 0, 0, 0, 0, 0, 0,
    0, 0, 0, 0, 0, 0, 0, 0, 0, 0, 0, 0, 0, 0, 0, 0,
    0, 0, 0, 0, 0, 0, 0, 0, 0, 0, 0, 0, 0, 0, 0, 0,
    0, 0, 0, 0, 0, 0, 0, 0, 0, 0, 0, 0, 0, 0, 0, 0,
    0, 0, 0, 0, 0, 0, 0, 0, 0, 0, 0, 0, 0, 0, 0, 0,
    0, 0, 0, 0, 0, 0, 0, 0, 0, 0, 0, 0, 0, 0, 0, 0,
    0, 0, 0, 0, 0, 0, 0, 0, 0, 0, 0, 0, 0, 0, 0, 0,
    0, 0, 0, 0, 0, 0, 0, 0, 0, 0, -281, 0, 0, -2, -62, 0,
    0, 0, -54, -284, 0, 0, 0, 0, 0, 0, -14, -40, 0, 0, 0, 0,
    0, 0, 0, 0, 0, 0, 0, -52, 38, 0, 0, 0, 0, -205, -4, 0,
    0, 0, 0, 0, -45, 0, -69, 0, 0, 0, 0, 0, 0, 0, 0, 0,
    0, 0, 0, 0, 0, 0, 0, 0, 0, 0, 0, 0, 0, 0, 0, 0,
    0, 0, 0, 0, 0, 0, 0, 0, 0, 0, 0, -234, 0, 0, 0, -79,
    -28, -10, -93, 0, -108, -5, -18, -90, 0, -272, -69, -73, 0, -76, 0, 0,
    0, -1, 0, 0, 0, 0, -9, -7, 0, 0, -82, -328, -73, -29, 0, -64,
    -1, 0, -250, -2, -185, -236, -14, -91, 0, 0, 0, 0, 0, 0, 0, 0,
    0, 0, 0, 0, 0, 0, 0, 0, 0, 0, 0, 0, 0, 0, 0, 0,
    0, 0, 0, 0, 0, 0, 0, 0, 0, 0, 0, 0, 0, 0, 0, 0,
    0, 0, 0, 0, 0, 0, 0, 0, 0, 0, 0, 0, 0, 0, 0, 0,
    0, 0, 0, 0, 0, 0, 0, 0, 0, 0, 0, 0, 0, 0, 0, 0,
    0, 0, 0, 0, 0, 0, 0, 0, 0, 0, 0, 0, 0, 0, 0, 0,
    0, 0, 0, 0, 0, 0, 0, 0, 0, 0, 0, 0, 0, 0, 0, 0,
    0, 0, 0, 0, 25, 172, 482, 609, -7, 336, 72, -1, 309, -28, 34, 156,
    331, -281, -226, -408, -202, -43, -151, -510, -182, 54, -120, -20, -334, -41, 22, -163,
    -255, 0, -189, -255, 0, -703, -39, 0, -28, 127, -25, 141, -87, -175, -219, -8,
    -48, -209, -464, -66, 164, -17, 42, -418, 253, 60, 0, 0, 0, 0, 0, 0,
    0, 0, 0, 0, 0, 0, 0, 0, 0, 0, 0, 0, 0, 0, 0, 0,
    0, 0, 0, 0, 0, 192, 397, 0, 241, 0, 21, 333, 0, 79, -54, 61,
    218, 212, -189, -142, -428, -161, 32, -147, -331, 41, 40, 11, 59, -144, 344, 116,
    -357, 0, 0, 232, -212, 0, -120, -51, 0, -85, 98, 82, 246, -5, -188, -87,
    -60, -177, -334, -637, -313, -1, 91, 95, -436, 139, 160, 0, 0, 0, 0, 0,
    0, 0, 0, 0, 0, 0, 0, 0, 0, 0, 0, 0, 0, 0, 0, 0,
    0, 0, 0, 0, 0, 0, 0, 0, 0, 0, 0, 0, 0, 0, 0, 0,
    0, 0, 0, 0, 0, 0, 0, 0, 0, 0, 0, 0, 0, 0, 0, 0,
    0, 0, 0, 0, 0, 0, 0, 0, 0, 0, 0, 0, 0, 0, 0, 0,
    0, 0, 0, 0, 0, 0, 0, 0, 0, 0, 0, 0, 0, 0, 0, 0,
    0, 0, 0, 0, 0, 0, 0, 0, 0, 0, 0, 0, 0, 0, 0, 0,
    0, 0, 0, 0, 0, 0, 0, 193, 0, 120, 471, 0, 21, 67, 0, 15,
    111, 125, 549, 458, -113, -96, -287, -100, 29, -22, -192, 51, 181, 20, 185, 52,
    81, 244, 57, -22, 0, -539, -143, 0, 31, -206, 0, 137, -51, 108, 562, -15,
    -160, -145, 332, 142, -48, -208, -213, 229, 132, 368, -183, 284, 235, 0, 0, 0,
    0, 0, 0, 0, 0, 0, 0, 0, 0, 0, 0, 0, 0, 0, 0, 0,
    0, 0, 0, 0, 0, 0, 0, 0, -112, -45, 114, 345, -1, 2, -290, -8,
    0, 93, 68, 353, 405, -63, 247, -304, 107, 193, -28, -15, -275, 533, 190, 293,
    -103, 184, 335, -582, -91, 52, -747, -26, 0, -212, -172, 0, -77, 226, 120, 313,
    114, 49, -416, 236, 141, -281, -930, -209, 192, 5, 281, -396, 281, 275, 0, 0,
    0, 0, 0, 0, 0, 0, 0, 0, 0, 0, 0, 0, 0, 0, 0, 0,
    0, 0, 0, 0, 0, 0, 0, 0, 0, 0, 0, 0, 0, 0, 0, 0,
    0, 0, 0, 0, 0, 0, 0, 0, 0, 0, 0, 0, 0, 0, 0, 0,
    0, 0, 0, 0, 0, 0, 0, 0, 0, 0, 0, 0, 0, 0, 0, 0,
    0, 0, 0, 0, 0, 0, 0, 0, 0, 0, 0, 0, 0, 0, 0, 0,
    0, 0, 0, 0, 0, 0, 0, 0, 0, 0, 0, 0, 0, 0, 0, 0,
    0, 0, 0, 0, 0, 0, 0, 0, 0, 0, 8, 0, 0, 0, 0, 0,
    0, 0, 0, -624, -79, 64, 120, 237, 143, -99, 355, 31, 413, 0, 20, 0,
    -74, 0, -21, 0, 0, -523, 0, 0, 0, 0, 0, 0, 0, 0, -530, 186,
    20, 128, 178, 7, -162, -156, 534, 287, 0, 0, 37, 0, -207, -527, -465, 282,
    0, 0, 0, 0, 0, 0, 0, 0, 0, 0, 0, 0, 0, 0, 0, 0,
    0, 0, 0, 0, 0, 0, 0, 0, 0, 0, 0, 0, 0, 0, 0, 0,
    0, 0, 0, 0, -816, 0, 0, -1, -65, 0, -845, -188, -225, 237, 0, 0,
    0, 0, 0, -1444, 0, 0, 0, 0, 0, 0, 0, 0, 0, 0, 0, -683,
    321, 26, 367, -780, -73, -1057, -94, 0, 54, 138, 0, 108, 0, -397, -480, 310,
    -254, 0, 0, 0, 0, 0, 0, 0, 0, 0, 0, 0, 0, 0, 0, 0,
    0, 0, 0, 0, 0, 0, 0, 0, 0, 0, 0, 0, 0, 0, 0, 0,
    0, 0, 0, 0, 0, 0, 0, 0, 0, 0, 0, 0, 0, 0, 0, 0,
    0, 0, 0, 0, 0, 0, 0, 0, 0, 0, 0, 0, 0, 0, 0, 0,
    0, 0, 0, 0, 0, 0, 0, 0, 0, 0, 0, 0, 0, 0, 0, 0,
    0, 0, 0, 0, 0, 0, 0, 0, 0, 0, 0, 0, 0, 0, 0, 0,
    0, 0, 0, 0, 0, 0, 0, 0, 0, 0, 0, 0, 0, 652, 0, 26,
    367, 0, 20, 108, 0, 3, 305, 81, 268, 436, -92, 616, -182, 67, 709, 173,
    -66, 1333, 424, 522, 621, -342, 380, -26, 393, 0, 0, 0, 0, 0, 0, 0,
    0, 354, 584, 521, 590, 243, 247, 8, 292, -36, 142, -68, -118, 491, 222, 445,
    -4, 530, 642, 0, 0, 0, 0, 0, 0, 0, 0, 0, 0, 0, 0, 0,
    0, 0, 0, 0, 0, 0, 0, 0, 0, 0, 0, 0, 0, 0, 94, 0,
    69, 300, 0, 22, 641, 0, 9, 263, 413, 525, 420, 128, 27, 132, -82, 311,
    44, -144, 319, 151, 9, 301, 74, 214, 421, 446, 0, 0, 0, 727, 0, 0,
    0, 0, 293, 359, 305, 330, 146, 141, 162, 235, 391, 160, -120, 288, 347, 297,
    437, -97, 228, 534, 0, 0, 0, 0, 0, 0, 0, 0, 0, 0, 0, 0,
    0, 0, 0, 0, 0, 0, 0, 0, 0, 0, 0, 0, 0, 0, 0, 0,
    0, 0, 0, 0, 0, 0, 0, 0, 0, 0, 0, 0, 0, 0, 0, 0,
    0, 0, 0, 0, 0, 0, 0, 0, 0, 0, 0, 0, 0, 0, 0, 0,
    0, 0, 0, 0, 0, 0, 0, 0, 0, 0, 0, 0, 0, 0, 0, 0,
    0, 0, 0, 0, 0, 0, 0, 0, 0, 0, 0, 0, 0, 0, 0, 0,
    0, 0, 0, 0, 0, 0, 0, 0, 0, 0, 0, 0, 0, 0, 0, 0,
    237, 118, 7, 176, 0, 0, -13, 0, 0, 137, -283, 1116, 239, -92, -101, 385,
    -133, -98, 19, -154, 78, 247, 250, -5, 64, 164, -110, -218, 0, 0, -224, -317,
    0, 0, 0, 0, 151, -33, 80, 209, -213, -339, -58, -70, 100, 53, -265, 226,
    132, 178, -86, -121, 32, 355, 0, 0, 0, 0, 0, 0, 0, 0, 0, 0,
    0, 0, 0, 0, 0, 0, 0, 0, 0, 0, 0, 0, 0, 0, 0, 0,
    0, -197, 319, 0, 0, 0, 0, 140, 0, 0, 85, -8, 269, 274, -202, 63,
    -257, -302, 311, -16, -728, -197, 308, -80, 190, -294, -127, -38, -122, -356, 0, 9,
    0, 0, 260, 0, 0, 241, -110, 137, 659, -115, -466, -255, -244, -174, 417, -166,
    -23, 360, -77, 100, -34, -81, 532, 0, 0, 0, 0, 0, 0, 0, 0, 0,
    0, 0, 0, 0, 0, 0, 0, 0, 0, 0, 0, 0, 0, 0, 0, 0,
    0, 0, 0, 0, 0, 0, 0, 0, 0, 0, 0, 0, 0, 0, 0, 0,
    0, 0, 0, 0, 0, 0, 0, 0, 0, 0, 0, 0, 0, 0, 0, 0,
    0, 0, 0, 0, 0, 0, 0, 0, 0, 0, 0, 0, 0, 0, 0, 0,
    0, 0, 0, 0, 0, 0, 0, 0, 0, 0, 0, 0, 0, 0, 0, 0,
    0, 0, 0, 0, 0, 0, 0, 0, 0, 0, 0, 0, 0, 0, 0, 0,
    0, 0, 0, 29, 0, 0, 0, 0, 0, 1, 0, 0, 60, 87, 8, 406,
    359, 61, 267, 209, 8, 46, 0, 0, 168, 214, 276, -153, 443, 71, 0, 0,
    0, 0, 0, 0, 0, 0, 0, 329, 0, 8, 341, 628, 10, 0, -142, 6,
    515, 0, 0, -70, 0, 222, 0, -434, 163, 0, 0, 0, 0, 0, 0, 0,
    0, 0, 0, 0, 0, 0, 0, 0, 0, 0, 0, 0, 0, 0, 0, 0,
    0, 0, 0, 0, 0, 0, 0, 0, 0, 0, 0, 0, 0, 3, 0, 0,
    13, 0, 0, 0, 0, 0, 0, 122, 0, 0, 279, 0, -498, 0, 0, 0,
    0, 0, 0, 0, 0, 0, 0, 0, 646, 0, 0, 0, 56, 57, 0, 0,
    0, 376, 354, 0, 695, 0, 12, 0, 0, 54, 0, 0, 0, 0, 0, 0,
    0, 0, 0, 0, 0, 0, 0, 0, 0, 0, 0, 0, 0, 0, 0, 0,
    0, 0, 0, 0, 0, 0, 0, 0, 0, 0, 0, 0, 0, 0, 0, 0,
    0, 0, 0, 0, 0, 0, 0, 0, 0, 0, 0, 0, 0, 0, 0, 0,
    0, 0, 0, 0, 0, 0, 0, 0, 0, 0, 0, 0, 0, 0, 0, 0,
    0, 0, 0, 0, 0, 0, 0, 0, 0, 0, 0, 0, 0, 0, 0, 0,
    0, 0, 0, 0, 0, 0, 0, 0, 0, 0, 0, 0, 0, 0, 0, 0,
    0, 0, 0, 0, 0, 0, 211, 114, 101, 207, 0, 115, 253, 0, 14, 305,
    346, 914, 425, -247, -212, -334, -273, 46, -34, -392, -145, -46, -181, -133, -412, -11,
    -124, -80, 173, -251, 234, -45, 0, -500, -14, 0, 16, 135, 133, 33, -311, -48,
    -816, -205, -133, -171, -640, 366, -68, -78, 27, -437, -98, 96, 0, 0, 0, 0,
    0, 0, 0, 0, 0, 0, 0, 0, 0, 0, 0, 0, 0, 0, 0, 0,
    0, 0, 0, 0, 0, 0, 0, 10, 20, 0, -85, 0, 217, 646, 0, 9,
    -16, -253, 354, 141, -244, -308, -254, -257, -8, -147, -221, 391, 1, -201, -131, -500,
    142, 105, -228, -104, 0, -166, -185, 0, -359, -84, 0, -12, -146, 290, 123, -201,
    83, -403, -28, -88, -122, -228, -246, 210, 143, 53, -491, 113, 269, 0, 0, 0,
    0, 0, 0, 0, 0, 0, 0, 0, 0, 0, 0, 0, 0, 0, 0, 0,
    0, 0, 0, 0, 0, 0, 0, 0, 0, 0, 0, 0, 0, 0, 0, 0,
    0, 0, 0, 0, 0, 0, 0, 0, 0, 0, 0, 0, 0, 0, 0, 0,
    0, 0, 0, 0, 0, 0, 0, 0, 0, 0, 0, 0, 0, 0, 0, 0,
    0, 0, 0, 0, 0, 0, 0, 0, 0, 0, 0, 0, 0, 0, 0, 0,
    0, 0, 0, 0, 0, 0, 0, 0, 0, 0, 0, 0, 0, 0, 0, 0,
    0, 0, 0, 0, 0, 0, 0, 0, 0, 195, 0, 0, 506, 0, 20, 103,
    0, 62, 237, 209, 302, 306, -158, -50, 76, -45, -60, 32, -162, -138, -26, 209,
    -70, -316, 0, 116, -213, 0, -492, -342, -251, 0, -166, -158, 0, 165, 146, 316,
    284, 20, -94, -74, -157, -65, 31, -289, -125, 165, 105, 159, -392, 241, 264, 0,
    0, 0, 0, 0, 0, 0, 0, 0, 0, 0, 0, 0, 0, 0, 0, 0,
    0, 0, 0, 0, 0, 0, 0, 0, 0, 0, 245, -3, 312, 602, 0, 73,
    406, -28, 225, 157, 223, 479, 281, -24, -62, -170, -91, 243, -40, -128, 5, 207,
    130, -29, -175, 140, 215, 37, -82, 0, -182, -533, 0, -328, -438, 148, 106, 80,
    482, 367, 47, -1, -295, 66, 185, -11, -237, 117, 343, 122, 236, -333, 270, 336,
    0, 0, 0, 0, 0, 0, 0, 0, 0, 0, 0, 0, 0, 0, 0, 0,
    0, 0, 0, 0, 0, 0, 0, 0, 0, 0, 0, 0, 0, 0, 0, 0,
    0, 0, 0, 0, 0, 0, 0, 0, 0, 0, 0, 0, 0, 0, 0, 0,
    0, 0, 0, 0, 0, 0, 0, 0, 0, 0, 0, 0, 0, 0, 0, 0,
    0, 0, 0, 0, 0, 0, 0, 0, 0, 0, 0, 0, 0, 0, 0, 0,
    0, 0, 0, 0, 0, 0, 0, 0, 0, 0, 0, 0, 0, 0, 0, 0,
    0, 0, 0, 0, 0, 0, 0, 0, 0, 0, 0, 0, 67, 0, 0, 0,
    0, 0, 0, 0, 0, 96, 174, 0, 647, 338, 3, 0, 36, 15, 0, 0,
    0, 47, 0, 413, 0, 208, 108, 0, 0, 0, 0, 0, 0, 0, 0, 0,
    -178, 152, 0, 616, 333, 10, 0, 28, 0, -230, 0, 0, 1, 34, 31, 0,
    -188, 71, 0, 0, 0, 0, 0, 0, 0, 0, 0, 0, 0, 0, 0, 0,
    0, 0, 0, 0, 0, 0, 0, 0, 0, 0, 0, 0, 0, 0, 0, 0,
    0, 0, 0, 0, 0, 0, 0, 0, 0, 74, -170, 0, 0, 0, 0, 0,
    -33, 0, 3, 0, 0, -160, 0, 0, 0, 0, 0, 0, 0, 0, 0, 0,
    0, 0, 0, 0, 0, 0, 46, 0, 0, 21, 0, 0, 0, 86, 0, 8,
    0, 0, 46, 0, 0, 0, 0, 0, 0, 0, 0, 0, 0, 0, 0, 0,
    0, 0, 0, 0, 0, 0, 0, 0, 0, 0, 0, 0, 0, 0, 0, 0,
    0, 0, 0, 0, 0, 0, 0, 0, 0, 0, 0, 0, 0, 0, 0, 0,
    0, 0, 0, 0, 0, 0, 0, 0, 0, 0, 0, 0, 0, 0, 0, 0,
    0, 0, 0, 0, 0, 0, 0, 0, 0, 0, 0, 0, 0, 0, 0, 0,
    0, 0, 0, 0, 0, 0, 0, 0, 0, 0, 0, 0, 0, 0, 0, 0,
    0, 0, 0, 0, 0, 0, 0, 0, 0, 0, 0, 0, 0, 0, 0, 316,
    206, 48, 598, -3, 43, -23, 0, 42, 314, 55, 548, 495, -194, -135, -497, -106,
    374, -74, -244, -118, 299, -74, 66, -260, 104, 19, -511, -62, 0, -131, -20, 0,
    0, 0, 0, 93, -91, 421, 558, -241, 144, -348, -167, 15, -61, -299, 329, 106,
    66, 208, -261, 156, 292, 0, 0, 0, 0, 0, 0, 0, 0, 0, 0, 0,
    0, 0, 0, 0, 0, 0, 0, 0, 0, 0, 0, 0, 0, 0, 0, 0,
    192, 11, 81, 86, -1, 32, 189, 0, 207, 117, 300, 389, 255, -140, -322, -614,
    -187, 77, -127, -126, 104, 200, 94, 106, -288, 26, 210, 43, -741, 0, 368, -102,
    0, -6, -318, 0, 29, 121, 115, 330, -113, -58, -165, 7, 224, -55, -83, 130,
    229, -42, 194, -382, 235, 312, 0, 0, 0, 0, 0, 0, 0, 0, 0, 0,
    0, 0, 0, 0, 0, 0, 0, 0, 0, 0, 0, 0, 0, 0, 0, 0,
    0, 0, 0, 0, 0, 0, 0, 0, 0, 0, 0, 0, 0, 0, 0, 0,
    0, 0, 0, 0, 0, 0, 0, 0, 0, 0, 0, 0, 0, 0, 0, 0,
    0, 0, 0, 0, 0, 0, 0, 0, 0, 0, 0, 0, 0, 0, 0, 0,
    0, 0, 0, 0, 0, 0, 0, 0, 0, 0, 0, 0, 0, 0, 0, 0,
    0, 0, 0, 0, 0, 0, 0, 0, 0, 0, 0, 0, 0, 0, 0, 0,
    0, 0, 268, 74, 23, 334, 0, 256, 764, 0, 417, 312, 377, 457, 437, 27,
    144, 168, -59, 126, 37, -318, 52, 245, 213, -8, -120, 271, 352, 81, -72, 38,
    88, -21, 0, 83, 0, 1, 164, 122, 309, 185, 86, 63, -239, 95, 50, 14,
    -203, -130, 194, 178, 250, -116, 359, 339, 0, 0, 0, 0, 0, 0, 0, 0,
    0, 0, 0, 0, 0, 0, 0, 0, 0, 0, 0, 0, 0, 0, 0, 0,
    0, 0, 0, 272, 566, 370, 372, 85, 189, 390, -3, 262, 268, 246, 373, 403,
    81, -4, -133, 151, 338, 58, -111, 41, 314, 172, 213, -79, 214, 409, 241, 200,
    2, 388, 13, 50, -156, 55, 349, 235, 277, 454, 469, 156, 80, -26, 113, 353,
    181, 66, 409, 504, 223, 404, 95, 281, 497, 0, -77, 96, 172, 202, 377, -321,
    -417, -235, -27, 140, 297, 317, -142, 136, -236, -48, 258, 14, -149, -150, 257, -161,
    140, -510, -208, 154, 3, -241, 136, 156, -98, 266, -309, -289, 231, 18, 168, 310,
    121, -686, 157, -245, -181, 255, 7, -150, -193, 442, -166, 0, -276, -151, 274, -61,
    -152, 126, 265, -108, 437, -156, -366, 23, -60, 1, 405, 529, -329, 290, -392, 0,
    92, -78, -209, -164, 316, -357, 154, -155, -295, 740, 25, -162, 60, 127, -27, 230,
    -189, -742, -100, 90, 111, 319, 197, 109, 494, -176, 48, 651, 75, -230, 8, 407,
    -292, 209, -294, -725, 403, 104, -436, -35, 47, 243, 788, -160, -952, 73, -59, 146,
    317, 70, -394, 269, -215, -180, 372, -10, -173, -245, 255, -156, 0, 26, -153, 412,
    -28, -187, -36, 148, 32, 138, -475, -528, 325, -15, 165, 295, 459, -215, 260, 0,
    0, 0, 25, -149, -86, 451, -148, 122, -202, -5, 620, -63, -4, 193, 146, 14,
    488, -210, 7, -317, -112, 20, 196, 262, -307, 510, -181, -125, 25, -160, -228, -299,
    66, -376, -114, -418, -340, 13, -1, -245, 0, 480, -366, 424, -221, 71, 147, -105,
    -149, 371, 207, -523, -73, -407, -55, -247, -135, -201, 131, 0, 0, 0, -593, -199,
    61, -197, -101, -87, 147, 98, 595, 159, -372, -174, -76, 79, 413, -57, -341, 90,
    -327, 0, -385, 8, -339, -201, 177, -483, 85, -107, -387, 259, -43, -366, -7, 279,
    483, -5, -224, -532, 297, -121, 53, 303, 11, -497, 269, -353, -521, 393, 10, -356,
    -284, 56, -475, -113, -48, -231, 396, 56, 118, 317, 13, 334, 177, 31, 155, 327,
    104, 708, 54, 180, -200, 522, -68, 478, 614, 77, 144, 168, -185, -107, 0, -28,
    247, 720, -82, 61, -92, 86, -265, 187, -342, -755, 17, -114, 113, 744, 273, -308,
    108, -334, 0, 139, -6, -338, -434, 179, -593, -265, -251, -318, 316, 28, 268, 142,
    50, -178, 247, -337, -609, 273, 321, 236, 398, 331, 1, 425, 243, 1259, 555, 53,
    -280, 113, 330, 55, -22, -135, -238, 249, -87, -252, 108, 208, 210, 674, -269, -286,
    71, -150, 67, 141, -116, -596, 244, -240, -252, 296, -38, -152, -379, 58, -145, 0,
    -221, -92, 372, -77, -216, 111, -33, -40, 143, -274, -832, -284, 59, 325, 572, 448,
    -162, -187, 0, 0, 0, 34, -225, -247, 289, -157, -59, -236, 85, 423, -41, -45,
    15, 59, 166, 370, 77, 33, -112, -91, -320, 354, 77, -541, 772, -446, -39, 260,
    -65, -454, -44, 34, -436, -103, -437, -499, 4, -62, -6, -36, -247, 632, 643, -114,
    -461, 993, -112, 357, 630, 284, -571, -318, -283, 0, -303, 0, 0, 0, 0, 0,
    0, 0, 0, 0, -52, 46, 226, 67, 191, 365, -486, -605, -267, 39, 406, 514,
    551, -209, -129, 81, 0, -191, 31, -26, -131, 394, 31, 84, -151, -11, 475, 18,
    -236, 303, 230, -357, 536, -411, -915, -716, -32, 34, 155, 129, -393, 276, -139, 38,
    270, 84, -87, -212, 230, -413, 398, 9, -294, 71, 53, 51, -57, 294, -594, 447,
    -128, 76, 332, 32, 297, 433, 240, -313, 347, 125, 273, 628, 161, 93, -126, 539,
    23, 0, 233, -247, 419, -115, -179, -114, 27, -95, -4, 85, -277, -332, -73, -203,
    51, 129, -716, -279, -331, 0, 408, -345, 66, -960, 101, -761, -488, -136, -585, -9,
    5, -88, 112, -51, -300, 88, -196, -631, -267, 83, 20, 107, 383, -6, 304, -144,
    -59, 675, 188, -141, 179, 251, -385, 302, -13, -329, 786, -32, -441, -231, 152, 279,
    418, -39, -394, 217, -55, -128, 138, 240, -694, -214, -453, -298, -182, -144, 28, -216,
    154, -417, 0, -482, -50, 80, -62, -54, 40, 87, 34, -182, -767, 260, -753, 0,
    0, 0, 0, 0, 0, 0, 0, 0, -60, -204, -616, 381, 501, 0, -413, 112,
    174, -37, -138, -353, 146, -154, 58, -79, -339, 36, -24, -150, 280, 223, -118, 589,
    120, -204, -55, -524, -183, -566, -232, -986, -1226, -672, -85, 140, 6, -121, 45, 135,
    -93, 452, -14, 23, 772, -21, 198, 269, 256, -529, -256, -333, -264, 68, -201, 45,
    -270, 0, 0, 0, -367, -94, 124, -3, -161, 154, 202, -43, 459, -149, -1003, -455,
    41, 301, 325, 269, -423, -142, -252, 0, -443, 107, -54, -144, 346, -424, 73, 76,
    -293, 466, 242, 382, 290, 76, 712, 527, 151, -1027, -29, 185, 140, 229, 972, -64,
    222, -16, 781, 72, 365, 68, 345, 201, -433, 55, -286, 55, 170, 123, -472, 366,
    143, 968, 283, -345, -302, -421, 98, 518, 280, -135, -453, 342, -27, 593, 338, 121,
    192, 465, 240, -46, 0, 61, 438, 174, 205, 385, 420, 283, 702, 145, 381, 340,
    -419, 172, 85, 159, 180, -249, 22, 228, 0, -2, 128, 73, 441, 246, -169, 419,
    -107, -343, 541, 175, 536, 140, 232, 757, 508, -90, -12, -51, 148, 50, 872, 134,
    301, -167, -138, 47, 567, 133, -61, -14, 122, -688, 240, -159, -63, 448, 589, 47,
    670, 0, 0, 142, -454, -1, -474, 251, 892, 10, 122, -46, 169, -394, 605, 672,
    352, 136, 453, 293, -165, 0, -471, 581, 483, 491, 295, -352, 488, 0, 496, 310,
    -168, 0, -23, -71, 631, 261, -83, -102, 0, 0, 0, 193, 487, 225, 184, 330,
    991, -213, 374, 632, 217, 325, 250, 475, 347, 71, -58, -358, -386, 82, 136, 366,
    -85, -610, 446, -17, 70, 381, 89, 488, -9, 692, -480, -440, 35, -487, 175, 67,
    -20, 440, 460, 994, 298, 308, -729, -173, 10, 371, 407, 26, -841, -51, -350, -283,
    -25, -101, -517, -347, 0, 0, 0, -223, -50, 286, 211, 249, 70, 38, -23, 282,
    115, -149, -300, 38, 205, 134, -2, -261, 151, -60, 0, -637, 221, -228, 161, 313,
    -126, 229, -28, 63, 315, 102, 61, 272, 148, 652, -348, -554, -270, 245, -27, 343,
    -250, 11, 522, -154, -546, -129, 25, 212, 321, 72, -42, -194, -140, -426, -292, 139,
    249, 438, 343, 1, 72, 176, -66, -82, 281, 641, 366, -168, -65, 125, 914, 93,
    537, 759, 556, 594, -364, 0, -36, 0, 266, 1274, 612, 192, -41, 448, -60, -353,
    -219, 301, -685, -556, -29, -361, -79, 337, -230, -83, 89, 0, 341, 220, -74, 108,
    268, -637, 152, -21, -275, 51, 111, 152, 212, -132, -241, 223, 83, -478, -115, 227,
    533, 468, 401, -36, 955, -145, 593, 365, 278, -223, -146, 181, -379, 206, 28, -176,
    118, 73, -167, 126, 46, 177, 435, -77, -103, 167, -103, 186, -89, -230, -583, 271,
    56, 387, 336, 319, 295, 41, 273, 288, 0, 48, 448, 213, 241, 407, 264, 205,
    521, 463, 256, 225, -205, 440, 563, 1096, 440, -31, -92, 0, 0, 0, 316, 416,
    162, 230, 591, 333, 149, 607, 377, 312, 343, 443, -89, 531, 223, 423, 194, -214,
    63, 120, 510, 121, 183, 461, -345, 155, 814, 40, -583, 51, 96, -817, -325, -366,
    -570, -42, 323, 1247, 668, 0, 21, 237, 443, -83, -98, 269, 104, 43, 202, -368,
    184, -22, 0, 534, 0, 0, 0, 0, 0, 0, 0, 0, 0, 242, 438, 455,
    4, 195, 353, 107, 501, -472, 388, 414, 807, 182, 188, 230, 179, 0, 303, 262,
    -94, 48, 463, 48, 307, 223, 373, 481, 331, 317, 595, 907, 606, 299, -21, -546,
    437, 359, 662, -109, -48, -293, 129, -51, 945, 330, 267, 526, 431, 595, 105, 515,
    442, 0, 122, 189, 383, -265, -64, 0, 820, 121, 87, 58, 233, 762, -579, 110,
    -244, 256, -224, 535, 1063, 479, 515, 476, -66, -330, 0, -411, 743, -40, 183, -435,
    -210, 221, 732, -127, 508, 1218, -148, 82, -613, 36, 16, -42, 219, -220, 0, -96,
    -136, 97, -353, 666, -152, 143, -81, -356, 403, 342, -82, -5, 26, 266, 647, -138,
    6, 0, 150, -300, 594, 0, 2, 77, 329, 0, 504, 69, 202, 96, -39, -52,
    198, 158, -250, 1084, 331, -542, 33, 0, 384, 119, -425, -270, 0, 230, 69, 181,
    254, -71, 143, 135, 0, -557, -39, 294, 142, 0, 0, 0, -170, -791, -14, 0,
    0, 0, 0, 0, 0, 0, 0, 0, 0, 0, 0, 0, 0, 0, 0, 0,
    0, 0, 0, 0, 0, 0, 0, 0, 0, 0, 411, -35, 166, 629, 296, 1013,
    -368, 153, -63, 300, 345, 350, 189, -79, 412, 111, 356, -373, 327, 412, -341, 358,
    -247, -452, -56, -876, -10, 388, 435, 455, 486, 634, 376, 588, 0, 0, 305, 338,
    702, 507, -405, -165, 100, 368, -53, 115, 418, 262, 0, 0, 0, -787, 180, 179,
    128, -251, 274, 218, -59, 439, 150, -741, -12, 593, 899, 549, 720, 143, 246, 756,
    0, -456, 326, 430, 395, 457, 30, 575, 288, 619, 443, -312, -331, -569, -341, -456,
    -473, -773, -201, -166, -313, -111, 495, 469, -442, -42, 268, -457, 766, -47, -298, -523,
    271, 171, -458, -783, -46, 107, -243, -545, -419, 237, -8, 168, -468, -686, -708, -245,
    -351, 66, 158, -779, 117, -964, -1084, -74, -381, -198, -70, -296, 219, 0, -419, -355,
    -182, -221, -207, 443, 43, -77, 856, 405, -128, -1145, -160, -682, -253, 561, -279, -499,
    -573, 0, 101, -148, -510, -1041, 52, -116, -718, 31, -275, 447, -271, -83, -143, -65,
    -332, 616, -905, 151, -363, -13, -201, -284, -193, -588, 192, -358, 638, 642, -115, -203,
    -284, 56, -55, -286, 58, -95, 544, -222, 99, -145, -146, 129, 69, -4, 237, -27,
    -246, -288, 304, -82, -330, 251, 72, -432, 319, -16, -214, 139, 752, -805, 0, 290,
    -54, 510, -81, -236, 122, 243, -396, 764, 38, -30, -531, 98, 248, 723, 806, -138,
    -109, 0, 0, 0, 166, 55, -554, -274, -116, 520, 161, -64, 768, -57, -268, -420,
    226, 242, 0, -128, -133, -500, -234, -451, 304, 101, -157, 94, -299, 149, -239, -275,
    269, 69, 262, -353, -359, -66, -104, -455, -396, -295, -113, -954, -148, 8, -251, -207,
    0, -182, 124, 291, 97, -730, -226, 170, -705, 44, -767, -505, 0, 0, 0, 0,
    0, 83, 564, -547, -115, -585, 487, -447, 275, 0, 0, 0, -380, -140, -769, 45,
    -387, -510, 0, 0, 200, -426, -118, -1154, 102, -664, -766, 24, -225, -277, -257, -87,
    229, -77, -211, 198, -388, -575, -700, -224, -198, -882, -294, -358, 103, -465, -513, -198,
    -273, 197, -231, -207, -388, -790, 47, -515, 116, -199, -3, 31, -426, 444, -614, -256,
    -20, -864, -43, 605, 127, 65, -395, 130, -461, -465, 136, 40, 79, 376, -59, -32,
    0, 121, -64, 357, 28, 230, -442, 22, -191, 305, 21, -318, -128, -480, -436, -58,
    411, -235, -470, -587, 0, 87, 147, 65, -566, 67, -1105, -523, 299, -509, 763, -286,
    -639, 104, -11, -78, -61, -638, -857, -368, -210, -86, -551, 407, -90, 304, -67, 450,
    590, -19, -504, -360, 147, -311, 93, 155, -479, 640, -229, -3, -313, -92, 104, -75,
    389, -602, 216, -223, -347, 64, 55, -602, -574, -375, -585, -138, -730, -116, -750, -228,
    -1017, 0, -549, -298, 38, -360, -586, -146, -358, 143, -257, -87, -514, -87, -157, 66,
    422, -393, -137, -902, 0, 0, 0, -542, -310, -160, -19, -577, -201, -262, -264, 55,
    -146, -181, 92, 12, -5, -1, -374, -139, 63, -293, -146, -201, 62, -149, -560, 14,
    -34, 307, 73, -414, -565, -149, -254, 0, 0, -29, -1, 0, 0, 0, 0, 0,
    0, 0, 0, 0, 0, 0, 0, 0, 0, 0, 0, 0, 0, 0, 0, 0,
    0, 0, 0, 0, 0, 0, -302, -230, -48, 332, 0, 0, 0, 0, 0, 99,
    -322, -67, -295, -511, -689, 0, 0, 0, -222, 50, -245, -203, 673, 0, -264, -280,
    -177, -184, -306, 172, 211, 119, -652, -90, 60, -266, -200, 154, -487, 881, 128, 468,
    47, 253, 210, -94, 160, -1100, -409, -187, 350, 155, -185, -606, -247, -212, 296, -443,
    -174, -183, 53, -226, 261, -169, 13, 221, 37, 139, 388, 69, -44, 416, 311, 581,
    -793, 87, -270, 0, 35, 744, 264, -516, -73, -291, -503, -95, 0, 0, 0, 0,
    -478, -244, -238, -158, -478, -951, 3, 0, -29, -329, -310, -221, -299, -1090, -468, 581,
    -465, -401, -290, -312, -324, -356, -490, -116, -161, 151, -685, 124, -131, 772, 107, 40,
    658, -75, -228, 157, 71, -239, -475, -172, -488, 13, 380, -44, -231, -200, -246, -623,
    -699, 302, 113, 231, -295, 342, -230, -352, 99, 45, -651, -607, -384, -41, 459, -347,
    -350, -469, 7, 0, 0, -51, -164, -546, -567, -476, -1077, -321, -27, 364, 0, 0,
    0, 0, 0, 0, 0, 0, 0, 0, 0, 0, -783, -699, -252, -238, -18, 0,
    -144, 313, 205, -122, 76, -17, -91, 218, 434, 176, -172, 111, -260, 126, 224, -22,
    -117, 783, 172, -56, 789, -103, -644, -550, 88, -517, -356, 92, -991, 237, -128, -179,
    -691, -310, -226, 79, 164, -157, 203, -229, -216, 200, 63, -426, -775, -102, -207, -478,
    -343, -564, -387, 0, 0, 0, -360, -393, -67, -123, -152, 178, -23, -169, 695, -46,
    -593, 333, -134, -11, 171, 217, -290, -506, -116, 0, -330, 74, 72, -103, 334, -423,
    -344, 282, -181, 537, -102, -319, 49, 388, -511, 567, 305, -225, 257, -162, 372, 428,
    -76, -103, 151, -288, 368, 140, -239, -577, 217, 488, -416, 405, -21, -132, 414, -79,
    -180, 255, 61, 387, 540, -205, -15, 124, -31, 394, 83, 310, -311, 374, -317, 437,
    257, -167, 441, -300, -15, -302, 0, -695, -170, 489, -160, -241, -6, -54, 61, 4,
    15, -562, -20, 30, 650, 230, 422, -269, 261, -218, 0, -280, -257, -609, -790, 304,
    -928, -313, -265, -304, 544, -291, -200, 180, -76, -206, 172, -456, -331, -218, 189, 112,
    306, 25, 112, 817, 341, 174, 268, -145, -646, 236, -100, -619, -471, 733, 255, 278,
    -172, -304, -52, 6, 255, 403, -469, -551, 909, -177, 68, -44, 9, -559, 344, -211,
    62, 492, -244, -172, -299, 345, -129, 0, 4, 336, 361, -44, -541, -87, 246, 181,
    851, -273, -458, -175, -46, -36, 177, -256, -363, -129, 0, 0, 0, -153, -158, 110,
    173, 458, 152, -441, 165, 328, -102, -267, -345, 81, -308, 969, 15, 75, -187, 4,
    359, 238, 357, -136, -171, -250, -47, -101, -285, -486, 0, -106, -395, 235, -626, -559,
    -176, -110, 497, -495, 69, 466, 593, -96, 163, -251, -191, 58, 472, 357, -699, -491,
    14, 21, -73, 20, -347, 2, 0, 0, 0, -982, -532, 249, -286, -362, -377, -122,
    -565, -53, -398, -559, -143, 66, 15, 322, 4, -133, -243, -198, 0, -680, -239, -275,
    -485, 239, -407, -214, -183, -352, 231, 38, -34, 331, 248, -610, 214, -117, -185, 263,
    97, 377, 331, 289, -232, 242, -47, 300, 441, -3, -751, -52, 420, -257, 473, -414,
    -91, 766, -24, 44, 711, -24, 99, 575, 126, -526, 214, 68, 482, 498, 479, -91,
    528, 50, 848, 219, 71, 392, 197, 157, 0, 0, -582, 359, 360, 1, -226, -115,
    706, -294, 538, 455, 23, -469, -107, 333, -286, 288, 30, 114, 114, 0, 59, -266,
    -163, -899, 409, -395, -86, 29, -72, 299, 91, 677, 150, 253, -367, 550, -351, 88,
    28, 597, 73, 1073, 455, 500, 842, 92, 547, 327, 354, -272, -104, 433, 597, 222,
    363, 172, 209, 45, 18, -484, 103, 572, 801, -175, -147, -10, 73, 447, 125, 152,
    -535, 294, -520, 391, 348, -37, 199, -467, -186, 318, 0, -229, 243, 627, -1, -130,
    -79, 74, 511, 431, -73, -242, -367, 344, 812, 298, 215, 253, 238, 0, 0, 0,
    23, -120, -34, 612, 384, 257, -175, 511, 755, -83, -215, -209, -116, -594, 297, -90,
    502, -371, 221, 75, 248, 198, -393, 745, 199, -162, 148, -174, 216, -143, -441, 408,
    -331, -199, -846, 337, 120, 118, 1514, -45, 0, 220, 255, -267, 239, 173, 586, 525,
    664, -156, 21, 58, 0, -101, 0, 0, 0, 0, 0, 0, 0, 0, 0, 159,
    88, -467, 107, 148, -231, -658, 49, 407, 378, 925, 741, 370, -54, 163, -537, 0,
    -271, -4, 23, -281, 827, 367, 29, -377, 467, 647, -210, -465, 322, -40, -379, -59,
    -199, -308, 105, -81, -207, -334, 121, -424, -271, -338, -130, 635, 156, -329, -408, 239,
    159, 162, 102, -372, -182, -327, -387, 159, 41, 415, 24, -286, -118, -410, -383, -19,
    128, -134, -529, 185, -354, -200, 518, -277, 178, 155, -174, 664, 0, -333, 46, 109,
    -245, 278, 397, -321, 242, 125, -359, -166, -61, -453, -145, -238, 162, -287, -153, 180,
    0, -179, -412, -579, -875, -33, -168, -971, -132, -1154, -181, -114, -98, 288, 372, -121,
    373, -292, -217, 30, 45, 55, 205, 72, -71, -68, 65, 208, 431, 70, -343, 8,
    -32, -349, -79, 146, -7, 106, -80, -166, 14, 726, 648, 148, -319, -327, 356, -121,
    185, -34, 354, -416, -266, -204, -2, -315, 43, -209, -249, 127, 354, 0, 1, 135,
    349, 98, 364, 365, 123, -139, 11, 0, -42, 18, 0, 0, 0, 0, 0, 0,
    0, 0, 0, 187, -390, -163, 179, 553, 0, -240, 600, 247, 76, -69, -533, -135,
    -104, 46, -219, -87, 403, -254, -562, -36, -492, -459, 619, 53, -86, 252, -160, 125,
    -192, -211, -338, -413, 143, -486, 133, -120, -327, 62, 205, 423, 685, -49, 15, 382,
    -151, 274, 351, 222, -452, -246, -640, -307, 25, -103, -871, -362, 0, 0, 0, -745,
    199, -222, -111, 19, -146, 2, -184, 137, -799, -184, 84, 20, 567, 155, 384, -265,
    -7, -464, 0, -96, -151, -278, -142, 488, -392, 199, -2, -86, 568, -179, 147, -170,
    159, -405, 14, 417, -259, 28, 689, 264, -89, 43, -205, -408, -26, -446, 93, 175,
    -294, -75, 140, -116, 479, -247, -84, 589, -407, -13, -67, -351, 470, -90, 375, 255,
    93, -621, -343, 688, -154, -498, -188, -588, -249, 271, -665, -387, -855, -43, -204, 0,
    -140, 688, -975, -361, -77, 457, 160, -610, 670, -72, -341, -236, 54, 146, -62, -62,
    4, -87, 65, 0, -138, 75, -202, -300, 575, -249, -475, -217, -204, 73, -123, 196,
    43, -20, 229, 243, 300, 156, -52, 467, -56, 230, 321, -174, -123, 118, -78, 710,
    -70, 204, 395, -410, -141, -677, -96, 87, 125, 679, 156, -2, 0, -254, 1160, -466,
    112, 0, -282, 341, -433, 438, -52, 612, 3, 596, 316, 14, 188, -311, 0, 103,
    0, 110, 873, 650, -49, -26, 799, -443, -163, 0, 548, 289, 0, 710, 638, 304,
    409, 21, 493, 0, 0, 0, 156, -482, 6, 44, 182, 379, 463, 561, 709, -265,
    -97, -397, 306, 214, 544, -126, -180, -64, -430, 361, -215, 225, -193, -185, 208, -519,
    -147, 239, -216, -591, -170, -486, 103, -116, -707, -198, 89, 858, -54, 268, 0, 0,
    -143, 0, 12, 48, 595, 297, 119, -294, -221, 303, 16, 105, 0, -47, 763, 0,
    0, 0, -296, 532, -107, -253, -185, -561, 84, -170, -57, -198, -242, -116, 73, 404,
    347, -122, -370, 40, -214, 0, -28, 3, -13, 159, 388, -220, 129, -167, -265, 419,
    -469, -492, -254, -160, -2, 98, -446, -431, -52, -559, -343, -332, -621, -577, -368, -968,
    -156, -686, -161, -102, -741, -338, -620, -668, -519, -267, 36, -76, 157, 505, -372, 748,
    50, -199, -707, -256, 96, 289, 412, 179, -266, 676, -570, 319, 428, -196, -192, 830,
    198, 69, 0, 582, 98, 643, -307, 204, -52, -373, -611, 240, -111, -813, -68, -190,
    -94, -86, 303, -413, -8, 168, 0, 109, -230, -324, -337, -248, -680, -126, -83, -327,
    141, -415, -435, -116, -292, -493, -215, -733, -666, -343, -94, 77, -56, 331, -192, 263,
    -312, 496, 682, -182, -608, -289, -158, -519, -49, -243, -167, -46, -415, -575, -430, -306,
    -338, 195, -390, -473, -102, -585, -460, -422, -574, -708, -658, -726, -555, -483, -672, -442,
    -502, -198, -483, 0, -410, -337, -252, -496, -633, -385, -421, -528, -565, -401, -573, 113,
    -371, -46, 512, -116, -572, -635, 0, 0, 0, -665, -456, -360, -61, -421, 178, -625,
    28, 83, -493, -285, -601, -250, -249, -423, -134, -131, -439, -442, -291, -549, -810, -272,
    -65, 16, 306, 206, -278, -562, -351, -234, -667, -518, -368, -238, -41, -429, -673, 626,
    -547, 293, 122, -408, -566, -304, -506, 380, 183, 46, -499, -178, -23, 0, -527, 0,
    0, 0, 0, 0, 0, 0, 0, 0, -613, -529, -638, -278, -447, 35, -778, -832,
    -328, -139, 216, -228, 38, -307, -214, -118, 0, -262, -560, -339, -547, 413, -488, -34,
    -545, 11, 19, -390, -114, 129, 608, 76, -210, 74, -180, -55, -174, 331, -299, 74,
    -351, 147, -93, 107, 96, -43, 278, 104, 175, -82, -363, 91, -437, -215, -268, -131,
    -194, -4, 243, -147, 41, 248, -382, -303, 191, 223, -92, -312, 116, -492, -12, -256,
    -382, -260, -228, -137, 531, 0, 176, -54, 351, -300, -398, 168, -522, -275, -193, 169,
    -610, 0, -396, 309, 134, -1, -603, -344, 243, 0, 179, -75, -499, -263, -204, -558,
    -750, -409, -109, -379, -508, 403, -350, -119, -197, 70, 0, -7, 236, 169, 51, 180,
    0, 564, 448, 0, 0, 443, -120, -139, 602, -435, -36, -522, -183, 477, 121, -452,
    -622, -113, 264, 134, 898, -253, 57, 316, -185, -89, -29, 355, -348, -462, -706, -95,
    0, -508, -221, 220, 0, 0, 0, -32, -290, -183, 0, 0, 0, 0, 0, 0,
    0, 0, 0, 0, 0, 0, 0, 0, 0, 0, 0, 0, 0, 0, 0, 0,
    0, 0, 0, 0, 0, -255, -655, 138, -419, -481, -561, -1071, 627, -355, -540, -137,
    -397, -713, -437, -237, -389, 398, -400, -451, -54, -186, -26, -463, -712, 244, -610, 134,
    102, -114, -274, 761, 120, 347, -72, 202, 494, 87, 496, 810, 165, -213, -126, 91,
    403, 185, -8, -66, 167, 0, 0, 0, -182, 863, -382, -299, -411, -177, 201, 73,
    68, -139, -995, -172, 2, 496, 342, -24, 100, -56, 0, 0, 326, -393, -268, -548,
    440, -83, 457, -305, 409, 365, -468, -378, 96, -549, -331, -361, -938, -489, -228, -463,
    382, 612, -593, -311, 131, -384, -24, 155, -121, -65, -30, -411, -257, -39, -356, -240,
    -341, -133, -181, -145, -139, 8, -115, 354, -24, 178, -392, 42, -265, 103, -1083, 442,
    -1085, 277, -200, -334, -131, -597, 0, 28, 0, -131, -120, 696, -634, -783, 539, 169,
    -871, 396, -59, -125, 263, -21, -67, 628, 392, -875, -664, -49, 0, 76, 19, -299,
    -974, -555, -277, -151, -509, -548, 185, -373, -518, -227, -317, -484, 59, -218, -81, -356,
    -154, 560, -558, -112, 0, 498, -1234, -112, 202, -594, 2, -454, -77, -475, -149, 370,
    -185, 96, -293, -272, -83, 116, 0, 128, -256, -224, 17, -318, -475, -242, -14, -607,
    -30, -595, 217, -622, -193, -251, -412, -65, -19, 0, -487, -43, 270, -90, -386, -174,
    325, 55, -160, -263, 0, -773, 549, 71, 189, -278, 609, -382, 0, 0, 0, -195,
    -31, -536, 286, 369, 0, -262, 411, 847, -114, -424, -826, -316, -510, -347, -126, -305,
    -97, -498, 72, -104, -294, -343, 128, 249, -573, 254, -83, -381, -72, 211, -340, -222,
    5, -316, -625, -567, 118, -894, -27, 0, 0, 0, -606, 0, -534, -77, -209, 80,
    -595, -534, -481, 134, 716, -186, -318, 196, 0, 0, 0, 0, -15, 220, -402, -1220,
    -125, -364, -356, 1, 0, -100, 0, -580, -728, -45, -83, -517, -507, 0, 0, -124,
    -422, 42, 13, 64, -744, -392, -474, -293, 102, -202, -503, 42, 769, -235, 683, -482,
    -70, -368, -203, 168, 7, 299, -63, 30, -410, -171, 368, 18, -729, -263, -38, -62,
    268, -275, -20, 41, -72, -52, 227, -308, 125, -112, 364, 291, -216, 362, 293, 397,
    446, 8, 329, 155, 893, 637, -145, 357, 687, -431, 90, 0, -456, 320, 297, -205,
    52, -334, 111, -319, -279, -136, -388, -121, 95, 633, -160, 33, -186, -178, -135, 0,
    255, -365, -97, -726, 671, 917, -469, 299, 481, 490, -165, 202, 477, 455, -151, 17,
    -119, 33, 33, 470, 333, 766, 610, 371, 1052, 248, 818, 884, 54, -698, -320, 879,
    -174, 154, 465, 404, 1248, -114, -90, -342, 89, 600, 807, -45, 412, 978, -122, 479,
    273, 359, -572, -492, -493, 445, -426, -369, -143, -313, 0, 0, 0, -336, -173, -207,
    -105, 36, -12, 369, -353, 210, 185, -127, -778, 0, 0, 0, 0, 0, 0, 0,
    0, 0, -502, -316, -271, 228, -140, 0, -205, -269, -296, 0, 0, 0, 0, 0,
    0, 0, 0, 0, 0, 0, 0, 0, 0, 0, 0, 0, 0, 0, 0, 0,
    0, 0, 0, 0, 0, 0, 0, 0, 0, 0, 0, 0, 0, 0, 0, 0,
    0, 0, 0, 0, 0, 0, 0, 0, 0, 0, 0, 0, 0, 0, 0, 0,
    0, 0, 0, 0, 0, 0, 0, 0, 0, 0, 0, 0, 0, 0, 0, 0,
    0, 0, 0, 0, 0, 0, 0, 0, 0, 0, 0, 0, -233, -161, -229, 77,
    477, -169, -212, 0, -75, -301, -731, 1187, -103, -123, -177, -272, -488, 185, -252, -133,
    -512, 250, 281, -86, -196, -767, -371, -163, 229, -592, 260, -234, -46, -436, 109, -7,
    -325, -314, 249, -32, -412, 549, -617, -116, 472, -254, 0, -385, -62, -92, 0, 21,
    -78, 379, -180, -161, 502, -415, -24, 0, 0, 226, 0, -782, -694, -778, -757, -401,
    -1292, 0, 0, 0, -681, -237, -288, -516, -457, -722, -964, -650, -506, -209, 14, 230,
    272, 342, -90, -1139, -70, -709, 221, 191, 331, 371, 547, 927, -236, 246, 547, -17,
    -446, 254, 414, 211, 597, 111, -660, -58, 13, -84, 111, 931, 657, 840, -323, 313,
    360, -58, 491, 369, 443, -331, -325, 30, -238, -122, -1, 40, -40, 173, 153, 0,
    -602, 90, 416, 197, 55, 961, 392, 325, 370, 0, -594, 0, 0, 0, 0, 0,
    0, 0, 0, 0, 0, 17, -157, -558, 349, 556, 0, -752, 678, 587, -273, -14,
    -821, -243, -119, 311, -621, 525, -231, -220, -158, 50, -96, -321, 167, -318, 441, 1208,
    -510, -858, -924, -882, -259, -1021, 42, -1175, 59, 63, 97, 33, 694, 780, 888, 315,
    328, 376, 33, 391, 800, 545, -81, 12, -67, 263, 141, 96, 67, 357, 0, 0,
    0, 94, 580, 358, -238, -234, -453, -20, -288, 347, -235, -266, -864, 153, 646, 556,
    597, 66, 109, -316, 0, 257, -260, -28, -321, 533, 327, 401, -242, 483, 553, 97,
    172, 422, 15, 205, 568, -628, -748, -304, 131, -107, 192, 191, -557, -484, -314, -303,
    95, 230, -324, -326, 317, -484, -25, -306, -443, 263, 16, -240, 73, -54, -9, -21,
    34, -481, 44, 260, 773, 600, 261, -349, 456, -191, 138, 707, 134, -237, -953, 405,
    -141, 0, 219, 52, 436, 101, -619, 475, 302, -57, 191, -481, -613, -773, 96, -544,
    245, 55, -1241, -470, 25, 0, 189, -4, -664, -936, 424, 91, -323, -205, -730, 387,
    163, 181, -253, -61, -1073, 53, -340, -862, 344, 429, 296, 271, 1042, -148, 690, 356,
    -121, 404, -20, -90, -110, -623, 321, -426, -341, -38, 209, 285, 146, 494, 454, 245,
    635, -254, 370, 265, 134, 380, 254, 231, -436, -44, -518, -67, 167, -124, -281, 197,
    136, 598, 0, -619, -175, 210, -34, 42, -360, 229, 248, 88, -645, -503, -138, 31,
    285, 338, 240, -66, 129, 0, 0, 0, -11, -207, -68, -565, -467, 40, -226, -43,
    536, 247, 3, -275, -151, 368, -307, -50, -20, -631, 66, 74, 118, -732, 126, 1087,
    116, 819, 142, -292, -303, 220, -235, -646, -378, -764, -430, 188, 13, 8, 669, 777,
    84, 408, -17, -867, -193, 33, -611, 7, 415, -451, -457, -1152, -624, -698, -194, -103,
    147, 0, 0, 0, 115, -328, -96, 54, -384, -274, 332, -560, 437, -232, -120, 0,
    189, -243, 297, -219, -424, -461, -420, 0, -65, 123, -29, -221, 329, -684, -237, -34,
    -403, 472, 355, 206, 370, 269, -147, 498, -421, -42, 511, 7, 356, 416, 426, 283,
    646, -249, 66, 675, 220, 386, -32, 229, 58, -135, 339, 363, 751, 541, 178, 184,
    43, -60, 181, 193, 105, 32, 350, 1226, 869, 281, -229, 22, -88, 793, 468, 214,
    79, 107, 0, 0, 0, 314, 282, 346, 451, 26, 697, 504, 64, 512, 299, -398,
    -486, 285, 83, -591, -29, -559, -96, 98, 0, -775, 463, -424, -398, 418, -221, -161,
    85, -112, 337, 288, 753, 592, 540, 42, 93, 581, -297, 54, 215, 192, 210, -22,
    117, 406, 991, -133, 416, 355, 168, 551, 293, 17, 98, 396, 217, 540, 205, 332,
    26, 107, -140, 57, -123, -112, 155, 154, 209, 400, -16, -510, 240, -216, 391, 555,
    126, 111, -348, 37, 290, 0, 137, 513, 14, 289, 240, -74, -17, 322, 118, 290,
    -539, -687, 745, 1081, 1041, 308, -39, 243, 0, 0, 0, 392, 240, -110, 831, 8,
    934, 379, 723, 701, 226, -550, -277, -256, -56, -111, 91, -77, -148, 34, -328, 89,
    88, -108, 6, 186, -223, -168, 365, -425, 307, 295, 17, -147, 64, -287, 233, 411,
    276, -88, -17, -11, 331, 110, 0, 0, 361, 817, -357, 19, -91, -61, 18, 0,
    577, 0, 0, 0, 0, 0, 0, 0, 0, 0, 308, 332, 71, 138, -147, 658,
    -56, -180, -523, 521, 514, 193, 211, 44, 272, -29, 0, -130, 382, 475, 118, 153,
    917, 386, -2, 438, 528, -169, -269, -395, 318, -167, -459, -823, -231, -987, -83, -18,
    203, 240, -589, 100, 411, -427, -135, -261, -422, -608, 30, -284, -641, -113, -792, 234,
    -82, 71, 168, -213, 59, 99, -918, -55, -102, 364, 570, -36, 61, -286, 361, -525,
    -571, 459, -43, 277, -441, -125, 242, 0, -190, -164, 258, -235, -408, -250, -208, -190,
    429, 405, -551, 0, -295, -854, -129, 503, -594, 62, -820, 0, 0, -366, 151, -236,
    -367, -469, -435, -254, -443, 190, 71, 144, 505, 387, 208, 334, 519, -262, 75, 206,
    -283, -190, 415, -187, 819, -4, -52, 212, 166, -299, -833, -389, -388, 264, -204, -426,
    191, -84, -309, -472, 288, -691, 242, -163, 183, -69, -47, 154, -53, 446, -529, -445,
    -994, -427, -388, -407, -322, -606, -309, 17, 0, -69, 2, 316, -154, -1335, -683, -294,
    227, 17, -343, -328, -284, 0, 0, 0, 0, 0, 0, 0, 0, 0, -214, -155,
    -1071, 92, 213, 0, -463, 170, 80, -252, -119, -791, -629, -201, -229, -10, -212, 160,
    -324, -187, 378, -339, -228, 261, -352, -499, 206, -764, -1011, 103, -971, -243, 33, -182,
    -436, -1111, 81, -544, -258, 64, -163, 194, -109, -58, 721, -166, 60, 355, 32, -684,
    -354, -409, 51, -64, -551, -565, -708, 0, 0, 0, -262, -988, -571, -150, -375, 70,
    285, 309, 194, 674, -328, -552, -174, 79, 279, 448, -628, -525, -353, 0, -515, -126,
    -24, -554, 344, -240, -377, -117, -184, 532, 364, 264, 572, 611, 111, 956, -503, -572,
    625, 189, 183, 735, 408, 489, 365, 730, 176, 568, 584, 173, -113, 271, -157, 167,
    237, -250, 655, 204, 84, 429, 481, -195, 858, 183, -594, -107, 192, 583, 170, 601,
    -230, 485, -41, 182, -108, 99, -440, 55, -299, 5, 0, 72, 129, 994, 315, -17,
    273, 363, 77, 114, 466, 203, -69, 212, -96, -45, 421, -588, 53, 140, 0, 0,
    266, 115, 41, 959, 274, -520, -240, -471, 523, 341, 648, 123, 148, -68, 75, -111,
    466, 751, 283, 286, -202, -823, 193, -176, -280, 261, 574, 776, 840, -68, 554, -246,
    517, -12, 76, 95, 437, 60, 408, 195, 556, 246, 217, 305, 176, 742, 692, 123,
    691, 62, 627, 132, 756, 808, 574, 34, 346, 427, 371, 0, 421, 811, 690, 650,
    1018, 145, 489, 301, 425, -27, -117, 0, 583, 107, 438, 162, -555, 275, 0, 0,
    0, 740, 606, 455, 144, 422, 354, -71, 823, 1181, 343, 1226, 170, -241, 114, -137,
    -552, -381, 564, 358, 541, -319, 82, 180, 323, 88, 74, 48, -458, 91, -556, 768,
    -148, -145, -474, -220, 247, 135, 569, 403, -83, 140, -313, 14, 0, -197, 628, 784,
    252, 353, -181, -179, -390, -230, -54, -367, 156, 245, 0, 0, 0, -165, 346, -133,
    594, 517, 51, 265, 1, 178, 0, -26, 0, 499, -271, 112, 421, -751, 33, -36,
    0, 493, 498, 337, 206, 703, 198, 32, 684, 212, 613, 229, 382, 132, 267, 449,
    -164, 347, -167, -153, 89, 299, 346, -102, -28, 92, -543, -294, -248, 218, -498, 758,
    96, -488, -326, 89, -140, -84, 219, 137, 338, 0, -168, -517, 141, 282, 98, 452,
    879, 236, 660, 123, 802, 309, 1131, 119, 977, 372, 674, 5, -36, 0, 688, 1235,
    802, 312, 330, 120, 536, -42, -440, -281, 38, 385, 385, 639, 258, 586, -187, 423,
    -3, 0, -276, 814, -251, 1105, 431, 139, 540, 596, -98, 787, 198, 393, 630, 170,
    221, -334, -363, -438, 85, 339, 234, -30, 35, 241, 566, 441, 740, 915, 259, 110,
    256, 312, -107, 23, 681, -259, 533, 180, 230, -40, 381, 781, 698, 255, 29, 328,
    211, 458, 236, 276, -666, -606, -601, -454, -476, -274, -227, -478, 302, -297, 0, -524,
    -225, -165, -52, -196, -274, -215, 91, -110, -439, -964, -741, -214, -149, 1094, 307, -447,
    -665, 0, 0, 0, -173, -341, -603, 36, -83, -327, -620, -120, -20, 37, -230, -20,
    201, -47, -203, -830, -303, 89, -253, -349, -310, 143, -164, 546, -1099, 247, 537, -224,
    -264, -446, -469, -473, 20, -597, -535, -618, -181, -817, 12, 35, 179, 380, -79, 184,
    0, -450, 71, 953, 505, -504, -766, 84, 0, -363, 0, 0, 0, 0, 0, 0,
    0, 0, 0, -60, -149, -271, 366, 433, -79, -1163, -530, -606, -103, 367, 295, 268,
    -327, -365, -174, 0, -86, -51, -76, -484, 108, 66, 221, -430, 100, 257, 202, 192,
    -545, 150, 211, 358, -441, -583, 187, -165, 313, 55, 366, -825, -66, -22, -214, -672,
    56, 188, -742, 274, -613, -405, -211, -471, -264, 153, 358, -325, -184, -281, -664, -731,
    379, -288, -25, 55, 584, 20, -159, 490, -604, 507, 185, 23, 776, -346, 68, 76,
    0, -50, 434, 230, -160, -89, 248, -273, -102, -235, -186, 120, -88, -40, -347, 128,
    522, -494, -462, -358, 0, -100, -780, -381, 20, -450, -877, -805, -566, -1179, -189, 0,
    0, 0, 0, 0, 0, 0, 0, 0, 0, 0, 0, 0, 0, 0, 0, 0,
    0, 0, 0, 0, 0, 0, 0, 0, 0, 0, 0, 0, 0, 0, 0, 0,
    0, 0, 0, 0, 0, 0, 0, 0, 0, 0, 0, 0, 0, 0, 0, 0,
    0, 0, 0, 0, 0, 0, 0, 0, 0, 0, 0, 0, 0, 0, 0, 0,
    0, 0, 0, 0, 0, 0, 0, 0, 0, 0, 0, 0, 0, 0, 0, 0,
    191, -23, -314, 25, -199, -361, -248, -100, -155, -89, -70, 752, -434, -75, 579, -818,
    -112, 268, -461, -833, -1360, -351, -1025, -535, -294, -595, -552, 261, -27, -18, 261, 167,
    263, -643, -81, 0, 142, 723, 823, 190, -64, 71, -635, 0, 161, 0, 0, 0,
    0, 0, 0, 0, 0, 0, 65, -120, -74, 210, 276, 349, -292, -893, -495, 70,
    702, 321, 658, 83, -158, 0, 0, -45, -35, 179, -416, 582, 437, -498, -332, 484,
    436, 213, -30, 179, 2, -353, 206, 246, -63, 289, 219, -513, 187, -370, -308, -336,
    -116, 42, 482, -461, 381, 144, 37, 324, 242, -37, -126, 319, 165, -163, -158, -111,
    0, -227, -434, -366, 71, 123, 642, 446, -4, -116, -355, 68, -382, 189, -142, -37,
    -329, -247, -335, 0, 141, 216, 554, 514, -686, -174, 164, -223, 231, 0, 174, -555,
    422, 435, 839, 340, -745, -850, 276, 0, -147, 454, 129, -750, 967, -68, -400, 351,
    -85, 357, 379, 905, -367, 686, 270, 76, 0, 30, -26, -79, -269, 320, 269, 82,
    608, 9, 270, 510, 331, 335, -603, -194, 375, 185, -512, -226, -85, 468, 1017, -370,
    208, 0, 4, 7, 287, 273, -69, 6, 97, 356, -149, 542, -106, 465, 473, 639,
    327, 32, 155, 252, 0, 508, 466, 559, 490, 306, -448, -324, -212, 0, 0, 0,
    0, 745, 453, 351, -199, -665, 99, 0, 0, 0, 772, 594, 1, 0, 391, 0,
    378, 431, 860, 85, -409, 0, -459, 30, -159, 13, -18, 0, -94, -462, 234, -83,
    -472, -208, -439, 696, 0, -894, 120, 0, 63, -276, 0, 0, 156, 166, 113, -265,
    216, -122, 0, -201, 231, -20, 62, 316, 415, -238, -439, -262, -339, -253, -140, -270,
    -993, -243, 128, 0, 0, 0, -244, -240, -319, -687, -391, 0, -79, 226, -65, 0,
    0, 0, -263, -301, -26, -209, -221, -200, 0, 0, -173, 411, 534, -284, 324, -252,
    -409, -266, -629, 483, 333, 382, 49, 214, 490, 241, -298, 0, -197, 191, 269, -15,
    425, 8, 62, -395, -160, -293, -47, 762, -112, 78, -164, -117, -61, -372, -87, 176,
    -149, 557, -115, 28, -352, 304, 317, -531, 353, 741, 278, 457, 276, 334, -340, 892,
    354, 595, 216, -102, -1, 82, 0, -279, 517, 873, 267, 778, 722, 424, 238, 53,
    0, -188, -308, 555, 230, 94, 307, -83, 723, 7, 0, -35, 426, 33, 168, 563,
    295, 235, 807, 899, 920, 340, 27, -163, -108, -76, -36, 473, 260, 63, 570, -207,
    640, 57, 253, 700, 637, 675, 847, 759, 655, 232, 177, 462, 696, 594, 708, 287,
    353, 213, 288, 477, 415, 890, 164, -44, -311, 262, 508, 194, 254, -432, -417, -478,
    -601, 34, -178, -218, -634, -148, -249, 0, -273, -55, 118, -54, 204, -82, 30, 160,
    -122, -369, 69, -14, -63, 94, 123, 576, 400, -543, 0, 0, 0, -145, 11, -311,
    22, -97, -387, -321, 210, 238, 570, 179, -396, 2, -416, 8, -11, -310, 222, -243,
    -460, -10, -319, 15, 297, -270, 499, 225, -134, -215, 0, -66, -41, -276, -30, 156,
    -276, 0, 0, 0, 0, 0, 0, 0, 0, 0, 0, 0, 0, 0, 0, 0,
    0, 0, 0, 0, 0, 0, 0, 0, 0, 0, 0, 0, 303, -13, 406, 477,
    159, 183, 0, -154, 494, 379, 108, -114, 185, -416, 562, 0, 0, 0, -24, 340,
    -469, 867, 453, 0, -121, 478, 425, 425, 368, 403, 849, 519, 770, -107, -498, 412,
    332, 598, 187, 540, -192, 343, 148, 379, 260, 377, 336, -55, 444, 170, 115, -61,
    -70, 178, 292, 321, 133, 55, -125, 442, 220, -469, -137, 304, 100, 754, 186, 113,
    539, 251, 961, 286, 470, -77, 710, -164, 109, 0, 160, 964, 587, 104, -356, -540,
    48, -627, 564, 358, 450, -220, 199, -110, 49, -613, -334, 201, -137, 0, 176, -158,
    -526, -75, 579, -317, -15, 226, -475, 359, 479, 753, 278, 185, 160, 467, 205, 602,
    27, 427, 229, 818, 731, 436, 259, 546, 296, 1045, 682, 754, 390, 510, 354, 396,
    400, 707, 534, 349, 277, -123, 695, 642, 759, 543, -125, 690, 419, 321, 478, 408,
    -197, -203, -234, -90, 443, -3, 254, -35, 6, 173, 0, -29, -72, 290, 252, -836,
    346, 204, 265, -57, 1006, -648, -560, 0, 0, 0, 0, 0, 0, 0, 0, 0,
    314, -25, -683, 110, 319, 0, -100, -319, 291, 345, 117, 284, 149, 125, 246, 340,
    200, -23, 183, 273, 337, 142, 194, 474, 500, 165, 890, 4, -62, -188, 288, -591,
    -451, -303, 14, 194, 375, 275, 363, 518, 917, 1092, 602, 485, 780, 519, 524, 467,
    466, -84, -163, -54, -249, 34, 165, 50, -26, 0, 0, 0, -117, 366, 365, 338,
    237, 431, 421, 360, 668, 155, -243, 558, 514, 526, 590, 396, 22, 273, 60, 0,
    266, 491, 537, 493, 527, 364, 402, 538, 565, 645, 0, 101, -202, -302, 185, 419,
    300, -217, -334, 43, 174, -135, -125, 12, 180, 172, -262, 126, -57, 128, -240, -62,
    -70, 187, -107, -132, -84, 30, 54, -108, 101, 104, 359, -156, -257, 87, 45, 157,
    -64, 159, 109, 333, -24, -145, -85, -22, 156, -154, 79, 10, 59, 33, -401, -45,
    -51, 77, -22, 166, -161, -69, 125, -475, -28, 12, 106, -93, -49, 170, 312, -124,
    156, 34, -67, 34, -223, 27, 29, 176, -115, -294, -334, 67, 219, -63, -113, 460,
    705, 398, -88, -86, 127, 226, -35, 146, -179, 276, 147, -150, 70, 82, 50, -109,
    158, -6, 107, -141, -145, -24, 97, 215, -27, 42, 68, 644, 24, -214, 31, 103,
    244, -1, 74, 172, 328, 77, -91, -22, 32, 117, -153, 130, -4, -99, 69, -5,
    38, 3, 203, -76, 90, -192, 448, 141, -452, -243, 84, 151, 49, 77, 154, 183,
    -96, -181, 166, 12, 140, -113, 182, -72, 131, -22, -45, 147, -78, -21, -290, 167,
    -94, 24, -81, -50, -850, -54, 168, -77, 136, -109, 110, -69, -87, -124, -134, -118,
    -216, 17, 155, 245, 76, -146, 184, 5, 6, -184, 18, 82, 295, -131, -373, -25,
    -7, 97, -167, -97, -10, 34, 28, 42, 219, -47, -67, -68, 298, -4, 197, -176,
    -107, -79, -108, 36, -263, 170, 142, -13, -78, -1271, -86, -32, 97, -153, -41, -50,
    -82, 7, 199, -93, -110, -35, -232, -30, -40, -6, -83, -374, -136, 69, 106, -71,
    -226, -490, 163, 205, -581, 183, 114, 251, -74, -431, -440, 948, -78, -120, 247, -47,
    92, -252, -213, 23, 454, -53, -526, 97, 130, 148, -124, -207, 0, 477, -26, -487,
    29, 119, 177, -108, 135, 182, 91, 92, -89, -107, 78, 141, -93, 173, -353, 585,
    -26, -414, -25, 5, 194, 0, 89, -241, 95, 44, -661, -177, 4, 91, -36, 5,
    123, 160, -110, 545, 130, 7, 56, -150, 61, -132, 39, -144, -283, -273, 90, 181,
    -29, 68, -47, 462, -282, -676, 201, 152, 190, -58, 100, -128, 273, -345, -357, 7,
    24, 45, -150, -93, -50, 110, 4, -363, -334, 95, 224, -39, 52, 105, 402, -76,
    -57, -47, 63, 176, -85, 70, 30, 118, -17, -16, -38, 48, 117, -151, 122, 81,
    14, -28, 30, -45, -10, 177, -156, -59, 127, -221, 105, -150, -211, 14, 195, -31,
    50, 66, -78, -46, -16, 106, -11, 131, -136, 112, 88, 55, -37, 66, -23, 0,
    41, -257, -393, -52, 634, -44, -455, 947, 28, 89, -81, 280, -207, 486, -54, -579,
    209, -106, -214, -258, 9, -378, 96, -77, -273, -178, 48, 310, 92, -8, 197, -55,
    54, 246, 132, 11, 111, -77, -103, 35, -35, 12, 35, -60, 28, 77, -136, 161,
    -190, 107, -13, 179, -37, -63, 81, -72, 68, 184, 68, -161, -80, 153, 57, 159,
    -6, 116, 100, -47, 23, 50, 149, -74, 24, -188, 105, 40, 46, 5, 71, 38,
    -51, 11, -64, -89, 96, 614, 468, -144, 338, 23, 158, 108, -171, -64, -71, 15,
    -295, -308, -80, 34, -196, -12, -193, -36, 721, -313, 446, 19, -79, -18, -28, 544,
    781, 46, -130, -94, -2, 141, -45, 48, 273, 279, -70, 356, 3, -14, 57, -113,
    141, -490, 108, -348, -108, 66, -161, 150, -163, 273, -307, 190, 416, -481, -4, -100,
    76, -121, 27, 13, 132, -327, -48, 130, -143, -53, -275, -194, 188, -15, -246, -195,
    135, 21, 240, -99, 497, -120, 411, 381, -229, 572, 109, 204, 10, 82, 76, 408,
    -359, -409, 71, -45, 129, -155, 156, -195, 782, 36, -207, 84, 73, 77, -164, -7,
    -128, 281, 47, 94, -232, 78, 175, -50, -38, -60, -84, -81, -74, -63, -47, 14,
    -158, 8, -287, -61, -183, 42, -207, -13, 93, -201, -198, 166, -249, 25, 12, -476,
    -2, 112, -112, 13, 0, -222, -74, -206, 300, -9, 53, -82, 12, -20, -142, 48,
    35, -140, -96, 88, -271, 420, -159, 646, 123, -293, 158, -21, 280, -59, 210, 143,
    290, 84, -406, 80, -160, 86, -105, 160, -185, 557, -240, -776, 213, 30, 184, -170,
    -19, 199, 5, 136, 186, -441, 18, 101, -193, -21, -12, -132, -87, -19, -169, -24,
    23, -181, 53, -118, 74, -129, 114, -75, -76, -27, -189, 48, 111, 166, -106, -540,
    -271, -58, 110, -142, 2, 7, -80, -141, 75, -160, -32, 50, -194, 53, 29, 20,
    -100, -115, -21, 49, 328, -161, 80, 198, 160, -106, -183, -550, 180, 614, 166, -379,
    466, 313, 229, -174, 17, 76, -113, -225, -160, -382, 491, -41, -808, -728, 80, -178,
    408, -67, -92, -8, -298, -148, 13, 208, 340, -204, 517, -337, 94, -203, 252, -179,
    -11, -124, -472, 573, 26, 120, 181, 599, 143, 9, 172, -261, -223, -8, -462, -24,
    261, -20, -152, -449, -131, -7, -568, -37, -334, 0, -239, -119, -815, -423, 446, -201,
    -243, 42, 302, -329, 317, 144, 144, -342, -135, -87, 281, 123, 0, 7, -438, 84,
    493, -173, -55, 36, -132, 828, 130, -37, -117, 176, 0, 497, 127, 0, -237, 30,
    385, -75, -277, 313, 0, -202, 13, 331, 153, 221, 239, -180, 86, 123, 48, 19,
    71, 145, -18, -102, 240, -1, -252, 3, 184, -32, 477, -295, 19, 656, 0, 518,
    -156, 0, 323, 149, 65, 531, 476, 196, -91, 519, -233, -107, 103, 255, 104, 403,
    162, -145, -143, 267, 483, -122, 532, -377, -170, -341, 0, -63, -71, -431, -22, -141,
    86, 95, 136, -125, -238, -350, -250, -143, -271, 86, 58, -206, 52, -208, -13, -96,
    200, -111, -551, -19, 427, -181, 0, -259, 646, -98, -226, -184, -164, -219, -366, -528,
    -138, 110, -172, -110, -152, 92, -13, 64, -356, -407, 15, -186, 765, -333, 104, 772,
    116, 426, -22, 274, -24, 143, -193, -110, -211, -159, 25, -868, 203, -69, -53, -47,
    -9, -134, -81, -96, -214, -95, -43, 306, -620, 223, -558, 534, 194, -248, 58, 598,
    791, 515, -17, -371, 354, 241, 341, -247, 313, -288, -246, 707, 122, -119, -269, -1003,
    -228, 104, 353, 163, -36, -355, 9, -90, -429, 23, 282, 296, -106, 484, -75, -144,
    111, 135, 43, -44, 249, 141, 504, 805, -322, 235, 144, 650, 143, 149, -355, 197,
    -162, 237, -323, -233, 189, 186, 224, 339, -268, -422, -575, -201, -190, -509, -89, 442,
    -144, 126, -547, 133, 258, 214, -224, 270, 480, -187, -450, 522, 234, -303, 44, 157,
    312, -90, -519, -89, -526, -88, -84, -250, -171, 213, 168, -253, 77, -165, -355, -69,
    -495, 43, 118, 173, -11, -57, -169, 427, -202, 61, -19, 72, 136, -14, 64, -169,
    63, -118, -76, 20, -23, -5, -242, 157, 31, 26, -165, 115, 35, 88, 354, -50,
    -283, 158, -225, -288, -108, 220, 114, 212, -25, 84, -77, -130, -95, -51, 49, -11,
    8, -200, 158, 172, 101, -26, 135, 70, 25, 195, 35, -27, -67, 189, -208, 87,
    -326, 14, 236, -47, -232, -477, -13, -203, -68, -339, 65, 350, -36, -135, 597, -40,
    -137, -490, -675, 121, 167, 42, 226, -502, 442, -38, -668, -468, 105, 115, 22, 28,
    1, -64, -36, 101, 92, -71, -16, -122, 153, 157, 375, 142, 188, 41, 6, 24,
    -103, -44, -49, -145, -369, -372, -316, 169, 218, 115, 173, 44, -57, -72, -90, 296,
    -9, 96, -90, 152, 115, 195, 15, 192, 211, 78, 19, -134, -137, -663, 309, -113,
    -254, 115, -119, 133, 156, 396, 449, 353, -76, 0, 5, 61, -513, -564, 112, -104,
    264, 310, -411, 810, -39, 194, 23, 153, 0, 277, 231, -350, 76, -46, -17, 128,
    6, 209, -1084, 662, -770, 119, 123, -374, -240, 142, -377, 601, 196, 24, 276, 77,
    153, 285, -494, 278, 980, -1, 180, -35, -23, -177, -347, 27, -53, 3, 385, -64,
    -227, 136, 182, -318, -235, 618, 279, 5, -235, 9, 157, -103, 372, -420, -26, -97,
    0, 552, -66, 310, 466, -158, 429, 337, 555, -541, 255, -32, 109, -110, 83, 346,
    -134, -79, 387, 371, 147, 126, 373, 78, 278, 285, 323, 190, -315, 117, 146, 208,
    46, 200, -61, -147, -15, -121, 132, 45, -29, -122, 377, 157, 16, -23, 44, 208,
    69, 51, 119, 113, -72, 192, -45, -144, 752, 165, 193, 117, 283, 187, -107, -248,
    32, 79, 115, 163, -21, 339, 212, 220, 114, 171, 272, 57, 216, 173, 60, 65,
    471, -614, -793, -203, 178, 35, -161, -119, 414, 283, -503, 279, 269, 134, 143, -20,
    -168, 227, 363, 0, -103, 577, 163, 363, -94, 226, -280, 253, 353, -27, 362, 157,
    312, 149, 174, -48, -91, 1, -55, 103, -24, -43, -216, 280, 82, 4, -101, 98,
    288, 15, 244, 68, -14, 322, 214, 0, -69, 90, 117, 266, 222, 202, 29, -25,
    50, 178, 164, 4, 119, -92, 282, 103, 141, 26, 135, 287, 11, 144, 42, -88,
    -254, -152, -426, -247, 99, -242, -205, 296, -607, -66, 261, -452, -155, 296, -136, 441,
    -395, 357, 178, -188, 0, -213, -96, 94, 77, 188, 333, 0, 164, 209, 357, -252,
    134, -291, 249, 13, 63, 150, 168, 382, -342, -107, 311, 866, 330, 84, 296, -227,
    0, 243, -92, -147, -255, 569, -33, -180, -1, -5, 0, 324, -32, 229, -36, -255,
    -79, -181, -10, 0, -612, -248, 343, -329, -829, 330, -8, -88, 138, 176, -503, -536,
    176, 0, 121, 13, 0, 589, 144, -417, 172, 170, 513, 635, 366, -295, 122, 309,
    -413, 325, -49, 216, 476, -91, 75, -266, 209, 0, -528, -77, -117, 585, 27, 24,
    -358, 16, 133, -18, 125, 168, 112, -405, -49, 124, 153, -164, -220, -234, -549, -78,
    -131, 80, 143, -303, 268, -104, 508, -398, 208, 76, 0, 0, 81, 175, 227, -23,
    253, 10, -453, -44, -243, 110, 486, 16, 62, -308, -101, -272, 389, 205, -393, 54,
    -295, 133, 99, -82, -1, 130, 0, 176, 90, 285, -145, -2, 0, -152, 0, 0,
    -370, -70, -9, -134, -82, 385, 0, -1, 0, -376, 596, 21, 0, -460, 0, -106,
    0, 0, -234, -216, -275, -172, -542, -674, -276, 642, -6, -92, -890, -18, -308, -59,
    -345, -425, -62, 736, -81, -584, -471, 428, -16, -255, 254, 0, 0, -79, 108, -113,
    -176, -243, -70, -824, -580, -467, -213, -184, -73, -514, 147, 36, 68, -268, -122, 26,
    516, -12, 320, 330, 246, 234, -40, 18, 25, -13, 730, 323, -249, -277, -271, -7,
    48, -80, -711, 106, 41, -239, 0, 200, -94, -565, -70, -153, -702, -438, -193, 307,
    27, -416, -118, -82, 466, 89, 162, 140, 424, -20, -138, -205, -32, 708, 45, -542,
    -408, 224, 80, 159, 258, -62, -45, 236, 482, -226, 90, -68, -900, 295, -94, -160,
    63, -221, -24, 483, -124, -445, 41, -219, -83, -311, -250, 393, 452, -40, 172, 532,
    -19, 20, -138, 74, 115, 595, -306, -591, 115, -40, -194, -74, -61, -218, 465, -157,
    -754, 324, -224, 223, 94, 132, -190, 229, 279, 532, 311, 11, 29, -195, -71, -45,
    69, 172, 36, 21, 21, 78, -113, -62, -272, -230, -190, -226, -240, -119, -210, -121,
    -73, -290, -134, -311, -145, 25, -118, 133, -331, -488, 700, 209, -71, 455, 733, 14,
    133, 145, -161, -306, -189, -385, -336, -63, -88, -161, -274, -40, -285, -18, -164, 22,
    -66, -97, -13, -529, -65, 514, 0, 794, 93, 85, -46, 245, -16, -362, -79, -272,
    -252, 0, -43, -264, 191, -317, -415, 132, 36, 0, -116, 0, 92, 224, 135, -191,
    -483, 12, -142, -283, -409, -51, 97, -70, -72, -146, -284, -265, -127, -364, -212, -164,
    -232, 58, 114, -137, -49, 103, -40, -48, -77, -418, -303, -389, -162, -615, -581, 243,
    -75, -16, 29, -30, -172, 133, -575, -7, -151, -147, -98, -111, -86, -164, 87, -124,
    122, 111, -27, 153, -389, 219, 33, 41, -278, -292, 351, -139, -295, -189, 358, -19,
    382, -234, 48, 0, -806, -63, -164, -324, -309, -451, 0, -140, 716, -89, 431, -627,
    -514, 47, -260, -50, -8, -207, 86, -334, -650, 72, 261, 61, -999, -69, 377, -380,
    182, -573, 322, -485, -516, -155, 966, 210, -404, 0, -251, 161, 137, 307, 219, -1,
    0, -154, -316, -381, -506, -536, 105, -66, -113, 13, -212, -565, -296, 77, 392, 225,
    -740, -115, 695, 74, 239, -26, 117, -157, 211, -153, -302, 491, 0, -110, 31, 433,
    708, 333, -17, -282, 14, -119, -49, -336, -225, -212, 34, 556, -85, 850, -10, 200,
    16, 58, 191, 208, -74, 395, 292, -43, 31, -106, -121, -233, -218, -77, -278, -125,
    -232, -143, -194, 33, -219, -36, -178, -39, -115, -30, -107, 158, -241, 195, 179, -87,
    29, 465, 44, 167, -26, -21, -101, -158, 63, -143, -252, -173, -47, -211, -39, -106,
    -20, -91, -88, -46, -310, 418, -22, 610, -438, 71, 327, 197, -452, -337, 74, 296,
    -236, -34, 18, -471, -183, 87, -598, -148, 68, -458, 43, 364, 37, 49, -1, -36,
    30, -375, 281, -326, 57, 151, 92, -57, -39, 121, -95, -53, -122, -145, -204, -6,
    -243, -97, 84, -311, 186, -119, 13, -185, 33, 86, -103, -77, -209, 275, -86, -60,
    53, -481, -208, -38, 116, -52, -20, -81, -81, -245, -62, -69, -92, 43, -114, 99,
    -80, 18, -88, -123, 167, 131, 278, -121, 25, 377, 200, 420, -407, 203, 213, 391,
    103, 109, 19, 135, 75, -32, 269, 8, 86, 21, -111, -108, -71, -68, -624, -280,
    140, 348, 6, 229, 340, 247, 616, 85, -278, 232, 289, -7, 290, 626, 452, -72,
    501, 27, 220, 303, 28, 373, -283, -511, 109, -105, 261, 193, -44, -211, -379, -459,
    -13, 169, -266, -585, 132, 308, -48, 184, -84, 149, 692, 16, -335, 61, 260, -402,
    5, 81, 33, -66, -700, -128, 145, 96, -155, 337, 246, 328, -258, 61, 17, 272,
    604, -74, -21, 0, 533, 128, 150, 219, 135, 75, -287, 458, 36, -463, 735, 199,
    236, 227, 406, 149, -226, 6, 127, 32, -96, 344, 233, 248, -128, 152, 154, 375,
    104, 135, 69, 200, 293, -61, 349, 451, 173, -181, 198, -81, 122, 125, -67, 469,
    -423, -82, 223, 340, 223, 228, 269, 11, 209, 238, 336, 479, 260, -96, 78, 248,
    -13, 336, 133, 431, 171, 3, 102, 31, -291, -72, 250, -109, -156, -375, -468, -544,
    58, 45, -431, 94, -26, 438, -643, 0, 582, 39, 408, -551, -299, 50, -75, 385,
    -358, -14, 86, 582, 29, -70, -56, -135, 107, -173, -274, 141, 190, -129, -77, 11,
    155, -323, 83, -17, 174, 236, -184, 191, 379, -152, 109, -766, 506, 13, 64, 62,
    -776, 72, -254, 168, -320, -100, 96, 76, -25, 116, -126, -33, -182, 589, -112, -16,
    168, -194, 466, -80, 28, 141, -96, -192, 141, 655, -129, 104, -91, 205, -882, -381,
    380, 218, 741, 52, -255, -314, 264, 256, -517, 397, 244, -121, -231, -93, 243, 264,
    -440, -504, -255, 283, 627, 197, 108, -498, 169, -88, 373, 239, 244, 569, -180, 178,
    354, -26, -211, 329, 154, 173, 211, -219, -52, 591, 389, -71, 109, -114, 204, 316,
    -203, 99, 694, -92, -284, -95, -561, 273, 105, 43, 202, 3, -321, 252, 251, 385,
    151, 175, -174, 181, 142, -38, 53, -34, -310, 196, 295, -89, -316, 327, 328, -660,
    -375, 177, 197, 624, 210, 134, -137, 298, -321, 297, 272, 84, 358, 193, -189, -294,
    585, -139, -104, 61, 246, 362, 8, 264, 303, 541, -94, 165, 2, 214, 320, 3,
    159, 41, 135, 76, 263, 137, 177, 285, -58, 317, 240, 107, 73, 206, 171, 80,
    139, 93, 38, 295, 136, 254, 141, 247, 160, 414, 86, 223, 231, 60, 106, 143,
    177, 161, 253, -41, 269, 215, 148, 115, 276, 163, 87, 500, -391, -507, 123, 105,
    46, 290, -481, 93, 172, 197, 290, -175, -334, -373, -3, -74, 6, 405, -75, 53,
    -495, 54, -432, -5, 257, 290, 330, -226, 130, 255, 284, 465, 327, 38, 131, 327,
    93, 228, 50, 82, 129, -34, -10, 125, 344, -46, 300, 188, 186, 74, 222, 163,
    65, 200, -86, 304, 11, 144, 80, -67, -249, 215, 389, 177, 265, 177, 93, -64,
    166, 292, 90, 149, -13, 199, 125, 103, 116, 225, 232, 59, -41, -601, 90, -70,
    96, 93, 20, -6, 92, 200, 162, -425, -111, -58, -392, -107, 21, 158, 177, -273,
    -66, -436, 109, 341, -161, -286, 20, -137, -503, 160, 88, -5, -401, 126, -6, 107,
    -21, -243, 425, -184, -124, -118, 37, -169, 301, 486, 37, 199, 10, -219, -260, 979,
    80, 113, 146, -72, 370, 518, 220, 469, 129, 0, -2, 279, 229, 72, 27, -375,
    -365, -297, 52, 203, 19, -66, 196, -228, 72, -282, 124, -489, 81, 232, -241, 387,
    -317, -249, -74, -32, -115, 187, 441, -66, -508, 305, 167, -191, -200, -170, 112, 204,
    78, 124, 254, -171, 251, -368, 279, 127, 172, -35, 170, -32, 594, -507, -198, 101,
    173, 226, 17, -73, -146, -86, -164, -191, -145, 31, 104, -123, -29, -161, -119, -175,
    -60, -126, 5, 148, 62, 31, 320, 6, -202, -540, -297, 204, 270, -31, 39, 32,
    -18, -138, 42, -33, 0, 96, -98, -125, 53, 72, -65, 68, 59, 14, 252, -123,
    -169, 83, 801, 180, 74, 99, -128, 273, -201, -183, 154, 327, -43, -247, 355, -12,
    361, -123, 103, -51, -12, -283, 159, -615, 188, 316, -14, -114, 75, 151, -167, 136,
    -99, 157, 253, -3, 39, -107, -143, -257, -143, -196, 83, 100, -129, 79, -50, -60,
    -86, 78, -75, 22, 172, -41, 128, 221, 161, -279, -108, 387, 101, 192, -55, 42,
    -51, -111, -265, -133, -158, 62, 162, -60, 105, 25, 19, 18, -50, 132, 304, 463,
    65, 235, -213, 238, 8, -320, -157, 262, 82, 125, 431, 88, 37, -53, -18, -118,
    319, 82, -271, 493, 204, -265, 40, -351, -274, 207, 27, 76, 284, -93, -214, 263,
    636, 222, 132, -191, -589, 222, -529, -238, 409, 37, 379, 126, -262, 621, -12, -226,
    363, 220, 6, -122, -58, -269, -360, -109, 397, -337, -142, -34, -190, -570, -468, -130,
    186, 725, -125, 320, -238, 74, -34, -162, -467, 45, 122, -153, 48, -703, -20, 373,
    -158, -208, -93, 154, 53, 51, -54, -267, -29, 468, 38, -228, -228, -225, 26, -40,
    612, 17, 144, 273, -165, -35, 142, 429, -12, 136, 403, 43, 31, -134, 314, -386,
    285, -30, -6, 127, 33, -110, -311, -145, 239, 227, -390, 220, 34, 144, -59, -114,
    95, 129, 277, -48, 176, 70, -588, -419, -2, -270, 0, -159, -4, -28, 478, 65,
    345, 957, -243, -389, -193, -391, -496, -17, -3, 99, 25, -87, -440, 333, -150, -138,
    -44, 256, -628, -319, -176, -1, -2, -149, -219, -262, 747, 193, 0, -175, 272, 0,
    -42, 253, 465, -163, -438, -153, -210, -307, -182, -4, -217, 177, 33, 314, -106, -5,
    0, -38, -10, -66, -4, 129, 65, 248, -15, -264, -656, 82, -286, -236, -467, 229,
    -243, -193, -223, -338, -369, 33, -6, -746, -547, -12, -445, -299, -2, -212, -138, 11,
    94, 273, -21, -229, -287, -16, 51, -210, -139, -112, 78, -19, -270, -46, -253, 76,
    -62, 101, 509, -37, 521, 193, 199, -109, -488, 0, 338, 297, 177, -177, 13, -251,
    217, -279, 340, -84, -393, -434, 27, -243, -146, 143, -16, -231, -111, 88, 146, 214,
    -48, -290, -257, -510, -756, 159, 321, -575, -92, -258, -189, -179, 316, 35, 12, 384,
    238, 139, -95, 361, -136, -64, -52, 96, 604, 102, -408, -215, 303, -221, -338, 90,
    -22, 134, -518, 99, 45, -134, -159, 211, 71, 120, -251, -199, 71, -294, -316, -55,
    175, 45, 188, 344, 146, 133, -349, 161, 358, -577, 552, 141, 397, 40, -230, -348,
    113, 81, -49, 274, 185, 274, 337, -38, -44, -70, -170, -173, -64, 89, 346, 109,
    -37, -124, 335, -69, -166, 114, 67, 106, -35, -151, -345, -283, -277, -217, -191, -30,
    -91, -210, 1, -220, -130, -264, -102, -91, 30, 19, -208, -385, 100, 269, -304, -220,
    121, 111, 108, -7, -30, -142, -239, -356, -98, -162, -47, -31, -200, -18, -104, -45,
    -130, 17, 15, 7, 190, -414, 181, -403, 481, -17, -446, 77, 82, 270, -233, -754,
    -933, -483, 72, -178, -145, 62, 61, -233, -520, -892, 169, -181, -510, -110, 317, 554,
    109, 131, -63, 233, -2, 337, 121, 106, 225, 10, -23, -185, -180, -271, -36, -98,
    -54, 93, -127, 85, -221, -54, -133, -91, 2, 6, 136, -382, -164, 117, 46, -160,
    -150, -245, 123, 108, 93, -21, -73, -88, -157, -79, 1, -10, -6, -130, 80, 31,
    89, -83, 129, 131, 8, 517, -221, 81, 155, 333, -48, -301, 91, -3, 457, 570,
    -69, -139, -462, -206, 0, 622, -195, -19, -272, -294, 95, -252, 338, -39, 55, -103,
    -260, -825, -43, -12, 380, 56, -210, 0, -55, 125, 90, 257, 30, -511, 516, -26,
    228, -487, -103, -53, 606, 95, 0, 123, 225, 501, 197, 557, 64, 49, 159, -161,
    -3, -27, -19, -43, 238, -114, -125, 254, 97, 699, -32, -469, -247, 213, -37, -6,
    -71, 268, 227, 254, 115, 281, 5, 123, -39, -216, -169, -94, -255, -1, 280, -322,
    -295, -5, 295, 555, 190, 86, 711, 142, -182, -259, 211, 159, 58, 285, -3, -252,
    91, 285, 159, 552, 216, 453, 255, 128, 482, 88, 258, 100, 4, -188, -144, -118,
    -268, -88, -160, -171, 12, 13, -213, -100, -169, -87, 41, -85, 77, 63, 37, -120,
    889, -142, -192, 155, 40, 175, 3, 127, -92, -199, -43, 22, 52, -12, -72, -99,
    168, -42, 66, -54, 96, 160, 177, 214, 113, -35, 367, -181, 384, -128, 202, 245,
    317, -98, -77, -92, -57, 541, 66, -349, 55, 335, -34, -134, 314, -432, -29, -222,
    -427, 211, 285, 4, 390, 131, 563, 144, 602, 73, 134, 169, -58, 128, -60, -101,
    15, -53, -92, -51, 21, -58, 170, -171, 150, 20, 108, 259, 63, -27, -53, -59,
    88, 427, -84, -553, 38, 39, 269, 135, 175, -35, 15, -39, 73, 93, 22, 28,
    -126, 173, 88, 117, -99, 252, 261, -240, -608, -387, -143, -294, 33, -203, -31, 0,
    -335, -369, -236, -23, -421, -34, 117, -19, 0, -160, -116, -203, 115, 117, -303, -3,
    177, 12, 160, -247, -253, -400, -34, -492, -6, -1, 0, -501, 325, 168, 255, 369,
    -184, 0, -14, -19, -255, 155, -303, -28, 596, -21, -264, 503, -125, -61, -21, -345,
    -11, 305, -372, -4, -14, 0, -118, -416, -311, 361, 401, 15, 174, 0, -44, -577,
    -490, -361, -62, 52, 75, 54, -176, 356, -76, -359, -609, -8, -10, 173, 207, 5,
    14, 124, 57, -72, 113, 98, 182, -65, 0, 8, -230, -135, -352, 235, -185, -28,
    231, 468, 0, -270, 499, -307, 304, -377, 6, -9, 0, -15, -105, 152, 19, -198,
    -111, -11, 222, 117, -49, -59, 256, 137, 100, 141, -666, -198, 49, 85, -764, -508,
    -78, -165, 0, 0, 0, -2, -188, 163, -19, 565, 126, -22, 64, -99, 0, -666,
    82, -192, 239, -278, 35, 854, 235, 232, 122, -975, -53, -464, -61, -45, -52, 0,
    -38, -236, -379, -94, -9, -120, -106, -2, -12, -2, -31, 366, -80, -9, -9, 259,
    0, 0, -6, -31, -398, -10, 79, 0, -32, 0, -1, 0, -16, -191, -41, -618,
    -463, -545, -391, -397, 205, 136, -276, -34, 101, -122, 127, 236, -626, -628, -73, -137,
    -364, -153, -347, 56, -22, 0, -8, 0, -390, 115, -61, -190, -49, -305, -404, -418,
    -480, -494, -36, -164, -235, -156, -337, -96, -97, -339, -35, 220, 513, -241, 0, -52,
    -1, -97, -58, 279, 184, -110, 104, 259, 0, 292, -89, 19, -442, -113, 475, -14,
    -220, 0, 0, -338, 382, -18, 33, -1316, -17, -226, -204, 3, -80, -237, -113, 105,
    -29, 68, -655, 315, -300, 0, -271, -393, 4, -396, -317, -66, 579, -167, 288, 39,
    96, -115, -382, -162, -73, 419, 0, 0, 185, -5, 224, -34, 162, 121, -286, -146,
    0, 0, -481, -767, 170, -652, -48, -385, 222, -191, -173, -102, 343, -110, 148, 2,
    111, -540, -135, 127, 139, 97, -16, 67, -166, 300, -191, 34, 314, -241, 474, -252,
    80, -581, 510, -413, -312, 252, 39, 149, -318, 43, 50, 510, -206, 207, -253, -36,
    263, -5, 21, -287, -197, -336, -203, -94, -146, -115, -142, 69, -129, -156, -275, -78,
    -212, 12, -368, -136, -80, 221, -122, -281, -140, -314, -11, 182, 81, 31, -71, -241,
    -335, -148, -67, -75, -169, -85, 96, -170, 33, -234, -55, 175, -405, -311, -274, -268,
    -436, 2, -49, 0, 0, -343, -327, -122, -13, -242, 17, 9, 0, 100, -3, -274,
    -7, -230, -210, 567, -367, -118, -232, 11, -423, -94, -88, -126, 272, -89, 421, -345,
    -106, 16, 29, 66, -176, -129, -553, -236, -122, -124, -277, -497, 37, -149, -14, -447,
    -61, 104, -68, -129, -59, -201, -155, 515, -194, -214, 45, 18, 125, -103, -16, -112,
