#include "pattern_eval.h"

#include <immintrin.h>


namespace eval {


const int weight_intercept = 99;


void pattern_activations(int ret[N_ALL_MASKS], board::Board b) {
    for (size_t mask_idx = 0; mask_idx < N_ALL_MASKS; mask_idx++) {
        uint64_t mask = all_masks[mask_idx];
        uint64_t own_bits = pext(b.own, mask);
        uint64_t opp_bits = pext(b.opp, mask);

        int instance = ternary_twos[own_bits] + ternary_ones[opp_bits];
        ret[mask_idx] = instance;
    }
}


int score(board::Board b) {
    int score = weight_intercept;

    for (size_t mask_idx = 0; mask_idx < N_ALL_MASKS; mask_idx++) {
        // Extract patterns bits from board
        uint64_t mask = all_masks[mask_idx];
        uint64_t own_bits = pext(b.own, mask);
        uint64_t opp_bits = pext(b.opp, mask);

        // Determine index into weights array from pattern and instance
        uint16_t instance = ternary_twos[own_bits] + ternary_ones[opp_bits];
        uint8_t pattern = mask_base[mask_idx]; 
        uint16_t weight_idx = pattern_start[pattern] + instance;

        score += weights[weight_idx];
    }

    return score;
}


// Utility functions for different flips of masks
uint64_t flip_vert(uint64_t x) {
    return __builtin_bswap64(x);
}

uint64_t flip_horiz(uint64_t x) {
    const uint64_t k1 = 0x5555555555555555;
    const uint64_t k2 = 0x3333333333333333;
    const uint64_t k4 = 0x0f0f0f0f0f0f0f0f;
    x = ((x >> 1) & k1) +  2*(x & k1);
    x = ((x >> 2) & k2) +  4*(x & k2);
    x = ((x >> 4) & k4) + 16*(x & k4);
    return x;
}

uint64_t flip_diag(uint64_t x) {
   uint64_t t;
   const uint64_t k1 = 0x5500550055005500;
   const uint64_t k2 = 0x3333000033330000;
   const uint64_t k4 = 0x0f0f0f0f00000000;
   t  = k4 & (x ^ (x << 28));
   x ^=       t ^ (t >> 28) ;
   t  = k2 & (x ^ (x << 14));
   x ^=       t ^ (t >> 14) ;
   t  = k1 & (x ^ (x <<  7));
   x ^=       t ^ (t >>  7) ;
   return x;
}

uint64_t flip_adiag(uint64_t x) {
    uint64_t t;
    const uint64_t k1 = 0xaa00aa00aa00aa00;
    const uint64_t k2 = 0xcccc0000cccc0000;
    const uint64_t k4 = 0xf0f0f0f00f0f0f0f;
    t  =       x ^ (x << 36) ;
    x ^= k4 & (t ^ (x >> 36));
    t  = k2 & (x ^ (x << 18));
    x ^=       t ^ (t >> 18) ;
    t  = k1 & (x ^ (x <<  9));
    x ^=       t ^ (t >>  9) ;
    return x;
}


inline uint64_t pext(uint64_t src, uint64_t mask) {
    return _pext_u64(src, mask);
}


int16_t weights[total_instances] = {
    0, 29, -3, 22, 39, 6, -24, 7, -37, 22, 43, 21, 28, 35, 30, -1,
    -28, -13, -24, -17, -39, -1, 0, 14, -33, -33, -40, 29, 19, 14, 43, 42,
    16, -17, -5, -37, 39, 42, 44, 35, 19, 29, 0, -19, -10, 7, -5, -3,
    -28, -19, -4, -33, -42, -23, -3, 14, 10, 21, 44, 27, -39, -3, -20, 6,
    16, 27, 30, 29, 44, 14, -4, 13, -37, -37, -20, -13, -10, 13, -40, -23,
    -34, 0, 18, -1, 22, 41, 17, -20, 8, -33, 14, 13, 2, 19, 21, 24,
    -3, -2, 5, -21, -8, 7, -1, -1, 10, -23, -30, -23, 22, 35, 11, 57,
    37, -6, -6, -17, -61, 19, 27, 25, 21, 24, 37, -14, 18, 25, -1, -5,
    -33, 23, -2, 17, -9, -8, 2, -20, 14, -45, -6, 26, 12, -69, -9, -43,
    -3, 28, 11, -14, -13, -16, -42, -27, -11, -23, -5, -38, -9, -38, -27, -34,
    -43, -34, 18, 113, 28, 35, 39, 31, 14, 47, -26, 13, 109, 26, 27, 36,
    3, 28, 10, -14, -8, 3, 30, -5, -49, -7, -5, -41, -60, 41, 39, 63,
    37, 11, 64, 26, 13, -4, 21, 36, 68, 24, 13, 26, -13, 4, 19, -1,
    -49, 4, -2, -10, -23, -38, -26, -25, 8, 47, 58, -17, 13, 56, -9, -7,
    -115, -2, 10, 10, 18, 4, 12, -27, 14, 20, -30, -41, -13, -8, -26, -15,
    -43, -14, -31, -1, 28, -66, 11, 63, -6, -45, 58, -69, 2, 26, 64, 25,
    68, 37, 11, 10, 37, 7, 30, -69, -33, 4, -31, -38, -13, -36, 17, 31,
    -6, -6, 64, 29, 12, 56, 1, 24, 3, 37, 37, 26, 16, -16, 12, 20,
    10, -7, -31, 17, -23, 3, -27, -15, -8, -33, -26, -69, -61, -4, 1, -43,
    -115, -36, 5, -14, 37, 25, 19, 20, -11, 20, 10, -23, -60, -36, 2, -25,
    -8, -34, -31, -12, 0, 30, 22, -41, -15, 5, 16, -9, 44, 0, -26, 98,
    -17, 18, 30, -13, -7, 21, -18, -26, 83, 11, -47, 14, 11, -40, -15, 0,
    -2, 114, 6, 22, 79, -1, -6, 34, -5, -42, 52, 5, 7, 32, -28, 25,
    20, -8, -62, 45, 17, -2, -7, -11, -1, 6, -18, -68, 97, -46, -27, -15,
    -14, -100, -12, -8, -78, 87, 1, -14, -17, -17, -11, -15, -14, -18, 65, 12,
    -34, -37, -24, -37, -20, -41, -116, -124, -140, -179, 336, 11, -123, 108, 6, 29,
    169, 25, 82, 44, -22, -23, 18, -46, -58, 157, 5, -73, -17, -4, 26, -99,
    -17, 224, 13, 25, -41, 77, 37, 30, 92, 5, 12, 15, 50, 29, 40, -6,
    50, 33, 1, -25, 69, 69, 38, 29, -4, 43, 32, 11, -49, -147, 5, 75,
    -10, 2, -27, 9, 17, 3, 113, 69, 27, 22, -4, 47, 14, 12, -17, 47,
    69, 27, 7, -2, 31, 21, 16, 231, 102, 11, -76, 184, 93, 103, 37, -1,
    -249, 124, 37, 54, 13, -30, 5, 16, -14, -68, 247, 2, -37, -33, -54, 40,
    -76, -13, 199, -52, -22, -15, 21, -30, -56, -78, -28, -61, -29, -6, -26, -48,
    -73, -23, -32, -17, -38, -58, -4, -8, -53, -59, -30, -33, 11, -62, -187, -4,
    -56, 104, -54, -49, 20, -11, -67, 28, -4, -34, -52, -59, -48, -44, -24, -79,
    -47, -2, -35, -63, -59, -52, -32, 30, 5, 56, -116, 69, -128, 231, 43, -112,
    -2, -152, 98, 224, 193, 81, 199, 52, 209, -68, -8, -126, -49, 5, 26, -62,
    -179, 10, -26, -152, 91, 29, 252, 39, -249, 108, 350, -42, -153, 40, 12, 6,
    1, -61, -11, 21, -78, -37, 32, 3, 42, 19, -67, 5, 43, -26, -8, 200,
    -58, -71, 242, -68, 48, -92, -62, -37, 112, -25, -17, -104, -38, -59, -4, -18,
    74, 81, -17, -97, -94, -79, -72, -19, -15, 69, -89, -179, -54, -210, -76, 199,
    -162, 22, 252, 138, -41, 188, 176, -15, 197, 123, -27, -71, -96, 75, -257, -157,
    -56, -7, -28, 18, 193, -79, 82, 188, 35, 54, 244, 160, 7, 6, 52, 29,
    2, -6, -26, 5, -4, -14, -17, -18, 27, 14, -11, -34, 8, -2, -47, 5,
    142, -73, -257, 36, -37, -116, -82, -2, 42, 30, 38, 14, -14, -8, 11, -2,
    -34, -97, -7, 27, 14, -3, -35, 12, 1, -9, 43, -325, -123, 199, 114, 103,
    398, -407, -6, 108, -100, 30, 244, -206, -56, 123, 53, -100, 48, -199, -27, -116,
    -145, -49, 57, 49, -7, 52, 177, -23, 197, 23, 5, 123, 99, 25, -11, 135,
    50, 5, -3, -23, 3, -13, -11, -59, 44, 47, 11, -4, -48, 14, -5, -40,
    -179, -60, 26, -7, 99, 40, 57, -22, -1, 5, 72, 43, 8, -11, -30, 14,
    -4, -37, -72, 44, 31, 12, -2, -52, 20, -7, 22, 56, 112, -124, -89, -99,
    102, -325, 337, 114, 91, 305, 13, -79, 245, -52, 177, 6, 97, 200, -256, -147,
    142, -137, -187, -60, -269, 98, 98, 305, 169, 138, 192, 124, -100, 254, 52, 40,
    -28, 15, 52, 56, -29, 135, 54, 87, 112, 189, 113, 30, 24, 28, 72, 16,
    83, -126, -256, 157, -96, -300, 247, -199, -265, 45, 32, 189, 69, -18, -48, -58,
    44, -55, 65, 81, 82, 47, -7, 13, -47, 44, -18, 5, -128, -99, 336, -210,
    -89, 184, 114, -48, 79, 39, 192, 77, 35, 23, 21, 23, 113, -15, 242, -300,
    -10, 36, 64, 104, 99, -318, 30, 81, 245, 44, 176, 23, 13, -206, 119, 32,
    1, 56, 40, -6, -43, -48, -3, -22, -17, -104, -48, 22, -14, -28, -52, -11,
    -13, 14, 26, -137, -17, -157, 64, -33, -145, -204, -7, 19, 24, 29, -11, -28,
    -53, -4, -19, -37, -94, 13, 7, -3, -14, -63, -2, -13, 44, -112, 337, 108,
    -162, -48, 37, -407, 186, 34, 350, 254, 92, 160, 119, -78, 99, 324, -12, -92,
    -265, 9, -82, -204, 20, -22, -79, 21, 209, 6, 18, 123, 113, 16, 53, 324,
    20, 21, 54, 33, -4, -22, -32, -13, -13, -15, -4, -55, 14, -2, -19, -44,
    -4, -14, -15, 10, -269, -99, -28, -318, -76, 49, -79, 6, 43, 16, 32, -2,
    -13, -33, -5, -14, -20, -19, -18, 21, 1, -13, -32, -7, -3, 0, 0, 0,
    0, 0, 0, 0, 0, 0, 0, 0, 0, 0, 0, 0, 0, 0, 0, 0,
    0, 0, 0, 0, 0, 0, 0, 0, -9, 5, 64, 23, 22, 386, 10, 7,
    351, -9, -104, 8, 33, -52, 6, -11, 121, 88, -30, -98, 111, 46, -41, 58,
    -11, 76, 57, -31, -186, -2, -91, -248, 0, 33, -357, -1, -2, -8, -24, -5,
    -66, -30, -68, -70, 29, -31, -66, 82, -22, -70, -136, -47, -15, 47, 0, 0,
    0, 0, 0, 0, 0, 0, 0, 0, 0, 0, 0, 0, 0, 0, 0, 0,
    0, 0, 0, 0, 0, 0, 0, 0, 0, -9, -13, -355, 65, -12, 181, -13,
    148, 362, 23, 0, 110, 72, -6, 47, -13, 80, 62, -11, -47, -18, 82, 39,
    23, -31, 51, 72, -2, 209, 0, 13, -142, -180, -105, 397, 442, 33, 42, 146,
    86, 17, 24, -30, 44, 47, -6, -18, 24, 74, 16, 19, -30, 51, 75, 0,
    0, 0, 0, 0, 0, 0, 0, 0, 0, 0, 0, 0, 0, 0, 0, 0,
    0, 0, 0, 0, 0, 0, 0, 0, 0, 0, -30, 57, -200, 78, -42, -292,
    -90, 182, 336, -11, -45, 44, 18, -77, -42, -86, -33, -31, -51, -144, -158, 10,
    -64, -71, -92, -60, -23, -31, 274, 24, 33, -66, -362, -152, -129, 179, -6, 0,
    63, 20, -73, -67, -92, -56, -14, -51, -66, 17, -3, -80, -82, -87, -71, 5,
    0, 0, 0, 0, 0, 0, 0, 0, 0, 0, 0, 0, 0, 0, 0, 0,
    0, 0, 0, 0, 0, 0, 0, 0, 0, 0, 0, 23, 0, 10, -139, 0,
    68, 199, 0, 0, 65, -391, 365, 20, 19, -125, -32, 78, -163, 78, 83, 255,
    -12, 11, 49, -110, 337, -32, -91, -25, 0, -67, 0, 0, -130, -46, 0, 13,
    265, 143, -46, -16, 26, -91, 0, 114, 33, -170, -25, -9, 136, -386, -78, 52,
    -41, 0, 0, 0, 0, 0, 0, 0, 0, 0, 0, 0, 0, 0, 0, 0,
    0, 0, 0, 0, 0, 0, 0, 0, 0, 0, 0, 0, 33, 361, -179, 20,
    -188, -214, 63, 306, 86, 72, 127, 137, 117, 36, 58, 11, 130, 72, 18, -35,
    -57, 120, 100, 59, 1, 125, 73, -5, 238, 128, -46, -53, -82, 13, 186, 324,
    86, 162, 150, 139, 71, 25, 8, 97, 58, 20, 40, -36, 115, 99, 36, -17,
    115, 92, 0, 0, 0, 0, 0, 0, 0, 0, 0, 0, 0, 0, 0, 0,
    0, 0, 0, 0, 0, 0, 0, 0, 0, 0, 0, 0, 0, 46, 336, 246,
    -12, -78, 12, -9, 485, -9, 82, 129, 140, 120, 30, 4, -9, 68, 26, 10,
    -84, -129, 89, 62, 21, -31, 69, 45, -22, 217, 418, -9, -2, -112, -60, -1,
    -91, 74, 176, 26, 115, 39, -23, -13, 64, 39, -3, -29, -47, 70, 63, 19,
    -39, 74, 60, 0, 0, 0, 0, 0, 0, 0, 0, 0, 0, 0, 0, 0,
    0, 0, 0, 0, 0, 0, 0, 0, 0, 0, 0, 0, 0, 0, 10, 0,
    33, 199, 0, 0, 161, 0, 0, -13, 70, 254, 63, -33, -88, -35, 168, -158,
    -90, -211, 0, -9, -212, -32, 47, 58, 49, 33, 0, 0, -130, -23, 0, 230,
    -39, 0, -105, 72, 1, 13, -55, -320, -86, -59, 188, -152, -119, -33, -60, 139,
    -345, -94, 23, 67, 0, 0, 0, 0, 0, 0, 0, 0, 0, 0, 0, 0,
    0, 0, 0, 0, 0, 0, 0, 0, 0, 0, 0, 0, 0, 0, 0, -11,
    -271, -42, -32, -363, -96, -35, -156, 18, -13, 45, 28, 11, -67, -105, -88, -22,
    -68, -86, -24, -236, -9, -38, -93, -122, 5, -46, -68, -157, -384, -91, -589, -443,
    -86, -140, 221, -30, 10, 82, 8, -54, -111, -109, -27, -58, -92, -154, -202, -13,
    -29, -87, -131, -21, -22, 0, 0, 0, 0, 0, 0, 0, 0, 0, 0, 0,
    0, 0, 0, 0, 0, 0, 0, 0, 0, 0, 0, 0, 0, 0, 0, 0,
    -11, -77, -277, -110, -51, -146, 47, -119, -397, -31, 30, -23, 1, -79, -113, -122,
    -49, -83, -92, -144, -182, -31, -60, -109, -133, -44, -64, -47, 177, -175, -78, 27,
    -241, -94, -111, -34, -30, -36, -1, -17, -78, -139, -131, -48, -81, -87, -171, -135,
    -39, -79, -118, -116, -76, -21, 0, 0, 0, 0, 0, 0, 0, 0, 0, 0,
    0, 0, 0, 0, 0, 0, 0, 0, 0, 0, 0, 0, 0, 0, 0, 0,
    0, 5, 0, 0, 0, 0, 0, 0, 0, 0, -13, 0, 0, 361, -459, -179,
    -271, 111, -101, 57, 0, 0, 336, -72, 401, -77, 336, 185, -186, 0, 0, -25,
    0, 0, 0, 0, 0, 209, 0, 0, 238, -458, -76, -157, -262, -300, 274, 0,
    0, 217, 17, 152, 177, 380, 119, 0, 0, 0, 0, 0, 0, 0, 0, 0,
    0, 0, 0, 0, 0, 0, 0, 0, 0, 0, 0, 0, 0, 0, 0, 0,
    0, 0, -104, 0, 0, -391, 31, 61, 70, 0, 0, 0, -330, -121, 127, 35,
    30, 45, 95, 20, -45, 474, -84, 129, 109, 14, 30, 93, 57, -8, 0, 0,
    265, 0, 0, 72, 0, 0, 42, 91, -35, 162, 159, 1, 10, 114, -18, 0,
    -157, -81, 176, 75, 41, -36, 115, 97, 0, 0, 0, 0, 0, 0, 0, 0,
    0, 0, 0, 0, 0, 0, 0, 0, 0, 0, 0, 0, 0, 0, 0, 0,
    0, 0, 0, -98, 0, 0, 83, 483, 0, -211, 0, 0, -47, 474, 0, -35,
    -103, -169, -24, -170, -138, -144, -15, 36, -84, -114, -163, -144, -44, -97, -66, 0,
    0, -170, 244, 0, -119, 0, 0, -18, -157, 231, 40, -123, -280, -154, -2, -64,
    -66, -370, -136, -29, 33, -167, -171, -106, 43, 0, 0, 0, 0, 0, 0, 0,
    0, 0, 0, 0, 0, 0, 0, 0, 0, 0, 0, 0, 0, 0, 0, 0,
    0, 0, 0, 0, 22, 0, 0, 0, 0, 0, 0, 0, 0, -12, 31, 0,
    -188, 91, -18, -363, -151, -320, -42, 483, 0, -78, -1, 116, -51, 104, -87, -248,
    0, 0, 0, 0, 0, -23, -1, 0, -142, 0, 0, -53, -244, -286, -589, 2,
    -436, -66, 244, 0, -2, -125, -65, 27, -52, -281, 0, 0, 0, 0, 0, 0,
    0, 0, 0, 0, 0, 0, 0, 0, 0, 0, 0, 0, 0, 0, 0, 0,
    0, 0, 0, 0, 0, -52, -459, -46, 19, 91, 361, -33, 215, 321, -6, 35,
    -54, 36, -45, -68, -67, -10, -31, -77, -103, -108, 30, -11, -61, -79, 23, 0,
    -66, -458, -146, -16, -244, -305, -55, -582, -3, 17, 159, 1, 71, -19, -45, -54,
    4, -13, -73, -123, -49, 39, 25, -20, -78, 43, 21, 0, 0, 0, 0, 0,
    0, 0, 0, 0, 0, 0, 0, 0, 0, 0, 0, 0, 0, 0, 0, 0,
    0, 0, 0, 0, 0, 0, -41, -72, 198, 11, -1, 437, -212, -1, 647, 39,
    109, 137, 100, -11, -51, -38, 29, -7, -64, -114, 4, 62, 29, 6, -60, 43,
    30, -70, 17, -172, 136, -125, 5, 139, -288, -13, 16, 75, 92, 99, 25, -13,
    -29, 50, 24, -80, 33, -82, 63, 31, 19, -79, 70, 54, 0, 0, 0, 0,
    0, 0, 0, 0, 0, 0, 0, 0, 0, 0, 0, 0, 0, 0, 0, 0,
    0, 0, 0, 0, 0, 0, 0, 7, 0, 0, 0, 0, 0, 0, 0, 0,
    148, 0, 0, 306, 215, 94, -156, -67, 106, 182, 0, 0, 485, -1, -11, -119,
    245, 283, -357, 0, 0, -46, -1, 0, -39, -4, 0, 397, 0, -130, 186, -582,
    -459, -140, -147, -193, -129, 0, -48, -1, -288, -270, -111, 174, -203, 0, 0, 0,
    0, 0, 0, 0, 0, 0, 0, 0, 0, 0, 0, 0, 0, 0, 0, 0,
    0, 0, 0, 0, 0, 0, 0, 0, 121, 111, 8, 78, -151, 339, 168, -67,
    165, 80, 95, 106, 130, -10, -50, -22, 25, 2, -33, -170, 1, 68, 29, -18,
    -49, 50, 55, -70, -262, -186, 0, 2, 39, -59, -147, -5, 44, 114, 106, 97,
    4, -19, -27, 22, 28, -56, -2, -179, 64, 50, 33, -48, 61, 85, 0, 0,
    0, 0, 0, 0, 0, 0, 0, 0, 0, 0, 0, 0, 0, 0, 0, 0,
    0, 0, 0, 0, 0, 0, 0, 0, 0, 76, 336, 95, 337, 104, 553, 58,
    245, -23, 51, 93, 155, 125, 23, -6, 5, 50, 40, -60, -44, -116, 69, 43,
    34, -44, 75, 65, -15, 380, 229, 52, -52, 0, 23, 174, 0, 51, 115, 149,
    115, 43, 26, -21, 61, 67, -71, -106, -32, 74, 70, 59, -76, 113, 75, 0,
    0, 0, 0, 0, 0, 0, 0, 0, 0, 0, 0, 0, 0, 0, 0, 0,
    0, 0, 0, 0, 0, 0, 0, 0, 0, 0, 64, 0, 0, 10, 0, 1,
    33, 0, 0, -355, 0, 0, -179, -46, -446, -42, 8, -80, -200, 0, 0, 246,
    198, -31, -277, 95, 91, -2, 0, 0, 0, 0, 0, 0, 0, 0, 0, 0,
    0, 128, -146, -192, -384, -186, 36, 24, 0, 0, 418, -172, 0, -175, 229, 276,
    0, 0, 0, 0, 0, 0, 0, 0, 0, 0, 0, 0, 0, 0, 0, 0,
    0, 0, 0, 0, 0, 0, 0, 0, 0, 0, 0, 8, 0, 0, 365, 0,
    0, 254, 0, 0, 110, -121, 517, 137, -54, 130, 28, 106, 101, 44, 0, -75,
    140, 137, -53, -23, 155, 99, -24, 0, 0, 143, 0, 0, 1, -130, 0, 146,
    -35, 17, 150, 1, 86, 82, 106, 96, 63, 231, 0, 26, 92, 48, -1, 149,
    88, 0, 0, 0, 0, 0, 0, 0, 0, 0, 0, 0, 0, 0, 0, 0,
    0, 0, 0, 0, 0, 0, 0, 0, 0, 0, 0, 0, 111, 0, 0, 255,
    0, 0, 0, 0, 0, -18, -84, -75, -57, -108, -121, -236, 1, 0, -158, 36,
    -164, -129, 4, -105, -182, -116, -99, 82, 0, 0, -25, 0, 0, -33, -48, 0,
    24, -81, 0, -36, -49, -167, -202, -179, -107, 17, -136, 247, -47, -82, -37, -135,
    -32, -26, 0, 0, 0, 0, 0, 0, 0, 0, 0, 0, 0, 0, 0, 0,
    0, 0, 0, 0, 0, 0, 0, 0, 0, 0, 0, 0, 0, 386, 0, 1,
    68, 0, 0, 0, 0, 3, 181, 61, 0, -214, 361, -216, -96, 339, 108, -292,
    0, 0, 12, 437, 222, -146, 553, -498, 0, 0, 0, 0, 0, 0, 0, 0,
    0, -180, 0, 0, -82, -305, 0, -443, 39, 0, -362, 0, 0, -112, 5, 282,
    -241, 0, -157, 0, 0, 0, 0, 0, 0, 0, 0, 0, 0, 0, 0, 0,
    0, 0, 0, 0, 0, 0, 0, 0, 0, 0, 0, 0, 0, 0, 6, -179,
    -446, -125, -18, -216, -88, 94, 124, 47, 30, 130, 58, -68, -100, -105, -50, -57,
    -42, -169, -121, 4, -51, -68, -113, -6, -27, -30, -76, -192, 26, -286, 0, -320,
    -459, -6, 24, 1, 86, 25, -45, -88, -111, -19, -20, -67, -280, -167, -23, -13,
    -46, -139, 26, -8, 0, 0, 0, 0, 0, 0, 0, 0, 0, 0, 0, 0,
    0, 0, 0, 0, 0, 0, 0, 0, 0, 0, 0, 0, 0, 0, 0, 58,
    401, -31, 49, 116, 222, -32, -11, 385, 23, 14, -53, 59, -61, -68, -93, -18,
    -17, -71, -163, -105, 21, 6, -10, -109, 34, -6, -136, 152, 0, -386, -65, 282,
    -345, -270, 81, 19, 41, 48, 36, -20, -46, -87, 33, -15, -82, -167, -37, 19,
    19, 0, -118, 59, 35, 0, 0, 0, 0, 0, 0, 0, 0, 0, 0, 0,
    0, 0, 0, 0, 0, 0, 0, 0, 0, 0, 0, 0, 0, 0, 0, 0,
    351, 0, 0, 0, 0, 3, 0, 0, 0, 362, 0, 0, 86, 321, 124, 18,
    165, -243, 336, 0, 0, -9, 647, 385, -397, -23, -179, -1, 0, 0, 0, 0,
    0, 0, 0, 0, 442, 0, 0, 324, -3, -6, 221, -5, 0, 179, 0, 0,
    -91, -13, 81, -34, 0, -77, 0, 0, 0, 0, 0, 0, 0, 0, 0, 0,
    0, 0, 0, 0, 0, 0, 0, 0, 0, 0, 0, 0, 0, 0, 0, 0,
    0, 88, -101, -80, -163, -320, 108, -158, 106, -243, 62, 20, 101, 72, -31, -57,
    -68, 2, -3, -31, -138, 0, 26, -7, -17, -83, 40, 2, 29, -300, 36, 114,
    -436, 0, 188, -193, 0, 47, -18, 96, 58, -13, -20, -58, 28, 0, -14, -64,
    -107, 39, 24, -15, -81, 67, 27, 0, 0, 0, 0, 0, 0, 0, 0, 0,
    0, 0, 0, 0, 0, 0, 0, 0, 0, 0, 0, 0, 0, 0, 0, 0,
    0, 0, 57, 185, 91, -32, -87, -498, 49, 283, -179, 72, 57, 99, 73, 0,
    -27, -46, 55, 2, -23, -97, -99, 45, 30, -6, -64, 65, 42, 47, 119, 276,
    -41, -281, -157, 67, -203, -77, 75, 97, 88, 92, 21, -8, -22, 85, 27, 5,
    43, -26, 60, 54, 35, -21, 75, 68, 0, 0, 0, 0, 0, 0, 0, 0,
    0, 0, 0, 0, 0, 0, 0, 0, 0, 0, 0, 0, 0, 0, 0, 0,
    0, 0, 0, 0, 0, 0, 0, 0, 0, 0, 0, 0, 0, 0, 0, 0,
    0, 0, 0, 0, 0, 0, 0, 0, 0, 0, 0, 0, 0, 0, 0, 0,
    0, 0, 0, 0, 0, 0, 0, 0, 0, 0, 0, 0, 0, 0, 0, 0,
    0, 0, 0, 0, 0, 0, 0, 0, 0, 0, 0, 0, 0, 0, 0, 0,
    0, 0, 0, 0, 0, 0, 0, 0, 0, 0, 0, 0, 0, 0, 0, 0,
    0, 0, 0, 0, -1, 0, 58, 207, 0, 33, 143, 0, 71, -9, -72, 237,
    57, -211, 129, -16, -22, 247, 5, -276, 68, 198, -91, 110, -63, 149, 216, -15,
    127, 0, 15, 0, 0, 0, 0, 0, 17, 102, 208, 120, -132, 91, -54, -89,
    131, 21, -148, 40, 126, -16, 198, -65, -36, 235, 0, 0, 0, 0, 0, 0,
    0, 0, 0, 0, 0, 0, 0, 0, 0, 0, 0, 0, 0, 0, 0, 0,
    0, 0, 0, 0, 0, -15, -33, -68, 0, 0, 0, 0, 0, 0, -44, -71,
    131, 59, -233, -9, -101, -74, -44, -46, -278, 31, 60, -151, 140, -131, 21, 117,
    -11, -42, 0, -110, -29, 0, -146, -61, 0, -17, -175, 236, -46, -143, -8, -165,
    -233, 244, -11, -258, 89, -42, -237, -7, -106, -129, 200, 0, 0, 0, 0, 0,
    0, 0, 0, 0, 0, 0, 0, 0, 0, 0, 0, 0, 0, 0, 0, 0,
    0, 0, 0, 0, 0, 0, 0, 0, 0, 0, 0, 0, 0, 0, 0, 0,
    0, 0, 0, 0, 0, 0, 0, 0, 0, 0, 0, 0, 0, 0, 0, 0,
    0, 0, 0, 0, 0, 0, 0, 0, 0, 0, 0, 0, 0, 0, 0, 0,
    0, 0, 0, 0, 0, 0, 0, 0, 0, 0, 0, 0, 0, 0, 0, 0,
    0, 0, 0, 0, 0, 0, 0, 0, 0, 0, 0, 0, 0, 0, 0, 0,
    0, 0, 0, 0, 0, 0, 0, -9, 105, -113, 102, -9, 122, -83, -425, 85,
    27, -113, 169, 71, -41, 127, -121, -25, 164, -10, -34, 69, 156, 38, 93, -52,
    80, 148, -44, 117, -339, -10, 81, 5, -24, -202, 0, 50, 56, 146, 147, -10,
    -19, -85, -20, 86, -2, -131, 68, 115, 52, 79, -59, 63, 138, 0, 0, 0,
    0, 0, 0, 0, 0, 0, 0, 0, 0, 0, 0, 0, 0, 0, 0, 0,
    0, 0, 0, 0, 0, 0, 0, 0, 17, 7, 22, 242, 78, 312, -136, 0,
    29, 50, 34, 229, 146, -41, -27, -65, -32, 45, -6, -22, 48, 152, 39, 61,
    -87, 74, 84, -17, -125, -372, 158, 86, 499, -161, -3, 0, 56, 44, 187, 148,
    -46, -12, -65, -39, 17, 6, -17, 91, 132, -13, 47, -80, -43, 130, 0, 0,
    0, 0, 0, 0, 0, 0, 0, 0, 0, 0, 0, 0, 0, 0, 0, 0,
    0, 0, 0, 0, 0, 0, 0, 0, 0, 0, 0, 0, 0, 0, 0, 0,
    0, 0, 0, 0, 0, 0, 0, 0, 0, 0, 0, 0, 0, 0, 0, 0,
    0, 0, 0, 0, 0, 0, 0, 0, 0, 0, 0, 0, 0, 0, 0, 0,
    0, 0, 0, 0, 0, 0, 0, 0, 0, 0, 0, 0, 0, 0, 0, 0,
    0, 0, 0, 0, 0, 0, 0, 0, 0, 0, 0, 0, 0, 0, 0, 0,
    0, 0, 0, 0, 0, 0, 0, 0, 0, 0, 5, 54, 244, 101, 0, 3,
    21, -195, 0, -10, -96, 15, 55, -117, -37, -148, -73, -9, -61, -135, -2, 41,
    0, -13, -151, 7, 28, -46, 146, 217, 28, -152, 0, -344, -204, 0, -6, 11,
    7, 70, -85, -101, -139, -68, -49, -53, -232, 6, 61, -88, 0, -148, -27, 51,
    0, 0, 0, 0, 0, 0, 0, 0, 0, 0, 0, 0, 0, 0, 0, 0,
    0, 0, 0, 0, 0, 0, 0, 0, 0, 0, 0, 21, 42, -35, 9, 0,
    244, -97, -8, -2, -2, -43, 44, 40, -116, -107, -110, -93, -46, -53, -93, -9,
    42, -112, -19, -118, 13, 5, -11, 113, 2, 24, -195, 217, -120, -117, 0, 6,
    -55, 14, 49, -126, -70, -142, -152, -40, -22, -154, 157, 73, -137, -3, -57, -100,
    83, 0, 0, 0, 0, 0, 0, 0, 0, 0, 0, 0, 0, 0, 0, 0,
    0, 0, 0, 0, 0, 0, 0, 0, 0, 0, 0, 0, 0, 0, 0, 0,
    0, 0, 0, 0, 0, 0, 0, 0, 0, 0, 0, 0, 0, 0, 0, 0,
    0, 0, 0, 0, 0, 0, 0, 0, 0, 0, 0, 0, 0, 0, 0, 0,
    0, 0, 0, 0, 0, 0, 0, 0, 0, 0, 0, 0, 0, 0, 0, 0,
    0, 0, 0, 0, 0, 0, 0, 0, 0, 0, 0, 0, 0, 0, 0, 0,
    0, 0, 0, 0, 0, 0, 0, 0, 0, 0, 0, 0, 0, 207, 0, 0,
    24, 0, 42, 30, 0, 0, 102, 78, 272, 259, -269, 181, 32, 319, 1, 101,
    0, 258, 195, 74, 315, -28, 162, 517, 0, 0, 0, 0, 0, 0, 0, 0,
    0, 242, 59, 280, 65, 113, -221, -249, 22, 392, 9, 0, 122, 328, -153, 289,
    -327, 91, 54, 0, 0, 0, 0, 0, 0, 0, 0, 0, 0, 0, 0, 0,
    0, 0, 0, 0, 0, 0, 0, 0, 0, 0, 0, 0, 0, 0, 15, 0,
    0, 0, 0, 0, 0, 0, 0, -10, 176, 0, 21, -166, 103, -165, -159, 55,
    28, -234, -237, -228, -256, -41, -224, -324, 137, -110, 0, 0, 0, 0, 0, -33,
    0, 0, 158, 82, 0, 225, -114, -151, 293, 184, 384, 24, -19, 206, -126, -370,
    -16, -179, -528, 274, 0, 0, 0, 0, 0, 0, 0, 0, 0, 0, 0, 0,
    0, 0, 0, 0, 0, 0, 0, 0, 0, 0, 0, 0, 0, 0, 0, 0,
    0, 0, 0, 0, 0, 0, 0, 0, 0, 0, 0, 0, 0, 0, 0, 0,
    0, 0, 0, 0, 0, 0, 0, 0, 0, 0, 0, 0, 0, 0, 0, 0,
    0, 0, 0, 0, 0, 0, 0, 0, 0, 0, 0, 0, 0, 0, 0, 0,
    0, 0, 0, 0, 0, 0, 0, 0, 0, 0, 0, 0, 0, 0, 0, 0,
    0, 0, 0, 0, 0, 0, 0, 0, 0, 0, 0, 0, 0, 0, 0, 0,
    57, 12, 131, 259, -139, 397, 167, -5, 384, 71, -21, 219, 93, -5, 214, 8,
    170, 223, 55, -47, 115, 285, 183, 143, 20, 224, 202, 59, 259, -149, 21, -98,
    0, 250, 0, 67, 146, 144, 218, 235, 69, 86, -38, 110, 130, 40, -32, 156,
    199, 161, 142, -20, 202, 211, 0, 0, 0, 0, 0, 0, 0, 0, 0, 0,
    0, 0, 0, 0, 0, 0, 0, 0, 0, 0, 0, 0, 0, 0, 0, 0,
    0, 120, -440, 343, 65, -67, 370, 178, -113, 129, 147, 109, 336, 235, 40, 47,
    43, 86, 116, 70, 21, 87, 200, 210, 112, 2, 259, 108, -46, 72, 387, 225,
    0, 0, -164, 0, 0, 148, 218, 245, 225, 10, 63, 25, 111, 198, 49, 13,
    261, 203, 118, 176, -33, 146, 227, 0, 0, 0, 0, 0, 0, 0, 0, 0,
    0, 0, 0, 0, 0, 0, 0, 0, 0, 0, 0, 0, 0, 0, 0, 0,
    0, 0, 0, 0, 0, 0, 0, 0, 0, 0, 0, 0, 0, 0, 0, 0,
    0, 0, 0, 0, 0, 0, 0, 0, 0, 0, 0, 0, 0, 0, 0, 0,
    0, 0, 0, 0, 0, 0, 0, 0, 0, 0, 0, 0, 0, 0, 0, 0,
    0, 0, 0, 0, 0, 0, 0, 0, 0, 0, 0, 0, 0, 0, 0, 0,
    0, 0, 0, 0, 0, 0, 0, 0, 0, 0, 0, 0, 0, 0, 0, 0,
    0, 0, 0, 198, -386, 94, 195, 0, 191, 52, 0, 89, 156, 118, 269, 285,
    36, 28, -69, 30, 135, 41, -90, 5, 169, 8, -57, -16, 4, 63, 60, 218,
    0, -228, -49, 0, 51, -41, 2, 152, 36, 224, 200, -9, -8, -22, 51, 92,
    42, -77, 190, 23, 122, 43, -41, 148, 179, 0, 0, 0, 0, 0, 0, 0,
    0, 0, 0, 0, 0, 0, 0, 0, 0, 0, 0, 0, 0, 0, 0, 0,
    0, 0, 0, 0, 126, 0, 109, 328, -68, 50, 163, 0, 106, 115, 129, 224,
    199, 42, 19, -96, 56, 111, 61, 37, -8, 23, 108, 117, -56, -27, 147, -42,
    320, 140, -126, -12, 403, 288, -97, 0, 132, 55, 276, 203, -11, 18, -66, 36,
    162, 73, 27, 189, 77, 33, 136, 17, 60, 240, 0, 0, 0, 0, 0, 0,
    0, 0, 0, 0, 0, 0, 0, 0, 0, 0, 0, 0, 0, 0, 0, 0,
    0, 0, 0, 0, 0, 0, 0, 0, 0, 0, 0, 0, 0, 0, 0, 0,
    0, 0, 0, 0, 0, 0, 0, 0, 0, 0, 0, 0, 0, 0, 0, 0,
    0, 0, 0, 0, 0, 0, 0, 0, 0, 0, 0, 0, 0, 0, 0, 0,
    0, 0, 0, 0, 0, 0, 0, 0, 0, 0, 0, 0, 0, 0, 0, 0,
    0, 0, 0, 0, 0, 0, 0, 0, 0, 0, 0, 0, 0, 0, 0, 0,
    0, 0, 0, 0, 0, 0, 143, 0, 0, 30, 0, 2, 0, 0, 0, -83,
    -65, 126, 167, -55, 232, 73, -2, 89, 21, 0, -164, 52, -290, -20, -401, 28,
    474, 0, 0, 0, 0, 0, 0, 0, 0, 0, -136, 285, 382, 178, 266, 353,
    108, 157, 121, -97, -141, -29, 163, -83, 178, -290, -93, 284, 0, 0, 0, 0,
    0, 0, 0, 0, 0, 0, 0, 0, 0, 0, 0, 0, 0, 0, 0, 0,
    0, 0, 0, 0, 0, 0, 0, 0, 0, 0, 0, 0, 0, 0, 0, 0,
    -24, -26, 0, 250, -242, -25, -154, -321, 0, -344, -151, 0, 51, -15, -137, 12,
    133, 310, -146, 0, 0, -33, -13, 0, 0, 0, 0, -161, -297, 0, -164, -284,
    -317, -256, -200, -75, -120, -17, 99, 288, -197, -193, -209, -293, 182, 0, 0, 0,
    0, 0, 0, 0, 0, 0, 0, 0, 0, 0, 0, 0, 0, 0, 0, 0,
    0, 0, 0, 0, 0, 0, 0, 0, 0, 0, 0, 0, 0, 0, 0, 0,
    0, 0, 0, 0, 0, 0, 0, 0, 0, 0, 0, 0, 0, 0, 0, 0,
    0, 0, 0, 0, 0, 0, 0, 0, 0, 0, 0, 0, 0, 0, 0, 0,
    0, 0, 0, 0, 0, 0, 0, 0, 0, 0, 0, 0, 0, 0, 0, 0,
    0, 0, 0, 0, 0, 0, 0, 0, 0, 0, 0, 0, 0, 0, 0, 0,
    0, 0, 0, 0, 0, 0, 0, 0, 0, -16, 215, 0, 32, -517, 201, 73,
    0, 0, -121, -82, -21, 8, -259, -152, -319, -129, -122, -148, -408, 157, -69, -185,
    57, -156, -174, 156, -101, -141, -418, -165, -168, 0, -154, -186, 0, -65, 0, -22,
    43, -117, -126, 6, -217, -231, -110, -283, -157, -96, -18, -94, -235, -251, -6, 0,
    0, 0, 0, 0, 0, 0, 0, 0, 0, 0, 0, 0, 0, 0, 0, 0,
    0, 0, 0, 0, 0, 0, 0, 0, 0, 0, -54, 0, -254, -249, 0, 0,
    108, 0, 0, -85, -135, 120, -38, -222, -280, 6, -66, -144, -139, -258, -65, -22,
    -124, -124, -206, -80, -17, -165, -64, -286, 293, -68, 0, -256, -119, 0, -65, 61,
    56, 25, -121, -91, -151, -153, -84, -142, -172, -86, -66, -200, -130, -299, -166, 7,
    0, 0, 0, 0, 0, 0, 0, 0, 0, 0, 0, 0, 0, 0, 0, 0,
    0, 0, 0, 0, 0, 0, 0, 0, 0, 0, 0, 0, 0, 0, 0, 0,
    0, 0, 0, 0, 0, 0, 0, 0, 0, 0, 0, 0, 0, 0, 0, 0,
    0, 0, 0, 0, 0, 0, 0, 0, 0, 0, 0, 0, 0, 0, 0, 0,
    0, 0, 0, 0, 0, 0, 0, 0, 0, 0, 0, 0, 0, 0, 0, 0,
    0, 0, 0, 0, 0, 0, 0, 0, 0, 0, 0, 0, 0, 0, 0, 0,
    0, 0, 0, 0, 0, 0, 0, 0, 0, 0, 0, 0, -63, -310, -30, -28,
    0, -107, -401, -1, 0, -52, -130, -11, 20, -200, -212, -156, -151, -149, -151, -208,
    -70, -16, -184, -136, -170, -88, -44, -131, -273, -578, -224, -247, -257, 12, -201, 6,
    -87, -92, -92, 2, -96, -236, -206, -163, -141, -118, -206, -7, -56, -122, -62, -203,
    -148, -43, 0, 0, 0, 0, 0, 0, 0, 0, 0, 0, 0, 0, 0, 0,
    0, 0, 0, 0, 0, 0, 0, 0, 0, 0, 0, 0, 0, -65, 0, -322,
    -327, 0, 0, -290, 0, 197, -59, -133, 32, -20, -219, -174, -235, -194, -180, -148,
    -250, -41, -41, -181, -147, -203, -112, -26, -106, -119, -90, -179, -432, 0, -209, -71,
    0, -80, -116, -56, -33, -203, -239, -299, -214, -158, -57, -170, 62, 17, -235, -164,
    -65, -201, 59, 0, 0, 0, 0, 0, 0, 0, 0, 0, 0, 0, 0, 0,
    0, 0, 0, 0, 0, 0, 0, 0, 0, 0, 0, 0, 0, 0, 0, 0,
    0, 0, 0, 0, 0, 0, 0, 0, 0, 0, 0, 0, 0, 0, 0, 0,
    0, 0, 0, 0, 0, 0, 0, 0, 0, 0, 0, 0, 0, 0, 0, 0,
    0, 0, 0, 0, 0, 0, 0, 0, 0, 0, 0, 0, 0, 0, 0, 0,
    0, 0, 0, 0, 0, 0, 0, 0, 0, 0, 0, 0, 0, 0, 0, 0,
    0, 0, 0, 0, 0, 0, 0, 0, 0, 0, 0, 0, 0, 0, 0, 0,
    0, 0, 0, 0, 0, 0, 0, 0, 105, 0, -123, 12, -239, -283, 215, 175,
    34, 54, -78, 0, -386, 82, 43, -310, 0, 1, -33, 0, 0, 0, 0, 0,
    0, 0, 0, 7, 0, 0, -440, -31, 0, 0, 351, 0, 42, -124, 257, 0,
    85, -297, 0, -31, -82, 0, 0, 0, 0, 0, 0, 0, 0, 0, 0, 0,
    0, 0, 0, 0, 0, 0, 0, 0, 0, 0, 0, 0, 0, 0, 0, 0,
    127, 0, 0, 0, 0, 0, 0, 0, 0, 117, -18, 0, 259, -403, 600, -141,
    -205, -42, 146, -101, -179, 218, -128, 209, -273, -11, -355, -42, 0, 0, 0, 0,
    0, 0, 0, 0, -125, -396, 0, 72, -26, -68, -64, -14, -424, 113, -52, -160,
    320, -80, -97, -119, -34, 110, 0, 0, 0, 0, 0, 0, 0, 0, 0, 0,
    0, 0, 0, 0, 0, 0, 0, 0, 0, 0, 0, 0, 0, 0, 0, 0,
    0, 0, 0, 0, 0, 0, 0, 0, 0, 0, 0, 0, 0, 0, 0, 0,
    0, 0, 0, 0, 0, 0, 0, 0, 0, 0, 0, 0, 0, 0, 0, 0,
    0, 0, 0, 0, 0, 0, 0, 0, 0, 0, 0, 0, 0, 0, 0, 0,
    0, 0, 0, 0, 0, 0, 0, 0, 0, 0, 0, 0, 0, 0, 0, 0,
    0, 0, 0, 0, 0, 0, 0, 0, 0, 0, 0, 0, 0, 0, 0, 0,
    0, 0, -72, 0, 73, 78, 0, 0, -65, 0, 118, -113, -59, 72, -21, -160,
    109, -82, 24, 54, -96, -110, -94, 118, 65, 96, -130, 205, 174, -71, -18, -138,
    176, 0, 0, -26, 0, 0, 34, -27, 296, 109, 38, -73, -135, 28, 101, -43,
    -242, 25, 129, 26, 64, -133, 47, 118, 0, 0, 0, 0, 0, 0, 0, 0,
    0, 0, 0, 0, 0, 0, 0, 0, 0, 0, 0, 0, 0, 0, 0, 0,
    0, 0, 0, 102, 0, 151, 59, 0, 266, 285, 0, 68, 56, -27, 102, 144,
    -78, 34, 0, 38, -63, 11, -326, 141, 36, 10, 55, -92, 11, 32, -175, -396,
    71, 82, 0, 0, -297, -3, 0, 44, 137, 159, 218, 112, -131, 61, 54, 27,
    -55, -250, -6, 55, 39, 65, -116, 64, 130, 0, 0, 0, 0, 0, 0, 0,
    0, 0, 0, 0, 0, 0, 0, 0, 0, 0, 0, 0, 0, 0, 0, 0,
    0, 0, 0, 0, 0, 0, 0, 0, 0, 0, 0, 0, 0, 0, 0, 0,
    0, 0, 0, 0, 0, 0, 0, 0, 0, 0, 0, 0, 0, 0, 0, 0,
    0, 0, 0, 0, 0, 0, 0, 0, 0, 0, 0, 0, 0, 0, 0, 0,
    0, 0, 0, 0, 0, 0, 0, 0, 0, 0, 0, 0, 0, 0, 0, 0,
    0, 0, 0, 0, 0, 0, 0, 0, 0, 0, 0, 0, 0, 0, 0, 0,
    0, 0, 0, 0, 0, -276, -78, 0, 0, 0, 0, 0, 0, 0, -34, -110,
    86, -47, -259, -218, -408, -191, -172, -135, -232, -143, -90, -122, -77, -208, -91, -153,
    -278, -101, 0, -234, -81, 184, -151, -2, 0, -22, -326, -85, 21, -249, -126, -258,
    -265, -8, -93, -221, -257, 37, -292, -74, -250, 25, -21, 0, 0, 0, 0, 0,
    0, 0, 0, 0, 0, 0, 0, 0, 0, 0, 0, 0, 0, 0, 0, 0,
    0, 0, 0, 0, 0, 0, -148, -124, 0, 0, 0, 0, -141, 0, 0, -131,
    -242, -137, -32, -330, -305, -283, -193, -85, -232, -221, -176, -77, -204, -122, -206, -126,
    -84, -258, -52, 0, -19, -21, 215, -17, -4, 0, -17, -250, -71, 13, -144, -166,
    -172, -278, -149, -154, -56, -52, 27, -153, -53, -170, -587, 32, 0, 0, 0, 0,
    0, 0, 0, 0, 0, 0, 0, 0, 0, 0, 0, 0, 0, 0, 0, 0,
    0, 0, 0, 0, 0, 0, 0, 0, 0, 0, 0, 0, 0, 0, 0, 0,
    0, 0, 0, 0, 0, 0, 0, 0, 0, 0, 0, 0, 0, 0, 0, 0,
    0, 0, 0, 0, 0, 0, 0, 0, 0, 0, 0, 0, 0, 0, 0, 0,
    0, 0, 0, 0, 0, 0, 0, 0, 0, 0, 0, 0, 0, 0, 0, 0,
    0, 0, 0, 0, 0, 0, 0, 0, 0, 0, 0, 0, 0, 0, 0, 0,
    0, 0, 0, 0, 0, 0, 0, 0, 0, 0, 0, 0, 0, 0, 0, 0,
    0, -9, 0, 0, -139, -277, 271, -517, 186, -4, 0, 0, 0, 0, -8, 0,
    0, -25, 0, 0, 0, 0, 0, 0, 0, 0, 0, 0, 78, 0, 0, -67,
    0, 0, 0, 0, -7, 0, 0, 0, -68, 0, 214, 0, 0, 0, 0, 0,
    0, 0, 0, 0, 0, 0, 0, 0, 0, 0, 0, 0, 0, 0, 0, 0,
    0, 0, 0, 0, 0, 0, 0, 0, 0, 0, 0, 0, 0, 0, 0, 0,
    0, 0, 81, 0, 0, -98, -270, -16, -168, -337, -27, -152, -81, -294, -49, -31,
    -102, -247, -219, -192, -29, 0, 0, 0, 0, 0, -13, -1, 0, 86, 0, 574,
    0, -315, -41, -68, -230, -1, -195, -21, -93, -12, -40, -399, -432, -169, -56, 0,
    0, 0, 0, 0, 0, 0, 0, 0, 0, 0, 0, 0, 0, 0, 0, 0,
    0, 0, 0, 0, 0, 0, 0, 0, 0, 0, 0, 0, 0, 0, 0, 0,
    0, 0, 0, 0, 0, 0, 0, 0, 0, 0, 0, 0, 0, 0, 0, 0,
    0, 0, 0, 0, 0, 0, 0, 0, 0, 0, 0, 0, 0, 0, 0, 0,
    0, 0, 0, 0, 0, 0, 0, 0, 0, 0, 0, 0, 0, 0, 0, 0,
    0, 0, 0, 0, 0, 0, 0, 0, 0, 0, 0, 0, 0, 0, 0, 0,
    0, 0, 0, 0, 0, 0, 0, 0, 0, 0, 0, -211, -239, 213, -269, -277,
    65, -55, -46, -69, -41, -160, -14, -5, -184, -132, -259, -142, -81, -117, -259, -71,
    36, -103, -67, -200, -45, -2, -233, -403, -166, -166, -270, 0, -242, -59, -133, -41,
    -78, 52, 40, -140, -118, -222, -66, -60, -116, -330, -91, 42, -97, -25, -219, 9,
    34, 0, 0, 0, 0, 0, 0, 0, 0, 0, 0, 0, 0, 0, 0, 0,
    0, 0, 0, 0, 0, 0, 0, 0, 0, 0, 0, 0, -132, -31, 153, 113,
    0, 431, 266, 0, 168, -10, 38, 95, 69, -140, -121, -117, -79, -94, -85, -249,
    -102, -9, -42, -20, -96, 25, 33, -143, -26, -414, -114, -315, 0, -284, -72, 0,
    -46, 112, 167, 10, -40, -77, -121, 25, -84, -126, -144, -109, -11, 13, 2, -203,
    30, 59, 0, 0, 0, 0, 0, 0, 0, 0, 0, 0, 0, 0, 0, 0,
    0, 0, 0, 0, 0, 0, 0, 0, 0, 0, 0, 0, 0, 0, 0, 0,
    0, 0, 0, 0, 0, 0, 0, 0, 0, 0, 0, 0, 0, 0, 0, 0,
    0, 0, 0, 0, 0, 0, 0, 0, 0, 0, 0, 0, 0, 0, 0, 0,
    0, 0, 0, 0, 0, 0, 0, 0, 0, 0, 0, 0, 0, 0, 0, 0,
    0, 0, 0, 0, 0, 0, 0, 0, 0, 0, 0, 0, 0, 0, 0, 0,
    0, 0, 0, 0, 0, 0, 0, 0, 0, 0, 0, 0, 0, 0, -91, 82,
    0, 74, -8, 467, -290, 0, 0, 38, 65, 210, 183, -103, -97, -185, -75, -12,
    0, -122, 112, 8, -133, 10, -184, -13, 117, -151, -128, -103, -256, -31, 240, -15,
    -9, 0, 39, 10, -1, 210, -42, -67, -124, -12, -10, -112, -204, -22, 108, -25,
    70, -181, 105, 91, 0, 0, 0, 0, 0, 0, 0, 0, 0, 0, 0, 0,
    0, 0, 0, 0, 0, 0, 0, 0, 0, 0, 0, 0, 0, 0, 0, -16,
    85, 9, -153, 0, 0, -83, 0, 0, 52, 26, 222, 161, -97, -30, -18, -79,
    74, -88, -292, 54, 122, -25, 55, -122, 39, 100, -237, -80, -32, -370, -40, 0,
    -197, -13, 0, -13, 39, 102, 118, 13, 16, -200, -27, 46, -137, -153, -130, 33,
    -34, 47, -235, 46, 105, 0, 0, 0, 0, 0, 0, 0, 0, 0, 0, 0,
    0, 0, 0, 0, 0, 0, 0, 0, 0, 0, 0, 0, 0, 0, 0, 0,
    0, 0, 0, 0, 0, 0, 0, 0, 0, 0, 0, 0, 0, 0, 0, 0,
    0, 0, 0, 0, 0, 0, 0, 0, 0, 0, 0, 0, 0, 0, 0, 0,
    0, 0, 0, 0, 0, 0, 0, 0, 0, 0, 0, 0, 0, 0, 0, 0,
    0, 0, 0, 0, 0, 0, 0, 0, 0, 0, 0, 0, 0, 0, 0, 0,
    0, 0, 0, 0, 0, 0, 0, 0, 0, 0, 0, 0, 0, 0, 0, 0,
    0, 0, 0, 0, 0, 0, 0, 0, 0, 0, -425, 0, 0, -5, -46, 0,
    0, 0, -52, -195, 0, 0, 0, 0, 0, -1, -8, -21, 0, 0, 0, 0,
    0, 0, 0, 0, 0, 0, 0, -51, -113, 0, 0, 0, 0, 0, -8, 0,
    0, 0, 0, -99, 0, -20, -52, 0, 0, 0, 0, 0, 0, 0, 0, 0,
    0, 0, 0, 0, 0, 0, 0, 0, 0, 0, 0, 0, 0, 0, 0, 0,
    0, 0, 0, 0, 0, 0, 0, 0, 0, 0, 0, -202, 0, 0, 0, -59,
    -14, -186, -24, 0, -204, -2, 0, -41, -9, -101, -201, -137, 0, -61, 0, 0,
    0, -1, 0, 0, 0, 0, -3, -3, 0, 0, -72, -269, -119, -7, -1, -117,
    -4, 0, -97, -13, -372, -71, -208, -73, 0, 0, 0, 0, 0, 0, 0, 0,
    0, 0, 0, 0, 0, 0, 0, 0, 0, 0, 0, 0, 0, 0, 0, 0,
    0, 0, 0, 0, 0, 0, 0, 0, 0, 0, 0, 0, 0, 0, 0, 0,
    0, 0, 0, 0, 0, 0, 0, 0, 0, 0, 0, 0, 0, 0, 0, 0,
    0, 0, 0, 0, 0, 0, 0, 0, 0, 0, 0, 0, 0, 0, 0, 0,
    0, 0, 0, 0, 0, 0, 0, 0, 0, 0, 0, 0, 0, 0, 0, 0,
    0, 0, 0, 0, 0, 0, 0, 0, 0, 0, 0, 0, 0, 0, 0, 0,
    0, 0, 0, 0, -22, 175, 314, 319, 186, 168, -2, 0, 131, -25, 24, 34,
    170, -142, -123, -129, -78, -24, -73, -191, -82, 30, -75, -22, -151, -21, -2, -74,
    -205, -285, -159, -337, 0, -321, -24, 0, -32, 38, -31, 86, -79, -106, -66, -20,
    -39, -93, -193, -86, 56, -79, -18, -194, 116, 46, 0, 0, 0, 0, 0, 0,
    0, 0, 0, 0, 0, 0, 0, 0, 0, 0, 0, 0, 0, 0, 0, 0,
    0, 0, 0, 0, 0, -89, 351, -74, 22, 0, -25, 157, 0, 95, -20, 28,
    125, 110, -66, -93, -217, -20, -6, -68, -265, 21, 51, -12, -12, -163, 172, 50,
    -233, -14, -42, 184, -230, 0, -200, -7, 0, -39, 54, 82, 111, 25, -47, -153,
    -10, -39, -152, -278, -114, 36, -27, 45, -214, 102, 94, 0, 0, 0, 0, 0,
    0, 0, 0, 0, 0, 0, 0, 0, 0, 0, 0, 0, 0, 0, 0, 0,
    0, 0, 0, 0, 0, 0, 0, 0, 0, 0, 0, 0, 0, 0, 0, 0,
    0, 0, 0, 0, 0, 0, 0, 0, 0, 0, 0, 0, 0, 0, 0, 0,
    0, 0, 0, 0, 0, 0, 0, 0, 0, 0, 0, 0, 0, 0, 0, 0,
    0, 0, 0, 0, 0, 0, 0, 0, 0, 0, 0, 0, 0, 0, 0, 0,
    0, 0, 0, 0, 0, 0, 0, 0, 0, 0, 0, 0, 0, 0, 0, 0,
    0, 0, 0, 0, 0, 0, 0, 149, 0, 33, 162, -25, 267, 28, -8, 152,
    80, 205, 235, 224, -45, -55, -174, -21, 37, 7, -91, 61, 4, -13, 63, -88,
    51, 115, 21, -11, 0, -324, -219, 0, 133, -137, 0, 74, 11, 74, 259, 25,
    -23, -80, 172, 37, 13, -126, -169, -27, 39, 114, -112, 132, 128, 0, 0, 0,
    0, 0, 0, 0, 0, 0, 0, 0, 0, 0, 0, 0, 0, 0, 0, 0,
    0, 0, 0, 0, 0, 0, 0, 0, -36, -31, -97, 91, 0, -56, -93, -20,
    -178, 63, 47, 143, 202, 9, 10, -251, 116, 91, -27, 25, -107, 148, 105, 132,
    -148, 132, 179, -129, -34, 86, -528, -169, 0, -293, -208, 0, -43, 64, 100, 146,
    30, 48, -166, 102, 96, -100, -587, -87, 60, 46, 140, -201, 132, 134, 0, 0,
    0, 0, 0, 0, 0, 0, 0, 0, 0, 0, 0, 0, 0, 0, 0, 0,
    0, 0, 0, 0, 0, 0, 0, 0, 0, 0, 0, 0, 0, 0, 0, 0,
    0, 0, 0, 0, 0, 0, 0, 0, 0, 0, 0, 0, 0, 0, 0, 0,
    0, 0, 0, 0, 0, 0, 0, 0, 0, 0, 0, 0, 0, 0, 0, 0,
    0, 0, 0, 0, 0, 0, 0, 0, 0, 0, 0, 0, 0, 0, 0, 0,
    0, 0, 0, 0, 0, 0, 0, 0, 0, 0, 0, 0, 0, 0, 0, 0,
    0, 0, 0, 0, 0, 0, 0, 0, 0, 0, 58, 0, 0, 0, 0, 0,
    0, 0, 0, -113, 73, 21, 131, 213, 86, 0, 314, 32, 244, 0, 29, 94,
    0, 0, -30, 33, 6, -68, 0, 0, 0, 0, 0, 0, 0, 0, 22, 151,
    12, 343, 153, 3, -254, -74, 318, -35, 0, 0, 109, 9, -30, -322, -97, 222,
    0, 0, 0, 0, 0, 0, 0, 0, 0, 0, 0, 0, 0, 0, 0, 0,
    0, 0, 0, 0, 0, 0, 0, 0, 0, 0, 0, 0, 0, 0, 0, 0,
    0, 0, 0, 0, -339, -138, 0, -149, -166, -246, -418, -285, 0, 217, 0, 0,
    0, -103, -237, -578, 0, 23, 0, 0, 0, 0, 0, 0, 0, 0, 0, -372,
    71, 30, 387, -414, -37, -286, -42, 0, 2, 0, 0, 140, -32, -243, -90, 86,
    -218, 0, 0, 0, 0, 0, 0, 0, 0, 0, 0, 0, 0, 0, 0, 0,
    0, 0, 0, 0, 0, 0, 0, 0, 0, 0, 0, 0, 0, 0, 0, 0,
    0, 0, 0, 0, 0, 0, 0, 0, 0, 0, 0, 0, 0, 0, 0, 0,
    0, 0, 0, 0, 0, 0, 0, 0, 0, 0, 0, 0, 0, 0, 0, 0,
    0, 0, 0, 0, 0, 0, 0, 0, 0, 0, 0, 0, 0, 0, 0, 0,
    0, 0, 0, 0, 0, 0, 0, 0, 0, 0, 0, 0, 0, 0, 0, 0,
    0, 0, 0, 0, 0, 0, 0, 0, 0, 0, 0, 0, 0, 237, -123, 21,
    272, 0, 4, 126, 0, 0, 169, 72, 256, 219, -14, 428, -21, 34, 305, 15,
    86, 656, 269, 210, 215, -11, 235, 59, 131, 0, 0, 0, 0, 0, 0, 0,
    0, 229, 102, 351, 336, 95, 151, 120, 125, 52, 44, -137, 40, 224, 222, 251,
    32, 143, 272, 0, 0, 0, 0, 0, 0, 0, 0, 0, 0, 0, 0, 0,
    0, 0, 0, 0, 0, 0, 0, 0, 0, 0, 0, 0, 0, 0, 208, 0,
    12, 280, 0, 37, 382, -51, 9, 146, 296, 351, 218, 52, -2, -22, -31, 251,
    7, -85, 49, 224, -1, 86, -92, 74, 149, 236, 0, 30, 0, 574, 0, 0,
    0, 0, 187, 159, 146, 245, 167, 74, 56, 82, 147, 14, -71, 178, 276, 102,
    218, -56, 100, 251, 0, 0, 0, 0, 0, 0, 0, 0, 0, 0, 0, 0,
    0, 0, 0, 0, 0, 0, 0, 0, 0, 0, 0, 0, 0, 0, 0, 0,
    0, 0, 0, 0, 0, 0, 0, 0, 0, 0, 0, 0, 0, 0, 0, 0,
    0, 0, 0, 0, 0, 0, 0, 0, 0, 0, 0, 0, 0, 0, 0, 0,
    0, 0, 0, 0, 0, 0, 0, 0, 0, 0, 0, 0, 0, 0, 0, 0,
    0, 0, 0, 0, 0, 0, 0, 0, 0, 0, 0, 0, 0, 0, 0, 0,
    0, 0, 0, 0, 0, 0, 0, 0, 0, 0, 0, 0, 0, 0, 0, 0,
    68, 0, 29, 258, 0, 0, -164, 0, 0, 69, -94, 656, 115, -71, -69, 157,
    -82, -54, -2, -143, 67, 5, 112, -66, -70, 61, -9, 31, -179, 0, -237, -294,
    0, 0, 0, 0, 48, 141, 49, 87, -102, -44, -65, 21, 65, -9, -176, 39,
    -8, 54, -3, -41, -107, 71, 0, 0, 0, 0, 0, 0, 0, 0, 0, 0,
    0, 0, 0, 0, 0, 0, 0, 0, 0, 0, 0, 0, 0, 0, 0, 0,
    0, 40, 257, 0, 122, 0, 0, -29, 0, 0, 68, 25, 40, 156, -91, 85,
    -157, -86, 181, 6, -257, 39, 190, -22, 3, -7, -169, -51, 89, -160, 0, 206,
    -93, 0, 99, 0, 0, 91, -6, 178, 261, -109, -252, -86, -114, -4, 157, -52,
    57, 189, -130, 59, 62, -87, 230, 0, 0, 0, 0, 0, 0, 0, 0, 0,
    0, 0, 0, 0, 0, 0, 0, 0, 0, 0, 0, 0, 0, 0, 0, 0,
    0, 0, 0, 0, 0, 0, 0, 0, 0, 0, 0, 0, 0, 0, 0, 0,
    0, 0, 0, 0, 0, 0, 0, 0, 0, 0, 0, 0, 0, 0, 0, 0,
    0, 0, 0, 0, 0, 0, 0, 0, 0, 0, 0, 0, 0, 0, 0, 0,
    0, 0, 0, 0, 0, 0, 0, 0, 0, 0, 0, 0, 0, 0, 0, 0,
    0, 0, 0, 0, 0, 0, 0, 0, 0, 0, 0, 0, 0, 0, 0, 0,
    0, 0, 0, 33, 0, 0, 42, 0, 0, 2, 0, 0, 122, 0, 4, 397,
    65, 87, 201, 168, 26, 3, 0, 0, 191, 467, 80, -107, 267, 98, 0, 0,
    0, 0, 0, 0, 0, 0, 0, 312, 266, 37, 370, 431, 200, 0, -25, 21,
    244, 0, 0, 50, 0, 233, 0, -56, 400, 0, 0, 0, 0, 0, 0, 0,
    0, 0, 0, 0, 0, 0, 0, 0, 0, 0, 0, 0, 0, 0, 0, 0,
    0, 0, 0, 0, 0, 0, 0, 0, 0, 0, 0, 0, 0, 5, 0, 0,
    0, 0, 0, 0, 0, 0, 0, 184, 0, 0, 240, 0, -257, 0, 0, 0,
    0, 0, 0, 0, 0, 0, 0, 0, 499, 0, 0, 0, 0, 38, 0, 0,
    0, 217, 215, 0, 403, 0, 0, 0, 0, 42, 0, 0, 0, 0, 0, 0,
    0, 0, 0, 0, 0, 0, 0, 0, 0, 0, 0, 0, 0, 0, 0, 0,
    0, 0, 0, 0, 0, 0, 0, 0, 0, 0, 0, 0, 0, 0, 0, 0,
    0, 0, 0, 0, 0, 0, 0, 0, 0, 0, 0, 0, 0, 0, 0, 0,
    0, 0, 0, 0, 0, 0, 0, 0, 0, 0, 0, 0, 0, 0, 0, 0,
    0, 0, 0, 0, 0, 0, 0, 0, 0, 0, 0, 0, 0, 0, 0, 0,
    0, 0, 0, 0, 0, 0, 0, 0, 0, 0, 0, 0, 0, 0, 0, 0,
    0, 0, 0, 0, 0, 0, 129, -283, 86, 181, 271, 87, 232, 0, 5, 127,
    109, 428, 214, -132, -112, -152, -123, 0, -37, -218, -69, 28, -97, -50, -212, -55,
    -4, -9, 600, -246, 103, -16, 0, -25, -14, 0, -27, 34, -2, 47, -121, -112,
    -280, -93, -96, -107, -305, 85, 19, -30, -15, -174, 10, 19, 0, 0, 0, 0,
    0, 0, 0, 0, 0, 0, 0, 0, 0, 0, 0, 0, 0, 0, 0, 0,
    0, 0, 0, 0, 0, 0, 0, 91, 0, 3, -221, 0, 200, 353, 0, 28,
    -19, -73, 151, 86, -118, -112, -126, -106, 3, -101, -126, -44, -8, -67, -72, -236,
    -23, 32, -8, -68, -37, -151, -41, 38, -317, -269, 4, -12, -131, 74, 63, -77,
    32, -91, -47, -44, -70, -166, -252, 18, 16, -8, -239, 48, 94, 0, 0, 0,
    0, 0, 0, 0, 0, 0, 0, 0, 0, 0, 0, 0, 0, 0, 0, 0,
    0, 0, 0, 0, 0, 0, 0, 0, 0, 0, 0, 0, 0, 0, 0, 0,
    0, 0, 0, 0, 0, 0, 0, 0, 0, 0, 0, 0, 0, 0, 0, 0,
    0, 0, 0, 0, 0, 0, 0, 0, 0, 0, 0, 0, 0, 0, 0, 0,
    0, 0, 0, 0, 0, 0, 0, 0, 0, 0, 0, 0, 0, 0, 0, 0,
    0, 0, 0, 0, 0, 0, 0, 0, 0, 0, 0, 0, 0, 0, 0, 0,
    0, 0, 0, 0, 0, 0, 0, 0, 0, 110, 43, 0, 315, 0, 80, -20,
    0, 307, 93, 96, 215, 143, -67, -50, 57, -22, 8, -13, -77, -66, -57, 10,
    -40, -136, 63, -2, 140, 209, -237, -41, -102, 0, -137, -101, 0, 61, 55, 86,
    112, -20, -72, -124, -12, 1, -19, -122, 3, 117, 55, 13, -147, 132, 103, 0,
    0, 0, 0, 0, 0, 0, 0, 0, 0, 0, 0, 0, 0, 0, 0, 0,
    0, 0, 0, 0, 0, 0, 0, 0, 0, 0, 198, -297, -30, 289, 214, 233,
    178, -99, 148, 79, 64, 251, 142, -25, -15, -94, -18, 91, 0, -74, -3, 43,
    70, 13, -62, 114, 113, -7, -97, -243, -16, -399, 0, -193, -372, 104, 47, 65,
    218, 176, 2, -8, -130, 45, 105, -3, -53, 59, 136, 47, 107, -164, 140, 172,
    0, 0, 0, 0, 0, 0, 0, 0, 0, 0, 0, 0, 0, 0, 0, 0,
    0, 0, 0, 0, 0, 0, 0, 0, 0, 0, 0, 0, 0, 0, 0, 0,
    0, 0, 0, 0, 0, 0, 0, 0, 0, 0, 0, 0, 0, 0, 0, 0,
    0, 0, 0, 0, 0, 0, 0, 0, 0, 0, 0, 0, 0, 0, 0, 0,
    0, 0, 0, 0, 0, 0, 0, 0, 0, 0, 0, 0, 0, 0, 0, 0,
    0, 0, 0, 0, 0, 0, 0, 0, 0, 0, 0, 0, 0, 0, 0, 0,
    0, 0, 0, 0, 0, 0, 0, 0, 0, 0, 0, 0, 71, 0, 0, 0,
    0, 0, 0, 0, 0, 85, 118, 0, 384, -69, 5, 0, 131, 44, 0, 0,
    0, 89, 0, 307, 0, 152, 130, 0, 0, 0, 0, 0, 0, 0, 0, 0,
    29, 68, 9, 129, 168, 28, 0, 95, 16, -2, 0, 0, 106, 0, 148, 197,
    -178, 168, 0, 0, 0, 0, 0, 0, 0, 0, 0, 0, 0, 0, 0, 0,
    0, 0, 0, 0, 0, 0, 0, 0, 0, 0, 0, 0, 0, 0, 0, 0,
    0, 0, 0, 0, 0, 0, 0, 0, 0, 67, -133, 0, 0, 0, 0, 0,
    0, 0, 2, 0, 0, 6, 0, 1, 0, 0, 0, 0, 0, 0, 0, 0,
    0, 0, 0, 0, 0, 0, 4, 0, 0, 2, 0, 0, 0, 0, 0, 104,
    0, 0, 139, 0, 0, 0, 0, 0, 0, 0, 0, 0, 0, 0, 0, 0,
    0, 0, 0, 0, 0, 0, 0, 0, 0, 0, 0, 0, 0, 0, 0, 0,
    0, 0, 0, 0, 0, 0, 0, 0, 0, 0, 0, 0, 0, 0, 0, 0,
    0, 0, 0, 0, 0, 0, 0, 0, 0, 0, 0, 0, 0, 0, 0, 0,
    0, 0, 0, 0, 0, 0, 0, 0, 0, 0, 0, 0, 0, 0, 0, 0,
    0, 0, 0, 0, 0, 0, 0, 0, 0, 0, 0, 0, 0, 0, 0, 0,
    0, 0, 0, 0, 0, 0, 0, 0, 0, 0, 0, 0, 0, 0, 0, 247,
    34, 32, 1, -4, 26, 89, -52, 44, 164, 54, 305, 223, -81, 0, -122, -24,
    221, -9, -172, -54, 135, -12, 8, -149, 37, 51, -44, -42, 0, 55, -27, 0,
    0, 0, 0, 45, -63, 251, 116, -94, 3, -144, -6, 68, -46, -85, 181, 111,
    74, 91, -180, 91, 161, 0, 0, 0, 0, 0, 0, 0, 0, 0, 0, 0,
    0, 0, 0, 0, 0, 0, 0, 0, 0, 0, 0, 0, 0, 0, 0, 0,
    131, 0, 318, 392, -7, 21, 121, 0, 16, 86, 101, 52, 130, -60, -96, -231,
    -39, 68, -49, -8, 65, 92, -10, 1, -141, 37, 72, 244, -424, 0, 384, -1,
    0, -75, -1, 2, 17, 27, 147, 198, -84, -44, -84, -39, 109, -40, -149, -4,
    162, 46, 105, -158, 96, 149, 0, 0, 0, 0, 0, 0, 0, 0, 0, 0,
    0, 0, 0, 0, 0, 0, 0, 0, 0, 0, 0, 0, 0, 0, 0, 0,
    0, 0, 0, 0, 0, 0, 0, 0, 0, 0, 0, 0, 0, 0, 0, 0,
    0, 0, 0, 0, 0, 0, 0, 0, 0, 0, 0, 0, 0, 0, 0, 0,
    0, 0, 0, 0, 0, 0, 0, 0, 0, 0, 0, 0, 0, 0, 0, 0,
    0, 0, 0, 0, 0, 0, 0, 0, 0, 0, 0, 0, 0, 0, 0, 0,
    0, 0, 0, 0, 0, 0, 0, 0, 0, 0, 0, 0, 0, 0, 0, 0,
    0, 0, 216, 1, 6, 517, 0, 98, 474, -21, 130, 148, 174, 59, 202, -2,
    -4, 156, -2, 51, 28, -153, -9, 63, 117, -2, -44, 115, 174, 117, -355, 23,
    137, -192, 0, 310, 0, 1, 84, 32, 149, 108, 33, 32, -17, 50, 72, 5,
    -84, -51, 147, 100, 113, -26, 179, 185, 0, 0, 0, 0, 0, 0, 0, 0,
    0, 0, 0, 0, 0, 0, 0, 0, 0, 0, 0, 0, 0, 0, 0, 0,
    0, 0, 0, 235, -82, 222, 54, 0, 400, 284, -52, 168, 138, 118, 272, 211,
    34, 19, -6, 46, 161, 51, -21, 71, 179, 91, 103, -43, 128, 185, 200, 110,
    -218, 274, -56, 42, 182, -73, 139, 130, 130, 251, 227, 59, 94, 7, 94, 149,
    83, 32, 230, 240, 105, 172, 59, 134, 243, 0, -48, 52, 119, 58, 185, -164,
    -241, -64, -13, 52, 175, 116, -117, 110, -131, -62, 156, 4, -110, -94, 137, -144,
    73, -190, -106, 126, 13, -135, 73, 110, -36, 194, -136, -151, 179, 24, 70, 201,
    76, -278, 129, -131, -70, 136, 7, -61, -29, 243, -150, 0, -160, -78, 169, -36,
    -86, 82, 119, -65, 157, -54, -126, -33, -25, -47, 160, 247, -221, 88, -151, 0,
    138, -39, -33, -110, 173, -145, 84, -92, -166, 289, 13, -54, 18, 79, -52, 106,
    -119, -248, 34, 50, 46, 231, 125, 51, 196, -130, 6, 263, 35, -149, -25, 145,
    -132, 115, -134, -301, 174, 65, -149, 92, 153, 255, 333, -92, -348, 108, -21, 60,
    176, 62, -177, 138, -98, -66, 206, -3, -46, -64, 127, -128, 0, -38, -42, 199,
    -12, -65, -43, 58, 46, 27, -228, -200, -46, -21, 67, 206, 182, -168, -11, 0,
    0, 0, 0, -55, 8, 181, -34, 197, -99, 12, 255, -36, -59, 77, 76, -69,
    184, -119, -163, -44, -48, 1, 155, 125, -156, 221, -18, -105, 22, -82, -151, -165,
    49, -161, -31, -270, -186, 23, -12, -75, 0, 256, -62, 263, -97, 8, 138, -39,
    -18, 177, 114, -248, -15, -171, -35, -82, -55, -25, -36, 0, 0, 0, -313, -12,
    87, -112, -129, -36, 87, -52, 243, -139, -239, -242, -44, 62, 189, 18, -233, 9,
    -198, 0, 60, -19, -149, -114, 64, -224, 24, -81, -178, 118, -13, -122, 33, 138,
    296, 75, -125, -282, 125, -47, 37, 84, 15, -250, 107, -130, -229, 144, -4, -119,
    -66, 103, -153, -93, -51, -160, 176, 50, 84, 183, 64, 261, 125, -11, 38, 93,
    119, 355, 118, 114, -51, 253, -46, 251, 254, 48, 14, 57, 48, 103, 0, 42,
    111, 329, -48, 22, 5, 46, -123, 138, -113, -332, -8, -47, 123, 187, 99, -208,
    -28, -191, 0, -8, -7, -144, -234, 94, -293, -101, -143, -145, 109, 24, 65, 84,
    60, -191, 164, -150, -264, 100, 119, 112, 206, 267, 59, 237, 32, 509, 249, 31,
    -169, 130, 146, -47, -22, -74, -109, 138, -21, -83, 67, 174, 9, 371, -113, -115,
    8, -47, 63, 108, -20, -259, 147, -95, -73, 156, -7, -90, -101, 110, -67, 0,
    -110, -40, 197, -39, -91, 37, 2, 20, 236, -129, -389, -6, -3, 166, 279, 216,
    -142, -170, 0, 0, 0, 5, -97, -98, 160, -11, 14, -118, 18, 227, -25, 7,
    39, 62, 68, 134, -23, 11, 24, -47, -129, 164, 22, -147, 324, -193, 21, 221,
    -41, -234, -87, 29, -229, -55, -233, -341, 12, -21, -39, 39, -121, 313, 383, -19,
    -33, 540, -3, 181, 372, 179, -215, -121, -118, 0, -125, 0, 0, 0, 0, 0,
    0, 0, 0, 0, -44, 17, 82, 25, 66, 314, -245, -331, -152, 18, 194, 222,
    249, -86, -50, 52, 0, -15, 2, -5, -97, 249, 15, 1, -88, -11, 219, 4,
    -106, 126, 155, -27, 314, -191, -334, -302, -4, -4, 92, 80, -129, 142, -89, 15,
    41, 32, 11, -129, 137, -101, 164, -44, -144, 68, 35, -64, -3, 102, -111, 303,
    -71, -86, 145, 31, 171, 211, 142, -116, 177, 31, 73, 327, 81, 72, 22, 186,
    -22, 0, 85, -83, 232, -82, -132, -88, 28, 40, -166, -178, -115, -395, -41, -92,
    133, 37, -235, -104, 94, 0, 33, -239, -30, -523, 82, -313, -208, -82, -320, -19,
    7, -37, 52, 38, -210, 71, -147, -261, -137, 48, 26, 105, 254, -33, 327, -23,
    -91, 329, 81, -107, 36, 213, -164, 115, 93, -124, 312, -3, -157, -85, 168, 119,
    261, 0, -183, 234, -7, -33, 83, 155, -323, -89, -284, -122, -79, -69, 16, -162,
    7, -163, 0, -208, -26, 15, -55, -34, -5, 14, -18, -134, -276, 24, -422, 0,
    0, 0, 0, 0, 0, 0, 0, 0, -72, -108, -306, 70, 162, 0, -207, 27,
    69, -39, -95, -91, 71, -61, 70, -59, -133, 87, -7, -106, 166, 113, -89, 325,
    54, -226, 46, -239, -209, -319, -75, -275, -506, -391, -171, -119, 0, -58, 11, 86,
    27, 301, 22, -91, 366, 5, 35, 165, 141, -294, -110, -239, -175, -27, -72, 42,
    -113, 0, 0, 0, -270, -61, 84, -19, -117, 48, 92, -12, 251, -155, -395, -73,
    2, 67, 147, 125, -244, -58, -171, 0, -146, 27, -67, -105, 158, -228, -11, 6,
    -174, 201, 119, 252, 50, 71, 255, 325, -15, -499, 24, 138, 154, 175, 185, -16,
    51, 19, 432, 150, 155, -40, 146, 330, 7, 106, -35, 71, 226, 79, -97, 60,
    -56, 523, 109, -84, -175, 54, 60, 235, 297, -34, -158, 203, 1, 286, 94, 38,
    163, 302, 233, 156, 0, -56, 85, 71, 76, 145, 58, 258, 512, -137, 113, -67,
    -341, 62, -40, -48, 17, -54, 106, 87, 0, 3, 71, -72, -82, 139, -147, 176,
    -83, -135, 223, 110, 94, 43, -56, 296, 329, -39, -167, 178, 64, 127, 525, 132,
    -43, -45, -90, -48, 272, 102, -64, -65, 36, -283, 310, -119, 17, 329, 153, -36,
    325, 0, 0, 274, -52, 86, -113, 174, 298, -43, 69, -36, 132, -118, 210, 388,
    168, 378, 231, 160, 122, 0, -347, 414, 414, 256, 92, 7, 230, 271, 368, -132,
    106, -60, -121, 1, 436, 223, 17, 185, 0, 0, 0, 86, 251, 24, 311, 238,
    514, -155, 240, 302, 119, 21, 263, 258, 92, 165, -12, -29, -87, 46, 201, 206,
    -16, -244, 267, 90, 22, 240, 28, 18, -66, 191, -259, -241, -157, -287, 105, 58,
    71, 199, 230, 226, 301, 75, -242, -81, 2, 122, 129, 107, -315, -49, -150, 37,
    -17, 14, -232, -145, 0, 0, 0, -206, 172, 89, 87, 44, 103, 22, -27, 73,
    112, -230, -142, 25, 57, 75, 9, -128, 127, -6, 0, -185, 92, -55, 110, 120,
    -24, 153, -35, -11, 166, 116, -13, 114, 185, 211, 62, -1, -413, 229, 15, 145,
    24, -7, 166, -89, -308, -21, 87, 80, 137, 100, -16, 48, 172, 85, -129, 215,
    125, 105, 578, 132, 158, -358, -160, -76, 240, 267, 416, -48, 131, 171, 334, 175,
    387, 220, 254, 167, 90, 0, 0, 0, 144, 395, 393, 125, 135, -79, -16, 39,
    -52, 195, -441, -143, 22, -164, 6, 171, -247, 64, 73, 0, 210, 113, -162, -107,
    133, -512, -113, -13, -86, 49, 76, 110, 105, -34, -89, 215, 76, -56, 32, 114,
    246, 210, 131, 70, 442, -6, 304, 181, 142, -64, -23, 85, -66, 96, 25, 14,
    53, 62, -10, 113, 69, 166, 298, -21, -5, 137, -20, 118, 9, -76, -247, 181,
    59, 212, 168, 155, 182, 133, 159, 176, 0, 41, 230, 166, 114, 197, 197, 107,
    300, 251, 74, -17, -117, 179, 382, 356, 251, 45, 134, 0, 0, 0, 141, 134,
    35, 282, 190, 129, 67, 285, 223, 247, 254, 186, 17, 203, 121, 285, 111, -20,
    99, 91, 151, 171, 226, 222, 50, 31, 490, 37, -243, 107, 1, -351, 27, -79,
    -425, -133, 182, 270, 295, 223, 232, 261, 328, -234, -179, 216, 56, 104, 251, -50,
    195, -12, 0, 392, 0, 0, 0, 0, 0, 0, 0, 0, 0, 18, 119, 49,
    9, 195, 239, 20, 67, -264, 249, 209, 215, 115, 49, 115, -77, 0, 91, 125,
    61, 106, 312, 23, 268, 87, 207, 210, 137, 273, 165, 330, 258, 443, 44, -371,
    201, 103, 256, 48, -16, -240, 54, -1, 168, -13, 137, 222, 121, 350, -90, 164,
    -29, 65, 128, 145, 53, -290, 36, 1, 277, 27, -29, -139, 146, 270, -78, 85,
    -132, 136, -3, 434, 361, 213, 116, 33, -41, -183, 0, -190, 302, 127, 49, -104,
    -224, 191, 187, 288, 368, 393, -110, 29, -259, 10, 1, 0, -9, -151, 0, -234,
    -75, -121, -416, 221, -6, -43, -13, -409, 135, 243, -163, 87, 233, 51, 43, 142,
    4, 0, 48, 104, 389, 0, -42, 83, 183, -151, 274, 186, 64, 112, -41, -33,
    252, 49, -195, 219, 127, 102, -79, 160, 323, 164, 183, -257, 164, 110, 24, 69,
    159, -31, 122, -54, 0, -445, 7, 102, 23, 0, 0, 0, -50, -200, -1, 0,
    0, 0, 0, 0, 0, 0, 0, 0, 0, 0, 0, 0, 0, 0, 0, 0,
    0, 0, 0, 0, 0, 0, 0, 0, 0, 0, 173, 30, 194, 139, 299, 693,
    -37, -133, 234, 94, 176, 205, 133, -57, 151, 50, 255, 85, 82, -20, -176, 221,
    -178, -200, -173, -550, 165, 181, 138, -16, 311, 71, 191, 11, 179, 0, 160, 121,
    481, 282, -98, 16, -6, 145, -19, 70, 106, 2, 0, 0, 0, -401, 165, 90,
    64, -29, 106, 120, 72, 301, 117, -251, 139, 249, 410, 88, 312, 76, 142, 153,
    0, 266, 158, 209, 156, 223, 50, 278, 126, 251, 208, -164, -3, -329, -15, 139,
    -298, -380, -288, -215, -125, -162, 158, -1, -284, 268, 21, -300, 258, -191, 47, -478,
    44, 251, -277, -92, -143, 147, -119, -372, -279, -39, 75, 33, -560, -295, -365, -150,
    -195, 265, 76, -393, -31, -407, -323, 77, -147, -123, 138, 142, 187, 0, -82, -565,
    -50, -119, -138, 152, -12, -42, 234, 148, 24, -458, -23, -143, -4, 285, -290, -316,
    -339, 0, 172, -59, -225, -281, -37, -191, -278, 32, -296, 196, -136, -65, 24, -84,
    62, 219, -560, 79, -254, -11, 24, -155, -160, -270, 137, -248, 304, 284, -71, -153,
    -303, 27, 58, -271, 29, -184, 127, -92, 15, -86, -52, -115, 42, -19, 165, 85,
    -113, -119, 78, -21, -165, 142, 148, -86, 110, 0, -177, 32, 183, -399, 0, 112,
    -126, 217, -97, -87, 0, 75, -135, 459, -233, -31, 97, -19, 189, 391, 328, -119,
    -177, 0, 0, 0, 22, -10, -230, 11, -35, -110, 65, 58, 346, -54, -123, -157,
    113, 151, 282, 148, -149, -287, -113, -239, 240, 195, -127, -298, -18, -4, -68, -178,
    -82, 93, 368, -126, -338, -8, -88, -117, -228, -268, -281, -132, 0, 23, -233, -115,
    0, -129, -39, 220, 74, -362, -215, -174, -150, -12, -276, -202, -272, 0, 0, 0,
    0, 87, 437, -139, -199, -374, 112, -293, 0, 0, 0, 0, -245, -365, -340, 20,
    -326, -453, 0, 0, 118, -155, -429, -72, 117, -333, -363, 1, -158, -102, -131, 32,
    -114, 19, -128, 509, 21, -254, -387, -130, -52, -330, -308, -308, 37, -161, -316, -322,
    -89, 145, 149, -1, -251, -148, 19, 74, -35, -130, 60, 212, -90, 212, -300, -248,
    -409, -462, 32, 103, 420, -6, -170, 175, -123, -138, 340, -23, 56, 71, 183, 0,
    0, 68, -125, 196, -18, -20, -86, 90, 23, 353, -18, -153, -182, -193, -131, -5,
    50, -169, -399, -432, 0, -21, 54, -73, -344, 50, -260, -393, 91, -203, 326, -131,
    -201, -38, 1, -119, -27, -407, -613, -6, -46, 68, 5, 175, -115, 303, -123, 77,
    -157, 31, -155, -174, -3, -296, -80, 72, -414, 255, -98, -61, -266, -118, 21, -48,
    148, -399, -46, -95, -201, 17, 59, -301, -272, -169, -275, -102, -284, -62, -343, -54,
    -447, 0, -287, -73, 15, -171, -161, -263, -150, 255, -153, -174, -273, -101, -118, 58,
    107, -12, 9, -212, 0, 0, 0, -239, -231, -225, -6, -158, -289, -134, -104, -7,
    -151, -321, 41, 87, 75, 89, -339, -74, -107, -191, -63, 15, 73, 71, -126, -432,
    -257, 172, 94, -102, -345, -151, -16, 0, -15, -35, -110, 0, 0, 0, 0, 0,
    0, 0, 0, 0, 0, 0, 0, 0, 0, 0, 0, 0, 0, 0, 0, 0,
    0, 0, 0, 0, 0, 0, -198, -28, -136, -6, 0, 0, 0, 0, 0, 52,
    -388, -109, -77, -321, -288, 0, 0, 0, -171, -51, -224, 153, 369, 0, -144, -251,
    -57, -190, -177, -53, -35, -43, -71, -92, -248, -240, -51, -157, 212, 85, -24, 156,
    19, -84, -45, -44, -10, -434, -29, 26, 114, 53, -137, -278, -134, 89, -10, -119,
    -89, -36, 29, 6, -13, -74, 104, 130, 25, 40, 236, 72, 153, 304, 93, 226,
    -139, 49, -348, 0, 126, 316, 268, -270, -317, -540, -157, 51, -231, -8, 7, 0,
    -233, -199, -42, -79, -293, -329, -15, 0, -37, -391, 3, -64, -173, -91, -434, 142,
    -194, -279, -160, -235, -180, -56, -225, -101, -82, -23, -226, 42, -188, 324, 144, 165,
    399, 68, -136, 2, 85, -222, -245, -190, -139, -11, 126, -34, -123, -38, -96, -333,
    -347, 62, 207, 112, -182, 162, -110, -141, 90, 41, -245, -276, -287, -132, 63, -208,
    -47, -120, -50, -13, 0, -50, -229, -218, -313, -493, -330, -206, -318, -24, 0, 0,
    0, 0, 0, 0, 0, 0, 0, 0, 0, 0, -270, -417, -236, -401, 11, 0,
    -141, 16, 18, -92, -65, -46, -83, -16, 37, 32, -180, 85, -143, 30, 65, -13,
    -62, 331, 91, 18, 424, -82, -222, -238, -13, -229, -287, 142, -551, 118, -99, -143,
    -274, -155, 102, -63, 65, -76, 77, -118, -113, 119, 67, -244, -327, -134, -78, -222,
    -207, -307, -259, 0, 0, 0, -141, -325, -75, -81, -107, 12, -35, -93, 336, 1,
    -296, -79, -88, -85, 23, 87, -214, -242, -144, 0, -138, 6, -17, -89, 126, -216,
    -195, 103, -145, 226, -48, -189, 22, 252, -219, 177, -3, -106, 87, -122, 84, 282,
    -13, -182, 169, 32, -26, 145, -106, -213, 28, 273, -147, 116, -177, -108, 181, -54,
    -103, 95, 94, 134, 357, -65, -168, 281, 65, 315, 147, 110, -157, 229, -201, 176,
    56, -37, 107, -21, -163, 136, 0, -235, -29, 294, -59, -162, -1, 21, -8, 242,
    -123, -152, -137, 7, 124, -119, 254, -70, 128, -321, 0, 36, -95, -127, -272, 30,
    -484, -115, -65, -111, 194, -135, -103, 36, -97, -109, 91, -372, -191, -183, 84, 91,
    255, 105, 120, 118, 60, -97, 60, -64, -253, 58, 53, -257, -38, 89, 145, 97,
    -149, -108, 163, -36, 118, 18, 15, -280, 576, -83, 57, 138, -10, -245, 175, -61,
    31, 117, -157, -111, -161, 102, -45, 0, -96, 124, 168, -75, -4, -73, 71, 380,
    452, -268, -114, -98, -39, 14, 203, 270, -241, -396, 0, 0, 0, -58, -217, -172,
    138, 118, -38, -143, 47, 138, -86, -162, -298, 145, -60, 435, -138, -144, -155, 22,
    8, 97, 135, 28, 31, -20, 0, 171, -132, -120, -86, -104, -274, -20, -317, -69,
    -200, -65, -4, -144, 92, 86, 489, -87, -297, 7, -91, -16, 233, 197, -297, -180,
    -161, 33, 47, -34, -18, -482, 0, 0, 0, -493, -28, -142, -129, -86, -283, 44,
    -250, 355, -199, -676, -230, 17, 5, 130, 119, -206, -119, -28, 0, -129, -117, -54,
    -271, -29, -285, -95, -107, -162, 73, 52, 84, 97, 154, -139, 90, -162, -22, 13,
    37, 202, 252, 145, -123, 199, -52, 196, 67, -4, -109, 27, 256, -169, 228, -157,
    -70, 421, 46, 91, 369, 127, 0, 418, 24, 101, 11, 112, 183, 172, 246, 25,
    229, 68, 355, 19, 26, 114, -116, 104, 85, 0, -188, 187, 121, 1, 8, -35,
    201, -190, 270, -239, 192, -393, -129, 154, -112, 91, -1, -171, -63, 0, -112, -106,
    -294, -431, 176, -133, -45, 30, -31, 123, 70, 315, 282, 235, -125, 346, -195, 102,
    144, 355, 183, 688, 416, 232, 592, 103, 391, 267, 171, -56, 85, 270, 359, 96,
    104, 57, 30, 60, 57, -92, 298, 253, 384, -119, -195, -34, 63, 247, 120, 118,
    -212, 213, -201, 227, 225, -33, 154, -57, 24, 62, 0, -141, 197, 271, -18, -16,
    -181, 122, 415, 318, -39, -72, -8, 181, 312, 316, 56, 161, 106, 0, 0, 0,
    35, 72, 11, 121, 201, 249, -113, 238, 317, -47, 124, -150, -40, 47, 268, -143,
    157, 75, 123, 154, 100, -164, 48, 343, -131, -50, 144, -92, 42, -248, -259, 332,
    -248, -199, -639, 73, 67, 14, 574, 1, 451, 219, 189, -58, 285, 166, 312, 415,
    382, -20, 11, 58, 0, -91, 0, 0, 0, 0, 0, 0, 0, 0, 0, 62,
    5, -262, 57, 147, -382, -365, -139, 95, 194, 377, 312, 209, 28, 159, -388, 0,
    92, 67, 137, -80, 410, 206, 203, -85, 241, 290, -110, -213, -54, -40, -230, 152,
    47, -54, 172, -119, -109, 183, 137, -182, -153, 145, -238, 350, 11, 30, -290, 222,
    148, 87, -10, -180, 57, -149, -253, 20, -64, 238, 214, -153, 22, -48, -169, -56,
    95, -64, -258, 151, -155, -289, 382, -107, -76, 37, 64, 189, 0, -222, -33, 318,
    -151, -120, 94, 18, -29, 210, -82, -282, -38, -234, 42, -293, -243, -315, -128, -102,
    0, -279, -209, -138, -553, -20, -208, -470, -222, -546, -91, -61, 107, 100, 163, -354,
    -76, -123, -220, 56, 14, 114, 219, 167, 3, 158, 56, 227, 339, 72, -76, 4,
    116, -255, 260, 226, 19, -149, -46, -111, 23, 378, 186, 69, -177, -138, 252, -90,
    154, 58, 182, -197, -110, -62, 7, -149, 16, -71, -81, 102, -48, 0, -47, 25,
    164, -25, -18, 165, -232, -168, 99, -202, -291, -152, 0, 0, 0, 0, 0, 0,
    0, 0, 0, 42, -342, -180, 106, 130, 0, -307, 172, 69, -33, -127, -340, -72,
    -215, 61, -225, -156, 156, -144, -294, -98, -162, -208, -67, -73, -108, 208, -30, -138,
    -55, -121, -417, -140, 3, -361, -201, -55, -217, 42, 251, -26, 351, -10, 13, 404,
    -97, 72, 155, 134, -218, -121, -231, -170, -1, -108, -342, -159, 0, 0, 0, -417,
    -29, -97, -149, -54, -59, -55, -108, 111, -429, -198, 122, -5, 137, 195, 61, -116,
    -42, -51, 0, 123, -67, -171, -63, 209, -202, 76, -17, -70, 239, 58, -219, 75,
    255, -212, 157, 139, -64, -106, 296, -139, -205, 211, -58, 65, -128, -264, 358, -27,
    -230, -124, 258, 105, 229, -43, 197, 307, -52, -109, -510, 296, 281, -22, 62, -72,
    175, -191, -125, 255, -89, -225, 6, -119, -126, 104, -210, -354, -329, 51, -230, 0,
    -225, 328, -204, -69, -60, 180, 92, -22, 407, 151, -10, 87, 68, 47, -6, 203,
    -169, 54, 75, 0, -268, -61, -215, -149, 299, -129, -224, -16, -114, 16, -36, 134,
    -160, 523, 281, -145, 75, 231, 114, 261, 0, 131, 158, 317, -101, 212, 3, 402,
    -111, 238, 244, 1, 134, -283, -89, -101, 35, 255, 118, 58, 0, 0, 657, -115,
    106, 0, 9, 253, -160, 166, -42, 372, 21, 349, 210, 119, 186, -110, 323, 130,
    0, 62, 389, 327, -62, 86, 168, 226, -104, 158, 0, 245, 0, 313, 451, 76,
    232, 79, 163, 0, 0, 0, 27, -26, -106, 71, 149, 193, 102, 330, 360, -65,
    -8, -216, 512, -22, 258, -42, -422, -146, -123, -190, -39, 39, -289, -349, 23, -178,
    198, 40, -29, -342, 187, -288, -106, 51, -247, -183, 46, 380, 60, 271, -104, 0,
    -135, 35, 0, 20, 415, 189, 300, -211, -1, 255, -127, 130, -18, -168, 271, 0,
    0, 0, -318, 88, -23, -52, -250, -374, -27, -61, 20, -293, -198, 67, 66, 147,
    116, 195, -231, 148, 0, 0, 175, -12, -108, 118, 72, -33, 129, -93, -188, 151,
    -117, -182, -202, -16, -58, 132, -284, -175, -95, -250, -123, 46, 166, -259, -54, -308,
    -46, -87, -129, -182, -336, -240, -200, -394, -24, -88, -20, 51, 120, 231, -43, 317,
    101, -270, -253, 41, 59, 232, 181, 70, -99, 231, -115, 196, 208, -33, 3, 214,
    -42, 396, 0, 165, 169, 287, -156, 28, 30, -244, -289, -1, -127, -207, -206, -147,
    48, -75, 226, -171, 29, 71, 0, -36, -89, -208, -83, -57, -363, -72, -62, -200,
    59, -278, -157, -112, -158, -225, -80, -393, -444, -94, -51, 25, -84, 171, -99, 69,
    -170, 236, 277, -116, -258, -102, -132, -196, -22, 40, -150, 28, -177, -245, -191, -36,
    -42, 85, -165, -262, -50, -259, -212, -200, -247, -312, -284, -301, -252, -205, -323, -197,
    -235, -31, -203, 0, -245, -160, -99, -248, -297, -195, -315, -211, -189, -362, -411, -43,
    -215, -20, 99, -50, -260, -252, 0, 0, 0, -294, -218, -253, -98, -164, 39, -244,
    -25, 0, -221, -70, -546, -54, -169, -327, -290, -347, -318, -208, -1, -253, -247, -171,
    -164, -169, 49, -23, -235, -315, -235, 0, -232, -224, -293, -238, -47, -168, -241, 117,
    17, 79, -124, -119, 100, -300, -142, 161, 50, 45, -260, -100, 9, 0, -106, 0,
    0, 0, 0, 0, 0, 0, 0, 0, -233, -206, -218, -128, -231, -292, -326, -441,
    -215, -86, 28, -39, 49, -120, -111, -321, 0, -260, -244, -116, -324, 76, -119, 30,
    -214, -34, -3, -144, -147, -84, 7, 105, -205, 251, -225, 280, -153, -169, -203, 48,
    -200, -67, -251, 53, -61, -101, 148, -12, -90, -84, -241, 26, 167, -55, -132, -257,
    -37, -283, 134, -119, 58, -239, 148, -47, 359, 21, -66, -196, -40, -296, -51, -41,
    -164, -255, -216, -33, 298, 0, -139, -1, 219, -161, -274, -272, -259, -288, -90, -126,
    -147, -181, -229, 332, 245, -351, -232, -200, -16, 0, 0, -275, -417, -88, -178, -408,
    -487, -229, -59, -237, -150, 136, -159, 156, -230, 73, 187, 16, -69, 103, 85, 158,
    0, 396, 275, 0, 0, 415, -22, 189, 320, -183, 298, -246, -348, 282, 97, -128,
    -45, 156, 122, 130, 329, -399, 5, 186, -67, 62, 22, 176, -203, -182, -447, -75,
    -80, -163, -48, -39, 0, 0, 0, -13, -16, 24, 0, 0, 0, 0, 0, 0,
    0, 0, 0, 0, 0, 0, 0, 0, 0, 0, 0, 0, 0, 0, 0, 0,
    0, 0, 0, 0, 0, -145, -484, 121, -147, -129, 10, -191, 168, -128, -293, -133,
    -237, -512, -363, -47, -260, 400, 26, -313, -208, -274, -6, -408, -560, -91, -406, -202,
    -34, 118, -150, 238, 149, 209, -35, 93, 360, -11, 201, 209, 190, -164, -44, -158,
    152, 93, 162, 130, 233, 0, 0, 0, 11, 334, 61, -224, -285, -229, -24, -33,
    84, -333, -654, -47, 15, 206, 275, 23, -119, -6, 369, 0, 121, -228, -202, -198,
    50, 0, 181, -216, 162, 159, -241, -106, -211, -499, -64, -349, -288, -197, -162, -282,
    -22, 308, -413, -175, -19, -254, -34, 282, -334, -54, -276, -371, -225, -268, -248, -85,
    -198, -248, -191, -219, -167, 231, 270, 79, -166, -111, -264, 102, -214, -56, -444, 119,
    -613, 157, 192, -261, -220, -247, 4, 16, 0, -23, -60, 312, -163, -144, 130, -29,
    -422, 43, -149, -34, 212, 11, 157, 284, 111, -347, -184, -74, 0, -263, -133, -156,
    -324, -133, 168, -73, -180, -23, 70, -151, -168, -115, -175, -72, -175, -295, -166, -352,
    38, 101, -394, -76, -253, 237, -409, 199, 193, -86, 22, -147, -29, -239, 92, 6,
    69, -243, -348, -280, 175, 86, 106, 355, 165, -94, 139, -115, -195, -122, -5, -262,
    -13, -399, 126, -267, -183, -138, -39, -257, 5, 0, -182, 84, 23, 8, -297, -378,
    -242, 35, -116, -115, -423, -432, -33, -58, 234, -234, 100, 71, 0, 0, 0, -91,
    13, -191, 179, 93, -12, -76, 124, 365, -126, -152, -549, -67, -10, -40, 24, -34,
    -109, -332, 192, -85, -441, -207, 72, -153, -355, 264, -115, -282, -222, 393, -147, 30,
    7, 73, 12, -200, -114, -570, 106, 245, -3, -31, -423, 0, -389, -72, -304, -17,
    -411, -464, -273, -38, 294, 24, -291, -130, 0, 0, 0, 0, -354, -59, -239, -676,
    -126, -230, -198, -31, 0, -63, 0, -331, -139, -63, 67, -441, -330, 0, 0, -278,
    -395, -198, -119, -251, -654, -383, -296, -180, -38, -62, -26, -52, 432, -264, 394, -300,
    -34, -36, -229, 196, -1, -21, -46, -40, -316, -164, 54, 15, -238, -162, 168, 53,
    89, -84, -138, 40, 6, -97, 226, -48, 3, -5, 304, 199, 57, 509, 391, -36,
    304, 236, 313, 77, 474, 324, -91, 227, 235, -151, 0, 0, -136, 127, 144, -105,
    0, 204, 22, -178, -18, -4, -355, 369, 21, -50, -305, 31, 49, -91, -257, 0,
    110, -226, -108, -478, 255, 400, -177, 18, 166, 99, -70, 176, 195, 286, -126, 36,
    -323, 157, -84, 251, 355, 476, 387, 196, 632, -138, 474, 455, 73, -289, -234, 434,
    -51, 274, 153, 16, 526, -66, 31, -86, 210, 349, 420, -86, 126, 368, -73, 227,
    184, 212, -252, -212, -275, 296, -239, -122, 7, -235, 0, -75, 0, -132, 0, -92,
    -35, 33, -121, 37, -127, -78, -150, -38, -385, 0, 0, 0, 0, 0, 0, 0,
    0, 0, -175, -170, 100, 145, 152, 0, -78, -39, -179, 0, 0, 0, 0, 0,
    0, 0, 0, 0, 0, 0, 0, 0, 0, 0, 0, 0, 0, 0, 0, 0,
    0, 0, 0, 0, 0, 0, 0, 0, 0, 0, 0, 0, 0, 0, 0, 0,
    0, 0, 0, 0, 0, 0, 0, 0, 0, 0, 0, 0, 0, 0, 0, 0,
    0, 0, 0, 0, 0, 0, 0, 0, 0, 0, 0, 0, 0, 0, 0, 0,
    0, 0, 0, 0, 0, 0, 0, 0, 0, 0, 0, 0, -106, -108, -165, 71,
    197, -65, -143, -85, 43, -160, -70, 383, -129, -88, -96, 74, -138, -212, -144, -180,
    -344, 65, 167, -163, -137, -301, -147, -301, 145, -112, 17, -101, 145, -184, 69, -15,
    -109, 57, 79, 14, -150, 80, -414, 16, 468, -124, 19, -317, -195, 282, 0, -34,
    -498, 240, -186, -69, 96, -287, -247, -74, -88, 73, 70, -341, -639, -255, -425, -238,
    -426, -35, 0, -107, -171, -361, -149, -550, -406, -344, -551, -806, -259, -78, -29, 39,
    85, 328, 10, -565, -60, -150, 111, 187, 143, 395, 169, 499, -125, 127, 271, -83,
    -33, 134, 302, -1, 462, 316, -498, 382, -42, 124, -14, 414, 389, 491, -126, 84,
    185, -40, 197, 240, 230, -160, -117, -73, 0, -36, -26, 25, -49, -200, -16, 0,
    -229, 17, 74, -12, -28, 368, 172, 88, 148, 87, -354, -148, 0, 0, 0, 0,
    0, 0, 0, 0, 0, -61, -29, -313, 165, 334, 0, -325, 282, 237, -166, -111,
    -458, -135, -114, -58, -296, -23, -167, -145, -31, -39, -86, -200, 42, -203, 166, 645,
    -320, -546, -416, -409, -59, -611, -194, -806, -88, 12, 47, -13, 240, 330, 455, 58,
    124, 337, 18, 238, 374, 285, -25, -18, -104, -39, 66, 27, 172, 101, 0, 0,
    0, 16, 282, -70, -178, -162, -225, -11, -188, 115, -158, -180, -505, -11, 241, 242,
    207, -34, 31, -251, 0, 183, -174, -70, -157, 251, 162, 186, -145, 189, 233, 52,
    22, 243, 50, 75, 394, -329, -211, -197, 33, 97, 104, 114, -202, -68, -114, -52,
    18, 126, -54, -177, 165, -84, -121, -53, -165, 188, 18, 36, -9, 43, -160, 126,
    24, -115, -90, 84, 282, 514, 105, -112, 310, -38, 195, 161, 52, 100, -236, 87,
    -159, 0, -180, 39, 295, 77, -298, -9, 263, -216, 121, -157, -549, -374, 39, -150,
    -98, 186, -546, -249, 41, 0, -168, -91, -340, -495, 194, 121, -174, -46, -458, 173,
    73, 95, -9, 60, -510, -12, -279, -219, 56, 183, 369, 211, 578, 231, 308, 212,
    226, 452, -3, 20, 11, -290, -37, -137, -10, -112, 94, 92, 163, 243, 325, 58,
    317, -86, 175, -191, 67, -92, 120, 113, -191, 11, -266, -86, 85, -85, 23, -12,
    -79, 156, 0, -333, -14, 54, 0, -144, 137, 199, 60, 389, -281, -570, 30, 39,
    574, 166, 295, 117, 30, 0, 0, 0, 11, 42, -101, -16, -150, -49, -274, -13,
    229, 82, -1, -9, 58, 180, 35, 152, 130, -194, 5, -35, 75, -79, 30, 427,
    -86, 204, 225, -88, 94, -112, -224, -272, 28, -540, 96, -100, -43, -73, 137, 7,
    168, 103, 0, -378, -263, 37, -181, 133, 197, -195, -140, -263, -121, -321, -5, 165,
    -134, 0, 0, 0, -330, 368, 145, -36, -283, -130, 103, -374, 59, -374, -126, 51,
    82, -262, 59, 49, -218, -196, -136, 0, 261, 48, -59, -4, 106, -229, -97, 12,
    -225, 196, 175, 282, 104, 175, -205, 283, 158, 308, 123, 84, 252, 163, 24, 46,
    345, -330, -1, 102, 92, 183, 146, 48, -203, -21, 212, 383, 250, 231, 255, 211,
    525, 131, -98, -155, -394, 189, 206, 688, 446, 210, -84, -39, 5, 476, 397, 105,
    219, -59, 389, 158, 0, 324, 143, 281, 155, 97, 75, 206, -39, -15, 240, -85,
    -210, 164, 100, -190, 151, -253, -221, 15, 0, -202, 166, -98, 4, 205, -237, 205,
    65, -39, 166, 201, 147, 514, 297, 255, 162, 265, -214, 108, 118, 172, 446, -48,
    181, 193, 420, -36, 155, 211, 95, 10, -78, 21, 210, 130, 79, 379, 176, 138,
    120, -43, -160, 80, 78, -122, 96, 108, 120, 240, 9, -200, 169, 17, 184, 211,
    83, 58, 4, 69, 22, 0, 90, 240, 60, 177, 233, 133, 129, 189, 224, 220,
    -304, -368, 372, 415, 329, 104, 50, 394, 0, 0, 0, 165, 155, 31, 481, 209,
    497, 119, 374, 306, 160, -119, -98, -48, -6, -16, -4, 284, 339, 187, -112, -190,
    6, -75, 240, -5, -305, 37, 133, -293, 77, 10, 245, -152, -42, -255, -28, 206,
    203, 166, 436, 76, 370, 391, 234, 154, 279, 316, 329, 356, 99, 137, 107, 0,
    64, 0, 0, 0, 0, 0, 0, 0, 0, 0, 189, 130, 59, 75, 116, 335,
    -340, -63, -237, 222, 312, -14, 215, -39, 134, -109, 0, -83, 147, 195, 85, 88,
    275, 35, 23, 242, 265, -94, 28, -177, 146, -124, -212, -478, -276, -314, -66, 27,
    146, 100, -336, 296, 149, -162, -16, -129, -290, -278, 121, -12, -346, -434, -344, -53,
    -25, 58, 11, -65, 244, -43, -303, -147, -230, 130, 85, 10, -23, -102, 186, -174,
    -234, 179, 36, 4, -404, 112, 320, 0, -245, 134, 192, -165, -86, -112, -66, -342,
    41, 93, -222, 0, -87, -248, 77, 107, -235, -26, -345, 0, 0, -319, -55, -105,
    -176, -274, -497, -238, -416, 25, -29, -21, -236, 302, -329, 36, 138, -247, -225, 57,
    -116, -59, 90, 214, 632, 71, 235, 100, 22, 37, -404, 33, -216, -37, -139, -317,
    315, -64, -161, -12, 231, -110, 353, 32, -39, -1, -101, -57, 4, 133, -235, -198,
    -343, -235, -197, -162, -81, -274, 23, -39, 0, -120, -49, 73, -36, -482, -134, -145,
    271, 97, -272, -130, -241, 0, 0, 0, 0, 0, 0, 0, 0, 0, -113, -159,
    -618, 2, 233, 0, -259, 101, -18, -110, -272, -495, -82, -149, -93, -281, -324, -149,
    -234, -431, 4, -107, -83, 451, -344, -478, 43, -523, -553, -105, -416, -88, -77, -64,
    -149, -357, 8, -172, -101, 24, -106, 154, -230, -191, 109, -98, 11, 31, 35, -253,
    -244, -225, 100, -72, -306, -180, -618, 0, 0, 0, -236, -313, -383, -114, -271, -4,
    110, 118, -36, -72, -119, -257, -97, -80, 85, 106, -324, -263, -224, 0, -214, -105,
    -63, -286, 156, -198, -226, -89, -157, 221, 185, 177, 394, 325, 157, 423, -298, -349,
    374, 75, 90, 283, 62, 132, 75, 509, 394, 231, 314, 152, -212, 443, -205, 44,
    -71, -65, 394, 106, 91, -12, 329, -145, 414, 219, -175, 59, 164, 346, 162, 215,
    -80, 47, -27, 36, -11, 71, -76, 36, 43, 73, 0, -101, 10, 409, 184, 435,
    35, 165, 258, -91, 282, -40, -151, 134, 268, -16, 121, -327, 123, 89, 0, 61,
    70, 61, -93, 693, 10, -228, 37, -58, 172, 194, 357, 126, 109, -22, 414, 33,
    270, 256, 125, 418, -98, -358, 101, -290, -300, -5, 95, 303, 214, -43, 277, -119,
    74, -36, 145, 94, 333, 18, 317, 274, 657, 117, 42, 355, 56, 371, 384, 80,
    298, 85, 382, -48, 420, 497, 261, 69, 353, 164, 329, 0, 207, 491, 387, 263,
    489, 103, 301, 0, 84, 23, -3, 0, 383, 219, 370, 261, -124, 349, 0, 0,
    0, 301, 351, 154, 191, 209, 339, -63, 455, 604, 157, 242, 121, -137, 407, -91,
    234, 43, 279, 138, 270, -15, -52, -1, 103, 353, -18, -129, -166, 210, 41, 288,
    -90, -236, -231, -74, 224, 27, 452, 389, 368, 158, 84, 459, -116, -133, 236, 318,
    224, 251, -189, -17, -153, -78, -5, -134, 99, 97, 0, 0, 0, -24, 148, -58,
    243, 355, 59, 73, 20, 83, 0, -31, -58, 314, -382, 335, 239, -292, 45, 0,
    0, 358, 251, 111, -36, 301, 84, 92, 336, 115, 309, 110, 169, -68, 51, 65,
    75, 268, -19, -219, 107, 199, 345, -89, -54, 87, 37, -40, 5, 142, -153, 296,
    54, -67, -117, 156, -96, 113, 196, 118, 308, -45, -101, -290, 137, 237, 361, 237,
    592, 193, 442, 69, 367, 303, 632, 264, 327, 158, 632, 83, 275, 0, 399, 499,
    286, 221, 31, 427, 267, -349, 103, -298, 72, -82, 324, 343, 240, 222, -164, 313,
    -126, 0, 10, 325, -67, 451, 151, -47, 363, 331, 42, 307, 129, 229, 310, 203,
    6, 47, -31, 119, -86, 253, 229, -39, 334, 231, 367, 175, 313, 335, 177, 151,
    186, 136, -40, 126, 236, 80, 336, 138, 175, 11, 132, 372, 382, 142, -13, 246,
    147, 213, 169, 181, -284, -256, -272, -212, -197, -89, -110, -198, 122, -182, 0, -276,
    -117, -89, -15, -180, -140, -49, -1, -17, -215, -464, -222, -121, 11, 137, 195, -100,
    -346, 0, 0, 0, -110, -121, -244, 16, -44, -90, -327, -18, -40, 88, 128, -249,
    106, 54, 123, -316, -184, -314, -28, -171, -221, 64, 29, 313, -399, -91, 431, -104,
    -128, -26, -9, -200, -143, -329, -426, -115, -11, -396, 30, 185, 163, 349, -177, 71,
    0, -170, 106, 394, 134, -252, -346, -212, 0, -206, 0, 0, 0, 0, 0, 0,
    0, 0, 0, 9, -119, -196, 127, 148, 45, -453, -330, -378, -50, 159, 134, 115,
    -111, -175, -288, 0, 130, -58, -42, -263, 142, -6, 7, -242, 31, 116, 73, 116,
    -121, 106, 229, 44, -277, -268, 167, -93, 228, -21, 172, -394, -117, -148, 89, -315,
    164, 87, -346, 164, -241, -176, 114, -163, -3, 115, -38, -137, 310, -283, 74, -271,
    92, 3, -22, 96, 210, 96, -22, 126, -80, 274, 166, 115, 260, -37, 252, -246,
    0, -11, 462, 197, -31, -20, 28, -241, -106, -236, -338, 30, -65, -55, -248, -152,
    27, -224, -143, 0, 0, -73, -506, -140, -77, -200, -560, -356, -287, -611, -153, 0,
    0, 0, 0, 0, 0, 0, 0, 0, 0, 0, 0, 0, 0, 0, 0, 0,
    0, 0, 0, 0, 0, 0, 0, 0, 0, 0, 0, 0, 0, 0, 0, 0,
    0, 0, 0, 0, 0, 0, 0, 0, 0, 0, 0, 0, 0, 0, 0, 0,
    0, 0, 0, 0, 0, 0, 0, 0, 0, 0, 0, 0, 0, 0, 0, 0,
    0, 0, 0, 0, 0, 0, 0, 0, 0, 0, 0, 0, 0, 0, 0, 0,
    84, -115, -174, 176, -224, -228, -278, -73, -174, -101, -45, 205, -113, -72, 363, -393,
    -177, 93, -208, -470, -497, -43, -487, -356, -434, -344, -137, 197, -38, -49, 514, 193,
    339, -110, -12, 0, 14, 249, 497, 129, 39, -90, -289, 0, -118, 0, 0, 0,
    0, 0, 0, 0, 0, 0, 24, -95, -97, 153, 129, 92, -363, -383, -301, 1,
    203, 35, 268, 30, 7, 0, 0, -47, -11, 76, -226, 278, 181, -105, -195, 186,
    191, -64, 87, -197, 24, -106, 374, -215, -162, 39, 125, 13, 123, 229, -95, -219,
    -387, -36, 60, -302, 172, -314, 201, 280, 167, -240, 43, 191, 34, -183, 56, 178,
    114, 256, -254, -352, -82, 100, 144, 108, 32, -94, -86, -6, -84, 35, -137, 56,
    -225, 0, -69, 0, -226, -150, 217, -44, -155, -194, -87, -146, 279, -287, -109, -425,
    24, 75, 339, -20, -318, -314, -107, 0, -34, 87, 156, -149, 234, -128, -174, 85,
    -167, 27, 179, 281, -90, 54, 175, 59, -365, -111, -82, 93, 11, 189, 240, 41,
    361, -462, 57, 72, 145, -48, -230, -139, 148, 3, -13, -15, -65, 108, 576, -191,
    -113, 0, 56, 85, 139, 0, 8, -34, 96, 137, -50, 246, -46, 368, 53, 234,
    252, -1, 164, 186, 0, 162, 185, 353, 138, 7, -263, -81, 0, -133, 0, 0,
    -24, 540, 285, 154, -179, -300, 0, 0, 0, 0, 366, 404, 109, 0, 360, 0,
    77, 337, 384, -33, -137, -374, -341, 87, -151, -458, 212, -425, -8, -393, -210, -143,
    -206, -82, -182, 369, -118, -395, -38, 0, -110, -181, -65, 0, 70, -64, -46, -98,
    30, -60, 0, 0, 97, -432, -24, -6, -8, -368, -117, -43, -222, -101, -385, -48,
    -422, -152, -241, 0, 0, 0, 0, -148, -500, -242, -230, 51, -142, 67, -58, 0,
    0, 0, -152, 95, -237, -264, -215, -378, 0, 0, -33, -73, 122, -257, 139, -47,
    -301, -79, -505, 236, 156, 145, 18, 150, 358, 231, 258, 282, 60, 144, 67, 102,
    87, -87, 5, -322, 54, -306, 41, 350, -16, -13, -61, -315, -45, -212, 3, 263,
    60, 452, 272, 402, 95, 284, 193, 72, 249, 267, 155, 181, 277, 335, -157, 455,
    346, 329, 339, 100, 274, 415, 0, 2, 271, 454, 22, 171, 225, 240, 198, -129,
    -68, 264, -118, 221, 144, 37, 490, -23, 431, 172, 0, 34, 46, 208, 43, 85,
    26, 93, 424, 645, 419, 136, 56, 161, 94, 104, -11, 77, 192, 35, 254, 19,
    397, 220, 208, 264, 340, 324, 346, 327, 382, 179, 361, -41, 166, 304, 468, 193,
    206, 117, 85, 388, 210, 497, 110, -267, 53, 156, 225, 211, 168, -205, -197, -102,
    -239, 57, -79, -149, -197, -445, -80, 0, 63, -36, 166, -82, 47, -321, -17, 130,
    -5, -12, 294, -48, -125, -91, 64, 392, -106, -206, 0, 0, 0, -27, -1, -72,
    -19, 93, -118, -222, 66, 64, 138, 36, -168, 3, -268, 61, 172, -263, -34, -8,
    -112, -202, 210, -36, 10, -21, 110, 34, 33, -279, 0, -234, 0, -73, -37, -107,
    -218, 0, 0, 0, 0, 0, 0, 0, 0, 0, 0, 0, 0, 0, 0, 0,
    0, 0, 0, 0, 0, 0, 0, 0, 0, 0, 0, 0, 60, -129, 261, -185,
    175, 358, 118, -278, -33, -15, 92, -83, 91, -260, 130, 0, 0, 0, -146, 123,
    -214, 266, 121, -47, -138, 183, 199, 126, 181, 188, 226, 307, 394, 147, -198, 191,
    176, 421, 250, 215, -20, 113, -35, 40, 3, 68, 57, -53, 128, -55, -3, -278,
    -147, 55, 174, 97, 94, 329, 35, 94, 127, -243, -65, 138, 30, 379, 53, 28,
    336, 255, 526, 193, 312, -149, 315, 219, 97, 0, -123, 382, 332, 23, -200, -100,
    105, -183, 224, -117, 12, -64, 12, 73, -28, -133, -47, -115, -110, 0, -218, -119,
    -201, -357, 165, -202, -137, 118, -88, 122, 169, 294, 295, 71, -204, 409, -50, 312,
    217, 329, 121, 281, 393, 287, 286, 196, 144, 454, 232, 318, 192, 127, 219, 197,
    268, 240, 332, 199, 168, 54, 414, 327, 387, 217, 23, 353, 197, 271, 60, 166,
    -99, -89, 15, -92, 166, 15, 164, 73, -1, 24, 0, -218, 74, 131, 87, -142,
    145, 89, -23, -58, 437, -59, -500, 0, 0, 0, 0, 0, 0, 0, 0, 0,
    84, -97, -383, 90, 61, 0, -75, -70, 153, 289, 194, 173, 223, 16, 172, 196,
    70, 27, 109, 123, 166, 49, 59, 307, 326, 99, 419, -19, -91, 25, 135, -237,
    -153, -279, -259, 122, 255, 138, 229, 302, 360, 604, 346, 365, 384, 227, 317, 306,
    223, 0, -40, -7, -179, 64, 69, 69, -18, 0, 0, 0, 18, 237, 153, 118,
    73, 196, 166, 151, 309, -102, -38, 236, 219, 290, 265, 210, -3, 116, -57, 0,
    199, 201, 239, 221, 208, 159, 191, 226, 233, 280, 0, 60, -89, -34, 122, 179,
    76, -123, -194, 33, 91, -19, -39, 55, 121, 90, -49, 78, -32, 41, -99, 6,
    -17, 182, -13, -64, -53, 25, 51, -56, 78, 114, 202, -25, -85, 29, 37, 96,
    -4, 120, 65, 196, -7, -37, -39, 1, 68, -59, 85, 124, 141, 19, -87, -7,
    -32, 26, -43, 8, -90, -89, -54, -370, -103, 4, 50, -24, 14, 41, 109, -45,
    -92, 3, -41, 18, -115, 15, 47, 53, -129, -136, -125, 25, 98, -79, 64, 136,
    263, 147, 79, -133, 69, 145, -25, 42, -42, 214, 35, 101, 55, 23, 19, -66,
    38, -40, 93, -61, -285, 40, 50, 131, -14, 26, 100, 197, 40, -120, 89, 56,
    137, 4, 60, 79, 174, 33, -8, -3, 28, 71, -55, 78, 27, 29, 23, 34,
    16, -1, 68, -43, 72, 21, 225, -48, -201, -6, 35, 104, 15, 56, 122, 107,
    -30, -36, 52, 8, 65, -47, 89, 15, 53, -18, -35, 17, -32, 61, -142, 44,
    -45, 70, -32, -346, -401, -9, 110, -42, 53, 1, 229, -3, 39, -220, -79, 9,
    -135, 34, 96, 74, -86, -106, 87, -1, 23, -76, 103, 61, 156, -128, -212, -88,
    -2, 50, -75, -9, 1, 23, -5, 4, 28, -16, -19, -66, 95, -12, -37, -41,
    -115, -30, -57, 6, -136, -8, 56, 81, -63, -347, -163, -26, 47, -83, -16, -21,
    -46, -8, 35, -2, -53, -4, -110, -3, 6, -3, -47, -196, -54, 33, 91, -40,
    3, 87, 116, 13, -226, -36, 68, 97, -44, 30, -105, 532, -38, 45, 148, -4,
    42, -126, -101, 56, 256, -7, -227, 69, 69, 105, -5, -31, -43, 42, 32, -164,
    46, 77, 104, -25, 133, 101, 91, 33, 30, 5, 52, 91, -21, 155, -47, 282,
    7, -25, 34, -9, 75, -38, 14, -195, 46, -10, -415, -50, 19, 49, -11, 20,
    118, 123, -20, 80, -15, -1, 6, -81, 77, -2, 115, -101, -119, -117, 37, 113,
    -14, 83, 9, 106, -12, -381, 96, 77, 107, -23, 126, 2, 39, -145, -120, 53,
    7, 36, -64, -52, -51, 54, 62, -203, -34, 56, 114, -28, 71, 75, 228, -31,
    -65, 20, 42, 108, -25, 47, 36, 87, 9, -5, -6, 38, 78, -57, 70, 48,
    19, -11, 9, -6, -2, 78, -57, -9, 73, -55, -41, -80, -68, 12, 88, -9,
    44, 42, 0, -18, -25, 28, 3, 78, -72, 67, 51, 38, -19, 25, 2, 4,
    33, -120, -132, -147, 293, 49, -179, -14, 19, 81, -41, 85, -95, 249, -51, -198,
    237, -57, -33, -121, 20, -107, 190, -125, -78, 34, 35, 142, 15, 48, 173, 90,
    76, 183, 122, 12, 75, -42, -16, 39, 3, 12, 11, -28, 10, 67, -63, 74,
    -67, 65, 0, 75, -7, -26, 41, -77, 18, 57, 29, -69, -132, 30, 29, 81,
    -11, 66, 59, 2, -24, 29, 60, -36, 29, -100, 51, 21, 36, -19, 24, 10,
    -32, 18, -72, -12, 118, 367, 57, 2, -166, -4, 108, -34, -4, -36, -41, 10,
    -379, -27, -36, 36, -122, -2, -62, -74, 159, -183, 157, 23, 4, 10, 1, 145,
    466, 135, -44, 83, 7, 53, 11, 73, 119, 188, -64, 5, -79, -20, 39, -71,
    23, -192, 175, -102, 51, 13, -79, 24, -106, 28, 110, 83, 87, -21, -44, -57,
    20, -103, 8, 52, 29, -166, -80, 19, -86, -21, -155, -64, 74, -92, -153, -135,
    47, 1, 113, -63, 112, -77, 201, 49, -249, 128, 52, 113, -1, 50, 3, 129,
    -99, -257, 100, -20, 68, -101, 91, -201, 318, -57, -218, 42, 28, 77, -61, 34,
    0, 132, 45, 55, -108, 38, 100, -26, -12, -16, -21, -41, -62, -20, -23, 16,
    -85, 16, -125, -17, -97, -12, -84, -16, 63, -69, -99, -50, 27, -49, -59, -247,
    10, 59, -70, -5, -10, -84, -91, -63, 128, -11, 27, -69, 2, -21, -60, -6,
    -8, -73, -41, 37, -132, 128, -96, 298, -224, -184, 50, -1, 106, -77, 10, 43,
    183, 11, -364, -37, -86, 73, -106, 98, -97, 213, -181, -77, 44, 8, 66, -61,
    -9, 71, 19, 39, 15, -139, 3, 62, -91, -3, -11, -46, -47, -19, -69, -11,
    9, -77, 43, -45, 40, -79, 24, -27, -53, -23, -99, -11, 17, 20, -83, -272,
    -119, -36, 47, -80, -11, 1, -37, -90, -30, -54, -24, 20, -101, 7, 3, 16,
    -52, -87, -24, -34, 64, -160, 21, 250, 31, -163, -180, -125, 3, 119, 38, 133,
    402, 203, 243, -233, -44, -12, -203, 75, -127, -108, 272, 0, -366, -496, 64, 106,
    172, -215, 0, -15, 23, 75, 150, 83, 8, -98, -9, -58, -10, 36, 234, -186,
    112, -62, -37, -24, 0, 408, 171, 302, 87, 44, 267, -360, -179, -121, -377, 100,
    139, -122, -132, -216, 34, 97, -151, -205, -202, -73, 6, 128, -287, -204, 64, -63,
    -25, 352, 33, -284, 78, 42, 78, -215, 112, -73, 345, -84, -63, -31, -94, 334,
    166, 49, -269, -104, -127, 422, 1, -62, -254, 154, -60, 246, -151, 0, 202, 26,
    89, 30, -20, -171, 29, -166, 51, 152, 71, 120, 47, -67, 25, 110, -57, 7,
    12, 34, 56, -141, 140, 242, -18, -27, 27, 8, 103, -78, -75, 112, 0, 235,
    0, 0, 1, 48, 63, 162, 292, 6, -21, 208, -234, 70, -9, 64, 45, 38,
    171, 145, 12, 167, 181, 8, 42, -228, -179, -172, 12, 420, -34, -60, 14, -73,
    -51, 128, -375, 48, 149, -316, -203, 28, 84, -52, -209, -46, 87, -50, -4, -19,
    72, 147, -225, 112, 241, -73, 306, -226, 395, -9, -32, 9, -103, -147, -97, -355,
    -59, -104, -99, -44, -135, 86, 175, -18, -137, -159, -21, -8, 64, 19, 89, 253,
    0, 308, -94, -308, 18, 93, -108, -18, -136, -115, -86, -317, -26, -11, 15, -116,
    -22, -105, 29, 11, -147, -15, -39, 137, -229, 133, -57, 446, -306, 51, -37, 30,
    177, 181, 105, -47, 329, 321, 260, 187, -4, -223, -6, 331, 113, 125, -129, -436,
    -102, 42, 47, 43, 166, -122, 16, 77, -183, 361, 126, 103, 115, 23, -172, -72,
    17, 80, -95, 50, -133, 163, 406, 198, -19, 155, 214, 166, 53, 45, -164, 128,
    -200, -132, -110, -165, -30, 85, 227, 218, -263, -409, -165, -295, -187, -361, 10, 17,
    -101, 42, -224, 240, 170, 101, -57, 120, 199, -56, -9, 17, 294, -78, -8, 85,
    133, 32, -161, 23, -115, 22, 11, -167, -75, 73, 162, 7, 13, -37, -57, -276,
    -244, -2, 60, 108, -4, -67, -108, 89, 2, -52, 25, 47, 89, -3, 44, -71,
    45, -32, 0, 33, -12, -13, -98, 93, 15, 82, -66, 45, 41, -9, 65, -56,
    -103, 68, -144, -151, -141, -46, -16, 124, -11, 36, -24, -43, -23, 3, 58, -3,
    8, -88, 81, 74, 69, -24, 60, 47, 14, 76, -48, 97, 36, 211, -109, 6,
    -428, 20, 143, 4, -263, -29, -212, -82, 65, -82, 8, 67, -9, 39, 153, -120,
    -230, -250, -145, 56, 54, 125, 292, 340, 170, 23, -61, 38, 44, 89, 12, 36,
    -4, -8, -43, 37, 30, -5, 31, -44, 108, 95, 162, 29, 56, 45, -16, 44,
    -35, -18, -27, -84, -115, -219, -196, 66, 118, 73, 80, 17, -26, -30, -20, 104,
    -11, 30, -56, 87, 69, 90, -7, 104, 87, 6, -44, 66, -127, -206, -103, -68,
    58, -434, -101, 113, 126, 331, 223, -183, -80, -29, 242, -2, -183, -82, -58, -104,
    11, 189, -270, 352, 38, 144, 139, 154, -126, 182, 335, -139, 66, -52, -63, 110,
    13, 90, -365, 252, -229, 87, 91, -216, 91, 168, -94, 461, 27, -95, 139, 34,
    -85, 52, -209, 88, 86, -201, 110, 113, 20, 10, -99, 39, -117, -61, 73, -173,
    -260, 98, 93, -19, -137, 68, 117, -61, -234, 46, 85, 47, 107, -24, -48, -126,
    167, 280, -175, 155, 31, 7, 406, 167, 185, -301, 73, -39, 23, -34, 110, 168,
    220, 117, 375, 90, 79, 78, 212, 63, 140, 13, 199, -86, 6, 83, 70, 128,
    50, 93, -15, -21, -26, 4, 41, 16, -10, -53, 127, 41, 38, -5, 31, 88,
    95, 96, -69, 86, -166, 168, -81, -137, 230, 74, 122, 45, 108, 44, -8, -102,
    -3, -17, 43, 77, -40, 171, 77, 145, 60, 89, 108, 15, 84, -15, 64, 96,
    392, -357, -283, -224, 77, 83, -77, 42, 32, -63, -170, -171, -56, -64, 96, 65,
    -137, 111, -7, -4, -174, 2, 89, 214, 54, 38, 17, 322, 157, -169, 272, 67,
    144, 92, 81, -16, -48, -18, 0, -20, 2, -57, -112, 171, 63, 78, -40, 47,
    108, -3, 201, 5, -22, 77, 92, -102, -105, -39, 51, 113, 100, 87, 20, -9,
    -9, 42, 71, 7, 45, -42, 130, 54, 91, 23, 71, 125, 76, 139, 192, -163,
    -145, 271, -115, -291, 100, 13, -362, -198, -306, 60, 59, -49, -251, 242, 57, 172,
    -116, -68, 105, -145, -126, -264, -224, 147, -49, 199, 345, 9, 190, 139, 376, 100,
    -12, -402, 118, -78, 59, 35, 155, 91, -221, 49, 275, 535, 167, 100, 247, -129,
    -32, 144, -32, -46, -161, 420, -27, 0, -1, -4, 0, 49, 44, 24, -109, -236,
    47, 356, -54, 35, -224, -105, 204, -357, -213, -233, 86, -127, -83, -25, 104, -450,
    23, 113, 61, 139, -5, 271, 32, -52, 2, 77, 105, 401, 0, 17, 155, 135,
    -211, 103, 335, 88, 350, -22, -131, 149, 40, 195, 132, -166, 151, 351, 8, -8,
    -23, -31, 55, 18, 2, 11, 26, -42, -41, -30, 45, -184, -75, -86, -161, -178,
    -17, 48, 31, -128, -236, -190, 306, -150, 298, 57, -1, -108, 76, 153, 141, 23,
    134, 10, -257, -138, -303, 39, 57, 184, 157, -185, 12, -93, 22, 229, -54, -33,
    43, 100, 130, 93, -1, 90, 0, -10, -84, 70, -110, -8, 0, -74, 0, 0,
    87, 171, -274, -201, 173, 307, 1, -116, 0, -48, 132, -6, 0, -281, 0, 57,
    0, 0, -41, -10, -65, -151, -324, -286, -121, 181, 275, -49, -283, 19, -81, -80,
    -293, -298, -44, 328, -63, -261, -322, 308, -18, 31, 0, 0, 0, -69, 97, -63,
    -115, -98, -166, -404, -247, -292, -83, -78, -158, -102, 77, -2, 19, -188, 21, 90,
    201, 18, 243, 65, 105, -49, -151, 0, -38, 22, 100, 321, -65, -50, -106, -72,
    154, 10, -510, 98, -80, -8, 0, 129, 131, -261, 35, -11, -271, -104, -2, 301,
    0, -317, -35, -145, 95, 40, 11, 137, 94, 6, -61, -39, -99, 133, 20, -301,
    -200, 257, 155, -75, 93, -3, -330, 89, 149, -127, 0, -74, -574, 300, -51, -114,
    -43, -82, -91, 205, -53, -123, 28, 11, 10, -221, -170, 244, 69, -7, 47, 344,
    -7, -45, -111, 36, 19, 341, 155, -377, 198, 33, -118, -25, 17, -79, 408, 6,
    -372, 161, -64, -19, -97, 252, 24, 53, -403, 222, 11, 33, 25, -176, -57, 106,
    -43, -42, 41, 41, 9, 55, -18, -32, -127, -101, -100, -136, -114, -41, -80, -103,
    -26, -101, -60, -73, -71, -6, -5, 6, -219, -355, 46, -219, -121, -210, 311, 12,
    49, 43, -43, -151, -120, -220, -241, -71, -47, -115, -117, -18, -72, -51, -88, 2,
    -47, -45, 229, -269, -202, 97, 191, 356, 205, 41, -20, 261, 171, -295, -184, -288,
    -53, -77, -134, -166, 48, 81, 73, 213, -44, 7, 208, -53, -30, 225, 62, 208,
    -183, 276, -257, -226, 114, -18, 74, -58, -23, -124, -133, -220, -53, -177, -91, -61,
    -136, -102, 11, -72, -15, -17, 17, -8, -47, -204, -86, -125, -207, -404, -366, 185,
    -24, 2, 30, -30, -68, 13, -324, -36, -25, -90, -108, -94, -9, -74, -5, -105,
    -4, 24, -13, -14, -132, 0, 122, 216, -126, -226, 117, -7, -194, -125, -129, 64,
    -193, 129, 9, 130, 159, 22, -211, 189, -190, -53, 0, -93, 538, -61, 284, -319,
    -151, 48, -185, -22, 121, 86, 62, -82, -168, -276, 172, -62, -403, -47, 361, -57,
    246, -102, 375, -241, -156, 101, 343, 31, -86, 338, 237, -50, -5, 114, 1, 0,
    91, -125, -264, -274, -230, -154, 280, 7, -46, -20, -181, -269, -89, -4, 58, 31,
    -331, -153, 364, 19, 68, -28, 171, 32, 48, -129, -142, -338, 7, -33, -57, 155,
    194, 241, 155, -345, -11, -102, 18, -117, 27, -107, 57, 101, -17, 174, 23, 13,
    24, -27, 37, 11, -17, 114, -161, -11, 33, -40, -66, -115, -119, -73, -144, -89,
    -97, -63, -139, -5, -114, -38, -105, -20, -17, -41, -70, 137, -137, -79, 116, -298,
    -302, 128, 0, 58, -43, 29, -53, -66, -15, -161, -45, -79, -35, -112, -40, -33,
    13, -56, -6, 10, -129, 73, -182, 352, 109, 20, 86, 133, -317, -101, 73, -7,
    170, 16, -34, -7, -35, -204, -153, -157, -56, -61, -175, -39, -331, -204, -104, -18,
    77, 1, 12, 9, 68, -93, 133, -33, -19, 50, -53, -24, -61, -77, -88, -57,
    -107, -6, 4, -143, 60, -38, -19, -56, -3, -29, -47, 30, -172, 11, -88, 10,
    19, -126, -137, -19, 61, -8, -7, -45, -45, -105, -81, -6, -52, 3, -78, 23,
    -62, 11, -46, -60, 66, 60, 138, 17, 64, 260, 213, 139, -241, 14, 91, 275,
    142, 137, 144, 123, 201, 222, 148, 18, 4, -29, -44, 189, -15, -14, -282, -71,
    98, 144, 89, 42, 167, 361, 104, 105, 67, 113, 169, -7, 199, 347, 197, -45,
    183, 83, 113, 96, 12, 47, -190, 77, 68, 9, 128, 61, -94, 10, 42, -188,
    161, -33, -93, -25, 33, 277, 39, 76, 62, 60, 229, -198, -61, 37, 110, -77,
    84, 89, -58, 73, -50, -51, 51, 144, -12, 106, 70, 263, -49, -18, 59, 105,
    330, 35, 47, 24, 86, -11, 61, -27, 4, -10, -171, 144, -168, -77, 284, -85,
    119, 131, 263, 81, 89, 16, 140, 195, 248, 278, 114, 181, -6, 108, 130, 173,
    25, 80, 50, 77, 123, -24, 212, 184, 47, 13, 60, 69, 23, 114, 143, 147,
    30, -132, 132, 163, 263, 142, 115, -15, 54, 293, 260, 225, -68, -204, 66, 157,
    -28, 214, 51, 130, 77, 59, 54, 26, -94, -135, 267, -131, 26, -46, -221, 269,
    75, 75, -155, 45, 321, 634, -330, -74, 170, 24, 163, -334, -85, 215, 730, 338,
    -345, -9, 68, 114, 87, -78, -185, -155, -236, -294, 43, 78, 105, -18, 65, 31,
    -6, 6, -147, -16, 63, 106, -56, 96, 151, -1, -70, -192, 21, 6, 74, 54,
    64, -185, -20, -261, -428, -195, 41, 92, 9, 44, -21, -48, -47, 65, -113, -23,
    77, -76, 201, -28, 37, 30, -101, -111, 91, 275, 19, 119, 39, 163, -362, -223,
    65, 97, 461, 46, 177, -75, 327, 22, -45, 514, 108, -9, -26, 113, 98, 154,
    -194, -113, -192, 145, 330, 147, -94, -97, 386, -52, 120, 114, 107, 322, -10, 32,
    222, 139, -118, 85, 166, 113, 168, -121, 31, -16, 266, -33, 45, -37, 110, 75,
    -41, -73, 296, 280, -84, -154, -240, 81, 70, -56, 143, -14, -170, 261, -42, -1,
    106, 125, -14, 83, 143, 10, 73, -7, -88, 96, 169, -29, 8, 105, 353, -402,
    -123, 76, 104, 322, 101, 103, 39, 116, 95, 152, 101, 53, 88, 101, -63, -53,
    229, -82, -66, -56, 137, 181, 25, 120, 81, 290, 55, 31, 13, 108, 175, 19,
    89, 48, 98, 55, 141, 74, 100, 134, -16, 128, 141, 70, 33, 117, 66, 50,
    105, 53, -32, 113, -86, -10, 93, 167, 75, 197, 51, 89, 119, 63, 74, 24,
    80, 62, 128, -9, 144, 83, 77, 50, 123, 90, 50, 277, -142, -216, 54, 102,
    44, -11, -347, 49, 70, 96, 227, 53, -136, -114, -99, 191, 20, 131, -65, 10,
    -132, 57, -264, -177, -21, 104, 115, -124, 63, 127, -36, 153, 86, -162, 88, 197,
    53, 124, 48, 86, 49, 20, 37, 59, 162, -8, 122, 109, 155, 58, 50, 65,
    47, 92, 6, 93, 72, 117, 97, -16, 42, 81, 200, 67, 118, 75, 65, 2,
    80, 87, 47, 85, -11, 113, 93, 63, 61, 98, 113, 41, 4, -169, -203, -52,
    3, 172, -126, -131, 42, -9, 123, -223, -7, -397, -510, -125, 27, 36, 161, -95,
    -183, -67, 54, 22, -142, -93, 19, -10, -253, -62, 60, 162, -211, -3, 92, 36,
    88, -29, 162, 101, 91, -19, 232, 101, 68, 196, -84, -34, -4, -167, 18, 261,
    85, 9, 163, -156, 84, 57, -174, 171, 55, -41, -33, 131, 103, 67, 51, 46,
    48, -362, 165, 73, 68, -52, 96, 18, -71, -157, -46, -174, 68, 96, 19, -62,
    -202, -201, 275, -93, -124, 91, 168, 28, -133, 265, 76, 133, -16, -121, 39, 196,
    42, -216, 311, -187, 246, -119, 85, 71, 123, 22, 56, 13, 204, -184, 34, -109,
    78, 134, 8, -13, -56, -54, -80, -69, -53, 16, 49, -80, -10, -89, -16, -63,
    -34, -43, -19, 106, -16, -44, -145, 35, -283, -123, 15, 67, 162, 30, 31, 23,
    -19, -61, -58, -16, 9, 51, -100, -57, 31, -21, 4, 23, 24, 18, 110, -3,
    -287, -57, 138, -105, -131, 211, 6, 125, 55, 17, -13, 174, 10, -339, -18, -21,
    68, 38, 93, 101, 87, -269, 184, 173, 65, 157, 33, 64, -53, -39, 57, -140,
    -67, 78, 128, 0, 8, -33, -52, -115, -73, -77, 27, 51, -56, 77, -43, -19,
    -35, 24, -30, -4, 77, -43, 15, -10, -6, -78, 48, 112, 29, 85, -30, 30,
    -6, -57, -108, -77, -79, 20, 62, -25, 45, 10, 8, 3, -44, 53, 122, 260,
    -52, 250, -83, -47, -145, -151, -26, 87, 39, 94, -57, 173, -169, 65, -15, -169,
    118, -52, -254, -206, 256, 241, 122, -299, -82, 136, 70, -37, 112, 15, -67, 113,
    401, 272, 9, 105, -126, 17, -309, -85, 19, -19, 63, -77, -202, -190, -48, -79,
    62, 32, -303, 87, -45, -131, -168, -172, 241, -272, 130, -27, -1, -147, 54, 39,
    36, 107, -206, 97, -367, -45, -96, -57, -115, 96, 175, -104, 109, -279, -155, 114,
    167, 138, 0, 15, 125, 9, -41, -115, -43, -97, 43, -122, -77, -68, -2, -6,
    416, 145, 60, 106, -126, -8, -37, 48, -133, -126, 100, 16, 187, -171, 84, -28,
    151, -75, 28, 75, 81, -21, -108, -119, 61, 106, -19, 82, 0, 13, 64, 13,
    81, 15, 37, 39, 83, 61, -185, -327, 241, -130, 0, -281, -26, -127, 173, 127,
    -14, 340, -44, -72, -183, -151, -130, 71, -53, -57, 17, 20, 43, 9, 35, -82,
    -90, -188, -316, -121, 241, -55, -27, 223, -54, -195, 296, 151, -200, -32, 685, -127,
    -42, 232, 110, 57, -299, 88, -3, -126, -5, -263, 37, 21, 30, 150, 0, -130,
    156, -150, -8, 18, 73, 113, 108, 68, -11, -127, 46, 120, 29, -50, -145, -32,
    -166, -21, -423, -79, -233, -164, 56, -185, -408, 253, -231, -59, -18, -261, -133, 57,
    72, -38, -27, -28, -117, -125, -61, -68, 17, -10, -33, 77, -61, 10, -88, -3,
    -33, 55, 144, 37, 402, 173, 174, 60, -273, 17, -105, -75, 140, -47, 8, -305,
    -65, -139, 164, -36, -7, -263, 223, -32, -62, 64, 113, -144, -42, 24, 137, 49,
    -77, 10, 105, -367, -200, 2, 39, -214, -115, -199, 79, -79, 142, 150, 3, 265,
    137, 167, 73, 164, 194, -51, 28, 1, 321, -44, -375, -32, 72, -8, -278, -48,
    -95, 53, -101, -29, -79, 153, -184, -71, 160, 43, -13, -212, 32, -165, -212, 16,
    -115, -50, 65, 347, 93, -58, -309, 120, 59, -129, 144, 101, 222, 38, -172, -199,
    -42, 137, -230, 14, 119, 101, 141, 90, -123, 171, 172, -26, -69, 79, 130, 31,
    25, -119, 136, 11, -105, -19, 36, 48, -15, -71, -157, -130, -127, -116, -100, -16,
    -56, -97, -15, -94, -56, -115, -50, -41, 1, 31, -34, -147, -11, 119, -324, -159,
    52, 39, 48, -3, -4, -85, -113, -124, -62, -57, -11, -33, -98, -16, -43, -31,
    -61, 8, 10, 41, 62, -134, -151, 107, 256, -236, -192, -43, 118, -14, -271, -409,
    -79, 49, -91, -159, -79, 52, 51, -51, -117, -113, -149, -154, 50, 147, 122, 293,
    108, 6, -44, 50, 134, -8, 172, 42, 119, 46, -24, -85, -99, -151, -40, -65,
    -10, 23, -68, 44, -78, -4, -53, -10, -3, -21, -21, -105, -136, -28, -56, -98,
    -24, -132, 59, 75, 53, 17, -47, -53, -68, -56, -12, 1, -6, -88, 20, -11,
    30, -45, 55, 65, -17, 189, -224, -108, 256, 227, 105, -85, -180, 56, 98, 489,
    113, -32, -93, -8, 0, 165, -62, -67, -132, -104, -14, -38, -190, -139, 90, -40,
    -168, -490, -60, -8, 293, 88, -127, -293, -51, -53, -38, -37, -123, -47, 24, -69,
    253, -201, 311, 55, 220, 85, 0, -107, 171, 6, 96, 215, -50, -46, -3, -216,
    173, 175, 233, -107, -132, 10, 153, -113, -254, 213, -166, -445, -97, 101, -92, 111,
    2, -71, -175, 10, 22, 124, -190, -79, 0, -79, -208, 100, -50, -233, -47, -16,
    -169, 198, 73, 626, -200, -73, 306, -192, -4, -133, -94, 85, -97, -241, -164, -223,
    27, 184, 103, 242, 81, 213, -161, 65, 123, 48, 141, 40, 15, -94, -73, -101,
    -99, -34, -125, -89, -59, 41, -113, -24, -114, -42, 7, -12, 151, -60, 175, -21,
    313, -80, -38, 252, -67, 109, 7, 95, -78, -110, 11, -40, 33, -45, -43, -87,
    63, -64, 38, -38, 51, 89, 47, 89, 68, -63, 175, -55, -213, 119, 27, -2,
    143, 42, -224, -165, -51, 244, 198, -256, 74, 18, 62, 68, 2, 79, 58, -390,
    -65, 15, 51, -87, 171, 20, 71, -185, 107, 10, 51, 83, 17, 74, -43, -19,
    -72, -25, -14, -21, 31, -34, 77, -64, 83, -33, 60, 90, 6, -28, -45, -105,
    -61, 102, 77, -235, -1, 21, 93, 72, 69, -11, 13, -74, 48, 45, 3, 10,
    -79, 54, 47, 72, -62, 107, 106, -123, -241, -281, -180, -151, 26, -291, -24, 7,
    -226, -223, -174, 51, -273, -133, -151, -49, -58, 2, -126, 56, 58, -85, -249, -226,
    87, -333, 79, -18, -47, -84, -41, -293, -5, 29, 16, -381, -123, 80, -8, -129,
    -52, -377, 107, 113, -249, -93, -178, 280, -50, -251, -142, -244, -64, -346, -221, -297,
    -34, 223, 82, 90, -25, -11, -179, -11, 76, 6, -192, -177, 205, 0, 82, -184,
    -131, -72, -283, 119, 223, 133, 81, -60, -85, 105, -488, 75, 401, -309, 376, 29,
    163, -164, 120, -163, -183, -367, 498, -317, 0, -259, -44, -3, -166, -139, -127, -34,
    121, -269, -129, -120, 248, -2, 51, -75, 47, -8, 0, 285, -65, 31, 58, -52,
    -105, -86, 41, 105, -86, 55, 34, -2, 6, 65, -108, 114, -122, 1, -212, -294,
    -180, -226, -8, 0, 0, 0, -191, 183, 86, 185, -61, -8, 180, -226, 296, -559,
    15, -140, 44, -169, 107, 268, 133, 8, 19, -370, -93, -261, 139, -27, -322, -4,
    -25, -176, -415, -154, 59, -165, -278, -18, -574, -2, -414, -21, 55, -39, 110, 175,
    0, 0, -46, 0, -201, 163, 42, 0, -26, 0, -1, 0, -17, -80, 93, -363,
    -141, -159, -121, -210, 22, -216, -59, -123, -135, -137, -38, -149, -302, -205, -160, -347,
    -428, -62, -94, -261, -10, 0, -1, 0, -132, -16, -136, -219, -24, -123, -366, -381,
    -168, -272, 48, -223, -105, -235, -282, -126, -186, -128, -49, 222, 102, -233, -15, -155,
    -251, -49, 0, 45, -45, -40, 260, -139, 104, -72, 0, 70, -379, -125, 135, -29,
    0, 0, 9, -112, 3, 101, 61, -566, -127, -6, -164, 17, 0, 98, -120, 152,
    -282, -167, -230, 473, -372, 280, 294, -257, -16, -134, 73, -73, -4, -345, 368, -132,
    39, -74, -173, -316, -42, 293, 0, -2, 0, -198, -99, 179, 65, -159, -108, -77,
    0, -61, -364, -339, 67, -171, 198, -91, -35, -187, -140, -37, 183, -138, 234, -19,
    125, 91, 107, 24, 30, 85, -30, 80, 142, 187, -61, 280, 16, 5, 232, 101,
    -229, -69, 395, -47, -163, 189, -8, 80, -79, 7, -19, 235, -41, 105, 21, -5,
    141, 27, 0, -116, -75, -136, -109, -37, -62, -69, -89, 4, -99, -17, -144, -35,
    -88, 4, -147, -64, -59, 120, -133, 181, 22, -58, 11, 20, 19, 37, -40, -110,
    -53, -86, 14, -19, -73, -80, 0, -25, 18, -57, -30, 71, -92, -198, 2, -73,
    -367, -84, -54, 0, 0, 80, -42, 19, -187, -71, -64, -123, 0, 26, -80, -362,
    -346, -173, -166, 432, -46, 128, -260, -36, -68, 84, -234, -151, 296, -138, 296, -143,
    -25, 24, 34, 3, -62, -63, -241, -86, -49, -63, -58, -162, -3, -40, -5, -161,
    44, 50, 35, 65, -17, -317, -61, 45, -247, -381, -142, 29, 80, -37, -20, -56,
    -57, -36, 131, 30, -30, -77, -48, 42, 48, 29, -81, 58, 95, -64, -282, -60,
    -366, -299, 85, -264, 87, 215, -227, -113, 369, -436, 113, 238, 131, -112, 256, -183,
    -142, -75, -270, -139, -4, -93, -9, 39, -285, -85, -526, 0, -133, -457, -131, -269,
    -236, -203, -66, -59, -244, -26, -344, 222, -163, -14, -218, -119, -137, 90, -164, 188,
    -17, 97, 376, -106, -345, -83, -4, -263, -64, -116, -46, 224, -78, -177, 189, -250,
    50, -132, 208, 128, -257, -77, 184, 104, -174, -390, -85, -204, -192, -169, -87, 9,
    68, 302, -303, 320, -32, -244, 258, -25, 45, 141, 214, -51, 183, -75, 368, -310,
    51, 261, -81, -95, 171, 211, 343, 97, -38, 34, 60, -46, 27, 39, 281, 48,
    -122, 129, 9, 117, 57, 45, -50, -43, -71, -35, 15, -12, -34, -41, 31, -42,
    84, -20, 51, 30, -115, -192, -284, -159, -233, 38, -44, -205, -226, 75, 50, 30,
    56, -10, 54, -17, 44, 113, 24, 24, -82, 47, 60, 104, -3, 132, 114, -136,
    -50, -360, 33, -279, 386, -127, 81, -102, -119, -7, -120, 101, -115, 135, 47, -187,
    42, -135, -46, -269, -234, 10, -307, -153, -192, 128, -35, 59, -122, 167, 35, 125,
    22, 8, 24, 25, 123, 32, 60, 8, 14, 2, -30, 42, -8, 23, -74, 89,
    51, 175, -6, 132, 125, -196, -101, -217, -147, -3, 82, -188, -186, -74, 24, 98,
    50, 104, 55, 66, -4, 58, 103, -87, -44, -124, 71, 107, 151, -60, 165, 167,
    -89, 17, -254, -160, -52, 135, 192, -281, 106, -40, 19, 55, -229, 37, 188, 18,
    102, -268, -72, -169, -330, 66, -224, 129, -132, -60, -13, -79, -12, -142, 78, 138,
    378, -450, -488, -293, -14, -29, -45, -56, 93, 184, -111, -138, 121, -63, 19, -202,
    107, -79, -146, -28, 68, -143, -142, -135, -261, -228, -316, -37, 43, -261, 7, -120,
    -142, -49, -48, -134, 58, -269, 2, 202, -132, -3, -178, -15, 68, -100, -182, -360,
    -508, -56, 89, -142, 172, -37, 401, 199, -47, 222, -5, 147, -133, 43, 137, 120,
    -271, -566, -188, 10, -253, -188, 139, -490, 195, -319, -526, 50, -14, 81, -233, 30,
    187, 269, 132, -2, 4, -28, 25, -137, -4, 31, 79, -176, -79, -2, -61, 22,
    -121, 63, 103, -25, 24, -46, -14, -76, 87, -70, -225, 150, -103, -6, 42, 266,
    15, -124, -92, 125, 108, 192, 62, 84, 111, -61, 33, -68, 54, -87, 117, 1,
    -122, -42, -43, 10, -261, -360, -168, 209, -161, -297, 36, -38, -41, 21, -164, -44,
    48, 89, -173, 0, -106, -156, -461, 52, -50, -219, 237, -83, -132, -43, 143, -70,
    -75, -327, 77, -190, -180, 256, -57, 53, -24, -56, -34, -178, -219, -64, 50, -69,
    -16, -206, -69, -60, 48, 137, -284, -307, -136, 54, -146, 19, -408, -268, -322, -62,
    -48, -77, 6, -157, -35, -105, -178, -204, -17, -176, -99, -43, -101, 5, -45, -83,
    -172, -217, -80, -19, 142, 55, 38, 94, 56, -198, -174, -49, -44, 46, -113, 181,
    140, 394, 100, -40, 143, -34, 123, -192, 126, 489, -4, -125, 369, 220, -25, 35,
    -133, 334, 43, -39, 2, -163, -34, -23, 101, -107, -161, 38, 123, -25, -30, -28,
    -1, 28, -93, 7, -169, 189, -57, 141, 160, -42, -155, 21, -51, 151, -106, 70,
    59, 150, -41, 96, 68, 4, -271, 158, 171, 19, 109, -77, 55, -187, -77, 42,
    -105, -7, -120, -205, -4, -7, -45, -98, -126, 66, 118, 80, 45, -25, -10, -107,
    115, -214, 123, 40, -282, 0, 11, -29, -103, 110, -38, 298, -168, -59, -56, 4,
