#include "pattern_eval.h"

#include <immintrin.h>


namespace eval {


const int weight_intercept = 111;


void pattern_activations(int ret[N_ALL_MASKS], board::Board b) {
    for (size_t mask_idx = 0; mask_idx < N_ALL_MASKS; mask_idx++) {
        uint64_t mask = all_masks[mask_idx];
        uint64_t own_bits = pext(b.own, mask);
        uint64_t opp_bits = pext(b.opp, mask);

        int instance = ternary_twos[own_bits] + ternary_ones[opp_bits];
        ret[mask_idx] = instance;
    }
}


int score(board::Board b) {
    int score = weight_intercept;

    for (size_t mask_idx = 0; mask_idx < N_ALL_MASKS; mask_idx++) {
        // Extract patterns bits from board
        uint64_t mask = all_masks[mask_idx];
        uint64_t own_bits = pext(b.own, mask);
        uint64_t opp_bits = pext(b.opp, mask);

        // Determine index into weights array from pattern and instance
        uint16_t instance = ternary_twos[own_bits] + ternary_ones[opp_bits];
        uint8_t pattern = mask_base[mask_idx]; 
        uint16_t weight_idx = pattern_start[pattern] + instance;

        score += weights[weight_idx];
    }

    return score;
}


// Utility functions for different flips of masks
uint64_t flip_vert(uint64_t x) {
    return __builtin_bswap64(x);
}

uint64_t flip_horiz(uint64_t x) {
    const uint64_t k1 = 0x5555555555555555;
    const uint64_t k2 = 0x3333333333333333;
    const uint64_t k4 = 0x0f0f0f0f0f0f0f0f;
    x = ((x >> 1) & k1) +  2*(x & k1);
    x = ((x >> 2) & k2) +  4*(x & k2);
    x = ((x >> 4) & k4) + 16*(x & k4);
    return x;
}

uint64_t flip_diag(uint64_t x) {
   uint64_t t;
   const uint64_t k1 = 0x5500550055005500;
   const uint64_t k2 = 0x3333000033330000;
   const uint64_t k4 = 0x0f0f0f0f00000000;
   t  = k4 & (x ^ (x << 28));
   x ^=       t ^ (t >> 28) ;
   t  = k2 & (x ^ (x << 14));
   x ^=       t ^ (t >> 14) ;
   t  = k1 & (x ^ (x <<  7));
   x ^=       t ^ (t >>  7) ;
   return x;
}

uint64_t flip_adiag(uint64_t x) {
    uint64_t t;
    const uint64_t k1 = 0xaa00aa00aa00aa00;
    const uint64_t k2 = 0xcccc0000cccc0000;
    const uint64_t k4 = 0xf0f0f0f00f0f0f0f;
    t  =       x ^ (x << 36) ;
    x ^= k4 & (t ^ (x >> 36));
    t  = k2 & (x ^ (x << 18));
    x ^=       t ^ (t >> 18) ;
    t  = k1 & (x ^ (x <<  9));
    x ^=       t ^ (t >>  9) ;
    return x;
}


inline uint64_t pext(uint64_t src, uint64_t mask) {
    return _pext_u64(src, mask);
}


int16_t weights[total_instances] = {
    0, 31, -3, 19, 33, 7, -28, 7, -34, 19, 40, 22, 19, 29, 26, -7,
    -34, -19, -28, -19, -25, -7, -4, 5, -36, -37, -39, 31, 22, 25, 40, 44,
    8, -19, 4, -40, 33, 44, 38, 29, 12, 21, -4, -22, -11, 7, 4, -5,
    -34, -22, -9, -37, -46, -24, -3, 25, 19, 22, 38, 40, -25, -5, -17, 7,
    8, 40, 26, 21, 42, 5, -9, 14, -34, -40, -17, -19, -11, 14, -39, -24,
    -31, 0, 18, -6, 23, 19, 17, -15, 3, -21, 5, 19, 2, 14, 14, 18,
    -6, -4, 1, -22, -9, -10, -5, -11, 1, -19, -38, -20, 23, 58, 33, 69,
    30, -21, 7, -19, -65, 14, 21, 18, 12, 17, 32, -14, 23, 21, -5, -18,
    -47, 25, -6, 23, -4, -5, 3, -15, -23, -44, 7, 38, -19, -75, -7, -56,
    -6, 26, 29, -14, -15, -15, -41, -25, -7, -19, -1, -37, -4, -40, -17, -24,
    -43, -31, 18, 4, -8, 58, 89, 96, -23, -17, -9, 19, 203, -30, 21, 27,
    -3, 26, -7, -5, -9, 52, -25, -18, -61, 1, -1, -59, -60, 19, 89, 30,
    30, 41, 58, 38, 10, -22, 14, 27, 72, 17, 5, 20, -15, 2, 14, -11,
    -61, 10, -6, -10, -19, -40, -27, -26, 3, -17, -13, -19, 10, 41, -7, -61,
    -88, -4, -7, 14, 23, 2, 10, -25, 9, 16, -38, -59, -8, -5, -27, -9,
    -43, -14, -25, -6, -8, -103, 33, 30, -41, -44, -13, -66, 2, -30, 31, 18,
    72, 27, 29, 14, 30, -10, -25, -57, -47, 10, -23, -37, -8, -19, 17, 96,
    -41, -21, 58, 25, -19, 41, -43, 18, -3, 27, 32, 20, 13, -15, 10, 19,
    1, 1, -23, 23, -19, 11, -17, -9, -5, -21, -9, -66, -65, -22, -43, -56,
    -88, -86, 1, -5, 30, 21, 14, 19, -7, 16, 12, -20, -60, -19, 3, -26,
    -5, -31, -25, -11, 0, -22, 144, -36, 4, 20, 11, -40, 41, -2, -55, 137,
    -15, 28, 25, -9, -14, 24, -17, -37, 39, 14, -26, 30, 20, -58, -1, -2,
    -64, 117, 9, -8, 81, 2, 26, 89, -10, -39, 57, 8, 7, 29, -20, 31,
    18, -8, -91, 30, 25, -1, 0, -8, 9, 1, -17, -6, 12, -45, 10, -30,
    -17, -99, 30, -8, -52, 65, 5, -3, -22, -10, 2, -7, -13, -20, 44, 17,
    -30, -47, -20, -26, -20, -36, -169, -165, -108, -152, 236, 22, 51, 184, 9, -37,
    232, 31, 62, 57, -26, -5, 49, -45, 14, 102, 5, -65, 36, -2, 19, -90,
    -15, 150, -74, 31, 64, 66, 40, 94, 42, 8, 38, 32, 56, 34, 38, -1,
    56, 25, 5, -7, 61, 79, 47, 39, 1, 57, 37, 14, -314, -169, 5, 135,
    -19, 9, -26, -31, 25, -6, 97, 79, 28, 12, 0, 59, 9, 17, 2, 69,
    78, 27, 7, 2, 44, 27, 11, 130, -205, 22, -145, 97, 170, -58, 182, 2,
    -331, 122, 40, 45, -19, -11, -7, 3, -17, -98, 15, 9, -21, -60, -52, 106,
    -138, -9, 212, -52, -26, 35, 52, -11, -60, -43, -20, -73, -51, -1, -22, -55,
    -64, -14, -31, -10, -71, -2, 0, -6, -55, -56, -23, -36, 20, -51, -83, -2,
    -45, 143, -52, 4, -19, -8, -89, 19, 1, -30, -58, -56, -47, -42, -20, -74,
    -25, 2, -28, -62, -50, -41, -31, -22, -48, 0, -169, 16, -245, 130, -61, 58,
    -64, 107, 74, 150, 161, 5, 212, 97, -212, -6, 166, -35, -314, -166, 100, -51,
    -258, -67, -55, 107, -22, -37, 186, 185, -331, 276, 204, -39, -109, -27, 38, 33,
    21, -73, -19, 13, -52, 102, 89, -6, 9, 36, -89, -47, 11, -37, 166, 22,
    14, -170, 0, -98, -339, 152, -91, 102, -43, -7, 9, -62, -71, -51, 11, -20,
    95, 131, 2, -68, -127, -74, -75, 0, 4, 16, 161, -152, -48, 172, -145, 151,
    63, -8, 186, 477, 64, 3, 155, 35, 98, 3, 10, -170, 0, 135, -241, -51,
    -45, 6, -19, 28, 161, 32, 62, 3, 8, 45, 157, 180, 7, 33, 55, 34,
    5, -7, -22, 12, -6, -3, 9, -21, 28, 16, -5, -30, 15, 0, -26, -166,
    54, -65, -241, -180, -21, -322, -134, -1, 9, 21, 47, 16, -14, -6, 22, -5,
    -30, -68, -45, 27, 17, -6, -28, 16, 6, -40, -61, -304, 51, 151, 172, -58,
    -1, 25, 26, 276, -27, 94, 157, -257, -60, 65, -44, -99, -339, -58, -26, -322,
    -236, 4, -115, -2, -14, 97, 2, -5, 98, 18, -7, 65, 117, 31, -19, 150,
    56, 12, -3, -14, 24, -17, 2, -51, -11, 59, 22, 7, -47, 22, -7, -58,
    -258, -66, 19, 6, -62, 106, -115, -46, 9, -47, 76, 57, 15, -15, -23, 22,
    -6, -26, -75, -18, 44, 16, 0, -41, 27, -4, 144, 0, -54, -165, 161, 173,
    -205, -304, 120, 117, -22, 267, -74, 32, 305, -52, 2, -181, 12, 22, 0, -169,
    54, -133, -83, -66, -6, 137, 74, 267, 232, 477, 83, 122, -27, 34, 57, -27,
    31, 32, 55, 2, -51, 150, 34, 65, -43, 356, 97, 21, 68, 19, 76, 49,
    39, -35, 0, 102, 0, -248, 15, -58, -110, 30, 89, 356, 61, -21, -70, -2,
    -11, -33, 44, 131, 86, 69, -45, 3, -25, -18, -3, 20, -245, 173, 236, 172,
    1, 97, 172, -219, 81, 185, 83, 66, 8, -136, 52, 18, 45, -30, 0, -248,
    -19, -180, -250, 143, -62, -151, 25, 5, 305, 57, 155, -136, -19, -257, 96, 29,
    21, 2, 38, -7, -44, -55, -3, -28, -22, -62, -70, 12, -14, -31, -58, -15,
    -18, 30, 100, -133, 36, -51, -250, -60, -236, -89, 0, 36, 68, 39, -5, -31,
    -55, 7, -25, -47, -127, 3, 7, -6, -24, -62, 0, -23, 41, 58, 120, 184,
    63, -219, 182, 25, 0, 89, 204, 34, 42, 180, 96, -43, 117, 333, 30, 152,
    -110, -31, -134, -89, -19, -46, -153, 24, -212, -181, 49, 3, 45, 3, -44, 333,
    18, 13, 34, 25, -6, -28, -31, -17, -21, -7, 11, -33, 9, -5, -25, -42,
    -6, -22, -1, -67, -6, -90, -19, -151, -138, -2, -153, 1, 11, 49, 37, 0,
    -18, -36, -7, -22, -20, 0, -3, 27, 6, -23, -31, -4, -9, 0, 0, 0,
    0, 0, 0, 0, 0, 0, 0, 0, 0, 0, 0, 0, 0, 0, 0, 0,
    0, 0, 0, 0, 0, 0, 0, 0, -3, 0, 130, 11, 12, 261, 27, -41,
    229, -7, -65, 30, 37, -50, 22, -6, 126, 86, -24, -168, 18, 38, -27, 49,
    -9, 81, 48, -20, -5, -1, -64, -100, 0, 27, -226, 0, 5, 50, -26, -1,
    -70, -79, -54, -100, 26, -23, -48, -51, -15, -84, -148, -48, -11, 33, 0, 0,
    0, 0, 0, 0, 0, 0, 0, 0, 0, 0, 0, 0, 0, 0, 0, 0,
    0, 0, 0, 0, 0, 0, 0, 0, 0, -7, 176, -162, 46, -385, 172, -10,
    107, 96, 25, 10, 104, 73, -5, 49, -12, 71, 46, -10, -33, -32, 85, 37,
    36, -29, 42, 65, 5, 188, 0, 6, 0, 0, -96, 453, 0, 42, 66, 151,
    90, 21, 35, -21, 52, 49, 3, -52, 31, 81, 30, 37, -21, 60, 78, 0,
    0, 0, 0, 0, 0, 0, 0, 0, 0, 0, 0, 0, 0, 0, 0, 0,
    0, 0, 0, 0, 0, 0, 0, 0, 0, 0, -24, -85, -49, 79, -167, -193,
    -90, -8, 188, -10, -59, 72, 18, -83, -46, -83, -29, -27, -52, -96, -158, 13,
    -55, -68, -93, -53, -13, -23, 330, 28, 47, -194, -172, -132, -272, 83, 3, -5,
    117, 23, -73, -71, -92, -48, -6, -42, -30, 31, 2, -63, -79, -82, -63, 15,
    0, 0, 0, 0, 0, 0, 0, 0, 0, 0, 0, 0, 0, 0, 0, 0,
    0, 0, 0, 0, 0, 0, 0, 0, 0, 0, 0, 11, 60, 0, -121, 0,
    66, 176, 0, 0, 46, 189, 131, -11, 26, -92, -63, -22, -283, 79, -29, 199,
    -3, -71, 36, -29, 468, -6, -64, -22, 0, 27, 0, 0, -171, 0, 0, 6,
    221, 0, -12, 93, -163, -125, -281, 270, 47, -233, -137, 20, 140, -312, -48, 149,
    13, 0, 0, 0, 0, 0, 0, 0, 0, 0, 0, 0, 0, 0, 0, 0,
    0, 0, 0, 0, 0, 0, 0, 0, 0, 0, 0, 0, 37, 294, -305, -11,
    -188, -250, 34, 50, 59, 73, 115, 163, 120, 36, 61, 12, 122, 71, 18, -34,
    -57, 121, 96, 59, -2, 117, 74, -1, 132, -132, -12, -279, 47, 15, 179, 0,
    90, 138, 91, 139, 68, 23, 12, 100, 58, 23, 3, -7, 113, 95, 36, -11,
    109, 99, 0, 0, 0, 0, 0, 0, 0, 0, 0, 0, 0, 0, 0, 0,
    0, 0, 0, 0, 0, 0, 0, 0, 0, 0, 0, 0, 0, 38, 39, 88,
    -3, 190, 143, -26, 361, 45, 85, 142, 117, 121, 31, -5, -4, 59, 38, 13,
    -73, -69, 90, 55, 36, -26, 71, 53, -15, 233, 492, 20, -251, -184, -82, 192,
    0, 81, 158, 88, 113, 46, -18, -5, 70, 47, 2, -1, -59, 76, 58, 31,
    -31, 74, 61, 0, 0, 0, 0, 0, 0, 0, 0, 0, 0, 0, 0, 0,
    0, 0, 0, 0, 0, 0, 0, 0, 0, 0, 0, 0, 0, 0, 27, 0,
    0, 176, 0, 0, 186, 0, 0, -10, 171, 70, 34, -52, 4, -31, 62, -100,
    -90, -122, 0, -26, -164, -39, 52, 247, 197, 27, 0, 0, -171, 0, 0, 314,
    0, 0, -96, 0, 66, 15, -46, -320, -12, -9, 166, -132, -53, 0, -82, 77,
    -404, -39, -119, 11, 0, 0, 0, 0, 0, 0, 0, 0, 0, 0, 0, 0,
    0, 0, 0, 0, 0, 0, 0, 0, 0, 0, 0, 0, 0, 0, 0, -6,
    -137, 120, -63, -399, -145, -31, -214, 211, -12, 55, 66, 12, -67, -99, -90, -33,
    -68, -83, -82, -208, -4, -33, -100, -118, 4, -44, -54, 96, -413, -125, -457, -169,
    -12, -21, -40, -21, -4, 47, 12, -50, -99, -104, -14, -39, -92, -174, -161, -5,
    -26, -86, -123, -30, -21, 0, 0, 0, 0, 0, 0, 0, 0, 0, 0, 0,
    0, 0, 0, 0, 0, 0, 0, 0, 0, 0, 0, 0, 0, 0, 0, 0,
    -9, 118, -317, -29, -117, -184, 52, 176, -273, -29, 89, -7, -2, -90, -114, -118,
    -46, -80, -93, -177, -190, -26, -59, -99, -123, -38, -68, -48, 149, -148, -48, 50,
    -6, -39, -85, 0, -21, -49, 5, -11, -65, -132, -123, -52, -75, -82, -133, -171,
    -31, -68, -118, -112, -73, -18, 0, 0, 0, 0, 0, 0, 0, 0, 0, 0,
    0, 0, 0, 0, 0, 0, 0, 0, 0, 0, 0, 0, 0, 0, 0, 0,
    0, 0, 0, 0, 60, 0, 0, 0, 0, 0, 176, 0, 0, 294, -151, 0,
    -137, 216, -20, -85, 0, 0, 39, -50, 105, 118, 150, 164, -5, 0, 0, -22,
    0, 0, 0, 0, 0, 188, 0, 0, 132, -518, 139, 96, -122, -167, 330, 0,
    0, 233, -64, -82, 149, 364, -52, 0, 0, 0, 0, 0, 0, 0, 0, 0,
    0, 0, 0, 0, 0, 0, 0, 0, 0, 0, 0, 0, 0, 0, 0, 0,
    0, 0, -65, 0, 0, 189, 18, 0, 171, 0, 0, 10, 116, -33, 115, 28,
    88, 55, 53, 86, -59, -143, -102, 142, 148, -45, 89, 179, 92, 50, 0, 0,
    221, 0, 0, 0, 0, 0, 66, 0, 93, 138, 165, 2, -4, 205, -50, -5,
    -118, -42, 158, 95, 45, -49, 234, 63, 0, 0, 0, 0, 0, 0, 0, 0,
    0, 0, 0, 0, 0, 0, 0, 0, 0, 0, 0, 0, 0, 0, 0, 0,
    0, 0, 0, -168, 0, 0, -29, 276, 0, -122, 0, 0, -33, -143, 0, -34,
    -98, -244, -82, -115, -26, -96, 42, 0, -73, -123, -83, -177, 16, -118, -48, 0,
    0, -233, 0, 0, -53, 0, 0, -52, -118, 0, 3, -214, -145, -174, 26, -185,
    -30, -361, -106, -1, 3, -95, -133, -69, 45, 0, 0, 0, 0, 0, 0, 0,
    0, 0, 0, 0, 0, 0, 0, 0, 0, 0, 0, 0, 0, 0, 0, 0,
    0, 0, 0, 0, 12, 0, 0, 0, 0, 0, 0, 0, 0, -385, 18, 0,
    -188, 65, 5, -399, 0, -104, -167, 276, 0, 190, 0, 1, -117, 19, 50, -100,
    0, 0, 0, 0, 0, 0, 0, 0, 0, 0, 0, -279, -357, -21, -457, -158,
    -398, -194, 0, 0, -251, 81, -30, 50, 98, -8, 0, 0, 0, 0, 0, 0,
    0, 0, 0, 0, 0, 0, 0, 0, 0, 0, 0, 0, 0, 0, 0, 0,
    0, 0, 0, 0, 0, -50, -151, -25, 26, 65, 215, -52, -10, 177, -5, 28,
    -28, 36, -46, -77, -67, -12, -49, -83, -98, -133, 31, -14, -65, -90, 15, -3,
    -70, -518, 0, 93, -357, -7, -46, -502, 10, 21, 165, -15, 68, -21, -48, -50,
    1, -23, -73, -214, -121, 46, 25, -24, -65, 37, 28, 0, 0, 0, 0, 0,
    0, 0, 0, 0, 0, 0, 0, 0, 0, 0, 0, 0, 0, 0, 0, 0,
    0, 0, 0, 0, 0, 0, -27, -50, 88, -71, 0, 277, -164, 0, 446, 37,
    148, 147, 96, -14, -40, -33, 19, 6, -55, -123, -63, 55, 20, 17, -59, 35,
    30, -84, -64, 0, 140, 81, 0, 77, -145, -20, 30, 95, 48, 95, 25, -24,
    -26, 37, 27, -63, 3, -192, 58, 20, 29, -68, 72, 56, 0, 0, 0, 0,
    0, 0, 0, 0, 0, 0, 0, 0, 0, 0, 0, 0, 0, 0, 0, 0,
    0, 0, 0, 0, 0, 0, 0, -41, 0, 0, 0, 0, 0, 0, 0, 0,
    107, 0, 0, 50, -10, 0, -214, -131, -18, -8, 0, 0, 361, 0, 124, 176,
    0, 256, -226, 0, 0, 0, 0, 0, 0, -4, 0, 453, 0, 0, 179, -502,
    -210, -21, -69, -184, -272, 0, -31, 192, -145, -186, -85, 249, -241, 0, 0, 0,
    0, 0, 0, 0, 0, 0, 0, 0, 0, 0, 0, 0, 0, 0, 0, 0,
    0, 0, 0, 0, 0, 0, 0, 0, 126, 216, 157, -22, 0, 94, 62, -131,
    41, 71, 53, 134, 122, -12, -53, -33, 19, -2, -29, -115, -100, 59, 19, -43,
    -46, 44, 56, -100, -122, -15, -281, -158, 0, -9, -69, 0, 52, 205, 59, 100,
    1, -28, -14, 9, 19, -48, 26, -58, 70, 37, 44, -52, 66, 67, 0, 0,
    0, 0, 0, 0, 0, 0, 0, 0, 0, 0, 0, 0, 0, 0, 0, 0,
    0, 0, 0, 0, 0, 0, 0, 0, 0, 81, 150, -24, 468, 19, 400, 247,
    0, 15, 42, 179, 312, 117, 15, -2, 4, 44, 25, -53, 16, -115, 71, 35,
    18, -38, 74, 52, -11, 364, 0, 149, 98, 0, -119, 249, 0, 60, 234, 165,
    109, 37, 10, -30, 66, 59, -63, -69, -58, 74, 72, 58, -73, 105, 80, 0,
    0, 0, 0, 0, 0, 0, 0, 0, 0, 0, 0, 0, 0, 0, 0, 0,
    0, 0, 0, 0, 0, 0, 0, 0, 0, 0, 130, 0, 0, 0, 0, 0,
    0, 0, 0, -162, 0, 0, -305, -25, -347, 120, 157, -202, -49, 0, 0, 88,
    88, -128, -317, -24, -387, -1, 0, 0, 0, 0, 0, 0, 0, 0, 0, 0,
    0, -132, 0, -113, -413, -15, 0, 28, 0, 0, 492, 0, 0, -148, 0, 248,
    0, 0, 0, 0, 0, 0, 0, 0, 0, 0, 0, 0, 0, 0, 0, 0,
    0, 0, 0, 0, 0, 0, 0, 0, 0, 0, 0, 30, 0, 0, 131, 0,
    0, 70, 0, 0, 104, -33, 337, 163, -28, 41, 66, 134, 49, 72, 0, 0,
    117, 147, 58, -7, 312, 161, -26, 0, 0, 0, 0, 0, 66, 0, 0, 151,
    93, 0, 91, -15, 167, 47, 59, -48, 117, 0, -90, 88, 48, 29, 5, 165,
    117, 0, 0, 0, 0, 0, 0, 0, 0, 0, 0, 0, 0, 0, 0, 0,
    0, 0, 0, 0, 0, 0, 0, 0, 0, 0, 0, 0, 18, 0, 0, 199,
    0, 0, 0, 0, 0, -32, -102, 0, -57, -133, -239, -208, -100, -131, -158, 0,
    0, -69, -63, -24, -190, -115, -89, -51, 0, 0, -137, 0, 0, 0, -31, 0,
    31, -42, -90, -7, -121, -199, -161, -58, -96, 31, -106, 280, -59, -192, -84, -171,
    -58, -22, 0, 0, 0, 0, 0, 0, 0, 0, 0, 0, 0, 0, 0, 0,
    0, 0, 0, 0, 0, 0, 0, 0, 0, 0, 0, 0, 0, 261, 0, 0,
    66, 0, 0, 0, 0, 0, 172, 0, 0, -250, 215, -203, -145, 94, 40, -193,
    0, 0, 143, 277, -43, -184, 400, -158, 0, 0, 0, 0, 0, 0, 0, 0,
    0, 0, 0, 0, 47, -7, 0, -169, 0, 0, -172, 0, 0, -184, 0, 22,
    -6, 0, -6, 0, 0, 0, 0, 0, 0, 0, 0, 0, 0, 0, 0, 0,
    0, 0, 0, 0, 0, 0, 0, 0, 0, 0, 0, 0, 0, 0, 22, 0,
    -347, -92, 5, -203, 4, 0, 74, 49, 88, 41, 61, -77, -107, -99, -53, -79,
    -46, -244, -239, -5, -40, -70, -114, -2, -26, -79, 139, -113, -163, -21, 0, -320,
    -210, 0, 35, 2, 167, 23, -48, -76, -99, -28, -52, -71, -145, -199, -18, -24,
    -36, -132, 10, -16, 0, 0, 0, 0, 0, 0, 0, 0, 0, 0, 0, 0,
    0, 0, 0, 0, 0, 0, 0, 0, 0, 0, 0, 0, 0, 0, 0, 49,
    105, -128, 36, 1, -43, -39, 124, 239, 36, -45, 58, 59, -65, -70, -100, -43,
    -34, -68, -83, -24, 36, 17, -18, -99, 18, -1, -148, -82, 0, -312, -30, 22,
    -404, -186, 81, 37, 45, 29, 36, -24, -36, -86, 44, 6, -79, -95, -84, 31,
    29, -1, -118, 58, 26, 0, 0, 0, 0, 0, 0, 0, 0, 0, 0, 0,
    0, 0, 0, 0, 0, 0, 0, 0, 0, 0, 0, 0, 0, 0, 0, 0,
    229, 0, 0, 0, 0, 0, 0, 0, 0, 96, 0, 0, 59, 177, 74, 211,
    41, -219, 188, 0, 0, 45, 446, 239, -273, 15, 51, 0, 0, 0, 0, 0,
    0, 0, 0, 0, 0, 0, 0, 0, 10, 0, -40, 0, 0, 83, 0, 0,
    0, -20, 81, 0, 0, -161, 0, 0, 0, 0, 0, 0, 0, 0, 0, 0,
    0, 0, 0, 0, 0, 0, 0, 0, 0, 0, 0, 0, 0, 0, 0, 0,
    0, 86, -20, -202, -283, -104, 40, -100, -18, -219, 46, 86, 49, 71, -49, -79,
    -68, -2, -10, -27, -26, -131, 38, 6, -34, -80, 25, -3, 26, -167, 0, 270,
    -398, 0, 166, -184, 0, 49, -50, -48, 58, -23, -52, -39, 19, 26, -6, -185,
    -96, 47, 27, 6, -75, 59, 26, 0, 0, 0, 0, 0, 0, 0, 0, 0,
    0, 0, 0, 0, 0, 0, 0, 0, 0, 0, 0, 0, 0, 0, 0, 0,
    0, 0, 48, 164, -387, -6, 50, -158, 197, 256, 51, 65, 92, 161, 74, -3,
    -26, -44, 56, -3, -13, -118, -89, 53, 30, -1, -68, 52, 52, 33, -52, 248,
    13, -8, -6, 11, -241, -161, 78, 63, 117, 99, 28, -16, -21, 67, 26, 15,
    45, -22, 61, 56, 26, -18, 80, 70, 0, 0, 0, 0, 0, 0, 0, 0,
    0, 0, 0, 0, 0, 0, 0, 0, 0, 0, 0, 0, 0, 0, 0, 0,
    0, 0, 0, 0, 0, 0, 0, 0, 0, 0, 0, 0, 0, 0, 0, 0,
    0, 0, 0, 0, 0, 0, 0, 0, 0, 0, 0, 0, 0, 0, 0, 0,
    0, 0, 0, 0, 0, 0, 0, 0, 0, 0, 0, 0, 0, 0, 0, 0,
    0, 0, 0, 0, 0, 0, 0, 0, 0, 0, 0, 0, 0, 0, 0, 0,
    0, 0, 0, 0, 0, 0, 0, 0, 0, 0, 0, 0, 0, 0, 0, 0,
    0, 0, 0, 0, -2, 0, 50, -40, 0, 18, 68, 0, 1, -3, -48, 288,
    62, -212, 48, -41, -8, 242, 5, -138, 55, 140, -107, 52, -47, 101, 194, -18,
    388, 0, 22, 0, 0, 0, 0, 0, 21, 299, 183, 132, -115, 34, -78, -134,
    156, 18, 20, -85, 102, -28, 112, -103, 20, 212, 0, 0, 0, 0, 0, 0,
    0, 0, 0, 0, 0, 0, 0, 0, 0, 0, 0, 0, 0, 0, 0, 0,
    0, 0, 0, 0, 0, -18, 0, 64, 0, 0, 0, 0, 0, 0, -41, -95,
    239, 57, -260, 44, -82, -143, -29, -45, -356, -59, 73, -86, 152, -99, 47, 114,
    -19, -4, 0, -143, -15, 0, 0, -33, 0, -20, -240, 249, 1, -134, 2, -210,
    -209, 152, -15, -325, 162, -12, -170, 18, -115, -122, 200, 0, 0, 0, 0, 0,
    0, 0, 0, 0, 0, 0, 0, 0, 0, 0, 0, 0, 0, 0, 0, 0,
    0, 0, 0, 0, 0, 0, 0, 0, 0, 0, 0, 0, 0, 0, 0, 0,
    0, 0, 0, 0, 0, 0, 0, 0, 0, 0, 0, 0, 0, 0, 0, 0,
    0, 0, 0, 0, 0, 0, 0, 0, 0, 0, 0, 0, 0, 0, 0, 0,
    0, 0, 0, 0, 0, 0, 0, 0, 0, 0, 0, 0, 0, 0, 0, 0,
    0, 0, 0, 0, 0, 0, 0, 0, 0, 0, 0, 0, 0, 0, 0, 0,
    0, 0, 0, 0, 0, 0, 0, -3, 63, -231, 121, 139, 56, -190, 0, 41,
    36, -94, 138, 75, -45, 110, -110, -9, 192, -1, -53, 83, 154, 29, 99, -43,
    79, 160, -41, 262, -224, 106, 240, 0, -85, 0, 0, 56, 95, 157, 148, -16,
    -10, -96, -6, 108, 3, -65, 75, 99, 47, 70, -51, 40, 162, 0, 0, 0,
    0, 0, 0, 0, 0, 0, 0, 0, 0, 0, 0, 0, 0, 0, 0, 0,
    0, 0, 0, 0, 0, 0, 0, 0, 21, 29, -345, 332, 76, 176, -102, 0,
    14, 56, 44, 242, 152, -50, -11, -55, -34, 47, -6, -15, 40, 154, -2, 90,
    -82, 64, 94, -20, -67, -96, 127, 0, 172, 154, 0, 0, 57, 54, 122, 133,
    -38, -5, -53, -25, 1, 3, -49, 162, 108, 2, 43, -78, -56, 128, 0, 0,
    0, 0, 0, 0, 0, 0, 0, 0, 0, 0, 0, 0, 0, 0, 0, 0,
    0, 0, 0, 0, 0, 0, 0, 0, 0, 0, 0, 0, 0, 0, 0, 0,
    0, 0, 0, 0, 0, 0, 0, 0, 0, 0, 0, 0, 0, 0, 0, 0,
    0, 0, 0, 0, 0, 0, 0, 0, 0, 0, 0, 0, 0, 0, 0, 0,
    0, 0, 0, 0, 0, 0, 0, 0, 0, 0, 0, 0, 0, 0, 0, 0,
    0, 0, 0, 0, 0, 0, 0, 0, 0, 0, 0, 0, 0, 0, 0, 0,
    0, 0, 0, 0, 0, 0, 0, 0, 0, 0, 5, 184, 199, 101, 0, 0,
    185, -141, 0, -1, -119, 28, 55, -117, -40, -106, -74, -23, -57, -115, -16, 51,
    -38, -16, -146, 11, 43, -45, 33, 294, 53, 76, 0, -250, -47, 0, -6, -32,
    -2, 75, -88, -89, -151, -62, 9, -57, -207, -41, 44, -145, 2, -152, -19, 37,
    0, 0, 0, 0, 0, 0, 0, 0, 0, 0, 0, 0, 0, 0, 0, 0,
    0, 0, 0, 0, 0, 0, 0, 0, 0, 0, 0, 18, 208, -260, -3, 0,
    262, -49, 0, -55, 3, -54, 168, 29, -117, -105, -104, -93, -12, -57, -121, -28,
    56, -157, -39, -127, 33, 18, -15, -125, -183, 61, -122, 0, -247, -31, 0, 3,
    -77, 24, 50, -131, -75, -136, -115, -33, -26, -121, 169, 52, -181, -23, -49, -104,
    84, 0, 0, 0, 0, 0, 0, 0, 0, 0, 0, 0, 0, 0, 0, 0,
    0, 0, 0, 0, 0, 0, 0, 0, 0, 0, 0, 0, 0, 0, 0, 0,
    0, 0, 0, 0, 0, 0, 0, 0, 0, 0, 0, 0, 0, 0, 0, 0,
    0, 0, 0, 0, 0, 0, 0, 0, 0, 0, 0, 0, 0, 0, 0, 0,
    0, 0, 0, 0, 0, 0, 0, 0, 0, 0, 0, 0, 0, 0, 0, 0,
    0, 0, 0, 0, 0, 0, 0, 0, 0, 0, 0, 0, 0, 0, 0, 0,
    0, 0, 0, 0, 0, 0, 0, 0, 0, 0, 0, 0, 0, -40, 0, 0,
    9, 0, 0, 0, 0, 0, 121, 146, 167, 174, -78, 215, -239, 90, 34, 101,
    0, 84, 0, -11, 14, -45, 236, 183, 0, 0, 0, 0, 0, 0, 0, 0,
    0, 332, 0, 175, -136, -33, 136, -68, 166, 4, -3, 0, 221, 147, 0, 139,
    -249, -203, 36, 0, 0, 0, 0, 0, 0, 0, 0, 0, 0, 0, 0, 0,
    0, 0, 0, 0, 0, 0, 0, 0, 0, 0, 0, 0, 0, 0, 22, 0,
    0, 0, 0, 0, 0, 0, 0, 106, 131, 0, 89, -138, 9, -341, -156, 217,
    53, -1, -60, -44, -175, -194, -293, -140, 113, -143, 0, 0, 0, 0, 0, 0,
    0, 0, 127, 107, 0, 181, -71, -54, -133, -87, 283, 61, -34, 196, 177, -24,
    -11, -301, -347, 177, 0, 0, 0, 0, 0, 0, 0, 0, 0, 0, 0, 0,
    0, 0, 0, 0, 0, 0, 0, 0, 0, 0, 0, 0, 0, 0, 0, 0,
    0, 0, 0, 0, 0, 0, 0, 0, 0, 0, 0, 0, 0, 0, 0, 0,
    0, 0, 0, 0, 0, 0, 0, 0, 0, 0, 0, 0, 0, 0, 0, 0,
    0, 0, 0, 0, 0, 0, 0, 0, 0, 0, 0, 0, 0, 0, 0, 0,
    0, 0, 0, 0, 0, 0, 0, 0, 0, 0, 0, 0, 0, 0, 0, 0,
    0, 0, 0, 0, 0, 0, 0, 0, 0, 0, 0, 0, 0, 0, 0, 0,
    62, 21, 131, 174, -99, 294, 144, -1, 105, 75, -28, 228, 82, -8, 207, 5,
    184, 223, 55, -21, 101, 278, 149, 118, 9, 242, 213, 57, 101, -20, 89, 0,
    0, 340, 0, 0, 152, 159, 182, 246, 40, 21, 14, 102, 164, 29, -96, 69,
    203, 192, 133, -58, 204, 213, 0, 0, 0, 0, 0, 0, 0, 0, 0, 0,
    0, 0, 0, 0, 0, 0, 0, 0, 0, 0, 0, 0, 0, 0, 0, 0,
    0, 132, -364, 227, -136, 0, 105, 136, 0, 91, 148, 132, 296, 246, 60, -32,
    83, 114, 137, 75, -43, 55, 209, 167, 116, 34, 262, 147, 1, 174, 0, 181,
    0, 0, 27, 0, 0, 133, 199, 192, 209, 0, 55, 65, 116, 266, 50, -4,
    204, 214, 62, 144, -11, 127, 253, 0, 0, 0, 0, 0, 0, 0, 0, 0,
    0, 0, 0, 0, 0, 0, 0, 0, 0, 0, 0, 0, 0, 0, 0, 0,
    0, 0, 0, 0, 0, 0, 0, 0, 0, 0, 0, 0, 0, 0, 0, 0,
    0, 0, 0, 0, 0, 0, 0, 0, 0, 0, 0, 0, 0, 0, 0, 0,
    0, 0, 0, 0, 0, 0, 0, 0, 0, 0, 0, 0, 0, 0, 0, 0,
    0, 0, 0, 0, 0, 0, 0, 0, 0, 0, 0, 0, 0, 0, 0, 0,
    0, 0, 0, 0, 0, 0, 0, 0, 0, 0, 0, 0, 0, 0, 0, 0,
    0, 0, 0, 140, -122, 0, 0, 0, 206, 123, 0, 0, 154, 105, 178, 278,
    15, -21, 55, 14, 231, 51, 28, 77, 201, -57, -83, -49, 57, 115, 73, -38,
    0, -44, 0, 0, -65, -85, 0, 154, 46, 260, 209, 17, -46, -59, -14, 7,
    56, -67, 159, 52, 8, 38, -11, 143, 236, 0, 0, 0, 0, 0, 0, 0,
    0, 0, 0, 0, 0, 0, 0, 0, 0, 0, 0, 0, 0, 0, 0, 0,
    0, 0, 0, 0, 102, 0, 0, 147, 0, -13, 259, 0, 0, 99, 272, 333,
    203, 16, 62, -66, 66, 110, 44, -2, -10, 52, 121, 109, -101, 16, 68, -12,
    0, 0, 177, -1, 0, -160, -93, 0, 108, 23, 473, 214, -56, 89, -116, 52,
    142, 52, 64, 202, 101, -38, 119, 16, 48, 238, 0, 0, 0, 0, 0, 0,
    0, 0, 0, 0, 0, 0, 0, 0, 0, 0, 0, 0, 0, 0, 0, 0,
    0, 0, 0, 0, 0, 0, 0, 0, 0, 0, 0, 0, 0, 0, 0, 0,
    0, 0, 0, 0, 0, 0, 0, 0, 0, 0, 0, 0, 0, 0, 0, 0,
    0, 0, 0, 0, 0, 0, 0, 0, 0, 0, 0, 0, 0, 0, 0, 0,
    0, 0, 0, 0, 0, 0, 0, 0, 0, 0, 0, 0, 0, 0, 0, 0,
    0, 0, 0, 0, 0, 0, 0, 0, 0, 0, 0, 0, 0, 0, 0, 0,
    0, 0, 0, 0, 0, 0, 68, 0, 0, 0, 0, 0, 0, 0, 0, -190,
    0, 11, 144, -169, 195, 0, -204, 84, 185, 0, 0, 123, -152, 120, 107, 0,
    359, 0, 0, 0, 0, 0, 0, 0, 0, 0, -102, 0, 203, 136, 19, 154,
    65, -56, 219, -49, 0, 38, 259, 70, 463, -182, -74, 190, 0, 0, 0, 0,
    0, 0, 0, 0, 0, 0, 0, 0, 0, 0, 0, 0, 0, 0, 0, 0,
    0, 0, 0, 0, 0, 0, 0, 0, 0, 0, 0, 0, 0, 0, -37, 0,
    -85, 0, 0, 340, -233, -79, 145, -27, 0, -250, -81, 0, -65, 0, -21, -205,
    -44, 144, 0, 0, 0, 0, -5, 0, 0, 0, 0, 154, -114, 0, 27, -188,
    -7, -77, -52, 0, -247, -8, -141, -160, -200, -81, -431, -14, 379, 0, 0, 0,
    0, 0, 0, 0, 0, 0, 0, 0, 0, 0, 0, 0, 0, 0, 0, 0,
    0, 0, 0, 0, 0, 0, 0, 0, 0, 0, 0, 0, 0, 0, 0, 0,
    0, 0, 0, 0, 0, 0, 0, 0, 0, 0, 0, 0, 0, 0, 0, 0,
    0, 0, 0, 0, 0, 0, 0, 0, 0, 0, 0, 0, 0, 0, 0, 0,
    0, 0, 0, 0, 0, 0, 0, 0, 0, 0, 0, 0, 0, 0, 0, 0,
    0, 0, 0, 0, 0, 0, 0, 0, 0, 0, 0, 0, 0, 0, 0, 0,
    0, 0, 0, 0, 0, 0, 0, 0, 0, -41, 0, -101, -239, -2, 10, 0,
    0, 0, -110, -112, -125, 5, -258, -116, -333, -147, 56, -106, -177, 97, 55, -221,
    8, -315, -366, 65, -82, 0, -362, -341, -44, 0, 145, -4, 112, -55, -26, -49,
    83, -116, -6, -9, -242, -225, -104, 5, 7, -66, -42, -89, -223, 53, -90, 0,
    0, 0, 0, 0, 0, 0, 0, 0, 0, 0, 0, 0, 0, 0, 0, 0,
    0, 0, 0, 0, 0, 0, 0, 0, 0, 0, -78, 0, -258, -68, 0, 0,
    65, 0, 0, -96, -97, -78, 14, -240, -307, -9, -58, -225, -151, -112, 10, -59,
    -179, -121, -221, 22, 3, -210, -80, -344, -133, -5, 0, -77, 0, 0, -53, 127,
    -208, 65, -130, -57, -300, -16, -94, -136, -229, -254, -116, -92, -152, -270, -120, 11,
    0, 0, 0, 0, 0, 0, 0, 0, 0, 0, 0, 0, 0, 0, 0, 0,
    0, 0, 0, 0, 0, 0, 0, 0, 0, 0, 0, 0, 0, 0, 0, 0,
    0, 0, 0, 0, 0, 0, 0, 0, 0, 0, 0, 0, 0, 0, 0, 0,
    0, 0, 0, 0, 0, 0, 0, 0, 0, 0, 0, 0, 0, 0, 0, 0,
    0, 0, 0, 0, 0, 0, 0, 0, 0, 0, 0, 0, 0, 0, 0, 0,
    0, 0, 0, 0, 0, 0, 0, 0, 0, 0, 0, 0, 0, 0, 0, 0,
    0, 0, 0, 0, 0, 0, 0, 0, 0, 0, 0, 0, -47, -185, -23, -45,
    0, 0, 107, 0, 0, -43, -90, -47, 9, -202, -201, -315, -145, -179, -146, -330,
    -116, -49, -157, -166, -64, -138, -66, -99, 93, -318, -293, -20, 0, -205, -65, 0,
    -82, -163, 19, 34, -150, -286, -221, -207, -134, -127, -291, -29, -101, -141, -80, -173,
    -133, -63, 0, 0, 0, 0, 0, 0, 0, 0, 0, 0, 0, 0, 0, 0,
    0, 0, 0, 0, 0, 0, 0, 0, 0, 0, 0, 0, 0, -103, 0, -169,
    -249, 0, 0, -182, 0, 0, -51, -208, -2, -58, -245, -184, -223, -249, -164, -152,
    -156, -58, -11, -247, -152, -173, 5, -19, -115, 18, -270, -301, -174, 0, -431, -2,
    0, -78, -227, 58, -11, -204, -192, -270, -206, -182, -49, -149, 64, 16, -281, -180,
    -45, -233, 65, 0, 0, 0, 0, 0, 0, 0, 0, 0, 0, 0, 0, 0,
    0, 0, 0, 0, 0, 0, 0, 0, 0, 0, 0, 0, 0, 0, 0, 0,
    0, 0, 0, 0, 0, 0, 0, 0, 0, 0, 0, 0, 0, 0, 0, 0,
    0, 0, 0, 0, 0, 0, 0, 0, 0, 0, 0, 0, 0, 0, 0, 0,
    0, 0, 0, 0, 0, 0, 0, 0, 0, 0, 0, 0, 0, 0, 0, 0,
    0, 0, 0, 0, 0, 0, 0, 0, 0, 0, 0, 0, 0, 0, 0, 0,
    0, 0, 0, 0, 0, 0, 0, 0, 0, 0, 0, 0, 0, 0, 0, 0,
    0, 0, 0, 0, 0, 0, 0, 0, 63, 0, -251, 21, -85, 189, 0, 100,
    177, 184, -25, 0, -122, 0, 0, -185, 0, -11, 0, 0, 0, 0, 0, 0,
    0, 0, 0, 29, -192, 0, -364, -6, 0, 0, 226, 0, 208, -4, 0, 0,
    97, -5, 0, 0, -87, 0, 0, 0, 0, 0, 0, 0, 0, 0, 0, 0,
    0, 0, 0, 0, 0, 0, 0, 0, 0, 0, 0, 0, 0, 0, 0, 0,
    388, 0, 0, 0, 0, 0, 0, 0, 0, 262, -13, 0, 101, -154, 338, 0,
    -4, -96, 33, -5, -20, -38, -16, 235, 93, -1, -76, -4, 0, 0, 0, 0,
    0, 0, 0, 0, -67, -295, 0, 174, -29, -40, -80, 0, -364, -125, -27, -80,
    0, -41, -129, 18, -5, 129, 0, 0, 0, 0, 0, 0, 0, 0, 0, 0,
    0, 0, 0, 0, 0, 0, 0, 0, 0, 0, 0, 0, 0, 0, 0, 0,
    0, 0, 0, 0, 0, 0, 0, 0, 0, 0, 0, 0, 0, 0, 0, 0,
    0, 0, 0, 0, 0, 0, 0, 0, 0, 0, 0, 0, 0, 0, 0, 0,
    0, 0, 0, 0, 0, 0, 0, 0, 0, 0, 0, 0, 0, 0, 0, 0,
    0, 0, 0, 0, 0, 0, 0, 0, 0, 0, 0, 0, 0, 0, 0, 0,
    0, 0, 0, 0, 0, 0, 0, 0, 0, 0, 0, 0, 0, 0, 0, 0,
    0, 0, -48, 0, 170, 146, 0, 0, 0, 0, 0, -94, -139, 86, -28, -131,
    149, -112, 7, 13, -119, -160, -56, 105, -46, 122, -90, 115, 229, -95, -13, -61,
    131, 0, 0, 0, 0, 0, 44, 82, 331, 132, 3, -27, -97, 3, 89, -54,
    -215, -100, 272, 99, 114, -208, 165, 130, 0, 0, 0, 0, 0, 0, 0, 0,
    0, 0, 0, 0, 0, 0, 0, 0, 0, 0, 0, 0, 0, 0, 0, 0,
    0, 0, 0, 299, -192, 0, 0, 0, 0, 0, 0, 0, 95, 82, 143, 159,
    -38, 55, -26, 26, 22, -32, -95, 170, 46, 11, 106, -163, 30, 120, -240, -295,
    0, 107, 0, 0, -114, 0, 0, 54, 120, 200, 199, 78, -76, 127, -70, 79,
    -77, -364, -13, 23, 17, 23, -227, 9, 135, 0, 0, 0, 0, 0, 0, 0,
    0, 0, 0, 0, 0, 0, 0, 0, 0, 0, 0, 0, 0, 0, 0, 0,
    0, 0, 0, 0, 0, 0, 0, 0, 0, 0, 0, 0, 0, 0, 0, 0,
    0, 0, 0, 0, 0, 0, 0, 0, 0, 0, 0, 0, 0, 0, 0, 0,
    0, 0, 0, 0, 0, 0, 0, 0, 0, 0, 0, 0, 0, 0, 0, 0,
    0, 0, 0, 0, 0, 0, 0, 0, 0, 0, 0, 0, 0, 0, 0, 0,
    0, 0, 0, 0, 0, 0, 0, 0, 0, 0, 0, 0, 0, 0, 0, 0,
    0, 0, 0, 0, 0, -138, -25, 0, 0, 0, 0, 0, 0, 0, -53, -160,
    200, -21, -302, -272, -177, -200, -107, -115, -184, -200, 28, -230, -241, -330, -177, -160,
    -356, -5, 0, -1, -57, 0, -81, -1, 0, -15, -95, 17, -43, -239, -155, -112,
    -313, -56, -121, -309, -277, -2, -334, -81, -156, 53, -76, 0, 0, 0, 0, 0,
    0, 0, 0, 0, 0, 0, 0, 0, 0, 0, 0, 0, 0, 0, 0, 0,
    0, 0, 0, 0, 0, 0, 20, -4, 0, 0, 0, 0, 0, 0, 0, -65,
    -215, -40, -96, -299, -219, 5, -218, -177, -207, -309, -502, -67, -177, -205, -291, -190,
    -178, -325, -27, 0, -34, -26, 0, -8, -1, 0, -49, -364, 21, -4, -287, -96,
    -229, -408, -59, -121, -42, -360, 64, -60, -71, -149, -488, -1, 0, 0, 0, 0,
    0, 0, 0, 0, 0, 0, 0, 0, 0, 0, 0, 0, 0, 0, 0, 0,
    0, 0, 0, 0, 0, 0, 0, 0, 0, 0, 0, 0, 0, 0, 0, 0,
    0, 0, 0, 0, 0, 0, 0, 0, 0, 0, 0, 0, 0, 0, 0, 0,
    0, 0, 0, 0, 0, 0, 0, 0, 0, 0, 0, 0, 0, 0, 0, 0,
    0, 0, 0, 0, 0, 0, 0, 0, 0, 0, 0, 0, 0, 0, 0, 0,
    0, 0, 0, 0, 0, 0, 0, 0, 0, 0, 0, 0, 0, 0, 0, 0,
    0, 0, 0, 0, 0, 0, 0, 0, 0, 0, 0, 0, 0, 0, 0, 0,
    0, 139, 0, 0, -99, -108, 0, -2, 166, -3, 0, 0, 0, 0, 0, 0,
    0, -1, 0, 0, 0, 0, 0, 0, 0, 0, 0, 0, 76, 0, 0, 0,
    -3, 0, 0, 0, 0, 0, 0, 0, 0, 0, 0, 0, 0, -5, 0, 0,
    0, 0, 0, 0, 0, 0, 0, 0, 0, 0, 0, 0, 0, 0, 0, 0,
    0, 0, 0, 0, 0, 0, 0, 0, 0, 0, 0, 0, 0, 0, 0, 0,
    0, 0, 240, 0, 0, 0, -122, -9, -44, -81, -36, 76, -57, -21, 0, -2,
    -93, -20, -3, -58, -15, 0, 0, 0, 0, 0, -5, 0, 0, 0, 0, 300,
    0, -51, -196, -5, -42, 0, -122, -26, -52, -1, -25, -287, -174, -23, 163, 0,
    0, 0, 0, 0, 0, 0, 0, 0, 0, 0, 0, 0, 0, 0, 0, 0,
    0, 0, 0, 0, 0, 0, 0, 0, 0, 0, 0, 0, 0, 0, 0, 0,
    0, 0, 0, 0, 0, 0, 0, 0, 0, 0, 0, 0, 0, 0, 0, 0,
    0, 0, 0, 0, 0, 0, 0, 0, 0, 0, 0, 0, 0, 0, 0, 0,
    0, 0, 0, 0, 0, 0, 0, 0, 0, 0, 0, 0, 0, 0, 0, 0,
    0, 0, 0, 0, 0, 0, 0, 0, 0, 0, 0, 0, 0, 0, 0, 0,
    0, 0, 0, 0, 0, 0, 0, 0, 0, 0, 0, -212, -85, -92, -78, -108,
    128, -169, -19, -220, -45, -131, -9, -8, -195, -122, -258, -131, -85, -117, -302, -95,
    15, -142, -76, -202, -54, 4, -260, -154, -238, -138, -122, 0, -233, -60, -134, -50,
    -38, 27, 60, -147, -107, -240, -74, -61, -117, -299, -115, 16, -111, -46, -245, 6,
    36, 0, 0, 0, 0, 0, 0, 0, 0, 0, 0, 0, 0, 0, 0, 0,
    0, 0, 0, 0, 0, 0, 0, 0, 0, 0, 0, 0, -115, -6, 7, -33,
    -3, 0, 19, 0, 5, -16, 3, 38, 40, -147, -163, -116, -65, -127, -88, -239,
    -33, 17, -65, -77, -150, -15, 44, -134, -29, -314, -71, -51, 27, -188, -94, 0,
    -38, 78, 162, 0, -92, -65, -130, 40, -89, -131, -287, -89, -56, 23, -9, -204,
    -13, 48, 0, 0, 0, 0, 0, 0, 0, 0, 0, 0, 0, 0, 0, 0,
    0, 0, 0, 0, 0, 0, 0, 0, 0, 0, 0, 0, 0, 0, 0, 0,
    0, 0, 0, 0, 0, 0, 0, 0, 0, 0, 0, 0, 0, 0, 0, 0,
    0, 0, 0, 0, 0, 0, 0, 0, 0, 0, 0, 0, 0, 0, 0, 0,
    0, 0, 0, 0, 0, 0, 0, 0, 0, 0, 0, 0, 0, 0, 0, 0,
    0, 0, 0, 0, 0, 0, 0, 0, 0, 0, 0, 0, 0, 0, 0, 0,
    0, 0, 0, 0, 0, 0, 0, 0, 0, 0, 0, 0, 0, 0, -107, 0,
    0, -11, 0, 302, -152, 0, 0, 29, -46, 178, 149, -142, -90, -221, -99, -54,
    -38, -230, 17, -57, -75, 80, -157, 13, 136, -86, -16, 0, -175, -2, 202, 0,
    -1, 0, -2, 11, -64, 167, -65, -15, -179, -36, -15, -157, -177, 19, 121, 68,
    95, -247, 89, 130, 0, 0, 0, 0, 0, 0, 0, 0, 0, 0, 0, 0,
    0, 0, 0, 0, 0, 0, 0, 0, 0, 0, 0, 0, 0, 0, 0, -28,
    97, -68, 0, 0, 0, 70, 0, 0, 47, 99, 121, 192, -111, -42, -42, -71,
    91, -145, -334, 129, 8, 68, 42, -141, 6, 149, -170, -41, 0, -24, -25, 0,
    -200, -17, 0, 2, 17, -176, 62, 23, 74, -92, 89, 27, -181, -60, -109, -38,
    -23, 14, -281, -14, 111, 0, 0, 0, 0, 0, 0, 0, 0, 0, 0, 0,
    0, 0, 0, 0, 0, 0, 0, 0, 0, 0, 0, 0, 0, 0, 0, 0,
    0, 0, 0, 0, 0, 0, 0, 0, 0, 0, 0, 0, 0, 0, 0, 0,
    0, 0, 0, 0, 0, 0, 0, 0, 0, 0, 0, 0, 0, 0, 0, 0,
    0, 0, 0, 0, 0, 0, 0, 0, 0, 0, 0, 0, 0, 0, 0, 0,
    0, 0, 0, 0, 0, 0, 0, 0, 0, 0, 0, 0, 0, 0, 0, 0,
    0, 0, 0, 0, 0, 0, 0, 0, 0, 0, 0, 0, 0, 0, 0, 0,
    0, 0, 0, 0, 0, 0, 0, 0, 0, 0, 0, 0, 0, -1, -19, 0,
    0, 0, 0, -141, 0, 0, 0, 0, 0, 0, 0, 0, 0, 0, 0, 0,
    0, 0, -37, 0, 0, 0, 0, -74, 0, 0, 0, 0, 0, -103, 0, 0,
    0, 0, 0, 0, 0, 0, 0, 0, 0, 0, 0, 0, 0, 0, 0, 0,
    0, 0, 0, 0, 0, 0, 0, 0, 0, 0, 0, 0, 0, 0, 0, 0,
    0, 0, 0, 0, 0, 0, 0, 0, 0, 0, 0, 0, 0, 0, 0, -60,
    -4, -4, -84, 0, -47, -1, 0, -85, -1, 0, -65, 0, 0, -33, 0, 0,
    0, 0, 0, 0, 0, 0, 0, 0, 0, 0, -94, -90, 0, 0, -286, -31,
    -1, 0, -93, -17, -110, -2, 0, -74, 0, 0, 0, 0, 0, 0, 0, 0,
    0, 0, 0, 0, 0, 0, 0, 0, 0, 0, 0, 0, 0, 0, 0, 0,
    0, 0, 0, 0, 0, 0, 0, 0, 0, 0, 0, 0, 0, 0, 0, 0,
    0, 0, 0, 0, 0, 0, 0, 0, 0, 0, 0, 0, 0, 0, 0, 0,
    0, 0, 0, 0, 0, 0, 0, 0, 0, 0, 0, 0, 0, 0, 0, 0,
    0, 0, 0, 0, 0, 0, 0, 0, 0, 0, 0, 0, 0, 0, 0, 0,
    0, 0, 0, 0, 0, 0, 0, 0, 0, 0, 0, 0, 0, 0, 0, 0,
    0, 0, 0, 0, -8, 100, 126, 90, 166, 155, -204, 0, 47, -9, 7, 53,
    184, -131, -110, -147, -61, -12, -74, -200, -8, 14, -99, -35, -145, -37, 23, -143,
    -4, -31, -156, -81, 0, -27, -84, 0, -34, 26, -3, 114, -65, -94, -58, -33,
    -3, -93, -218, -99, 66, -71, -16, -249, 106, 36, 0, 0, 0, 0, 0, 0,
    0, 0, 0, 0, 0, 0, 0, 0, 0, 0, 0, 0, 0, 0, 0, 0,
    0, 0, 0, 0, 0, -134, 226, -75, 166, 0, 42, -56, 0, 0, -6, 3,
    31, 102, -74, -84, -242, -33, 3, -62, -313, 12, -14, -36, -23, -207, 164, 98,
    -209, 0, 0, -87, -42, 0, -52, 0, 0, -25, -70, 138, 116, 40, -11, -16,
    8, -4, -115, -408, -204, 52, 89, 76, -206, 119, 48, 0, 0, 0, 0, 0,
    0, 0, 0, 0, 0, 0, 0, 0, 0, 0, 0, 0, 0, 0, 0, 0,
    0, 0, 0, 0, 0, 0, 0, 0, 0, 0, 0, 0, 0, 0, 0, 0,
    0, 0, 0, 0, 0, 0, 0, 0, 0, 0, 0, 0, 0, 0, 0, 0,
    0, 0, 0, 0, 0, 0, 0, 0, 0, 0, 0, 0, 0, 0, 0, 0,
    0, 0, 0, 0, 0, 0, 0, 0, 0, 0, 0, 0, 0, 0, 0, 0,
    0, 0, 0, 0, 0, 0, 0, 0, 0, 0, 0, 0, 0, 0, 0, 0,
    0, 0, 0, 0, 0, 0, 0, 101, 0, 0, 236, -1, 1, 0, 0, 0,
    79, 115, 194, 242, -54, 0, -366, -37, 13, 11, -177, -41, 57, 13, 44, -138,
    2, 121, 47, -1, 0, -140, -3, 0, -44, 0, 0, 64, 30, 80, 262, -15,
    20, 22, 164, 72, 33, -190, -143, 16, 6, 155, 5, 98, 106, 0, 0, 0,
    0, 0, 0, 0, 0, 0, 0, 0, 0, 0, 0, 0, 0, 0, 0, 0,
    0, 0, 0, 0, 0, 0, 0, 0, 20, 0, 0, -203, 0, 0, -74, 0,
    22, 40, 165, 267, 204, 6, 46, 53, 106, 93, -19, 53, -17, 143, 89, 135,
    -133, 98, 165, -122, -5, 526, -347, -23, 0, -14, 0, 0, -56, 9, 56, 127,
    -13, 28, -120, 119, 99, -104, -488, -37, 48, -14, 134, -233, 129, 131, 0, 0,
    0, 0, 0, 0, 0, 0, 0, 0, 0, 0, 0, 0, 0, 0, 0, 0,
    0, 0, 0, 0, 0, 0, 0, 0, 0, 0, 0, 0, 0, 0, 0, 0,
    0, 0, 0, 0, 0, 0, 0, 0, 0, 0, 0, 0, 0, 0, 0, 0,
    0, 0, 0, 0, 0, 0, 0, 0, 0, 0, 0, 0, 0, 0, 0, 0,
    0, 0, 0, 0, 0, 0, 0, 0, 0, 0, 0, 0, 0, 0, 0, 0,
    0, 0, 0, 0, 0, 0, 0, 0, 0, 0, 0, 0, 0, 0, 0, 0,
    0, 0, 0, 0, 0, 0, 0, 0, 0, 0, 50, 0, 0, 0, 0, 0,
    0, 0, 0, -231, 170, 7, 131, -92, 0, -101, 126, 0, 199, 0, 0, 0,
    0, 0, -23, 0, 70, 64, 0, 0, 0, 0, 0, 0, 0, 0, -345, 0,
    46, 227, 7, 0, -258, -75, 28, -260, 0, 0, 0, -68, 161, -169, 0, 138,
    0, 0, 0, 0, 0, 0, 0, 0, 0, 0, 0, 0, 0, 0, 0, 0,
    0, 0, 0, 0, 0, 0, 0, 0, 0, 0, 0, 0, 0, 0, 0, 0,
    0, 0, 0, 0, -224, -61, 0, -20, -238, -272, -362, -31, 0, 294, 0, 0,
    0, 0, -189, -318, 0, 44, 0, 0, 0, 0, 0, 0, 0, 0, 0, -96,
    0, 0, 0, -314, 0, -344, 0, 0, -183, 0, 0, 0, 0, -151, -270, 526,
    0, 0, 0, 0, 0, 0, 0, 0, 0, 0, 0, 0, 0, 0, 0, 0,
    0, 0, 0, 0, 0, 0, 0, 0, 0, 0, 0, 0, 0, 0, 0, 0,
    0, 0, 0, 0, 0, 0, 0, 0, 0, 0, 0, 0, 0, 0, 0, 0,
    0, 0, 0, 0, 0, 0, 0, 0, 0, 0, 0, 0, 0, 0, 0, 0,
    0, 0, 0, 0, 0, 0, 0, 0, 0, 0, 0, 0, 0, 0, 0, 0,
    0, 0, 0, 0, 0, 0, 0, 0, 0, 0, 0, 0, 0, 0, 0, 0,
    0, 0, 0, 0, 0, 0, 0, 0, 0, 0, 0, 0, 0, 288, -251, 7,
    167, 0, 1, 11, 0, 0, 138, 86, 42, 228, -9, 448, -125, 53, 288, 28,
    200, 671, 178, 178, 299, -47, 194, 275, 239, 0, 0, 0, 0, 0, 0, 0,
    0, 242, 143, 26, 296, 38, 121, -78, 31, 15, 168, -40, -38, 333, 121, 178,
    -2, 267, 442, 0, 0, 0, 0, 0, 0, 0, 0, 0, 0, 0, 0, 0,
    0, 0, 0, 0, 0, 0, 0, 0, 0, 0, 0, 0, 0, 0, 183, 0,
    46, 175, 0, 0, 203, -74, 1, 157, 331, 26, 182, 27, 57, -49, -3, 195,
    -2, 17, 121, 260, -64, 196, 19, 80, 151, 249, 0, 0, 0, 300, 0, 0,
    0, 0, 122, 200, 125, 192, 162, 101, -208, 138, 45, 24, 21, 276, 473, -176,
    256, 58, 56, 227, 0, 0, 0, 0, 0, 0, 0, 0, 0, 0, 0, 0,
    0, 0, 0, 0, 0, 0, 0, 0, 0, 0, 0, 0, 0, 0, 0, 0,
    0, 0, 0, 0, 0, 0, 0, 0, 0, 0, 0, 0, 0, 0, 0, 0,
    0, 0, 0, 0, 0, 0, 0, 0, 0, 0, 0, 0, 0, 0, 0, 0,
    0, 0, 0, 0, 0, 0, 0, 0, 0, 0, 0, 0, 0, 0, 0, 0,
    0, 0, 0, 0, 0, 0, 0, 0, 0, 0, 0, 0, 0, 0, 0, 0,
    0, 0, 0, 0, 0, 0, 0, 0, 0, 0, 0, 0, 0, 0, 0, 0,
    55, 0, 0, 84, 0, 0, 0, 0, 0, 83, -56, 671, 101, -95, -34, 97,
    -8, -42, -16, -200, 74, 77, 17, -104, -116, -41, 41, -59, -20, 0, -60, -21,
    0, 0, 0, 0, 40, 170, 121, 55, -33, -62, 10, 12, 14, -28, -502, 200,
    -10, 129, 16, -58, -17, 55, 0, 0, 0, 0, 0, 0, 0, 0, 0, 0,
    0, 0, 0, 0, 0, 0, 0, 0, 0, 0, 0, 0, 0, 0, 0, 0,
    0, -85, 0, 0, 221, 0, 0, 38, 0, 0, 75, -100, -38, 69, -115, 272,
    7, -99, 219, -41, -277, 200, 159, 19, 53, -29, -143, -155, 162, -80, 0, 196,
    -52, 0, -141, 0, 0, 162, -13, 276, 204, -89, -23, -254, -204, 15, 169, -360,
    -24, 202, -109, 46, 64, -37, 217, 0, 0, 0, 0, 0, 0, 0, 0, 0,
    0, 0, 0, 0, 0, 0, 0, 0, 0, 0, 0, 0, 0, 0, 0, 0,
    0, 0, 0, 0, 0, 0, 0, 0, 0, 0, 0, 0, 0, 0, 0, 0,
    0, 0, 0, 0, 0, 0, 0, 0, 0, 0, 0, 0, 0, 0, 0, 0,
    0, 0, 0, 0, 0, 0, 0, 0, 0, 0, 0, 0, 0, 0, 0, 0,
    0, 0, 0, 0, 0, 0, 0, 0, 0, 0, 0, 0, 0, 0, 0, 0,
    0, 0, 0, 0, 0, 0, 0, 0, 0, 0, 0, 0, 0, 0, 0, 0,
    0, 0, 0, 18, 0, 0, 0, 0, 0, 0, 0, 0, 56, 0, 1, 294,
    128, 95, 10, 155, 0, 0, 0, 0, 206, 302, 210, 0, 1, 127, 0, 0,
    0, 0, 0, 0, 0, 0, 0, 176, 0, 0, 105, 0, 3, 0, 42, 8,
    262, 0, 0, -13, 0, -59, 0, 0, 9, 0, 0, 0, 0, 0, 0, 0,
    0, 0, 0, 0, 0, 0, 0, 0, 0, 0, 0, 0, 0, 0, 0, 0,
    0, 0, 0, 0, 0, 0, 0, 0, 0, 0, 0, 0, 0, 0, 0, 0,
    0, 0, 0, 0, 0, 0, 0, 0, 0, 0, 202, 0, 0, 0, 0, 0,
    0, 0, 0, 0, 0, 0, 0, 0, 172, 0, 0, 0, 27, 0, 0, 0,
    0, 0, 0, 0, 0, 0, 0, 0, 0, 10, 0, 0, 0, 0, 0, 0,
    0, 0, 0, 0, 0, 0, 0, 0, 0, 0, 0, 0, 0, 0, 0, 0,
    0, 0, 0, 0, 0, 0, 0, 0, 0, 0, 0, 0, 0, 0, 0, 0,
    0, 0, 0, 0, 0, 0, 0, 0, 0, 0, 0, 0, 0, 0, 0, 0,
    0, 0, 0, 0, 0, 0, 0, 0, 0, 0, 0, 0, 0, 0, 0, 0,
    0, 0, 0, 0, 0, 0, 0, 0, 0, 0, 0, 0, 0, 0, 0, 0,
    0, 0, 0, 0, 0, 0, 0, 0, 0, 0, 0, 0, 0, 0, 0, 0,
    0, 0, 0, 0, 0, 0, 48, 189, 0, 215, 0, 95, 195, 0, 6, 110,
    149, 448, 207, -122, -80, -116, -110, 21, -40, -272, -34, -21, -90, -19, -201, 0,
    -52, 44, 338, -272, 9, -9, 0, -79, -4, 0, -11, 55, 57, -32, -163, -98,
    -307, -84, -148, -105, -219, 272, 62, -42, -52, -184, 46, 42, 0, 0, 0, 0,
    0, 0, 0, 0, 0, 0, 0, 0, 0, 0, 0, 0, 0, 0, 0, 0,
    0, 0, 0, 0, 0, 0, 0, 34, 0, 0, 136, 0, 3, 154, 0, 13,
    -10, -27, 121, 21, -107, -98, -6, -94, 98, -89, -155, -62, -46, -15, -31, -286,
    20, 5, 2, -40, 0, -54, -196, 0, -7, -90, 0, -5, -76, 101, 55, -65,
    -1, -57, -11, 1, -75, -96, -23, 89, 74, 10, -192, 28, 95, 0, 0, 0,
    0, 0, 0, 0, 0, 0, 0, 0, 0, 0, 0, 0, 0, 0, 0, 0,
    0, 0, 0, 0, 0, 0, 0, 0, 0, 0, 0, 0, 0, 0, 0, 0,
    0, 0, 0, 0, 0, 0, 0, 0, 0, 0, 0, 0, 0, 0, 0, 0,
    0, 0, 0, 0, 0, 0, 0, 0, 0, 0, 0, 0, 0, 0, 0, 0,
    0, 0, 0, 0, 0, 0, 0, 0, 0, 0, 0, 0, 0, 0, 0, 0,
    0, 0, 0, 0, 0, 0, 0, 0, 0, 0, 0, 0, 0, 0, 0, 0,
    0, 0, 0, 0, 0, 0, 0, 0, 0, 52, 0, 0, 14, 0, 210, 120,
    0, 215, 99, 122, 299, 118, -76, -19, 8, -35, -41, -16, -241, -104, -83, 80,
    -15, -166, 44, 63, 152, 235, -189, -194, -93, 0, -21, 0, 0, 90, 106, 196,
    116, -77, -31, -121, -23, -10, -39, -205, 53, 109, 42, -29, -152, 135, 129, 0,
    0, 0, 0, 0, 0, 0, 0, 0, 0, 0, 0, 0, 0, 0, 0, 0,
    0, 0, 0, 0, 0, 0, 0, 0, 0, 0, 112, -5, 161, 139, 0, -59,
    463, 0, 77, 70, 114, 178, 133, -46, -52, -89, -16, 63, 2, -81, 16, 38,
    95, -29, -80, 155, 106, 18, -129, -151, -11, -287, 0, -81, -110, 5, 43, 23,
    256, 144, -9, 10, -152, 76, 81, -23, -71, 46, 119, 14, 101, -180, 134, 172,
    0, 0, 0, 0, 0, 0, 0, 0, 0, 0, 0, 0, 0, 0, 0, 0,
    0, 0, 0, 0, 0, 0, 0, 0, 0, 0, 0, 0, 0, 0, 0, 0,
    0, 0, 0, 0, 0, 0, 0, 0, 0, 0, 0, 0, 0, 0, 0, 0,
    0, 0, 0, 0, 0, 0, 0, 0, 0, 0, 0, 0, 0, 0, 0, 0,
    0, 0, 0, 0, 0, 0, 0, 0, 0, 0, 0, 0, 0, 0, 0, 0,
    0, 0, 0, 0, 0, 0, 0, 0, 0, 0, 0, 0, 0, 0, 0, 0,
    0, 0, 0, 0, 0, 0, 0, 0, 0, 0, 0, 0, 1, 0, 0, 0,
    0, 0, 0, 0, 0, 41, 0, 0, 105, -220, 6, 0, 47, 14, 0, 0,
    0, 0, 0, 215, 0, 0, 139, 0, 0, 0, 0, 0, 0, 0, 0, 0,
    14, 0, 1, 91, 5, 13, 0, 0, 5, -55, 0, 0, 0, 0, 77, 0,
    22, 13, 0, 0, 0, 0, 0, 0, 0, 0, 0, 0, 0, 0, 0, 0,
    0, 0, 0, 0, 0, 0, 0, 0, 0, 0, 0, 0, 0, 0, 0, 0,
    0, 0, 0, 0, 0, 0, 0, 0, 0, 0, -134, 0, 112, 0, 0, 0,
    0, 0, 0, 0, 0, 0, 0, 0, 0, 0, 0, 0, 0, 0, 0, 0,
    0, 0, 0, 0, 0, 0, 0, 0, 0, 0, 0, 0, 0, 0, 0, 5,
    0, 0, 112, 0, 0, 0, 0, 0, 0, 0, 0, 0, 0, 0, 0, 0,
    0, 0, 0, 0, 0, 0, 0, 0, 0, 0, 0, 0, 0, 0, 0, 0,
    0, 0, 0, 0, 0, 0, 0, 0, 0, 0, 0, 0, 0, 0, 0, 0,
    0, 0, 0, 0, 0, 0, 0, 0, 0, 0, 0, 0, 0, 0, 0, 0,
    0, 0, 0, 0, 0, 0, 0, 0, 0, 0, 0, 0, 0, 0, 0, 0,
    0, 0, 0, 0, 0, 0, 0, 0, 0, 0, 0, 0, 0, 0, 0, 0,
    0, 0, 0, 0, 0, 0, 0, 0, 0, 0, 0, 0, 0, 0, 0, 242,
    177, 0, 34, -3, 0, 84, 0, 14, 192, 13, 288, 223, -85, 21, 56, -12,
    193, -23, -107, -42, 231, -54, -41, -179, 13, 110, -29, -96, 0, 217, -36, 0,
    0, 0, 0, 47, 22, 195, 137, -127, 98, -225, 3, 52, -12, -177, 219, 110,
    91, 63, -164, 93, 164, 0, 0, 0, 0, 0, 0, 0, 0, 0, 0, 0,
    0, 0, 0, 0, 0, 0, 0, 0, 0, 0, 0, 0, 0, 0, 0, 0,
    156, 0, 28, 4, 0, 8, 219, -103, 5, 108, 89, 15, 164, -61, -148, -225,
    -3, 52, 9, -56, 14, 7, -15, -10, -134, 72, 35, 152, -364, 0, 283, 0,
    0, 0, -286, 0, 1, 79, 45, 266, -89, 1, -94, -4, 173, -33, -59, 15,
    142, 27, 81, -182, 99, 173, 0, 0, 0, 0, 0, 0, 0, 0, 0, 0,
    0, 0, 0, 0, 0, 0, 0, 0, 0, 0, 0, 0, 0, 0, 0, 0,
    0, 0, 0, 0, 0, 0, 0, 0, 0, 0, 0, 0, 0, 0, 0, 0,
    0, 0, 0, 0, 0, 0, 0, 0, 0, 0, 0, 0, 0, 0, 0, 0,
    0, 0, 0, 0, 0, 0, 0, 0, 0, 0, 0, 0, 0, 0, 0, 0,
    0, 0, 0, 0, 0, 0, 0, 0, 0, 0, 0, 0, 0, 0, 0, 0,
    0, 0, 0, 0, 0, 0, 0, 0, 0, 0, 0, 0, 0, 0, 0, 0,
    0, 0, 194, -11, 70, 183, 0, 127, 359, 0, 139, 160, 229, 275, 213, 4,
    -52, 65, 23, 110, 43, -160, 41, 115, 136, 63, -66, 121, 204, 114, -76, 44,
    113, -58, 0, 144, 0, 0, 94, 120, 151, 147, 44, 5, 3, 98, 35, 18,
    -178, -155, 68, 149, 106, -19, 165, 217, 0, 0, 0, 0, 0, 0, 0, 0,
    0, 0, 0, 0, 0, 0, 0, 0, 0, 0, 0, 0, 0, 0, 0, 0,
    0, 0, 0, 212, -87, 138, 36, -5, 9, 190, 0, 13, 162, 130, 442, 213,
    36, 42, -90, 36, 164, 37, -76, 55, 236, 130, 129, -63, 106, 217, 200, 129,
    0, 177, 163, 10, 379, -74, 112, 128, 135, 227, 253, 48, 95, 11, 48, 173,
    84, -1, 217, 238, 111, 172, 65, 131, 231, 0, -50, 36, 125, 94, 206, -165,
    -227, -71, -14, 46, 144, 105, -134, 110, -116, -51, 159, 2, -80, -80, 153, -110,
    102, -209, -144, 99, 17, -142, 111, 143, 9, 186, -171, -117, 93, 27, 84, 263,
    83, -282, 105, -129, -96, 141, 8, -106, -41, 84, -67, 0, -131, -111, 193, -43,
    -119, 93, 127, -43, 250, -105, -41, 27, -29, -52, 178, 243, -292, 135, -198, 0,
    109, -42, -18, -91, 177, -159, 75, -101, -168, 292, 17, -57, 14, 77, -10, 116,
    -122, -234, 68, 44, 56, 209, 42, -9, 205, -123, 22, 188, 30, -154, -9, 235,
    -145, 141, -164, -175, 163, 77, -167, 63, 177, 220, 277, -56, -396, -28, -16, 69,
    167, 69, -163, 167, -97, -60, 217, 1, -74, -102, 265, -213, 0, -39, -35, 199,
    -10, -101, -35, 83, 103, 56, -230, -325, 36, -22, 91, 164, 167, -82, -35, 0,
    0, 0, -5, -75, 12, 189, -24, -9, -103, 24, 261, -43, -78, 73, 55, -67,
    204, -135, -142, -72, -50, 34, 159, 120, -100, 203, -30, 12, 167, -76, -131, -147,
    29, -183, -36, -374, -159, 60, -10, -160, -8, 216, -234, 235, -115, 22, 108, -42,
    -46, 186, 136, -272, -6, -217, 124, -116, -63, -6, 10, 0, 0, 0, -419, 65,
    5, -115, -106, -37, 102, -108, 337, -168, -87, -187, -48, 57, 211, 26, -247, 9,
    -119, 0, 55, -19, -121, -109, 62, -225, 10, -91, -157, 105, -14, -150, 22, 65,
    277, 151, -137, -245, -21, -53, 29, 66, 12, -237, 133, -185, -203, 131, 1, -133,
    -137, 71, -100, 86, -125, -181, 175, 44, 75, 178, 114, 247, 183, -5, 137, 80,
    126, 377, -36, 164, -42, 244, -57, 238, 356, 50, 72, 80, -56, -270, 0, 2,
    134, 344, -50, 24, 53, 52, -150, 161, -201, -198, -62, -40, 105, 215, 52, -139,
    -65, -256, 0, -161, -8, -152, -169, 159, -283, -122, -150, -197, 108, 27, 50, 153,
    56, -107, 160, -221, -219, -24, 126, 76, 251, 331, 94, 276, 99, 395, 118, 23,
    -139, 191, 135, -5, 48, -83, -238, 144, -16, -88, 75, 110, 95, 338, -118, -71,
    57, -39, 68, 98, -15, -255, 151, -96, -73, 150, -9, -76, -102, 48, -8, 0,
    -131, -42, 194, -42, -74, 77, 11, -26, 267, -129, -404, -256, -12, 95, 248, 203,
    -194, -154, 0, 0, 0, -2, -115, -95, 171, -10, -10, -129, 31, 215, -29, -38,
    -20, 69, 49, 133, -20, 1, 75, -40, -166, 223, 51, -208, 325, -193, -68, 431,
    -39, -266, -48, 56, -316, -89, -247, -416, 17, -22, -32, -38, -277, 323, 265, 16,
    -15, 497, -12, 164, 327, 218, -261, -108, -73, 0, -181, 0, 0, 0, 0, 0,
    0, 0, 0, 0, -48, 8, 138, -9, 73, 272, -310, -250, -225, 5, 173, 244,
    268, -66, -39, 87, 0, -71, 2, -14, -81, 271, 25, 71, -88, -17, 209, 2,
    -98, 177, 170, -134, 216, -194, -500, -409, 1, 8, 15, 120, -143, 156, -130, 79,
    -37, 26, 20, -102, 116, 9, 137, -58, -71, 29, 30, -40, 25, 18, -193, 349,
    -64, -178, 153, 23, 175, 248, 148, -88, 182, 76, 40, 335, 78, 74, 63, -4,
    51, 0, 104, 24, 282, -76, -133, -122, -19, -109, -92, -213, -100, -176, -39, -54,
    206, 9, -311, -117, 58, 0, -65, -223, 34, -457, 125, -268, -212, -88, -248, -24,
    8, -8, 54, 29, -171, 86, -130, -212, -92, 50, 17, 62, 262, -19, 340, -4,
    32, 264, 78, -144, 21, 174, -212, 106, 198, -167, 408, 1, -118, -70, 183, 205,
    219, -16, -49, 159, -9, -1, 81, 162, -306, -72, -262, -260, -77, -63, 50, -106,
    54, -124, 0, -190, -22, 14, -63, 2, -49, 74, 83, -217, -473, 22, -453, 0,
    0, 0, 0, 0, 0, 0, 0, 0, -73, -83, -307, 139, 180, 0, -189, 97,
    92, -42, -143, -70, 108, -5, 74, -73, -19, 189, -8, -187, 181, 106, -102, 313,
    -7, -172, 51, -223, -258, -208, -116, -301, -555, -394, -529, -118, -5, -75, 2, 93,
    194, 243, -7, -62, 460, -2, 41, 137, 134, -270, -104, -212, -211, 6, -73, 121,
    -156, 0, 0, 0, -126, -62, 69, -19, -93, 44, 97, -47, 181, -99, -535, 70,
    2, 94, 201, 114, -238, -82, -231, 0, -119, 24, -62, -108, 152, -214, -11, 0,
    -173, 190, 125, 237, -17, -73, 178, 359, -77, -99, 56, 65, 37, 96, 104, -224,
    -106, -12, 447, -96, 170, 118, 203, 369, 8, 75, -34, 271, 228, 77, -57, 264,
    38, 291, 137, -118, -150, -61, 56, 205, 275, -21, -154, 140, 23, 271, 249, 29,
    297, 191, 271, -203, 0, -131, 200, 46, 55, 239, 85, 37, 325, 167, -100, -268,
    -245, 69, 65, 70, 39, -175, -122, 87, 0, 0, 108, 74, -10, 54, -86, 135,
    -117, -31, 141, 143, 16, 167, 38, -130, 144, 190, 69, -152, 114, 135, 142, 57,
    -13, -110, 152, -77, -25, 18, 50, -178, 37, -158, 24, 9, -38, 18, 177, 120,
    238, 0, 0, 83, -156, 115, -103, 110, 270, 43, 101, 2, 256, -31, 235, 166,
    183, 362, 206, 0, -120, 0, -188, 243, 330, 216, 290, -3, 392, -78, 16, 26,
    -32, -154, -277, -33, 7, 0, -14, 0, 0, 0, 0, 93, 286, 93, 283, 210,
    379, -176, 211, 325, 127, 85, 3, 37, 202, 298, -33, 5, -59, 52, 176, 250,
    -31, -168, 100, 23, 134, 365, -19, 112, -164, 131, -198, -186, -323, -263, 192, 83,
    210, 101, 392, 207, 82, 137, -309, -141, 11, 99, 12, 121, -433, -114, -90, 84,
    -59, 74, -151, -363, 0, 0, 0, 85, 367, 56, 102, -144, -3, 25, 64, 196,
    -76, 261, -128, -9, 219, 54, 130, -21, 157, 62, 0, 36, 97, -49, 159, 213,
    -10, 63, -35, -15, 157, 105, -7, 151, 104, 358, 245, -126, -278, -84, 12, 221,
    76, 68, 152, 79, -198, -116, 253, 120, 188, -61, -10, -12, 483, 67, -96, 25,
    42, 91, 295, 57, 93, -222, 241, -88, 190, 331, 273, -43, 133, 143, 338, 210,
    181, 59, 262, 171, 112, 0, 0, 0, 157, 495, 320, 120, 20, -110, -31, -20,
    -143, 195, -305, 3, 51, 102, -11, 167, -186, 43, -68, 0, 99, 106, -165, 52,
    129, -524, -162, -12, -182, 41, 83, 142, 164, -21, -74, 247, 75, 58, 25, 164,
    208, 286, 133, 76, 521, 38, 382, 299, 148, -79, -71, 69, -82, 3, 24, -17,
    68, 69, 9, 104, 101, 138, 256, -12, -7, 164, -15, 137, 14, -58, -235, 193,
    52, 223, 186, 162, 193, 134, 259, 254, 0, 58, 253, 168, 136, 230, 151, 121,
    123, 125, 105, 217, -26, 218, 412, 132, 158, 47, 57, 0, 0, 0, 134, 189,
    75, 299, 305, 222, 97, 218, 254, 243, 335, 220, 39, 263, 44, 154, 187, -41,
    52, 187, 59, 167, -10, 490, 137, 34, 299, 9, -116, 176, 123, -364, 127, -129,
    -326, -278, 167, 229, 314, 0, 358, 0, 185, -72, -84, 203, 115, 108, 158, -92,
    89, -60, 0, 277, 0, 0, 0, 0, 0, 0, 0, 0, 0, 26, 91, 87,
    130, -269, -58, 175, -113, -397, 268, 211, 76, 316, 61, 165, 72, 0, -68, 114,
    -150, 170, 425, -49, 104, 97, 175, 182, 153, 227, 86, 369, 129, -21, -9, -222,
    67, 71, 177, 231, -10, -257, 127, -36, 276, 99, 116, 160, 298, 68, 134, 230,
    8, 14, 138, 235, -86, -148, 37, -51, 178, -48, -94, -250, 135, 248, -92, 69,
    17, 139, 53, 369, 183, 174, -22, 147, -46, -220, 0, -173, 292, 92, 29, -405,
    -104, 131, 282, 514, 118, 514, 0, 56, -330, -3, 123, -272, -224, -135, 0, 0,
    -116, -63, -236, 136, -214, 79, -51, -389, 122, 84, -133, 0, 271, 14, -196, -137,
    0, 0, -56, -145, 0, 0, 6, 27, -238, 0, 76, -4, -45, -41, -46, -19,
    221, -2, -166, -75, 265, -137, 71, 0, 328, 9, 67, 0, -109, 48, -62, 115,
    259, 12, 75, 198, 0, 0, 54, 423, -66, 0, 0, 0, -108, -393, 95, 0,
    0, 0, 0, 0, 0, 0, 0, 0, 0, 0, 0, 0, 0, 0, 0, 0,
    0, 0, 0, 0, 0, 0, 0, 0, 0, 0, 177, 9, 218, 54, -68, 426,
    -20, -2, 87, 159, 354, 256, 129, -87, 249, 59, -53, 92, 125, -45, -582, 136,
    -207, -84, 104, -167, 49, 189, 340, -256, 283, 182, 18, -171, 0, 0, 171, 121,
    301, 299, -34, 11, -16, 132, -115, 139, -94, -11, 0, 0, 0, -216, 31, 22,
    62, 16, 181, 213, 100, 82, 309, -112, 238, 271, 545, 295, 425, 30, 174, 67,
    0, 215, 152, 206, 144, 211, 28, 175, 112, 230, 196, -165, 6, -461, -77, 142,
    -312, -326, -269, -95, -137, 129, 63, -126, -115, 405, 17, -168, -148, -194, -173, -249,
    -9, 85, 206, -256, 0, -1, -122, -106, -221, 190, 192, -101, -247, -277, -71, -221,
    -169, 114, 75, -387, -131, -332, -278, 36, -130, -161, -42, -137, 0, 0, -365, -405,
    -109, -135, 196, 203, -33, -62, 159, -155, -142, -402, -20, -7, 71, 154, 18, -294,
    -299, 0, 101, -73, -217, -201, -20, -352, -327, -3, -228, 161, -171, -15, 47, -118,
    -9, -51, -247, 28, -332, -5, -47, 95, 241, 31, 216, -8, 266, 110, -64, -156,
    -191, -48, -60, -201, 39, -105, 140, -56, -118, 79, -156, -218, 211, 30, -31, -319,
    -118, -24, 85, -12, -157, 175, 51, -66, -82, -16, 93, -89, 67, -457, 0, 67,
    -72, 46, -115, -127, 75, 137, -137, 275, 135, -117, 109, 16, 326, -54, 185, -122,
    209, 0, 0, 0, -7, -107, -215, -171, 73, -63, 31, -23, 391, -105, -127, 0,
    -100, -24, 255, -155, 46, 0, -201, 111, -125, 195, 79, -15, 0, -53, 121, -213,
    -265, 219, 118, -7, -224, 0, 0, 0, -230, 4, -172, 26, 68, 21, 135, 0,
    0, -129, -63, 165, 105, -276, -135, -243, 114, -291, -473, -161, 0, 0, 0, 0,
    0, 0, 389, -168, -144, -299, -76, 0, 0, 0, 0, 0, -310, -231, -228, 175,
    -40, -482, 0, 0, 0, -99, -498, -126, 309, -463, -296, -81, -220, -56, -116, -164,
    -44, -12, -78, 68, 17, -277, -8, -185, 50, -267, -198, -229, -163, -215, -394, -343,
    -130, -37, 207, -36, -49, -46, 173, -16, -6, -123, 46, 190, 152, 0, -144, -8,
    -249, -303, 99, 163, 254, 38, -187, 90, -140, 20, 525, -4, -163, 16, -238, 0,
    0, 155, -42, 81, -30, -67, -149, 23, 21, -97, 0, 348, -104, -193, 126, -148,
    137, -311, -539, 0, 0, -15, -7, -42, -347, 59, -326, -682, 120, -115, 225, -129,
    -277, -67, 23, -71, -115, -332, -445, -292, -57, 65, 13, 210, -203, -27, -140, 210,
    240, 76, -324, -228, 53, -244, -69, 96, -485, 302, -97, -44, -206, -31, 13, -92,
    51, -402, 22, -96, -196, -113, 52, -281, -260, -80, -219, -103, -262, -224, -448, 198,
    -136, 0, -46, -132, 32, -217, -210, -223, -90, 432, 6, -243, -221, -332, -73, -353,
    -84, -60, 63, -180, 0, 0, 0, -212, -260, -411, -16, -245, -322, -160, -101, -93,
    -198, -185, 53, 87, 0, 0, -299, -49, 110, -256, -200, -91, -68, 181, -199, 0,
    29, 7, 58, -164, -305, -135, 250, -146, 0, -14, 0, 0, 0, 0, 0, 0,
    0, 0, 0, 0, 0, 0, 0, 0, 0, 0, 0, 0, 0, 0, 0, 0,
    0, 0, 0, 0, 0, 0, -119, 130, -348, 62, 0, 0, 0, 0, 0, 87,
    150, -176, 72, -186, -293, 0, 0, 0, -231, -192, -332, 67, 294, 0, -28, -405,
    -47, -209, 41, -72, -34, 50, -396, -256, -21, -31, -125, -146, 135, 67, -123, 291,
    173, 196, -159, -58, 201, -379, 8, 80, 107, 18, -122, -203, -164, -64, 23, 9,
    190, -15, 39, -104, -25, -83, 202, 135, 24, -2, 247, 96, 158, 315, 198, 71,
    -417, -2, 61, 0, 198, 230, 266, -374, -208, -228, -323, 0, 0, 0, -87, 0,
    -247, 165, -109, -129, -409, -289, 0, 0, 28, -394, 22, -39, 104, -518, -135, 104,
    -334, -99, -131, -369, -167, -131, -236, -76, -365, 0, -97, 2, -158, 485, 157, 161,
    313, 155, -236, 0, 104, 16, -78, -173, 24, -146, 198, -187, 12, -39, -100, -156,
    -188, 198, 428, 67, -289, 221, -131, -109, -255, 58, -186, -226, -46, 56, 11, -190,
    69, -373, -108, -142, 0, -74, -179, -255, -419, -455, -77, 85, -107, -158, 0, 0,
    -101, 0, 0, 0, 0, 0, 0, 0, 0, 0, -126, -252, 131, -216, -136, 0,
    -236, 52, 28, -101, -4, -58, -117, 60, 49, -3, -61, 70, -150, 5, 56, -12,
    -21, 301, 120, 41, 388, -88, -233, -78, -51, -232, -231, 104, -624, 137, -103, -113,
    -265, -176, 88, -53, 31, -163, 238, -129, -17, 230, 97, -272, -293, -160, -74, -278,
    -189, -183, -254, 0, 0, 0, -236, -105, -1, -91, -107, 7, -35, -148, 325, -81,
    -338, -12, -88, -71, 15, 97, -222, -211, -28, 0, -177, 0, -30, -81, 112, -208,
    -189, 91, -152, 216, -50, -139, -13, 237, -47, 224, 6, -229, -122, -150, 69, 20,
    -7, -89, 125, -164, 180, 107, -98, -312, -65, 227, -65, 208, 41, -204, 175, -57,
    -120, 29, 16, 277, 368, -15, -51, 372, 50, 333, -83, 142, -67, 299, -277, 81,
    133, -8, 67, 8, -133, 195, 0, -369, -165, 403, -78, -114, -111, 85, 131, 395,
    -127, -357, -255, -38, 105, -134, 335, -227, -73, -185, 0, -25, -143, -298, -143, 9,
    -381, -214, -4, -265, 250, -142, -120, 15, -57, -139, -41, -106, -93, -139, 75, -31,
    27, 91, 128, 367, 46, -69, -108, -40, -135, 142, -86, -364, -231, -64, -17, 51,
    -167, -188, 11, 120, 221, 178, -118, -71, 459, -88, 68, 49, 9, -238, 200, -44,
    -3, 148, -118, -52, -114, -137, -435, 0, -100, 160, 130, -160, 91, 9, 210, 247,
    623, 4, -250, -167, -32, -91, 48, 229, -300, -503, 0, 0, 0, -75, -119, -142,
    340, 230, 129, -113, 1, 163, -119, -114, -173, 239, -151, 472, 196, -11, 58, 24,
    112, -62, 20, -148, 81, -67, -167, 226, -133, -345, 38, -405, 204, 75, -208, -92,
    -133, -101, 91, -108, 290, -114, 201, -127, -95, 41, -74, -14, 194, 230, -376, -165,
    -210, 75, 14, 2, 14, -540, 0, 0, 0, -455, -143, -227, -106, -17, -185, -144,
    -375, -35, -144, -439, -287, 8, 36, -80, 91, -139, -59, 130, 0, -171, -93, 36,
    -271, 16, -349, -133, -107, -159, 93, 46, 69, 75, 37, -173, 123, 129, -151, 233,
    29, 345, 179, 221, -157, -63, 50, 171, 97, 8, -227, 83, 177, -35, -156, -146,
    46, 298, 56, -31, 315, 135, 0, 167, -47, 21, -66, 76, 283, 88, 208, 49,
    168, 65, 277, 189, 17, 223, 92, -145, 65, 0, -158, 61, 154, 34, 112, -29,
    176, 101, 314, 111, -12, -126, -166, 155, -237, 187, -169, 33, -200, 0, -256, -187,
    42, -345, 354, -27, -20, 5, 36, 179, 84, 333, 134, 205, -374, 250, -169, -75,
    124, 377, 283, 664, 273, 175, 546, 163, 280, 84, 175, -32, 24, 248, 497, 115,
    202, -201, 59, 69, 68, -34, 270, 180, 467, -24, -201, -119, 68, 247, 134, 137,
    -206, 224, -196, 243, 223, -1, 38, 12, -62, 227, 0, -109, 189, 305, -46, -14,
    -69, 99, 233, -33, -63, -44, 92, 164, 411, 184, 115, 126, -21, 0, 0, 0,
    41, -2, -41, 121, 262, 312, -17, 246, 373, -52, 105, -213, 65, 13, 32, -7,
    127, 92, 105, 155, -38, 102, 82, 95, 126, 50, 116, -54, 96, -236, -330, 213,
    -239, 165, -560, -124, 91, -91, 597, -33, 388, 133, 326, -239, -106, 95, 411, 326,
    412, -32, 156, -353, 0, -132, 0, 0, 0, 0, 0, 0, 0, 0, 0, 57,
    36, -102, 219, -65, -300, -231, -59, -42, 173, 450, 378, 211, 140, 144, 150, 0,
    108, 94, 141, -6, 545, 260, 107, -71, 219, 286, -80, -312, -113, 118, -147, 121,
    -173, 176, -17, -133, -227, 32, 188, -126, -109, -37, -337, 267, 20, -64, -367, 160,
    -245, 181, 201, -49, -13, -154, -135, -136, 50, 110, 127, -156, -180, -158, -139, -32,
    65, -79, -255, 9, -324, -218, 592, -144, -19, -69, -45, 207, 0, 16, -355, 289,
    -131, -345, 158, 112, -59, -107, -265, 6, 80, -266, 96, -35, -116, -108, -213, -164,
    0, -43, -258, -107, -460, -45, -227, -521, -233, -553, -73, -106, 67, -131, 297, 294,
    -228, -161, -303, 197, 72, 223, 143, 171, -203, 82, -163, 60, 196, 74, -19, 80,
    -22, -68, 212, 71, -12, -66, -74, -52, -24, 362, 290, 355, 93, -369, -24, -76,
    38, 53, 193, -204, -67, -224, -118, -213, 50, -146, -234, 423, -122, 0, 69, 125,
    114, -6, 14, 377, -151, -127, -73, -161, 0, -181, 0, 0, 0, 0, 0, 0,
    0, 0, 0, 121, -189, -99, -94, 8, 0, -183, 407, 31, -18, -298, -290, 74,
    -81, -179, -217, -197, 180, -152, 42, -183, -165, 75, 170, -42, -145, 217, 34, -107,
    -100, -63, -287, -44, 22, -206, -58, -75, -119, -54, 286, -3, 197, -107, -175, 0,
    -115, -2, 207, 189, -127, -121, -260, -217, -43, -83, -189, 57, 0, 0, 0, -252,
    -124, 41, -121, 36, -142, -49, 6, 166, -498, 18, 49, -14, 141, 65, -150, -158,
    -1, -192, 0, 265, -62, -153, -45, 206, -175, 96, -30, -47, 224, 94, -47, 12,
    178, -108, 264, 142, -115, -72, 277, -173, 114, 358, 94, 232, -78, -260, 280, -134,
    -147, -137, 129, -143, 94, 50, 392, 567, -10, -139, -338, -130, 314, 10, -9, -90,
    39, -107, -374, 160, -74, -86, -9, -71, 273, -163, -171, 294, -222, 14, -135, 0,
    -236, 164, -179, -67, -151, 172, 202, -50, 177, -24, -196, 98, 49, 13, 10, 263,
    -53, -130, 0, 0, -292, -5, -81, -292, -68, -249, -96, 60, -10, 42, 9, 277,
    35, 291, 314, 0, 192, 15, -37, 247, 0, -24, 93, 268, -42, 0, 0, 160,
    -193, 110, 206, -51, -162, -277, 190, -41, -114, 220, 221, -87, 0, 0, 425, -218,
    109, 0, 95, 180, 5, 138, -8, 359, 13, 400, 204, 205, 290, -344, 328, 428,
    0, 198, 421, 486, -234, -114, 182, 207, 0, 167, 68, 0, 0, 323, 388, 50,
    358, 102, 238, 0, 0, 0, 194, -3, -166, 182, 173, 0, 88, 278, 336, -43,
    131, 45, 325, -50, 145, -62, -29, -46, -150, 101, -322, -20, -146, -97, 21, -164,
    0, -109, -59, -137, 282, 93, -57, 0, 28, -425, 103, 247, 63, -78, 0, 0,
    -137, 0, -72, -26, 233, 220, 123, -152, -60, 432, 40, -27, 83, -127, 363, 0,
    0, 0, -107, 405, 195, -108, -375, -46, 64, -59, -256, 0, -192, 0, 73, -65,
    37, -269, -91, 171, 0, 0, -73, -47, 6, 78, 100, -8, 178, -148, -125, 199,
    -134, -89, -214, -224, 94, 345, -115, -99, -60, -237, -157, -44, 152, -246, -178, -229,
    -24, -160, -143, -126, -388, -257, -245, -343, -123, -124, 84, -9, 128, 180, -13, 268,
    52, 31, -217, -64, 94, 175, 279, 76, -82, 202, -203, 211, 347, -19, -203, 135,
    6, 164, 0, 161, 155, 275, -100, -148, 22, -168, -146, 6, 79, -289, -131, -208,
    82, 255, -10, -15, 24, 181, 0, 181, -102, 75, -146, -87, -179, -149, -21, -48,
    140, -282, -67, -14, -154, -86, -95, -387, -305, -128, -42, 49, -51, 143, -82, 164,
    -187, 252, 367, -88, -255, -126, 17, -199, -13, -2, -111, 48, -163, -238, -204, 2,
    -8, 66, -157, -209, -34, -255, -206, -199, -235, -295, -275, -281, -252, -199, -306, -204,
    -236, 12, -146, 0, -186, -117, -93, -272, -376, -186, -433, -152, -136, -276, -180, 167,
    -261, -32, 137, -92, -201, -261, 0, 0, 0, -270, -127, -179, -34, -69, 87, -272,
    -14, 9, -292, -227, -417, -175, -53, -58, 18, -298, -393, -139, -169, -94, -186, -15,
    82, -311, 34, -340, -311, -108, -125, -272, -420, -631, -409, -206, -97, -82, -300, -43,
    -14, 102, 89, -122, 257, 0, -194, 126, 190, 47, -201, 23, 63, 0, 57, 0,
    0, 0, 0, 0, 0, 0, 0, 0, -247, -139, -358, -21, -91, -290, -40, -428,
    -22, -66, 140, -91, 61, -294, -112, -186, 0, -151, -238, -158, -278, 30, -187, 58,
    -222, -13, -22, -110, -65, -97, 8, -143, -95, 85, -94, -22, -100, -35, -163, -12,
    -245, 170, -49, 0, 340, 9, -245, 109, 134, -73, -270, 80, -138, -219, -145, -364,
    31, -158, -162, -35, -60, -230, -53, -5, 497, 369, -82, -199, 147, -244, 227, 159,
    -212, -68, -76, -19, 221, 0, 24, 182, 81, -183, 204, -230, -198, 93, -82, -7,
    120, -85, -316, 213, -182, -364, -420, 19, 250, 0, 0, -301, -287, -93, -207, -173,
    -579, -232, 108, -241, -67, 195, 0, -203, -135, 5, 0, 8, -228, -270, 65, 0,
    0, 164, 287, 0, 99, 0, 51, 207, 140, -220, 221, -259, 61, 38, 171, -213,
    -435, 242, -120, 428, 300, -457, 0, 0, -8, 227, 57, 254, -146, -165, -136, 0,
    -73, -124, -122, 225, 0, 0, 0, -142, -86, 156, 0, 0, 0, 0, 0, 0,
    0, 0, 0, 0, 0, 0, 0, 0, 0, 0, 0, 0, 0, 0, 0, 0,
    0, 0, 0, 0, 0, -159, -381, 45, -86, -249, 26, -352, 25, -2, -283, -27,
    -29, -524, -179, 117, -326, 252, 0, -268, -227, -242, -214, -173, -440, -518, -391, 90,
    -24, 230, -212, 210, 173, 289, 73, -51, 379, -10, 262, 186, 305, -69, -27, -245,
    296, 97, 180, 8, 159, 0, 0, 0, -136, 164, -87, -225, -349, -316, -10, -8,
    244, -463, -484, -15, 25, 260, 379, -49, -187, 8, 294, 0, -77, -214, -175, -192,
    28, -64, 269, -208, 168, 151, -227, -229, -146, -99, -115, -314, -269, -114, 0, -245,
    -151, 270, -278, -99, -32, -277, 99, 0, -500, 176, -327, -222, -94, -62, -21, 103,
    -342, -234, -93, -404, 69, 15, 182, 28, -175, 0, -219, -75, -115, 58, -305, 229,
    -445, -39, 36, -212, -303, -252, 0, 8, 0, 0, 48, -22, -142, -11, 168, 5,
    -29, 237, 46, -76, 0, 1, 127, 436, 187, -298, -248, -49, 0, -31, -19, -197,
    -350, -2, 25, -93, -61, 107, -7, -117, -51, -298, -150, -90, 210, -277, -175, -304,
    137, 21, 95, -88, -217, 239, -249, 102, 182, -178, -180, -271, -94, -230, -224, -104,
    -167, -53, -396, -71, 32, 115, 109, -87, -31, 0, 80, -71, -201, -96, -7, -209,
    96, -402, 130, -196, -49, -369, 280, 0, 0, 0, -289, 6, -41, 22, -95, -408,
    -309, 0, 0, 0, 0, 0, -15, -239, 0, -72, 257, 249, 0, 0, 0, -62,
    -175, -183, 0, -51, 0, -163, 158, 346, -41, -357, -312, -268, -196, 18, -142, -76,
    0, -198, -12, -104, -305, -289, 54, 348, -341, -23, -100, 6, 2, 514, 120, 227,
    -87, -6, -227, -325, -250, -277, -32, 0, 0, -117, 0, 0, -404, -44, -264, 217,
    -180, -41, -221, 55, 521, 22, 0, -162, 0, 0, 0, 0, 0, -97, -87, -439,
    -207, 261, -192, 1, 0, 0, 0, -250, -59, -196, -113, -428, -304, 0, 0, 43,
    -535, 18, -105, -112, -484, -447, -338, -215, -101, -51, 180, -82, 447, -260, 148, -168,
    99, 152, -203, 171, 70, -116, -24, -84, -394, -54, 88, 79, -337, -102, 276, 0,
    -59, 196, 116, 70, 22, -69, 270, -77, 0, -241, 266, 102, -104, 395, 280, -150,
    382, 252, 205, 210, 494, 435, 32, 60, 161, 0, 99, 0, -236, 136, -9, 12,
    -167, 561, 134, -164, 244, -53, -341, -221, -68, 50, 0, 34, 34, -48, 29, 0,
    398, -172, -145, -306, -53, 252, -3, 41, 161, 344, -96, 81, 133, 271, 273, -4,
    -278, -39, 91, 238, 277, 608, 181, 211, 623, 20, 494, 459, 40, -218, -55, 369,
    227, -104, 158, -124, 440, -60, -3, -31, 235, 400, 393, -66, 130, 382, -73, 243,
    187, 223, -252, -206, -219, 221, -188, -260, -118, -185, 0, 0, 0, 56, -44, -177,
    124, 75, -152, 84, 40, -78, 114, 55, -162, 0, 0, 0, 0, 0, 0, 0,
    0, 0, -211, -217, 50, 132, 296, 0, -74, 37, -230, 0, 0, 0, 0, 0,
    0, 0, 0, 0, 0, 0, 0, 0, 0, 0, 0, 0, 0, 0, 0, 0,
    0, 0, 0, 0, 0, 0, 0, 0, 0, 0, 0, 0, 0, 0, 0, 0,
    0, 0, 0, 0, 0, 0, 0, 0, 0, 0, 0, 0, 0, 0, 0, 0,
    0, 0, 0, 0, 0, 0, 0, 0, 0, 0, 0, 0, 0, 0, 0, 0,
    0, 0, 0, 0, 0, 0, 0, 0, 0, 0, 0, 0, -144, -204, -207, 271,
    392, 88, 0, 103, 0, -181, 46, 401, -96, -124, -31, -16, 116, -140, -71, -49,
    -392, 14, -138, -164, -122, -173, -79, -175, -17, -33, -38, -41, -3, -105, -167, -101,
    -238, -201, 3, -17, -111, -30, -485, -124, 186, -167, -12, -11, -166, 38, 0, -187,
    -74, 202, -159, -92, 13, -263, 28, 0, 0, -6, 0, -416, -560, -289, -326, -206,
    -378, -14, 0, 0, -529, -206, -121, -167, -391, -413, -624, -479, -98, -111, -165, -212,
    200, 164, 18, -405, 48, -368, 134, 61, 192, 495, 155, 602, -42, 136, 198, 24,
    -355, 408, 292, 182, 383, 230, -74, 279, -35, 160, 58, 243, 421, 441, -72, 6,
    301, -42, 189, 195, 253, -117, -126, -132, -44, -32, -22, 125, -7, -393, -86, 0,
    -179, 55, 41, 65, -143, 361, 367, 405, 358, 0, 0, -134, 0, 0, 0, 0,
    0, 0, 0, 0, 0, -62, -124, -492, 31, 164, 0, -105, 312, 209, -168, -265,
    -359, -31, -10, -50, -228, 107, -83, -197, 36, 0, -182, -48, -86, -115, 161, 479,
    -248, -553, -201, -389, 108, -536, -334, -479, -41, 24, 1, -49, 211, 278, 448, -23,
    158, 31, 31, 246, 385, 218, -14, -1, -101, 37, 126, 97, 407, 176, 0, 0,
    0, 52, 312, -66, -157, -159, -290, -15, -125, 200, -220, -215, -403, -17, 219, 189,
    175, -13, 46, -405, 0, 85, -173, -47, -186, 230, 168, 191, -152, 195, 229, 36,
    -13, 208, -17, 12, 192, -461, -146, -188, 22, 75, 35, 151, -214, -119, -44, -82,
    117, 177, -113, -176, 86, -97, -90, -72, -207, 58, 14, 15, 88, 167, 35, -51,
    47, -298, 25, 153, 134, 89, 164, -14, 396, -67, 133, 21, 54, -131, 145, 0,
    0, 0, -167, -212, -106, 73, -173, 135, 3, 45, 201, 0, -312, -267, -20, -213,
    44, 220, -417, 5, 53, 0, -206, -70, -290, -428, 218, 45, -144, -58, -359, 80,
    111, 29, 88, 264, -338, 286, -221, -404, 67, 178, 315, -191, 295, 180, 316, 190,
    270, 71, 25, -136, 111, -148, 31, -41, 23, -33, 157, 63, 11, 99, 238, -87,
    220, 79, 32, -243, 75, -34, 158, 104, -204, 11, -206, -31, 121, -70, -24, -73,
    71, 242, 0, -156, 58, 15, -8, -108, 174, 101, 63, 62, -172, -277, 0, -38,
    597, 159, 314, -43, -31, 0, 0, 0, 2, -54, -123, -256, -212, 5, -265, -49,
    184, 93, -111, 135, 85, 172, 185, 203, 168, -91, 53, -29, 345, -110, 22, 364,
    -149, 561, 244, -122, 158, 121, -104, -230, -59, -228, 13, -112, -35, 9, 174, -3,
    182, 277, 75, -408, -103, 77, -69, 183, 151, -186, -147, -223, -152, -343, -49, 377,
    -75, 0, 0, 0, -77, 361, -5, -37, -185, -29, -3, -46, 253, -299, -207, 3,
    138, -102, 196, 87, -358, -274, -348, 0, 70, 44, -142, -6, 181, -316, -52, 7,
    -290, 168, 144, 20, 35, 96, 114, 486, 63, 270, 350, 66, 179, -54, 76, -44,
    219, -267, 70, 36, 15, 32, -173, 231, -163, 93, 135, 401, -1, 209, 27, -191,
    142, -24, -60, 95, 95, -71, 251, 664, 408, 286, -51, 90, 13, 608, 417, 62,
    143, 25, 0, 0, 0, 485, 192, 170, 159, -62, 345, 250, -322, 189, -125, -104,
    -244, 223, -38, -98, 59, -94, -52, -91, 0, -251, 181, -183, 196, 256, -29, 100,
    56, 0, 141, 263, -83, 89, 275, 160, 215, 114, -115, 0, -36, 88, 408, -43,
    279, 240, 254, -150, 0, 248, 65, -53, -92, 369, 121, 135, 3, 22, 167, 49,
    158, 43, 5, 9, 85, -96, 31, 98, 134, 183, 14, -199, 179, -113, 187, 229,
    81, 53, -16, 115, 57, 0, -255, 195, 65, 186, 194, 183, 12, 220, 348, 165,
    -264, -252, 327, 326, 383, 108, 190, 447, 0, 0, 0, 137, 207, 125, 301, 186,
    559, 230, 385, 301, 178, -134, 44, 70, 10, -54, 71, 436, -177, 215, -237, -98,
    -11, 255, 0, -148, 0, -21, 206, -35, -220, -3, -182, -102, -109, -289, -160, 164,
    48, 159, 7, 50, 0, -54, 0, 0, 248, 184, 383, 132, 137, 337, -84, 0,
    162, 0, 0, 0, 0, 0, 0, 0, 0, 0, 211, -80, 196, 54, 37, 176,
    -228, -196, -163, 244, 378, 110, 76, -91, 140, -176, 0, 11, 201, 65, 80, 295,
    379, 483, 15, 189, 218, -80, -65, -176, 203, -137, -135, -249, -327, -224, -137, 83,
    -173, -61, -388, 115, 207, -102, -172, -102, -367, -465, 298, 109, -306, -379, -392, -30,
    -9, 142, 111, -178, 206, 205, -191, -271, -288, 191, 24, -53, -71, -126, 164, -228,
    -55, 442, 21, 80, -371, -41, 140, 0, -78, 408, 289, -147, 38, 121, -164, -137,
    94, 219, 2, 0, -48, -236, -220, 176, -125, 15, -305, 0, 0, -208, -100, -293,
    -582, -242, -437, -78, -201, 57, -41, 8, 145, 191, -222, -15, -42, -252, -85, 80,
    92, 25, 112, 135, 351, 16, 161, 0, 63, -69, -371, 147, -76, -82, -417, -11,
    129, -102, -114, -73, 206, -344, 166, -89, 280, 316, -102, 12, -16, 134, -236, -154,
    -448, -185, -106, -106, -234, -48, -66, 225, 0, -373, -7, 26, 10, -540, -75, -363,
    363, -271, 0, -162, 42, 0, 0, 0, 0, 0, 0, 0, 0, 0, -156, 57,
    -581, -11, 159, 0, -254, 176, -15, -91, -143, -428, -10, -292, 93, -201, -350, -40,
    -169, -345, 196, 52, -146, 140, -347, -306, 0, -457, -460, -293, -236, -93, -114, -39,
    -121, -618, 12, -142, -123, 93, -166, 208, -215, -183, -140, -95, -41, 125, 75, -179,
    -182, -411, 50, -71, -307, -99, -581, 0, 0, 0, 131, -492, -291, -109, -271, -6,
    159, 78, 46, -126, -105, 131, -81, -6, 80, 170, -278, -334, -332, 0, -253, -108,
    -45, -333, 144, -192, -246, -81, -186, 217, 206, 224, 192, 359, 264, 178, -312, -314,
    363, 151, 123, 486, 245, 345, 32, 68, 148, -51, 216, 121, -135, -21, -95, 158,
    -396, 88, 170, 116, -41, 286, 144, 0, 349, -51, 210, -121, 160, 250, 215, 247,
    -95, 90, -115, -4, -71, 86, -228, -15, -196, 5, 0, -76, 18, 172, 204, 472,
    185, 298, 145, 106, 255, 18, 8, 133, 32, -54, 44, -58, -92, 0, 0, 0,
    74, -179, 93, 426, 26, -118, 49, -50, 243, 186, 368, -51, 137, 10, 349, -101,
    182, -57, 183, 167, -60, -222, 52, -105, -144, -241, -210, 349, 127, 205, 178, -35,
    38, -15, -3, -53, 277, 178, 220, 83, 425, 19, 211, -87, 26, 338, 467, 9,
    256, 66, 484, -92, 393, 413, 219, 355, 166, 9, 300, 0, 428, 441, 423, 235,
    201, 277, 82, 0, 282, 21, 0, -181, 265, 133, 0, 0, 89, 117, 0, 0,
    0, 243, 197, 208, 18, 289, 0, -53, 448, 653, 250, 395, 201, 167, 177, 106,
    159, 237, 267, 161, 314, 189, -143, 6, 463, -97, 244, 134, -92, -107, 94, 514,
    -82, -104, 0, 0, 393, 56, 623, 62, 16, 167, 282, 275, 0, -127, 267, -33,
    348, 125, -136, 0, 6, -78, -146, -217, -73, -271, 0, 0, 0, -158, 358, -29,
    337, -35, 253, 196, -256, 0, 0, 1, -53, 272, -300, 176, -58, -290, -38, 0,
    0, -86, 181, 166, 46, 82, 244, 4, 325, 200, 304, 110, 125, -119, -106, 232,
    32, 405, -32, -200, 133, -63, 219, 79, -178, 105, -163, -84, -99, 156, -109, 115,
    127, 170, -151, 291, -31, 50, 205, 367, 316, -110, -42, -105, 216, 239, 256, 276,
    546, 240, 521, 164, 380, -27, 623, 56, 340, 82, 351, 27, 287, 0, 313, 602,
    168, 203, 81, 364, 100, -97, 463, -15, 54, 178, 325, 95, 0, 490, 82, 110,
    -199, 0, -121, 313, 170, 140, 249, 117, 242, 301, -86, 319, 105, 299, 396, 140,
    -9, 90, -131, 229, -219, 244, 168, 90, 338, 202, 380, 90, 205, 358, 182, 9,
    164, 139, 147, -7, 247, -30, 314, 167, 200, 11, 256, 359, 484, 175, 96, 140,
    151, 224, 179, 193, -275, -248, -260, -206, -187, -72, -67, -154, 75, -165, 0, -226,
    -126, -47, -6, -165, -147, -114, -60, 0, -135, -41, -324, -108, 156, 337, 89, 23,
    -293, 0, 0, 0, -104, -121, -182, 11, -27, 103, -293, -1, -49, 135, -73, 5,
    -122, -130, -92, -294, -248, -31, -65, 33, -52, 43, 24, 110, -539, -48, 171, -117,
    -213, 15, -224, 19, -85, -289, -378, -59, -35, -503, -31, 0, 238, 117, 209, 249,
    0, -154, -21, 447, 57, -261, -293, -180, 0, 104, 0, 0, 0, 0, 0, 0,
    0, 0, 0, 9, -59, -274, 157, 171, -38, -482, -304, -333, -39, 144, 140, 165,
    -112, -203, -293, 0, -102, -82, -1, -334, 174, 8, -7, -211, 46, 85, 102, 208,
    -90, 75, 94, 158, 206, -62, -14, 86, -156, 93, 483, -343, -151, -46, -59, -61,
    137, 181, -306, 230, -270, -204, 107, -164, -11, 141, -231, -41, 24, -277, 38, -201,
    -224, -136, 48, 115, 121, 3, -13, -7, -69, -104, 198, 106, 212, -82, 221, -259,
    0, -146, 383, 292, -36, 75, -59, -186, -57, -104, -224, 227, 0, -89, -239, -102,
    127, -631, -85, -146, 0, -42, -555, -44, -114, -84, -440, -192, -231, -536, -125, 0,
    0, 0, 0, 0, 0, 0, 0, 0, 0, 0, 0, 0, 0, 0, 0, 0,
    0, 0, 0, 0, 0, 0, 0, 0, 0, 0, 0, 0, 0, 0, 0, 0,
    0, 0, 0, 0, 0, 0, 0, 0, 0, 0, 0, 0, 0, 0, 0, 0,
    0, 0, 0, 0, 0, 0, 0, 0, 0, 0, 0, 0, 0, 0, 0, 0,
    0, 0, 0, 0, 0, 0, 0, 0, 0, 0, 0, 0, 0, 0, 0, 0,
    75, -214, -144, 135, -96, -118, -327, -93, -309, -122, -20, 100, -162, -149, 242, -682,
    -3, 247, -212, -521, -437, 79, -579, -192, -135, -413, -93, -9, 129, 5, 379, 0,
    0, -63, 0, 0, -10, 312, 559, 222, 87, 103, -322, 0, -124, 0, 0, 0,
    0, 0, 0, 0, 0, 0, 10, -133, -52, 63, 178, 4, -296, -447, -37, 71,
    107, 483, 104, 58, -7, 0, 0, 0, -11, 96, -246, 175, 269, -130, -189, 191,
    180, -71, -122, -188, 56, -72, 363, -95, 0, 0, -21, 233, 350, -84, -60, -200,
    -8, 152, 45, -409, -17, -224, 67, -22, -14, -31, 0, 176, 68, -139, 67, -152,
    -37, -57, -332, -304, 0, -24, 124, 0, 25, -128, -219, -292, 91, 150, -92, 197,
    -85, 0, -228, 0, -97, -368, 60, -72, 58, -91, -59, -46, 267, 0, 0, -188,
    75, 92, -177, -41, -393, -31, 110, 0, 45, 189, 180, -40, 87, -2, -309, 70,
    -83, 47, 93, 372, 25, -61, 39, -121, -71, 0, 0, 80, -66, -71, 190, -64,
    256, -303, -104, 24, 153, -158, -288, -250, -53, -136, -25, -101, -29, -28, 459, -243,
    -103, 0, 26, -319, 80, 0, 57, -119, 31, 164, -34, 140, 22, 382, -74, 159,
    -24, 316, -109, 0, 0, 221, 301, 300, 108, 41, -103, -141, -72, -127, 0, 0,
    -24, 497, -106, 0, -84, 0, 0, 0, 0, 0, 460, 0, -140, 0, 379, 0,
    238, 31, 343, 27, -255, -267, -245, 98, 8, -402, 0, -188, -62, -126, -244, 3,
    -131, 178, -104, -221, 0, -176, 80, 0, 0, -85, 0, 0, 0, 99, 36, -167,
    0, -154, 0, -181, 109, 0, -24, -256, 92, -252, -26, 167, -324, -332, -162, -86,
    -453, -181, 42, 0, 0, 0, -101, -134, -365, -187, -287, 3, -128, 0, -53, 0,
    0, 0, -225, -42, -163, -397, -22, -333, 0, 0, 0, 70, 49, 131, 238, -15,
    -37, -12, -403, 61, 159, 107, 117, -96, 280, -51, -148, 0, 45, 131, 97, 36,
    253, -160, -99, -343, 88, 26, -37, 267, -172, 99, 340, -61, -159, -140, -69, 188,
    -108, 71, -25, 160, -210, 110, 182, 24, 118, 84, 0, 299, 367, 358, 240, 459,
    203, 264, 196, 0, 76, 0, 0, 0, 198, 552, 167, 226, 244, 365, 0, 134,
    121, -23, 0, 431, 116, -21, 299, -340, 171, 7, 0, -72, 51, 217, 0, 92,
    0, 247, 388, 479, 358, 141, 133, 21, 249, -163, -71, 36, 36, 150, 356, 189,
    417, 59, 347, 56, 525, 435, 203, 335, 592, 442, 183, 159, 198, 315, 186, 250,
    217, 148, 121, 166, 204, 413, -82, -196, -74, 150, 223, 229, 186, -199, -187, -103,
    -188, 116, -77, -213, -106, 0, -73, 0, 11, -32, 61, -116, 14, -343, -59, -27,
    -146, -291, 521, -86, -181, -132, 162, 277, 57, 104, 0, 0, 0, 6, -43, -71,
    -115, 97, -124, -278, 126, -2, 109, -25, -206, 0, -292, 0, 101, -31, 45, -161,
    -256, -251, 99, 181, -121, -15, 398, -72, -65, -43, 0, 0, 0, -42, 28, 0,
    0, 0, 0, 0, 0, 0, 0, 0, 0, 0, 0, 0, 0, 0, 0, 0,
    0, 0, 0, 0, 0, 0, 0, 0, 0, 0, 0, 0, 55, -171, 70, 36,
    -73, -86, 0, 43, 0, -71, 108, 11, -68, -151, -102, 0, 0, 0, -119, 265,
    -253, 215, -77, 0, -177, 85, 159, 99, 175, 58, 228, 567, 170, -1, -342, 176,
    175, 298, -1, 25, 84, 50, -6, 70, -69, 29, -13, -30, 138, -219, -11, -203,
    -79, 217, 163, 51, 157, 18, -114, -53, 140, -53, -29, 144, 59, 22, 68, 48,
    314, 302, 440, 250, 408, -66, 129, -75, 171, 0, 12, 279, 333, 60, -133, -112,
    192, -425, 393, 0, -227, 99, 17, -124, -160, -278, -97, -59, 0, 0, 0, -118,
    -58, -618, 49, 90, -93, 137, -41, 77, 193, 403, -106, 46, -179, 172, -109, -22,
    60, 344, 154, 170, 320, 275, 168, 81, -9, 552, 282, 289, 289, 92, 81, 292,
    266, 202, 333, 199, 130, 15, 330, 486, 423, 46, -41, 300, 194, 305, 65, 168,
    -93, -47, 32, -177, 61, 14, 114, 26, 95, 156, 0, -255, 41, 114, 5, -227,
    -5, 56, 195, -29, 389, -97, -365, 0, 0, 0, 0, 0, 0, 0, 0, 0,
    69, 41, -291, 22, -87, 0, -1, -66, 116, 292, 250, 80, 141, 42, 243, 161,
    -7, 47, 108, 179, 141, 41, 140, 319, 225, 344, 358, -24, -73, 57, 122, -241,
    -125, -99, -98, 77, 261, 163, 184, 325, 336, 653, 391, 346, 343, 215, 373, 301,
    254, 9, -49, -93, -230, -2, 92, 31, -15, 0, 0, 0, 28, 209, 116, 105,
    93, 168, 157, 199, 304, -56, -101, 61, 209, 286, 218, 182, -22, 85, -47, 0,
    159, 190, 224, 217, 196, 151, 180, 216, 229, 271, 0, 53, -93, -83, 129, 146,
    47, -53, -208, 34, 91, -14, -16, 41, 114, 49, -46, 53, -25, 52, -90, 31,
    21, 58, -16, 46, -32, 20, 37, -33, 125, -23, 220, 62, -84, 76, 31, 105,
    -5, 94, 82, 201, 13, -91, -34, -3, 55, -58, 87, 10, 43, 35, -172, -25,
    -39, 6, -22, -22, 112, -94, -165, -305, -48, -5, 52, -36, -1, 67, 29, -97,
    -25, 3, -45, -3, -109, 21, 24, 49, -94, -187, -77, 20, 96, -83, -72, 260,
    360, 79, 111, 13, 66, 127, -36, 114, -91, 138, 64, 26, 151, 23, 23, -33,
    -3, -9, 152, -48, -213, 37, 42, 89, -23, -17, 149, 144, -20, -174, -24, 51,
    119, 6, 54, 70, 186, 8, -3, -4, 24, 51, -49, 50, -19, 67, 38, 10,
    12, -10, 69, -51, 34, -74, 149, -28, -110, 17, 25, 93, 15, 40, 124, 53,
    -111, -66, -2, 1, 55, -33, 88, 52, 62, -10, -9, 26, -39, 29, -140, -31,
    -194, 298, -19, 71, -489, -22, 93, -62, 66, 63, 196, 67, 13, -66, -82, -26,
    -113, 36, 231, 123, -44, -313, -14, -10, 42, -69, 142, -5, 41, -76, -53, 20,
    -10, 45, -80, 7, 33, -31, -40, -14, 94, -24, -13, -65, 91, 1, 32, -41,
    -151, -114, -69, -1, -122, 101, 37, 124, -86, -482, -319, -37, 32, -88, -23, -29,
    -30, -75, 7, 81, -62, -23, -125, -39, -33, -14, -62, -210, -42, 34, 110, -10,
    -16, 48, 274, 210, -359, -100, 76, 177, -36, 220, -246, 449, 7, 118, 106, 0,
    58, -183, -112, -83, 155, 4, -124, -54, 66, 91, 4, -19, 183, 155, 103, -160,
    -65, 75, 94, -24, 129, 98, 99, 59, -2, 35, 52, 90, 4, 153, -105, 167,
    59, -28, 10, -22, 112, 14, 226, 14, -85, 146, 94, 196, 19, 39, 10, 16,
    6, -37, -138, 212, 276, 3, -25, -80, 64, 28, 144, -43, -192, -122, 31, 116,
    -42, 142, 18, 253, -7, -443, -125, 75, 127, 3, 62, -24, 144, -80, -277, -10,
    4, 52, -33, -11, -23, 6, 76, -180, -34, 51, 120, -48, 115, 120, 261, -27,
    -83, -7, 40, 99, -21, 52, 31, 94, 6, -10, 2, 38, 75, -47, 58, 49,
    24, -4, 10, -14, -10, 73, -67, -69, 37, 28, 54, -74, -41, 7, 67, -12,
    41, 44, 9, -38, -30, 35, -2, 66, -75, 70, 65, 48, -23, 36, 1, -5,
    77, -140, -124, -84, 195, 136, -189, 75, 19, 78, -46, 91, 6, 168, -173, -182,
    51, -58, -30, -107, 0, -7, 212, 47, 202, -19, 25, 145, 4, -25, 181, 108,
    3, -12, 79, 7, 67, -31, -20, 21, 6, -21, 0, 41, -7, 69, -67, 104,
    -127, 83, -10, 87, -16, -37, 37, -72, -2, 35, 98, -87, -240, -165, 20, 84,
    -12, 53, 50, 13, -12, 45, 108, -41, 24, -97, 50, 21, 44, -27, 4, 12,
    -25, 35, -73, 206, -21, 205, 6, -375, -103, 0, 99, 75, -78, -137, -25, -67,
    -123, 36, 15, 66, -122, 106, -139, 185, 138, -198, 312, 23, -48, -16, 85, 169,
    317, 141, -405, -109, 4, 64, 14, 72, 203, 160, -37, 71, -27, -24, 31, -54,
    59, -98, -69, -87, -188, 29, -82, 9, -151, 40, 130, -72, -62, -146, 366, -58,
    44, -39, 25, -4, -43, -175, 63, 61, -84, -21, -146, -21, -23, -46, -312, -222,
    -47, -3, 122, -75, 36, 75, 137, 134, -130, -19, 52, 65, 2, 48, 69, 452,
    -134, 14, -56, -24, 94, -51, -26, -245, 256, -185, -449, 80, 24, 48, -45, -19,
    17, 193, -12, 4, -182, 38, 93, -25, -7, -24, -14, -53, -31, -49, -16, -9,
    -64, 13, -128, 14, -88, -37, -93, -24, 93, -32, -81, -38, -22, -32, 29, -413,
    -7, 58, -62, -20, -12, -79, -42, -52, 124, -15, 23, -67, -36, 2, -56, -21,
    -11, -60, -45, 21, -178, 268, -167, 410, -174, -351, 46, 3, 148, -117, -22, 127,
    151, -39, -326, -68, -84, 86, -110, 64, -40, -107, -172, -111, -23, 1, 71, -40,
    55, 111, 31, 38, -86, -144, -2, 53, -87, -8, -18, -46, -63, -25, -94, -15,
    -5, -87, 26, -87, 62, -109, -18, -3, -62, -9, -97, -6, -43, 26, -90, -575,
    -86, -41, 42, -81, -15, -5, -37, -101, -34, -88, -27, 14, -103, 5, 7, 20,
    -67, -97, -26, -83, 55, -297, -127, 54, 57, 208, -29, -96, -16, 342, 101, 87,
    202, 44, -39, 39, 0, 206, -35, -307, -177, -152, 211, 250, -11, -462, -72, 180,
    45, 47, 0, 25, -167, 0, 12, 142, 320, 30, 5, -132, -286, -86, 251, -125,
    36, -125, 158, 331, 0, 81, -119, 192, -152, -31, 381, 7, -4, -8, -171, -3,
    -20, -229, -124, -470, -35, 172, 125, 123, -51, -211, 3, 268, -100, 6, 110, -74,
    -256, 271, 124, -95, 125, -34, -24, 47, 0, 8, 0, 89, 0, -19, 0, 107,
    117, -229, -66, 154, -66, 415, 85, 237, 34, -84, 0, 0, -55, 0, 0, -17,
    182, -235, 0, -131, 4, -36, 0, 0, 115, 16, 88, 23, -15, 32, 93, 144,
    25, -19, 18, -21, 66, 264, -28, 5, 141, -24, 142, -90, 95, 245, 0, 236,
    0, 0, 0, -25, 106, 268, 462, 45, 119, 172, -130, 78, 55, -21, -33, -5,
    47, 123, 29, 47, 175, -22, 181, -215, -4, 0, 0, 0, -6, 0, 226, 14,
    -87, 54, -304, -53, 114, -186, -83, 40, 237, -140, -226, 15, 126, -1, 101, -119,
    34, 114, 90, 245, 0, 0, 163, -157, 264, -69, -136, 155, -225, -108, -5, -321,
    177, -144, -81, -121, -164, -108, 127, -48, -152, -198, -467, 101, 122, -106, 124, 304,
    0, 229, -212, -114, -2, 110, -30, -30, -4, 65, 61, 44, -131, -6, -4, -118,
    -9, -18, 55, 52, 45, -3, -16, 108, -65, 87, -318, 340, -397, 13, 103, 220,
    241, 165, 0, -498, 1, 121, 425, -134, -78, -81, -93, 249, 101, 0, 5, -287,
    -79, 114, -62, 100, 117, -85, 64, 31, -59, 113, 62, 127, 18, 101, -188, -31,
    8, 44, -69, 48, -184, 56, -45, 92, 126, 154, 278, 159, 66, -92, -241, 54,
    -105, -199, -207, 0, 0, 91, -198, 278, -42, -234, -220, -382, 0, 15, -22, -7,
    -156, 26, -228, -168, 20, -25, -20, 94, 245, 22, 5, 337, 99, 34, 151, -64,
    129, 73, 0, 101, -10, -23, -25, -49, -177, 72, 52, -201, -18, -369, 516, 32,
    -74, 165, 54, 165, -2, 23, -172, -36, -109, 71, 4, 52, 83, 19, 48, -63,
    45, -38, -33, 39, -7, -33, -91, 103, 9, 96, -90, 48, 49, 7, 95, 0,
    -225, 130, -25, -138, -165, -194, -20, 111, -6, 73, -36, -16, -54, 19, 67, -8,
    -10, -60, 91, 95, 105, -17, 65, 37, -1, 203, 25, 172, -4, 92, 148, 157,
    0, 16, 220, 138, -42, -117, 124, -28, 111, -278, 25, 91, -88, 41, -92, 0,
    -373, -249, 68, 40, 54, 208, 462, 507, -14, -135, -308, 211, 41, 72, 37, 73,
    -24, 24, -53, 32, 21, -20, -2, -60, 133, 51, 147, 2, 37, 99, -23, 33,
    -94, -30, 8, -83, -117, -183, -63, 53, 127, 61, 56, 7, 10, -41, -44, 132,
    -15, 41, -47, 72, 65, 114, -18, 113, 88, 31, -154, -100, -177, 212, -80, 294,
    -212, -398, -112, 83, 330, 249, 273, 7, 95, 0, 332, 106, -395, -183, 138, -143,
    -146, -212, -200, 59, -3, -24, -42, -84, -49, 307, 0, 201, 0, -11, -115, 22,
    -18, 22, -268, 165, -138, 156, -26, -105, 360, -155, -22, 436, 44, 126, -9, 36,
    -237, -62, -226, -62, 180, -148, 264, 312, 0, -40, -54, 41, -215, -237, -128, 0,
    -149, 64, 58, -72, -153, 258, 50, -139, -413, 167, 87, -47, 56, 331, 0, 59,
    106, 0, -189, 153, 139, -174, -45, 203, 284, -127, 20, -98, 59, -15, -111, -155,
    241, -60, -106, -3, 53, 50, 226, 98, 66, 286, 155, -147, 161, 321, 58, 135,
    70, 103, -4, -42, -44, -31, 43, 13, 18, -36, 183, 31, 35, 37, 55, 91,
    91, 82, -238, -108, 31, -47, -391, 2, 208, 104, 186, 8, 133, 71, 6, -175,
    49, -2, 26, 73, -65, 158, 172, 43, 67, 88, 106, 21, 36, 29, 110, 35,
    403, -12, -22, -76, 64, -26, 38, 26, 75, -174, -397, 76, 175, -21, 59, -11,
    -153, 290, 47, 105, 181, 153, 88, 215, 12, -5, -135, 407, 305, 5, 185, 70,
    136, 99, 91, -25, -38, 19, 52, -38, -36, -53, -163, 158, 116, 84, -45, 14,
    130, -39, 211, 11, -9, 55, 221, -21, -134, 82, 50, 107, 137, 72, 2, 12,
    14, 62, 85, 5, 44, -52, 110, 67, 81, 16, 69, 137, 47, 252, 44, 208,
    -118, 95, -124, -204, 25, 210, -5, 0, -397, -8, 24, -83, -66, -95, 6, 38,
    -110, 294, 0, 0, -162, 0, 0, 79, 188, 77, 0, 0, 0, 0, 0, -234,
    -7, 18, 13, 34, 144, 225, 274, -4, 15, 134, -97, 500, 106, -54, 216, 0,
    0, 23, -19, -138, 0, 0, -25, 0, -1, 0, 0, 136, 117, -272, 148, -298,
    0, 0, 0, 58, -174, -4, 278, -12, -312, -31, 340, -280, 10, 62, 204, -320,
    -167, 0, 4, 0, -29, 0, 103, 55, 289, 31, 0, 297, 239, 53, 175, 141,
    77, 56, 0, 104, 0, 0, -41, -46, -20, -59, 107, -36, -28, 18, 14, 73,
    -206, -27, -44, 33, -109, 78, 17, -50, 44, -12, -12, -221, -118, -147, -73, -108,
    61, -13, 7, -76, 208, -153, 163, 0, 91, 19, 0, 116, 3, 311, 146, -135,
    103, 288, -87, 0, -239, 38, -55, 136, 305, 73, -27, -172, -33, -15, -165, 279,
    -37, -3, -1, 0, -1, 0, 0, 146, -36, 44, -207, -108, 0, -35, 0, 0,
    -62, 0, -12, -148, -153, 0, 49, -7, 0, -28, 251, -52, 0, 0, 0, 19,
    0, 0, 54, 60, 11, -138, -492, -402, -18, -131, 160, -32, -366, -160, -391, -153,
    -214, -166, 333, 333, -86, 33, -132, 229, 0, 0, 0, 0, 0, -87, 2, -87,
    -117, -72, -231, -159, -166, -431, -90, -30, 29, -21, -15, 44, 227, -203, 62, 49,
    118, 90, -39, 0, 44, -83, -38, 23, 7, -23, 140, 121, 1, 143, -34, 227,
    309, -67, -228, 40, 95, -133, 0, -144, -93, 142, 64, 9, -195, 154, 65, 196,
    239, -129, 0, -80, 131, 6, -25, 6, -76, -83, -177, -224, -134, 26, 62, -127,
    169, 190, 253, 168, 48, 67, -102, -134, 114, -28, -96, -35, -470, 142, -173, -272,
    80, -28, 139, -98, 0, -169, 24, -39, 185, -312, -397, 216, 116, -391, 13, 217,
    13, 94, -89, -86, 221, 501, 274, -243, 174, 59, -121, 65, 8, -194, 168, -83,
    -372, 326, -37, -92, 5, 165, 68, -36, 1, 429, 49, 8, 64, -225, 93, 55,
    -22, -50, 44, 120, 6, 43, -25, -38, -117, -105, -143, -147, -146, -53, -86, -58,
    -44, -113, -60, -86, -110, 0, -40, -153, -226, -321, -81, -99, -18, 17, 276, -21,
    63, 111, -53, -126, -57, -60, -230, 37, -63, -98, -123, 19, -48, -60, -151, -50,
    -52, -97, 91, -49, -51, 323, 9, 0, -8, 0, -138, 43, -175, -382, 183, 0,
    0, 0, -137, -175, -151, 124, -128, 240, -2, 0, 240, 0, -111, 166, -336, 172,
    15, 59, -87, -37, -180, -38, -33, 6, -54, -87, -95, -60, -223, -121, -42, -127,
    -111, -175, 80, -38, 73, -11, -33, -75, -75, -228, 61, -91, -118, -159, -301, 102,
    -12, -21, 40, -41, -112, -28, -293, -53, -16, -101, -125, -149, 14, -49, 39, -109,
    -28, 16, -16, 140, -274, 250, 219, 12, -162, -38, 0, 4, -303, -106, 5, -176,
    -273, -144, 0, 0, 138, 293, -149, -212, -60, -118, 0, -9, 321, -48, 280, -288,
    -55, -26, 0, 0, -156, -124, 76, -311, -191, 32, 31, 283, 1, -228, 52, -185,
    238, -390, -106, -121, -135, -161, 151, -115, -44, 125, 229, -1, 184, -8, 49, -1,
    0, 47, -244, -120, -373, -38, 313, 0, -140, 0, -172, -365, -182, 105, 158, 58,
    -241, -284, 259, 35, -1, -123, -119, 84, 95, 0, 0, 0, 59, 28, 40, 154,
    -53, 207, 253, -177, -8, -87, 20, 34, 44, 0, -89, -161, -21, 12, 38, -32,
    -2, 5, 197, 90, 61, -100, 21, -4, 27, -34, -90, -112, -99, -86, -137, -51,
    -88, -92, -144, 37, -106, -88, -53, -85, 25, -41, -163, -9, -152, 79, -137, -166,
    0, 274, -10, 53, -8, 2, -60, -118, 73, -140, -60, -109, -49, -137, -45, -20,
    49, -57, -49, 11, -94, -63, -96, 271, 37, 69, 340, -222, -6, -43, -127, 24,
    20, 93, -139, -391, 130, 163, -312, -119, -233, -139, -99, -185, -241, -101, 402, -10,
    -18, -74, 29, -28, -18, -172, 161, -159, -23, 32, -30, -17, -73, -43, -151, 20,
    -90, -21, -18, -143, 67, -28, 2, -57, -26, -4, -62, 84, -162, 52, -97, -35,
    227, -174, 28, -27, 42, -22, -18, -29, -64, -109, -80, -8, -67, 9, -71, 16,
    -52, 9, -61, -76, 66, 53, 107, 8, 55, 274, 55, 252, -49, -28, 110, 276,
    214, 108, 8, 33, 118, 0, 93, 35, -28, 35, -154, 131, 272, 140, -430, -60,
    96, 143, 19, -34, -139, 331, 204, -184, -115, 116, 121, -16, 245, 188, 193, 94,
    278, -57, 122, 161, 31, -47, -469, 180, -1, 199, 207, 29, -173, -54, 181, 272,
    -40, 279, -31, -190, 77, 89, 146, 203, 73, 46, 91, -314, -156, 21, 65, -55,
    36, 94, -19, -63, -133, -132, 37, 143, -142, 180, 194, 129, 188, 39, 25, 91,
    358, 268, -62, -94, 199, 9, -3, 154, -48, -112, -64, -24, -328, -28, 280, -177,
    129, 89, 124, 59, 182, -19, 98, -59, 113, 163, 120, 150, -25, 165, 81, 167,
    64, 71, 62, 48, 67, -34, 226, 243, 118, -32, 48, 66, 42, 298, 138, 114,
    -231, 53, 251, 244, 65, 145, 132, 43, 54, 215, 95, 166, -89, -157, 71, 117,
    -25, 215, 78, 58, -18, -3, -5, 6, -173, -93, 381, -188, 32, -138, -123, -137,
    112, 76, -5, -92, -87, 655, -102, 0, 5, 9, 110, -342, -237, -55, 0, 125,
    -196, -96, 69, 298, 103, -90, -172, -241, 208, -214, -60, 73, 75, 10, 95, 74,
    -32, -153, -212, -93, 93, 110, 167, 82, 271, -204, -163, -68, 142, -1, 50, -43,
    122, -84, 139, 33, -331, -18, 37, 106, -98, 33, 36, -89, -75, -91, -144, -9,
    91, -108, 211, -59, 54, 84, -146, -92, 91, 276, 9, 342, -211, 210, -5, -220,
    179, 177, 243, 106, 241, -149, 202, -23, 12, 391, 99, 15, -200, 83, 263, 71,
    -303, -177, 103, 127, 358, -14, 0, 214, 280, 55, 230, 409, 127, 480, -61, 73,
    216, 68, -121, 39, 48, 65, 210, -38, 139, -5, 183, 28, -65, -138, 93, 76,
    -10, 14, 108, 77, -36, -128, 3, 78, 249, -95, 220, 110, -204, 43, 93, -327,
    148, -54, 29, -26, -32, 118, -127, -134, -90, 105, 121, -43, 320, 81, 331, 18,
    -191, 66, 94, 480, 275, 127, -39, -76, 131, 12, 19, 64, 32, 228, -115, -394,
    148, -311, -218, -33, 119, 150, 24, 16, 96, 280, -44, -47, -40, 99, 181, 19,
    83, 46, 88, 43, 117, 66, 93, 132, -33, 135, 129, 73, 27, 123, 53, 45,
    75, 58, -136, 59, -155, 60, 72, 154, 67, 142, 54, 72, 92, 73, -33, 18,
    100, 53, 117, -16, 136, 106, 50, 32, 83, 84, 52, 89, -177, -470, 48, 0,
    117, -285, -170, 39, 249, 17, -198, -115, -29, -272, 145, -41, 44, 180, -42, -40,
    25, 141, -244, -52, -115, 93, 132, -14, 106, 21, 8, 311, 206, -172, 67, 142,
    46, 111, 5, 73, 63, -28, 69, 58, 144, 15, 186, 111, 226, 53, 48, 52,
    32, 106, -30, 110, 75, -112, 2, 9, -83, 84, 192, 96, 127, 60, 46, -21,
    92, 112, 42, 71, -21, 107, 108, 34, 42, 90, 117, 52, -28, -41, -35, 232,
    1, 38, -60, -4, 58, 15, -57, -81, -245, -348, -228, 0, -131, 66, -5, -227,
    -395, -149, 124, 293, -3, -72, 23, -112, -114, 237, 175, 189, 77, 11, 55, 52,
    32, -31, 52, 73, 46, -92, 182, 188, 94, 237, -177, -15, -211, -39, 20, 438,
    18, -26, 110, -61, 237, -72, 83, 0, -57, 177, -30, 180, -45, 91, 7, 56,
    -151, 0, -126, 86, 82, -130, 59, 1, 18, -119, 80, -327, 55, 161, 88, -125,
    -49, -205, -97, 16, -28, 90, 210, 167, -184, 411, -223, 26, 145, -29, 31, 237,
    119, -105, 159, 120, 238, -180, 360, 51, 67, -63, 18, 183, 147, -221, -91, -187,
    75, 132, 16, -33, -72, -47, -86, -79, -82, -9, 55, -92, 18, -71, -50, -92,
    -18, -45, -13, 110, -72, -121, 34, 215, -366, -191, -394, 69, 144, 91, -2, 11,
    0, -127, -12, 29, -5, 49, -123, -53, 10, -7, -18, 18, 17, -3, 65, -135,
    -100, -255, 146, -4, -106, 58, -25, -54, -40, -7, -131, -130, 185, -360, 199, -21,
    82, -35, 58, 16, 244, -365, 200, 183, 55, 117, 71, -21, -493, -83, -55, -228,
    -83, 66, 117, -15, -10, -34, -42, -98, -83, -84, 23, 49, -53, 73, -19, -98,
    -49, -5, -46, -23, 91, -16, -4, 114, -81, -30, -135, 285, 24, 71, -48, 41,
    -33, -60, -125, -119, -72, 14, 62, -1, 44, 0, -16, 9, -47, 38, 129, 274,
    -216, 54, -8, -53, -118, -269, -125, 48, -211, 314, -318, 40, 89, 0, -2, 102,
    -21, 232, -214, 212, -99, -173, 219, -167, 113, 260, 194, -239, 0, -21, 128, 0,
    148, 307, 18, 81, -401, 337, -296, -104, 221, -193, 97, 75, -49, 205, 0, 0,
    0, 84, -158, -229, -194, -188, -126, 0, 191, 0, -1, 0, 92, -84, 48, -77,
    -4, 133, -311, 323, -287, 45, -167, -255, -373, 35, -27, -64, 37, -360, -162, -23,
    -139, 0, 0, -21, 131, 0, -41, 32, 183, 214, 158, -85, -11, 5, 65, -187,
    317, 169, 175, 117, -49, 0, 0, -26, -38, 199, 149, -19, 116, -131, 0, -120,
    -28, -2, 180, 120, 96, -73, -172, -120, 175, 55, -332, -35, 17, 183, -119, 286,
    -246, 23, 197, -29, 83, -5, -172, -292, 0, -98, 0, 0, -6, -13, 181, 21,
    17, 507, -134, 5, 15, -17, -117, 111, -493, -172, -135, 197, 67, -28, 166, -17,
    112, 272, -363, -8, 191, 0, -25, -1, -161, 14, 108, 275, -105, -98, 214, -28,
    -105, 129, 130, -72, -90, -62, -71, -167, 184, -165, -6, -74, -231, 140, 0, -98,
    0, 0, 0, 145, 37, 59, 264, 130, -106, -79, -81, -162, -105, -38, 34, -78,
    31, -192, -33, 79, -146, -29, 37, -84, -130, 304, -1, -215, 0, -47, -68, 35,
    75, 24, 8, 33, -85, -91, 205, -131, -43, 114, 9, 55, 57, -73, -97, 2,
    12, 41, 8, 118, 202, 40, -92, -8, -224, 13, -246, -149, 73, -498, -48, -259,
    1, -197, -65, -137, -245, 94, 273, -27, -101, -176, -49, 44, -91, -94, 205, -229,
    -11, -40, 0, 34, -32, -24, -39, -338, -10, -21, 33, -194, 171, 101, 69, 411,
    173, 203, 22, -180, -53, 66, -103, 63, -87, 151, -304, -98, 232, -108, -196, -1,
    6, -115, -274, -117, -206, 15, 183, -4, -103, 127, -131, 11, 75, 150, 19, 93,
    -130, -114, 82, 188, 76, -132, -296, 23, 144, -88, 186, 98, 216, 142, -188, -21,
    22, 6, -142, 17, 203, 73, 217, 22, -31, 121, 31, 3, -116, 70, 81, 53,
    -15, -120, 140, 78, -44, 23, 31, 46, -3, -63, -157, -131, -117, -134, -93, -24,
    -72, -97, -4, -111, -52, -112, -62, -57, 33, 74, -7, -108, -106, 199, -492, -171,
    -44, 21, 5, 38, -24, -95, -104, -87, -103, -34, -18, -34, -86, -25, -28, -26,
    -73, -8, -3, 67, 73, -107, 125, 133, -13, -298, 98, 99, 6, 110, -210, -234,
    -206, 3, 139, -221, -187, -4, 7, -50, -215, -86, 16, -38, -241, 115, 124, 215,
    216, 45, -134, 173, 103, 118, 175, 44, 92, 90, -36, -95, -95, -126, -14, -52,
    -12, 11, -60, 71, -100, 30, -60, -43, -9, -29, 36, -230, -4, 33, 79, -72,
    -190, -53, 50, 60, 66, 7, -31, -49, -112, -77, -9, -5, -33, -93, 2, -34,
    22, -29, 50, 75, 21, 131, -63, -152, -99, 0, 0, -49, -167, -83, 263, 240,
    101, -27, -203, -133, -147, -16, -139, -149, -355, -143, -5, -1, -60, -43, 42, -9,
    -328, -388, 0, 0, 89, 104, 0, 0, -23, -394, 19, -369, -31, -250, 68, -174,
    9, -245, 159, 13, 241, 165, 0, 0, 57, 21, 231, -55, -38, 15, -71, 0,
    -153, -45, 0, -7, 25, 206, -92, -86, -411, 240, 0, -329, -40, 16, -18, 290,
    247, 117, -99, -26, -95, 10, -469, -32, 0, 0, 89, -54, 79, 199, -105, -5,
    -177, 92, 22, -246, 169, 61, 401, -98, -211, 115, -22, 165, -304, -121, -11, -69,
    -19, 243, 253, 264, -246, 401, -73, 63, 220, 49, 129, 56, 9, -111, -62, -113,
    -99, -46, -128, -71, -51, 31, -15, -29, -106, -57, -1, 1, 271, -103, 127, -192,
    -63, -153, -160, 453, -127, 111, 3, 51, -100, -40, 80, 46, -23, -87, -19, -97,
    116, -59, 91, -28, 57, 103, 24, 94, 55, -74, -27, -128, -312, 60, -140, 28,
    -32, -19, -228, 150, -224, 216, -14, -187, -23, 1, 215, 258, 247, 131, 158, -115,
    -443, 52, 78, 22, 47, 197, 170, 73, 305, 65, 65, 106, 40, 95, -28, -13,
    -48, -90, -12, 2, 10, -64, 172, -59, 81, -20, 101, 88, -33, -59, -135, -18,
    57, 59, -15, -152, 14, 21, 108, 65, 65, -34, -6, -49, -16, 34, 7, 0,
    -57, 67, 48, 48, -52, 106, 118, -53, -49, -198, -29, -269, 10, -204, -9, 0,
    -359, -220, -82, 13, -224, 17, -38, -12, -74, -375, -60, 244, -212, -49, 0, -38,
    -135, 0, 111, 39, 14, 89, -41, -128, -29, -11, 0, -443, -191, 178, 151, -88,
    -47, -243, 17, -146, -130, 16, -167, 0, 79, -42, 0, -64, -22, 71, -123, -12,
    -6, -1, -351, 0, -16, 0, -189, -285, 132, 157, 98, -271, -8, 0, 83, -351,
    -106, -61, -22, 60, 130, -222, 317, -214, -84, -184, -312, 0, 148, 42, 0, -11,
    0, -160, 230, -133, -59, 34, 255, -129, 0, -70, -405, 11, -148, 201, 0, 0,
    -156, 275, 103, -174, 113, 127, 0, -2, 72, 73, 0, 276, -83, -47, -17, 71,
    -44, -170, 44, -63, -36, 4, -91, -37, 161, 63, -31, -100, -115, -198, -53, -214,
    149, -157, 0, 0, 0, 0, 0, -12, 206, 242, -308, 118, 52, -37, 188, -449,
    -86, -228, 109, 5, 305, -133, 161, -36, -161, -305, -31, -84, -20, 0, -217, 0,
    -16, 0, 94, -128, 69, 0, -196, -21, -470, 0, -273, -146, -57, -33, 264, -45,
    0, -1, 0, 0, -110, 244, 0, 0, -6, 0, 0, 0, 0, -74, 72, -133,
    -165, -171, 6, 17, 34, -124, 29, -191, -75, 2, -160, -121, 0, 107, -230, -482,
    -331, -61, -212, -47, -9, 0, 0, 0, -240, 9, -156, -183, -190, -122, -301, 32,
    -1, -575, -135, -265, -134, -152, -343, -174, -115, -188, -46, 0, -46, 39, -2, -248,
    -66, -12, 20, 118, 12, 101, 425, -197, -71, 227, 0, 279, -123, 0, 30, 0,
    -147, 0, 0, -93, 0, 26, -3, -339, -66, -187, -189, 53, 0, 23, -277, 12,
    -300, -49, -142, 123, -372, -314, 260, 14, 145, 0, 20, 61, 162, -177, 112, -26,
    13, 0, -51, -186, -105, 21, 0, 0, 0, -182, 145, 93, 111, -221, 35, 0,
    0, -109, -326, -360, -30, 76, -14, -115, 130, -60, -200, -91, 278, -168, 251, -193,
    245, -4, 17, 77, -2, 39, -22, 44, 171, 366, -177, -314, 121, 71, 182, 220,
    -138, -174, 172, -228, -45, 9, -3, 71, -60, 144, -332, 281, 44, -63, -52, -10,
    117, -27, -33, -134, -87, -147, -132, -21, -31, -79, -84, -31, -99, -41, -137, -53,
    -85, -14, -212, -74, 177, -162, -200, -131, 34, 148, 0, -28, -15, 32, -14, -121,
    -223, -99, -53, -25, -83, -85, 52, -90, 17, 20, -50, 53, -25, -314, -7, -211,
    -287, -112, 0, 0, 0, 212, 93, -137, 0, -4, 123, -169, 0, 109, 63, 0,
    -206, 0, 0, 0, -140, 0, 0, -66, -89, -60, -130, -17, 277, 0, 188, 0,
    -30, 18, 46, 19, -103, -90, -230, -99, -45, -52, -12, -98, 49, 46, 3, -140,
    -6, 15, 7, -91, 184, 44, 205, -95, -166, 32, 0, 45, 92, -38, -44, -77,
    -68, -53, -28, -17, -34, -119, -137, 62, -16, -2, -80, 44, 87, 46, -430, 109,
    -11, -167, -126, 0, -135, 228, -124, -177, 114, -287, -49, 156, -93, -93, 503, -198,
    -3, -131, -200, -43, 0, -9, 0, -166, -213, -177, -417, 0, -38, -199, -41, 275,
    0, -180, -218, -223, -74, 3, -138, 429, -45, 58, -449, -180, -112, -3, -11, 0,
    -21, 149, 332, -313, -196, -205, 101, -165, 0, -7, 0, 0, 202, -52, 85, -249,
    -241, -18, 240, 0, 84, -111, 200, 22, 181, -115, -148, -101, -218, -259, -172, 199,
    -181, 192, -158, -87, 0, -64, 246, -28, -65, 411, 278, 66, 194, 168, 112, -193,
    -188, 438, -286, 126, 57, 0, 151, 149, -23, 10, 48, -62, 141, -29, 243, -13,
    -115, 229, 10, 123, 34, 48, -62, -37, -110, -53, 12, -37, -18, -14, 55, -57,
    111, -85, 33, 20, -151, -68, -368, -198, -146, -16, 333, 107, 81, 87, 48, 61,
    37, -43, 25, -11, -6, 153, -18, -5, -95, 14, 101, 94, -26, 117, 119, -187,
    -133, 94, 124, -360, 0, -280, 317, -255, -192, -134, -184, -25, -130, -5, 13, -60,
    -39, -222, 80, -289, -413, -26, -61, -284, -218, 23, -9, -3, -188, 47, 166, 124,
    -33, -36, 31, 36, 83, 31, 65, -8, 12, -50, -50, 49, -11, 18, 55, 88,
    57, 204, -49, 117, 118, -210, -146, -234, 45, 2, 111, -203, -115, -215, 4, 90,
    53, 113, 50, 64, -28, 44, 104, -97, -47, -135, 69, 106, 126, -76, 163, 164,
    -93, 8, -164, -297, -216, 18, 44, -198, 271, -10, 9, 44, -65, 118, 133, 90,
    -46, -357, -73, -41, -226, -100, -63, -216, -274, 109, -178, -83, -142, 51, -24, 0,
    -21, -320, -312, -159, -42, -43, -99, 22, 76, 151, -89, -168, 86, -75, 88, -124,
    56, -32, 151, -123, -181, -252, -140, -93, -305, -215, -363, 0, -37, -84, 24, -140,
    -177, -134, 25, -107, -65, -49, -7, 54, -178, -135, -244, 29, 55, -140, -96, 94,
    -619, -33, 19, 51, 45, -239, 317, 77, 14, 47, 4, -14, -268, 100, 205, 159,
    -195, -339, -222, -16, -114, -111, -42, -388, 2, -288, -417, 344, -23, 59, -158, -235,
    116, 232, 107, 127, -334, -48, 24, -132, -2, 53, 135, -225, -60, -26, -45, -63,
    -125, 98, 253, 45, -2, -62, -12, -69, 103, -3, 90, 140, -65, -52, 0, 139,
    4, -14, 12, 208, 216, 267, -336, -60, -35, -40, 71, -79, 12, 22, 63, -74,
    -188, 11, -22, -54, -305, 7, -126, 0, 0, -12, 0, 14, -10, 6, -241, 151,
    -54, -134, -51, -56, -151, -61, -582, -62, -38, -78, 229, -205, 0, -51, 138, -3,
    95, -292, -97, -153, 149, 266, -67, 58, -9, 0, -7, -84, -226, -74, -54, -32,
    -72, -255, -238, -103, 107, -9, -368, -310, -122, -43, -8, -106, -130, -84, -132, -61,
    0, -72, -30, -131, -94, -230, -161, -228, 184, 3, -97, -16, -87, 11, -135, -202,
    -162, -234, -134, -14, 214, 44, 101, 314, -124, 0, -82, 22, -36, 106, -74, 165,
    73, 227, 140, 101, 144, 75, -57, -129, 330, 240, 0, -106, 114, 218, -36, 268,
    -268, 107, 158, -11, 289, -133, -289, 3, 275, -16, 0, 142, 51, 65, -22, 119,
    2, 167, -79, -174, -177, 146, 40, 411, 76, -62, -5, 6, -87, 275, 78, 44,
    69, 161, -46, 17, -18, 138, -210, 11, -175, -137, -35, -117, -40, -12, 38, -19,
    -16, 24, -184, -290, -5, -16, -99, 30, -401, -98, 13, 178, 360, -24, -61, -16,
    18, -338, 78, 6, -300, 104, 14, -31, -148, 22, 19, -170, -191, -223, -74, 6,
    -25, -132, 88, -73, -26, 33, -17, -59, -21, 19, -77, 19, -3, 41, -25, -27,
    -39, -25, 16, -108, 70, 56, 90, -34, 34, 18, -80, 10, -9, 155, 264, -277,
    11, -133, -68, -31, 46, -32, 37, 90, 41, 6, 46, -28, -87, -15, -144, 99,
    40, 79, -30, 31, 5, -36, 146, -134, -35, -77, -145, -272, 132, 40, 10, -95,
    -18, 278, -274, 344, 80, 93, -217, -39, -45, -131, -54, 206, 197, -120, 85, -102,
    15, 43, 12, 268, 17, 160, 146, 242, -146, -12, 54, -32, -6, 38, -16, 111,
    -15, -21, -62, 91, -77, 8, 3, -8, -8, 61, -45, -88, -98, -131, -30, 24,
    -216, -87, -156, -43, -12, 96, -92, 61, 66, 78, 40, -38, 18, -81, -48, -160,
    137, 65, 26, -22, 53, 54, -90, 35, -226, -307, -214, -22, -110, 244, 0, -183,
    -200, -129, -93, 94, 206, 40, 30, 257, -122, -227, -262, -183, -355, -84, -149, -131,
    -126, -33, -64, -111, 34, 117, -204, 56, -148, -83, -33, 228, -148, -201, 217, 87,
    5, 220, -60, -51, 119, -353, -111, 115, 201, 34, -286, -112, -113, -342, -582, -140,
    -90, -164, -12, -33, 0, -107, -42, -131, -88, -50, -308, 124, -206, 0, -110, -35,
    -277, -11, 215, 116, -233, -289, -456, -58, 31, -124, 158, 205, -59, 500, -167, 232,
    4, -38, -79, 56, 173, 161, 62, 0, -199, -54, -177, -353, 360, 13, -235, -390,
    -112, -164, -49, -34, -125, -21, -119, 46, -118, -37, -27, -47, -33, -108, -91, -97,
    -68, -58, -84, -69, -64, -92, -247, -36, -51, -68, -144, -14, -52, -65, 167, -255,
