#include "pattern_eval.h"

#include <immintrin.h>


namespace eval {


void pattern_activations(int ret[N_ALL_MASKS], board::Board b) {
    for (size_t mask_idx = 0; mask_idx < N_ALL_MASKS; mask_idx++) {
        uint64_t mask = all_masks[mask_idx];
        uint64_t own_bits = pext(b.own, mask);
        uint64_t opp_bits = pext(b.opp, mask);

        int instance = ternary_twos[own_bits] + ternary_ones[opp_bits];
        ret[mask_idx] = instance;
    }
}


int score(board::Board b) {
    int score = 0;

    for (size_t mask_idx = 0; mask_idx < N_ALL_MASKS; mask_idx++) {
        // Extract patterns bits from board
        uint64_t mask = all_masks[mask_idx];
        uint64_t own_bits = pext(b.own, mask);
        uint64_t opp_bits = pext(b.opp, mask);

        // Determine index into weights array from pattern and instance
        uint16_t instance = ternary_twos[own_bits] + ternary_ones[opp_bits];
        uint8_t pattern = mask_base[mask_idx]; 
        uint16_t weight_idx = pattern_start[pattern] + instance;

        score += weights[weight_idx];
    }

    return score;
}


// Utility functions for different flips of masks
uint64_t flip_vert(uint64_t x) {
    return __builtin_bswap64(x);
}

uint64_t flip_horiz(uint64_t x) {
    const uint64_t k1 = 0x5555555555555555;
    const uint64_t k2 = 0x3333333333333333;
    const uint64_t k4 = 0x0f0f0f0f0f0f0f0f;
    x = ((x >> 1) & k1) +  2*(x & k1);
    x = ((x >> 2) & k2) +  4*(x & k2);
    x = ((x >> 4) & k4) + 16*(x & k4);
    return x;
}

uint64_t flip_diag(uint64_t x) {
   uint64_t t;
   const uint64_t k1 = 0x5500550055005500;
   const uint64_t k2 = 0x3333000033330000;
   const uint64_t k4 = 0x0f0f0f0f00000000;
   t  = k4 & (x ^ (x << 28));
   x ^=       t ^ (t >> 28) ;
   t  = k2 & (x ^ (x << 14));
   x ^=       t ^ (t >> 14) ;
   t  = k1 & (x ^ (x <<  7));
   x ^=       t ^ (t >>  7) ;
   return x;
}

uint64_t flip_adiag(uint64_t x) {
    uint64_t t;
    const uint64_t k1 = 0xaa00aa00aa00aa00;
    const uint64_t k2 = 0xcccc0000cccc0000;
    const uint64_t k4 = 0xf0f0f0f00f0f0f0f;
    t  =       x ^ (x << 36) ;
    x ^= k4 & (t ^ (x >> 36));
    t  = k2 & (x ^ (x << 18));
    x ^=       t ^ (t >> 18) ;
    t  = k1 & (x ^ (x <<  9));
    x ^=       t ^ (t >>  9) ;
    return x;
}


inline uint64_t pext(uint64_t src, uint64_t mask) {
    return _pext_u64(src, mask);
}


int16_t weights[total_instances] = {
    -27, 11, -15, -27, 8, -30, -4, 34, -21, -24, 1, -17, -25, 14, -3, -27,
    -38, -39, -5, -5, 5, -4, 10, 4, 8, 3, -19, 21, -4, 19, 9, 34,
    10, 25, -14, -30, -1, 23, 21, -11, -1, 10, -12, -25, -22, 27, -18, 6,
    -26, -32, -15, -8, -12, 0, -7, 21, 57, -2, 40, 39, -8, -10, 3, 3,
    17, 54, 21, 13, 22, 8, 10, 16, 9, -3, 13, -2, -6, 19, 10, 6,
    -8, -12, 38, -7, 7, 31, 45, -24, 10, -14, -13, -43, -15, -16, -26, 3,
    -18, -10, -1, -14, 11, 61, 8, 7, 35, 9, -12, 36, 12, -4, 0, 54,
    39, 35, -35, -100, -24, -10, -12, 2, 0, 0, 30, -31, 43, 19, 3, -23,
    4, 33, 1, 10, 7, 1, 12, -4, 38, 93, 20, 8, 114, -46, -10, -21,
    -15, 12, 76, -31, -29, -48, -58, -24, -19, 4, 45, 50, -14, -35, -41, -12,
    -31, -4, 23, 190, 7, -16, -124, 45, -24, -43, 56, 3, 127, -95, -25, -16,
    -7, 24, 25, -42, 14, -4, -68, -3, -122, -62, 65, -18, -26, -7, 141, 67,
    7, 35, 105, -19, 23, 52, -4, 42, 24, 4, -6, -1, -39, 9, 1, -11,
    -64, 35, 7, 8, -32, -38, -8, -16, -23, 2, 14, -6, -28, -13, -55, -53,
    -131, 36, -28, 103, 21, 4, -5, -30, 46, 14, -17, -42, 0, 19, -18, -13,
    -43, 14, -12, 8, 30, -161, -25, 13, 76, 78, 129, 74, -41, 54, 18, -60,
    57, -1, 23, 61, 95, 34, 109, -75, -56, 43, -49, 31, 51, 57, 41, 76,
    38, -32, 120, 36, -12, 74, 55, 13, -16, 38, 37, 7, -22, -35, 9, 3,
    -12, -138, 73, 4, -21, -5, -13, -2, -6, 13, -13, -186, -19, -33, 50, -89,
    -105, 10, 7, -75, 45, 29, 6, -8, -11, 29, -19, 5, 1, -7, 28, -15,
    -5, -3, -15, 9, 9, 2, 40, -50, -39, 40, 54, 37, 63, 30, -11, 106,
    -11, 20, 11, -8, -33, 33, -19, -13, 102, 29, -14, 60, 21, -1, -9, -15,
    -2, 5, -4, -137, 87, 0, -69, 64, -23, -115, 24, 6, -15, 51, -52, 41,
    48, 13, -107, 41, 29, 0, 24, -10, -10, 32, -5, 31, -14, -82, -19, 88,
    3, -163, 226, -18, -47, 179, 12, -37, -7, -17, -22, 2, 12, 57, 165, 30,
    -47, -46, 7, -38, 18, -66, -300, 394, -245, -337, -412, 16, 25, 105, 32, 14,
    293, 98, 12, 139, 34, 16, 1, -28, -137, -58, 14, -123, -10, -72, -47, -168,
    -39, 30, 227, 59, -297, 313, 11, -52, 23, -22, -30, -10, 30, 11, 45, -22,
    76, 51, -4, 28, 30, 85, 35, 39, -11, 83, 53, 20, 83, -414, -4, 123,
    39, -28, -167, 11, 23, -4, 112, 88, 20, 22, 2, 64, -5, 18, 39, 90,
    98, 31, 13, 12, 64, 40, 34, -586, -34, 33, 206, 265, 253, 365, 451, 3,
    -122, 167, 108, 78, 110, 18, 1, 168, -36, -491, 56, -55, -97, 104, -85, -136,
    51, -43, 227, -336, -19, -105, 157, -54, -161, -121, -33, -69, -136, -19, -43, -83,
    -86, -29, -39, -16, -92, -77, -11, 13, -57, -45, -25, -29, 9, -300, -28, -22,
    -86, 113, -132, -295, 232, -15, -62, 31, 0, -55, -91, -49, -63, -19, 4, -67,
    30, 13, -43, -86, -2, -42, -8, 51, -203, -163, -127, 52, 104, 337, -45, 424,
    45, -601, 59, -122, 450, -139, 421, -251, 455, 57, -215, 357, -43, 65, -65, -193,
    44, -4, -36, -509, -252, 53, 299, 643, -272, 429, 953, -93, -367, 300, -64, 12,
    46, -134, -27, 107, -3, -501, -205, 78, 100, 16, 1, 53, 153, 8, -147, -19,
    -5, -29, 235, 132, -376, 325, -47, 75, 382, 72, 77, -32, -46, -60, 48, 17,
    -51, -11, -27, -94, -77, -9, -87, 44, -38, 237, -305, -362, -6, -108, -224, 134,
    103, 119, 848, 106, 227, 350, 219, -52, 371, -378, -134, 405, -303, 60, -327, -366,
    -49, 247, -142, -40, 208, -48, -24, 280, 126, 68, 145, 255, -5, -35, 59, 30,
    -10, -14, -50, 16, -9, -34, -12, -154, 36, 29, -1, -52, 28, 12, -110, -53,
    57, -24, -413, 197, 121, -391, -102, 10, -41, -27, 67, 21, -10, -26, 45, -8,
    -11, -22, -47, 55, 38, 40, -21, 47, 29, 62, -90, -583, -248, -69, -26, 358,
    681, 162, 86, 42, -544, 163, 368, -311, 107, 21, 20, -133, -187, -595, -267, 1,
    -276, -38, -24, 111, -10, 34, 1037, -111, 111, 264, 79, 159, 232, 51, 194, 252,
    94, 12, 0, -33, 14, 14, 15, -48, 89, 81, 45, 16, -20, 44, 14, -27,
    -889, -807, 41, -233, 7, -7, -155, -362, 4, 68, 162, 82, 26, -9, -16, 59,
    11, -18, -69, -40, 70, 56, 6, -17, 83, 39, 20, 58, 328, -233, -609, -308,
    -43, -306, 286, 18, -127, 259, 36, -203, 23, -28, 218, -22, -79, 7, 695, -217,
    -235, 325, 52, 341, -411, 15, 100, 345, -45, -478, 622, 113, -307, 77, 7, 119,
    99, 0, -15, 26, 15, 149, 73, 59, 13, -63, 116, 10, 46, -37, -32, -44,
    65, -170, -33, 52, -723, -213, 6, -919, -242, 49, 111, 950, 25, -182, -136, -38,
    58, 20, 93, -240, 500, 154, -76, -72, 139, -16, 3, -24, -428, 175, -30, -163,
    21, 453, 141, -100, 127, -120, 238, 142, -13, 128, 194, 233, 144, -146, 428, -107,
    -111, 137, -81, -70, 169, -292, 4, 734, 785, -73, 222, 175, -87, -253, 452, 8,
    23, 12, 25, -52, -109, -79, -21, -70, -25, -167, -143, 34, -41, -80, -73, -22,
    -35, -11, -641, -324, -193, -393, -222, -36, -216, -555, -34, -28, 22, 9, -26, -62,
    -87, -29, -58, -54, -209, -176, 31, -40, -25, -72, -10, -18, 71, 115, -128, 499,
    -108, -512, 479, -607, 203, 124, 386, -292, 167, 324, -101, -19, 429, 463, -97, 217,
    -465, 26, 22, -148, -363, -135, -408, 69, 397, -150, -67, 188, -156, 61, 52, 420,
    4, 101, -13, 32, -27, -63, -45, -56, -39, -24, 67, 16, 32, -6, -46, -50,
    -6, -19, -18, -69, -455, -91, -310, -348, 12, 46, -145, 20, 115, 12, 57, -9,
    -42, -22, -23, -48, -9, -48, 37, 49, 4, -18, -13, -1, 8, 0, 0, 0,
    0, 0, 0, 0, 0, 0, 0, 0, 0, 0, 0, 0, 0, 0, 0, 0,
    0, 0, 0, 0, 0, 0, 0, 0, 39, 43, -386, 75, -934, 712, 4, -24,
    165, 11, -138, 105, 54, -87, 63, -24, 132, 159, -24, -195, 36, 50, -12, 91,
    -34, -20, 108, 26, 151, -31, 80, -43, -303, 19, -132, 462, 31, 30, 97, 48,
    -116, 103, -66, -81, 45, -8, -100, 152, -1, -139, -108, -28, 0, 138, 0, 0,
    0, 0, 0, 0, 0, 0, 0, 0, 0, 0, 0, 0, 0, 0, 0, 0,
    0, 0, 0, 0, 0, 0, 0, 0, 0, 42, -45, 147, 102, -650, 643, -45,
    488, 601, 34, 36, 118, 89, -27, 58, -44, 113, 84, -1, -26, 103, 105, 6,
    27, -61, 73, 101, 38, 264, 16, 116, -553, -353, -90, -123, 985, 56, 180, 151,
    123, 18, 63, -50, 71, 96, 0, -130, 163, 121, 24, 76, -61, 76, 128, 0,
    0, 0, 0, 0, 0, 0, 0, 0, 0, 0, 0, 0, 0, 0, 0, 0,
    0, 0, 0, 0, 0, 0, 0, 0, 0, 0, 4, 219, -279, 119, -58, 100,
    -122, 710, 732, -8, -169, 69, 23, -128, -39, -130, -66, -3, -53, -104, -260, 13,
    -127, -48, -119, -62, -3, 10, -74, 27, 63, -597, -327, -118, -600, 784, 1, -23,
    42, 33, -99, -79, -118, -20, 46, -45, -137, -8, 6, -90, -98, -103, -68, 45,
    0, 0, 0, 0, 0, 0, 0, 0, 0, 0, 0, 0, 0, 0, 0, 0,
    0, 0, 0, 0, 0, 0, 0, 0, 0, 0, 0, 25, 0, 37, -515, -845,
    144, 15, -837, 0, 90, -260, 714, 16, -63, -261, -33, 487, -420, 145, -294, -196,
    -87, -49, -179, -124, 633, -202, 22, -105, 0, -212, 0, 0, -260, 0, 0, 140,
    -53, -80, -53, -222, -499, -71, -56, 189, 60, -87, -106, -179, 123, -873, -206, 176,
    -116, 0, 0, 0, 0, 0, 0, 0, 0, 0, 0, 0, 0, 0, 0, 0,
    0, 0, 0, 0, 0, 0, 0, 0, 0, 0, 0, 0, 78, 678, -326, 36,
    137, -655, 106, 409, -31, 96, 84, 246, 164, 25, 61, -3, 184, 134, 32, -123,
    -83, 164, 122, 68, -36, 190, 121, 75, 181, 23, -92, -471, -329, -63, -172, 395,
    117, 135, 290, 206, 91, 6, 6, 149, 129, 30, -175, -187, 169, 162, 75, -64,
    188, 151, 0, 0, 0, 0, 0, 0, 0, 0, 0, 0, 0, 0, 0, 0,
    0, 0, 0, 0, 0, 0, 0, 0, 0, 0, 0, 0, 0, 107, -272, -138,
    54, -756, -32, -21, -720, 424, 111, 180, 206, 171, 18, -27, -55, 82, 37, 15,
    -189, -327, 121, 80, 39, -115, 150, 69, 33, -112, 574, -126, -126, -378, -263, -234,
    -130, 98, 113, 184, 174, 45, -67, -44, 101, 87, 1, -3, -121, 107, 78, 26,
    -89, 135, 111, 0, 0, 0, 0, 0, 0, 0, 0, 0, 0, 0, 0, 0,
    0, 0, 0, 0, 0, 0, 0, 0, 0, 0, 0, 0, 0, 0, -13, 0,
    101, 52, 0, 0, 397, 0, 0, -33, 350, 6, 118, 82, 24, 155, 181, 18,
    -181, -611, 418, -8, -259, 109, 38, 551, 260, 7, 0, 0, 19, -48, 800, 559,
    -132, 902, -48, 0, 283, 41, -44, -257, 35, -101, 392, -63, -479, 190, -205, 308,
    -587, -198, 271, 59, 0, 0, 0, 0, 0, 0, 0, 0, 0, 0, 0, 0,
    0, 0, 0, 0, 0, 0, 0, 0, 0, 0, 0, 0, 0, 0, 0, -25,
    -318, 292, 26, -133, 265, 85, -88, 700, -39, 139, 61, 15, -133, -193, -158, -88,
    -89, -119, -152, -169, -27, -75, -134, -199, 24, -55, -44, 288, -620, -97, -258, 842,
    7, 145, 825, -49, 128, 149, 28, -118, -199, -181, -47, -92, -128, -279, -157, -23,
    -42, -121, -213, -27, -22, 0, 0, 0, 0, 0, 0, 0, 0, 0, 0, 0,
    0, 0, 0, 0, 0, 0, 0, 0, 0, 0, 0, 0, 0, 0, 0, 0,
    -50, -240, -261, 7, -253, 37, 114, -90, 269, -58, 15, 202, -9, -148, -189, -198,
    -93, -138, -122, -254, -147, -66, -151, -175, -208, -35, -80, -46, 594, -170, -109, -153,
    -661, -37, 560, -320, -47, -43, 105, -30, -137, -183, -207, -65, -86, -107, -223, -63,
    -77, -132, -152, -180, -71, -2, 0, 0, 0, 0, 0, 0, 0, 0, 0, 0,
    0, 0, 0, 0, 0, 0, 0, 0, 0, 0, 0, 0, 0, 0, 0, 0,
    0, -312, 0, 0, 108, 0, 1, 4, 0, 0, -39, 12, 0, 699, -330, -758,
    -240, 302, -277, 343, 0, 0, -301, -188, 1038, -115, 605, -272, 224, 0, 0, -9,
    0, 0, 0, 0, 0, 529, 0, 0, 85, 29, -445, -586, -486, -522, -27, 0,
    0, -34, -378, -140, 5, 898, 431, 0, 0, 0, 0, 0, 0, 0, 0, 0,
    0, 0, 0, 0, 0, 0, 0, 0, 0, 0, 0, 0, 0, 0, 0, 0,
    0, 0, -64, 7, 0, -106, 9, 204, 132, 0, 0, 36, 176, -458, 51, 13,
    23, 90, 178, 113, -74, 166, 75, 165, 187, -34, 27, 187, 33, 97, 0, 0,
    -126, 0, 0, -55, 0, 0, 136, -67, -441, 186, 155, 90, 70, 104, 17, 8,
    -63, 252, 235, 10, -1, -26, 252, 145, 0, 0, 0, 0, 0, 0, 0, 0,
    0, 0, 0, 0, 0, 0, 0, 0, 0, 0, 0, 0, 0, 0, 0, 0,
    0, 0, 0, -227, 0, 0, -195, 632, 0, 67, 0, 0, -75, 385, -337, -124,
    -275, -251, -101, -206, 36, -122, -448, 356, -47, -204, -60, -149, -136, -169, -46, 0,
    0, -425, 238, 0, -824, 0, 0, 28, -34, 122, 22, -144, -397, -241, 282, 163,
    -178, -926, 25, 13, -32, -228, -110, -173, 177, 0, 0, 0, 0, 0, 0, 0,
    0, 0, 0, 0, 0, 0, 0, 0, 0, 0, 0, 0, 0, 0, 0, 0,
    0, 0, 0, 0, -213, 0, 0, 0, 0, 0, 0, 0, 0, 45, 0, 0,
    -473, 145, -585, -393, 155, 513, -206, 0, 0, -50, 78, 8, -165, 284, -80, -358,
    -24, 0, -24, -1, 0, 0, -21, 0, -440, 0, 0, -162, -80, -284, -626, 159,
    -816, -775, 0, 0, 133, 334, -348, -575, 290, -486, 0, 0, 0, 0, 0, 0,
    0, 0, 0, 0, 0, 0, 0, 0, 0, 0, 0, 0, 0, 0, 0, 0,
    0, 0, 0, 0, 0, -97, -262, 46, 242, 290, 499, 70, 544, 688, -41, -61,
    -117, 37, -116, -161, -122, -40, -102, -142, -304, -316, 15, -63, -110, -172, 26, 5,
    -70, -870, 574, -160, -208, -394, 45, -502, 21, 0, 178, -17, 109, -35, -75, -79,
    2, -23, -105, -140, -90, 70, 21, -49, -143, 91, 60, 0, 0, 0, 0, 0,
    0, 0, 0, 0, 0, 0, 0, 0, 0, 0, 0, 0, 0, 0, 0, 0,
    0, 0, 0, 0, 0, 0, 33, -360, 4, 140, -5, -303, -94, 4, 883, 4,
    196, 218, 123, -40, -114, -85, -11, -2, -55, -184, 63, 82, 24, 22, -111, 84,
    78, -76, -640, 1, 5, -710, -430, -9, -94, -211, 41, -18, -10, 154, 33, -15,
    -23, 65, 98, -87, -78, -131, 129, 66, 52, -126, 157, 148, 0, 0, 0, 0,
    0, 0, 0, 0, 0, 0, 0, 0, 0, 0, 0, 0, 0, 0, 0, 0,
    0, 0, 0, 0, 0, 0, 0, 94, 0, 0, 0, 0, 0, -12, -3, 0,
    804, 0, 0, 574, 850, 425, -85, -457, 8, 557, 0, 0, 534, 245, -103, -57,
    397, -470, -90, -15, 0, -129, -17, 0, -452, -104, 0, -38, 0, 0, 156, -1105,
    -1223, 225, -430, -531, -926, 0, 0, 305, -502, -444, -509, 355, -713, 0, 0, 0,
    0, 0, 0, 0, 0, 0, 0, 0, 0, 0, 0, 0, 0, 0, 0, 0,
    0, 0, 0, 0, 0, 0, 0, 0, 51, -368, 71, 81, -276, 669, 868, 155,
    98, 87, 141, 311, 183, -64, -157, -53, -14, -21, -94, -292, -35, 101, 2, -37,
    -76, 69, 102, -43, -478, -108, -376, -435, -59, -306, -603, -39, 41, 77, 159, 156,
    -13, -70, -59, 28, 57, -75, 34, -234, 112, 62, 92, -63, 145, 163, 0, 0,
    0, 0, 0, 0, 0, 0, 0, 0, 0, 0, 0, 0, 0, 0, 0, 0,
    0, 0, 0, 0, 0, 0, 0, 0, 0, -44, 298, 139, -22, 19, 265, 84,
    -1, 326, 31, 180, 238, 176, 22, -57, -36, 52, 27, -44, 18, -228, 103, 98,
    101, -109, 160, 135, -10, 319, 403, -311, -759, 735, -174, -392, -33, 46, 67, 180,
    212, 79, 59, -31, 97, 150, -64, -125, 140, 155, 169, 120, -115, 264, 185, 0,
    0, 0, 0, 0, 0, 0, 0, 0, 0, 0, 0, 0, 0, 0, 0, 0,
    0, 0, 0, 0, 0, 0, 0, 0, 0, 0, -602, 0, 0, 0, 0, 0,
    0, 0, 0, -371, 0, 0, -362, -53, -1202, 573, 228, -64, -883, 0, 0, 578,
    578, -333, -107, 440, -203, -592, -2, 0, 0, -3, 0, 0, 0, 0, -139, 0,
    0, -225, -59, -268, 43, -254, 187, 75, 0, -5, 157, -188, 0, -333, 643, 490,
    0, 0, 0, 0, 0, 0, 0, 0, 0, 0, 0, 0, 0, 0, 0, 0,
    0, 0, 0, 0, 0, 0, 0, 0, 0, 0, 0, 1, 0, 0, 884, 0,
    0, -120, 0, -347, 80, -265, 1071, 87, -91, 140, -61, 187, 211, -68, -64, 223,
    244, 33, -114, 66, 182, 56, 297, 0, 0, -61, 0, 0, -192, -64, -493, 229,
    -301, 112, 152, 93, 148, 133, 182, 108, 132, 117, 198, 120, 62, -11, 89, 309,
    292, 0, 0, 0, 0, 0, 0, 0, 0, 0, 0, 0, 0, 0, 0, 0,
    0, 0, 0, 0, 0, 0, 0, 0, 0, 0, 0, 0, -127, 0, 0, 249,
    0, 0, 421, 0, 0, -24, -167, 43, -148, -126, -286, -305, 163, -53, -275, 600,
    67, -243, -128, -143, -226, -238, -80, 6, 0, -5, -407, 0, 0, 32, -77, 0,
    46, 418, -189, -106, -68, -131, -200, -173, -27, -58, 407, -248, -105, -149, -103, -55,
    -10, 44, 0, 0, 0, 0, 0, 0, 0, 0, 0, 0, 0, 0, 0, 0,
    0, 0, 0, 0, 0, 0, 0, 0, 0, 0, 0, 0, 0, 661, 0, 11,
    345, 0, 49, 57, 0, 11, 821, 0, 0, 312, 846, -435, -605, -72, 124, -171,
    0, 0, -436, 769, 499, -126, -107, -525, -24, 0, 0, 0, 0, 0, 0, 0,
    0, -436, 0, 0, 174, -80, 0, -676, 94, 239, -522, 0, 0, -532, -597, 551,
    -783, 849, -350, 0, 0, 0, 0, 0, 0, 0, 0, 0, 0, 0, 0, 0,
    0, 0, 0, 0, 0, 0, 0, 0, 0, 0, 0, 0, 0, 0, 21, -637,
    -208, 106, -236, 400, 404, -97, 500, 52, 77, 155, 88, -165, -231, -217, -105, -126,
    -41, -266, -47, 17, -107, -101, -218, -20, -50, 53, 15, -170, -148, -701, 0, -21,
    -153, -10, 9, 54, -2, 54, -81, -154, -175, -72, -32, -29, -176, -272, -15, 19,
    -55, -212, 74, 30, 0, 0, 0, 0, 0, 0, 0, 0, 0, 0, 0, 0,
    0, 0, 0, 0, 0, 0, 0, 0, 0, 0, 0, 0, 0, 0, 0, 156,
    -300, 387, 85, 143, 544, 63, 125, 729, 32, 168, -75, 62, -138, -119, -184, -57,
    -16, -53, 34, -133, 6, 42, 12, -205, 70, 24, 23, 406, -15, -605, 181, -314,
    -397, -379, 0, 79, 70, 381, 51, -45, -41, -159, 69, 64, -84, -243, 48, 23,
    80, 30, -187, 166, 96, 0, 0, 0, 0, 0, 0, 0, 0, 0, 0, 0,
    0, 0, 0, 0, 0, 0, 0, 0, 0, 0, 0, 0, 0, 0, 0, 0,
    456, 0, 8, 0, 0, 0, 0, 0, 0, 956, 0, 0, 639, 598, -278, 323,
    220, -1279, 586, 0, 0, -118, 802, 214, -781, -264, -440, -69, 0, 0, 0, 0,
    0, 0, 0, 0, 850, 0, 0, 423, 44, 0, 62, 0, 0, -115, 0, 0,
    27, -354, 258, 479, 0, -374, 0, 0, 0, 0, 0, 0, 0, 0, 0, 0,
    0, 0, 0, 0, 0, 0, 0, 0, 0, 0, 0, 0, 0, 0, 0, 0,
    0, 113, 28, 604, 22, -241, 202, 52, 923, 567, 85, 47, 167, 94, -102, -116,
    -129, -7, 27, -39, 45, 68, 0, -48, -2, -145, 75, 11, 27, -76, 2, 130,
    -982, 0, -206, 443, 1, 71, -90, 267, 87, -54, -47, -76, 35, 40, 25, -15,
    -140, 53, 32, 44, -107, 137, 97, 0, 0, 0, 0, 0, 0, 0, 0, 0,
    0, 0, 0, 0, 0, 0, 0, 0, 0, 0, 0, 0, 0, 0, 0, 0,
    0, 0, 94, 22, 927, 30, -29, 533, 97, 497, 369, 97, 198, 217, 105, -35,
    -70, -76, 81, 47, -15, -40, -122, 28, 51, 12, -116, 113, 83, 132, -232, 71,
    -114, -380, 289, -158, -421, -10, 144, 232, 415, 163, 29, 16, -22, 186, 113, 43,
    183, 69, 105, 131, 94, -31, 181, 164, 0, 0, 0, 0, 0, 0, 0, 0,
    0, 0, 0, 0, 0, 0, 0, 0, 0, 0, 0, 0, 0, 0, 0, 0,
    0, 0, 0, 0, 0, 0, 0, 0, 0, 0, 0, 0, 0, 0, 0, 0,
    0, 0, 0, 0, 0, 0, 0, 0, 0, 0, 0, 0, 0, 0, 0, 0,
    0, 0, 0, 0, 0, 0, 0, 0, 0, 0, 0, 0, 0, 0, 0, 0,
    0, 0, 0, 0, 0, 0, 0, 0, 0, 0, 0, 0, 0, 0, 0, 0,
    0, 0, 0, 0, 0, 0, 0, 0, 0, 0, 0, 0, 0, 0, 0, 0,
    0, 0, 0, 0, 49, -175, -202, 17, 0, 31, -183, 0, -1008, 52, -99, 230,
    220, -404, 15, -303, -115, 180, 24, -305, 1, 311, -332, 120, -300, -21, 280, 2,
    645, 248, 13, 0, 0, -515, 0, 0, 60, 115, 327, 304, -238, 171, -390, -150,
    386, 27, -593, 186, 194, -408, 265, -245, -9, 316, 0, 0, 0, 0, 0, 0,
    0, 0, 0, 0, 0, 0, 0, 0, 0, 0, 0, 0, 0, 0, 0, 0,
    0, 0, 0, 0, 0, 18, -494, -371, 315, 476, 0, -195, -1, 0, -22, 8,
    591, 315, -332, 196, -208, -133, 284, -39, -401, -9, 493, -384, 216, -264, -173, 228,
    2, 177, 0, 233, 1245, 0, -99, 1049, 0, -7, -76, 177, 261, -207, 320, -257,
    29, 377, -18, -267, 207, 238, -97, 173, -166, 78, 391, 0, 0, 0, 0, 0,
    0, 0, 0, 0, 0, 0, 0, 0, 0, 0, 0, 0, 0, 0, 0, 0,
    0, 0, 0, 0, 0, 0, 0, 0, 0, 0, 0, 0, 0, 0, 0, 0,
    0, 0, 0, 0, 0, 0, 0, 0, 0, 0, 0, 0, 0, 0, 0, 0,
    0, 0, 0, 0, 0, 0, 0, 0, 0, 0, 0, 0, 0, 0, 0, 0,
    0, 0, 0, 0, 0, 0, 0, 0, 0, 0, 0, 0, 0, 0, 0, 0,
    0, 0, 0, 0, 0, 0, 0, 0, 0, 0, 0, 0, 0, 0, 0, 0,
    0, 0, 0, 0, 0, 0, 0, 38, -50, -234, -101, -25, -1026, -7, 0, -973,
    75, -145, 211, 191, -107, 182, -266, -82, 215, -1, -112, 124, 263, -57, 109, -181,
    28, 215, -40, -288, 126, -32, -177, 152, -365, -251, 0, 95, 33, 265, 273, -114,
    -6, -196, -116, 133, -9, -272, 68, 145, -69, 112, -178, 24, 185, 0, 0, 0,
    0, 0, 0, 0, 0, 0, 0, 0, 0, 0, 0, 0, 0, 0, 0, 0,
    0, 0, 0, 0, 0, 0, 0, 0, 53, -46, 266, -43, 0, 462, -1, -115,
    -297, 97, 26, 354, 284, -134, -64, -238, -149, 91, -8, -109, 71, 225, -45, 76,
    -226, -25, 132, -37, -783, -518, 32, 51, 0, -285, -17, -204, 82, 115, 352, 210,
    -181, -3, -160, -202, 78, -19, -76, 59, 190, -177, 88, -214, -166, 167, 0, 0,
    0, 0, 0, 0, 0, 0, 0, 0, 0, 0, 0, 0, 0, 0, 0, 0,
    0, 0, 0, 0, 0, 0, 0, 0, 0, 0, 0, 0, 0, 0, 0, 0,
    0, 0, 0, 0, 0, 0, 0, 0, 0, 0, 0, 0, 0, 0, 0, 0,
    0, 0, 0, 0, 0, 0, 0, 0, 0, 0, 0, 0, 0, 0, 0, 0,
    0, 0, 0, 0, 0, 0, 0, 0, 0, 0, 0, 0, 0, 0, 0, 0,
    0, 0, 0, 0, 0, 0, 0, 0, 0, 0, 0, 0, 0, 0, 0, 0,
    0, 0, 0, 0, 0, 0, 0, 0, 0, 0, 43, 470, 630, 200, 253, 0,
    -242, -95, 132, 2, -80, 41, 155, -178, -9, -209, -125, 176, -88, -261, -22, 111,
    -85, 74, -257, 38, 161, -62, -282, -13, 55, -126, 0, -302, 884, 156, -19, -42,
    87, 183, -105, -73, -250, -102, 40, -91, -365, 1, 126, -130, 78, -307, -27, 95,
    0, 0, 0, 0, 0, 0, 0, 0, 0, 0, 0, 0, 0, 0, 0, 0,
    0, 0, 0, 0, 0, 0, 0, 0, 0, 0, 0, 30, -260, 491, 376, 258,
    170, -94, -12, 193, -17, -44, 253, 134, -160, -138, -183, -95, 80, -96, -163, 7,
    118, -110, -9, -262, 10, 93, -47, 317, -76, 132, 1040, 11, 171, 1301, 67, -27,
    -157, 66, 135, -179, -38, -263, -119, 12, -68, -64, 251, 152, -144, 14, -168, -137,
    117, 0, 0, 0, 0, 0, 0, 0, 0, 0, 0, 0, 0, 0, 0, 0,
    0, 0, 0, 0, 0, 0, 0, 0, 0, 0, 0, 0, 0, 0, 0, 0,
    0, 0, 0, 0, 0, 0, 0, 0, 0, 0, 0, 0, 0, 0, 0, 0,
    0, 0, 0, 0, 0, 0, 0, 0, 0, 0, 0, 0, 0, 0, 0, 0,
    0, 0, 0, 0, 0, 0, 0, 0, 0, 0, 0, 0, 0, 0, 0, 0,
    0, 0, 0, 0, 0, 0, 0, 0, 0, 0, 0, 0, 0, 0, 0, 0,
    0, 0, 0, 0, 0, 0, 0, 0, 0, 0, 0, 0, 0, -168, 0, 0,
    46, 0, 36, 170, 0, 0, 85, -244, 240, 253, -373, 638, -711, 310, 29, -3,
    -102, 157, -371, -219, 184, 301, 196, 730, 19, 0, 0, 0, 0, 0, 0, 0,
    0, 30, 164, 172, 222, 324, -542, -82, 242, 767, 200, -75, 439, 66, -272, 52,
    -577, 62, 218, 0, 0, 0, 0, 0, 0, 0, 0, 0, 0, 0, 0, 0,
    0, 0, 0, 0, 0, 0, 0, 0, 0, 0, 0, 0, 0, 0, 163, 0,
    0, 0, 0, 0, 0, 0, 0, 329, 613, 678, 564, -279, 459, 150, -360, 793,
    234, -201, -319, -459, -741, -14, -479, -87, 648, 134, 0, 0, -362, 0, 0, -43,
    0, 0, 306, 101, 11, 337, -190, 377, 168, -173, 825, 371, -163, 769, 379, -442,
    25, -174, -695, 338, 0, 0, 0, 0, 0, 0, 0, 0, 0, 0, 0, 0,
    0, 0, 0, 0, 0, 0, 0, 0, 0, 0, 0, 0, 0, 0, 0, 0,
    0, 0, 0, 0, 0, 0, 0, 0, 0, 0, 0, 0, 0, 0, 0, 0,
    0, 0, 0, 0, 0, 0, 0, 0, 0, 0, 0, 0, 0, 0, 0, 0,
    0, 0, 0, 0, 0, 0, 0, 0, 0, 0, 0, 0, 0, 0, 0, 0,
    0, 0, 0, 0, 0, 0, 0, 0, 0, 0, 0, 0, 0, 0, 0, 0,
    0, 0, 0, 0, 0, 0, 0, 0, 0, 0, 0, 0, 0, 0, 0, 0,
    274, -168, 644, 410, -87, -75, 168, -148, -123, 205, 65, 396, 219, -12, 501, 22,
    339, 401, 216, 61, 109, 595, 339, 400, 8, 414, 434, 302, -14, 23, -247, -164,
    0, 209, 0, 0, 299, 211, 327, 525, 136, 188, -207, 186, 430, 142, -220, 300,
    416, 322, 352, -143, 393, 418, 0, 0, 0, 0, 0, 0, 0, 0, 0, 0,
    0, 0, 0, 0, 0, 0, 0, 0, 0, 0, 0, 0, 0, 0, 0, 0,
    0, 283, 396, 555, 62, -93, -98, 140, 0, -55, 277, 177, 416, 508, 120, 257,
    58, 201, 133, 158, 11, 249, 517, 292, 295, 3, 331, 329, 277, 0, 0, -337,
    0, 0, -380, 0, 0, 281, 289, 458, 382, 85, 171, -23, 149, 402, 106, -212,
    285, 323, 175, 360, -36, 263, 456, 0, 0, 0, 0, 0, 0, 0, 0, 0,
    0, 0, 0, 0, 0, 0, 0, 0, 0, 0, 0, 0, 0, 0, 0, 0,
    0, 0, 0, 0, 0, 0, 0, 0, 0, 0, 0, 0, 0, 0, 0, 0,
    0, 0, 0, 0, 0, 0, 0, 0, 0, 0, 0, 0, 0, 0, 0, 0,
    0, 0, 0, 0, 0, 0, 0, 0, 0, 0, 0, 0, 0, 0, 0, 0,
    0, 0, 0, 0, 0, 0, 0, 0, 0, 0, 0, 0, 0, 0, 0, 0,
    0, 0, 0, 0, 0, 0, 0, 0, 0, 0, 0, 0, 0, 0, 0, 0,
    0, 0, 0, 332, -371, 162, 680, 0, 69, -141, -98, 386, 313, 195, 615, 510,
    42, 220, -169, 65, 268, 115, -403, 66, 437, -43, 68, -91, 55, 149, 406, 0,
    330, 101, -45, 0, 292, -84, 0, 258, -79, 570, 504, -37, 107, -180, 35, 146,
    86, -485, 298, 162, 145, 90, -151, 26, 358, 0, 0, 0, 0, 0, 0, 0,
    0, 0, 0, 0, 0, 0, 0, 0, 0, 0, 0, 0, 0, 0, 0, 0,
    0, 0, 0, 0, 263, 0, 941, 656, -65, 203, 400, 0, 330, 211, 375, 462,
    475, 57, 91, 46, 24, 178, 112, 320, -110, 27, 8, 297, -128, 170, 343, 286,
    -171, 198, -210, -5, 0, -797, -22, 0, 179, 59, 653, 276, 39, 80, -169, 143,
    296, 129, -147, 241, 258, -34, 239, -25, 36, 432, 0, 0, 0, 0, 0, 0,
    0, 0, 0, 0, 0, 0, 0, 0, 0, 0, 0, 0, 0, 0, 0, 0,
    0, 0, 0, 0, 0, 0, 0, 0, 0, 0, 0, 0, 0, 0, 0, 0,
    0, 0, 0, 0, 0, 0, 0, 0, 0, 0, 0, 0, 0, 0, 0, 0,
    0, 0, 0, 0, 0, 0, 0, 0, 0, 0, 0, 0, 0, 0, 0, 0,
    0, 0, 0, 0, 0, 0, 0, 0, 0, 0, 0, 0, 0, 0, 0, 0,
    0, 0, 0, 0, 0, 0, 0, 0, 0, 0, 0, 0, 0, 0, 0, 0,
    0, 0, 0, 0, 0, 0, -139, 0, 0, -751, 0, 0, 268, 0, 0, -380,
    -496, 206, 177, -260, 746, 139, -72, 185, -371, -120, -324, -254, -565, 75, -415, -363,
    533, -285, 0, 0, 0, 0, 0, 0, 0, 0, -354, -221, 153, 204, -852, 508,
    193, -199, 902, -412, 0, -4, -220, -704, 226, -494, -441, 589, 0, 0, 0, 0,
    0, 0, 0, 0, 0, 0, 0, 0, 0, 0, 0, 0, 0, 0, 0, 0,
    0, 0, 0, 0, 0, 0, 0, -47, 0, 0, 0, 0, 0, 0, -91, 0,
    -168, -543, 0, -122, -238, 53, -307, -623, 128, -405, -242, 0, 164, -169, 54, -62,
    -63, 376, 100, 0, 0, -104, -21, 0, -11, -24, 0, -40, -367, 0, 153, -563,
    -215, -132, -156, 21, -198, -162, 109, 481, -137, -491, -73, -545, 573, 0, 0, 0,
    0, 0, 0, 0, 0, 0, 0, 0, 0, 0, 0, 0, 0, 0, 0, 0,
    0, 0, 0, 0, 0, 0, 0, 0, 0, 0, 0, 0, 0, 0, 0, 0,
    0, 0, 0, 0, 0, 0, 0, 0, 0, 0, 0, 0, 0, 0, 0, 0,
    0, 0, 0, 0, 0, 0, 0, 0, 0, 0, 0, 0, 0, 0, 0, 0,
    0, 0, 0, 0, 0, 0, 0, 0, 0, 0, 0, 0, 0, 0, 0, 0,
    0, 0, 0, 0, 0, 0, 0, 0, 0, 0, 0, 0, 0, 0, 0, 0,
    0, 0, 0, 0, 0, 0, 0, 0, 0, -276, -15, 171, 904, 0, 0, -179,
    0, 0, -152, -210, 67, 22, -524, -267, -687, -330, 140, -212, -424, 227, -1, -425,
    49, -309, -334, 152, -323, -759, 0, -139, -430, 0, -330, -254, 144, -111, -105, -250,
    6, -315, -566, -10, -423, -215, -245, -576, -173, -161, -30, -55, -612, -313, -30, 0,
    0, 0, 0, 0, 0, 0, 0, 0, 0, 0, 0, 0, 0, 0, 0, 0,
    0, 0, 0, 0, 0, 0, 0, 0, 0, 0, -450, 0, 0, -458, -49, 6,
    -47, 0, 0, -167, -189, 331, 16, -503, -291, -505, -181, -36, -295, -715, -166, 31,
    -128, -174, -507, -218, 52, -309, -212, 366, 299, -170, -9, -410, 793, 0, -194, -22,
    72, 2, -260, -183, -511, -266, -214, -295, -389, -301, -49, -321, -179, -493, -310, 14,
    0, 0, 0, 0, 0, 0, 0, 0, 0, 0, 0, 0, 0, 0, 0, 0,
    0, 0, 0, 0, 0, 0, 0, 0, 0, 0, 0, 0, 0, 0, 0, 0,
    0, 0, 0, 0, 0, 0, 0, 0, 0, 0, 0, 0, 0, 0, 0, 0,
    0, 0, 0, 0, 0, 0, 0, 0, 0, 0, 0, 0, 0, 0, 0, 0,
    0, 0, 0, 0, 0, 0, 0, 0, 0, 0, 0, 0, 0, 0, 0, 0,
    0, 0, 0, 0, 0, 0, 0, 0, 0, 0, 0, 0, 0, 0, 0, 0,
    0, 0, 0, 0, 0, 0, 0, 0, 0, 0, 0, 0, -343, -13, 0, -382,
    0, 0, -262, 0, 0, -102, -371, 95, -8, -414, -366, -394, -340, -276, -290, -287,
    -369, -59, -368, -290, -324, -326, -107, -310, -472, -329, 3, 126, 0, -572, -263, 210,
    -230, -217, -68, -41, -395, -317, -509, -458, -232, -287, -353, -87, -103, -55, -208, -413,
    -385, -122, 0, 0, 0, 0, 0, 0, 0, 0, 0, 0, 0, 0, 0, 0,
    0, 0, 0, 0, 0, 0, 0, 0, 0, 0, 0, 0, 0, -343, -63, 291,
    -273, 0, 0, -491, -199, 124, -176, -303, 114, 12, -386, -339, -486, -380, -423, -317,
    -453, -53, 34, -392, -239, -466, -231, -84, -269, -436, -144, -147, 87, 0, -299, 577,
    0, -271, -316, -101, -57, -417, -325, -579, -618, -326, -144, -295, 12, -3, -365, -297,
    -175, -441, 101, 0, 0, 0, 0, 0, 0, 0, 0, 0, 0, 0, 0, 0,
    0, 0, 0, 0, 0, 0, 0, 0, 0, 0, 0, 0, 0, 0, 0, 0,
    0, 0, 0, 0, 0, 0, 0, 0, 0, 0, 0, 0, 0, 0, 0, 0,
    0, 0, 0, 0, 0, 0, 0, 0, 0, 0, 0, 0, 0, 0, 0, 0,
    0, 0, 0, 0, 0, 0, 0, 0, 0, 0, 0, 0, 0, 0, 0, 0,
    0, 0, 0, 0, 0, 0, 0, 0, 0, 0, 0, 0, 0, 0, 0, 0,
    0, 0, 0, 0, 0, 0, 0, 0, 0, 0, 0, 0, 0, 0, 0, -23,
    0, 0, 0, 0, 0, 0, 0, 0, 268, 0, -104, 464, -357, -282, 283, 374,
    -645, 437, -527, 0, 219, 151, 313, -332, -16, -497, -452, 0, 0, 0, 0, 0,
    0, 0, 0, 68, -174, -383, -161, -16, -32, 0, -23, -300, 387, -101, -623, 0,
    336, -515, -147, -3, -749, 0, 0, 0, 0, 0, 0, 0, 0, 0, 0, 0,
    0, 0, 0, 0, 0, 0, 0, 0, 0, 0, 0, 0, 0, 0, 0, 0,
    36, 0, 0, 0, 0, 0, 0, 0, 0, -290, 0, 0, 644, 539, 312, -242,
    85, 679, 458, -78, -234, 664, 231, 565, 218, -336, -673, -424, 0, 0, 0, 0,
    0, 0, 0, 0, -221, -431, 0, 124, 814, 418, -238, -37, -83, 557, 899, -194,
    541, 174, -256, -80, 123, -125, 0, 0, 0, 0, 0, 0, 0, 0, 0, 0,
    0, 0, 0, 0, 0, 0, 0, 0, 0, 0, 0, 0, 0, 0, 0, 0,
    0, 0, 0, 0, 0, 0, 0, 0, 0, 0, 0, 0, 0, 0, 0, 0,
    0, 0, 0, 0, 0, 0, 0, 0, 0, 0, 0, 0, 0, 0, 0, 0,
    0, 0, 0, 0, 0, 0, 0, 0, 0, 0, 0, 0, 0, 0, 0, 0,
    0, 0, 0, 0, 0, 0, 0, 0, 0, 0, 0, 0, 0, 0, 0, 0,
    0, 0, 0, 0, 0, 0, 0, 0, 0, 0, 0, 0, 0, 0, 0, 0,
    0, 0, -140, 0, 422, -77, 0, 0, -285, 0, 0, -129, -8, 118, -18, -368,
    130, -328, -8, 155, -131, -542, -305, 318, 65, 210, -210, 149, 184, -57, -110, 429,
    -176, 0, 0, -682, 0, 0, -17, -205, 220, 275, -143, 87, -246, -71, 255, -65,
    -792, 194, 142, -172, 90, -343, 5, 125, 0, 0, 0, 0, 0, 0, 0, 0,
    0, 0, 0, 0, 0, 0, 0, 0, 0, 0, 0, 0, 0, 0, 0, 0,
    0, 0, 0, -15, -54, 0, 49, 0, 448, 18, 0, 0, 50, -112, 168, 354,
    -166, -153, -160, -130, -216, -59, -691, 206, -22, -153, -58, -220, 0, 26, -125, -14,
    -253, 2, 0, 0, -142, 0, 0, -43, 191, 326, 277, 158, -129, -235, 65, -43,
    -205, -495, 36, 200, 82, 95, -260, -31, 201, 0, 0, 0, 0, 0, 0, 0,
    0, 0, 0, 0, 0, 0, 0, 0, 0, 0, 0, 0, 0, 0, 0, 0,
    0, 0, 0, 0, 0, 0, 0, 0, 0, 0, 0, 0, 0, 0, 0, 0,
    0, 0, 0, 0, 0, 0, 0, 0, 0, 0, 0, 0, 0, 0, 0, 0,
    0, 0, 0, 0, 0, 0, 0, 0, 0, 0, 0, 0, 0, 0, 0, 0,
    0, 0, 0, 0, 0, 0, 0, 0, 0, 0, 0, 0, 0, 0, 0, 0,
    0, 0, 0, 0, 0, 0, 0, 0, 0, 0, 0, 0, 0, 0, 0, 0,
    0, 0, 0, 0, 0, -233, -109, 0, -54, 0, 0, -2, 0, -724, -76, -153,
    -18, 90, -450, -467, -332, -462, -522, -237, -126, -417, 59, -157, -111, -221, -260, -299,
    -266, -91, -537, -604, -105, 34, 1094, -18, 0, -90, -785, -7, -115, -339, -356, -147,
    -640, -24, -124, -846, -439, -182, -47, -125, -326, 27, 4, 0, 0, 0, 0, 0,
    0, 0, 0, 0, 0, 0, 0, 0, 0, 0, 0, 0, 0, 0, 0, 0,
    0, 0, 0, 0, 0, 0, -781, -4, 416, -79, -1, 0, -164, 0, 0, -299,
    -476, 10, 25, -432, -443, -264, -223, -320, -133, -488, -359, 6, -566, -280, -399, -179,
    -195, -468, 726, 274, -184, -37, 0, 65, 339, 0, -147, -359, -309, 89, -195, -457,
    -443, -369, -343, -90, 370, 37, 20, 90, -42, -293, -318, 57, 0, 0, 0, 0,
    0, 0, 0, 0, 0, 0, 0, 0, 0, 0, 0, 0, 0, 0, 0, 0,
    0, 0, 0, 0, 0, 0, 0, 0, 0, 0, 0, 0, 0, 0, 0, 0,
    0, 0, 0, 0, 0, 0, 0, 0, 0, 0, 0, 0, 0, 0, 0, 0,
    0, 0, 0, 0, 0, 0, 0, 0, 0, 0, 0, 0, 0, 0, 0, 0,
    0, 0, 0, 0, 0, 0, 0, 0, 0, 0, 0, 0, 0, 0, 0, 0,
    0, 0, 0, 0, 0, 0, 0, 0, 0, 0, 0, 0, 0, 0, 0, 0,
    0, 0, 0, 0, 0, 0, 0, 0, 80, 0, 0, 0, 0, 0, 0, 0,
    0, -118, -2, -312, -124, -346, 357, -504, 199, 26, 249, -763, 0, 0, -12, 0,
    0, -129, -2, -241, 0, 0, 0, 0, 0, 0, 0, 0, -3, 0, -45, 291,
    -7, 0, -174, -16, 0, -103, 0, 0, 0, 0, 568, -67, 0, 0, 0, 0,
    0, 0, 0, 0, 0, 0, 0, 0, 0, 0, 0, 0, 0, 0, 0, 0,
    0, 0, 0, 0, 0, 0, 0, 0, 0, 0, 0, 0, 0, 0, 0, 0,
    0, 0, -186, -20, 0, -146, 110, 49, -166, -514, 0, 151, -698, 339, 0, -25,
    -453, -401, -212, -446, -198, 0, 0, 0, 0, 0, 0, 0, 0, -30, 0, 210,
    -69, -235, 460, 581, 106, -3, 1061, 369, -165, -18, -76, -361, -652, -290, 249, 0,
    0, 0, 0, 0, 0, 0, 0, 0, 0, 0, 0, 0, 0, 0, 0, 0,
    0, 0, 0, 0, 0, 0, 0, 0, 0, 0, 0, 0, 0, 0, 0, 0,
    0, 0, 0, 0, 0, 0, 0, 0, 0, 0, 0, 0, 0, 0, 0, 0,
    0, 0, 0, 0, 0, 0, 0, 0, 0, 0, 0, 0, 0, 0, 0, 0,
    0, 0, 0, 0, 0, 0, 0, 0, 0, 0, 0, 0, 0, 0, 0, 0,
    0, 0, 0, 0, 0, 0, 0, 0, 0, 0, 0, 0, 0, 0, 0, 0,
    0, 0, 0, 0, 0, 0, 0, 0, 0, 0, 0, -362, 502, -398, -320, -385,
    -85, -265, 236, -328, -128, -302, 54, 7, -385, -248, -494, -330, -195, -183, -390, -213,
    16, -293, -82, -388, -141, -64, -295, -257, 744, -626, -570, 22, -988, -233, 7, -92,
    -125, 153, 103, -353, -162, -357, -169, -136, -189, -356, -88, 53, -272, -46, -476, -68,
    -29, 0, 0, 0, 0, 0, 0, 0, 0, 0, 0, 0, 0, 0, 0, 0,
    0, 0, 0, 0, 0, 0, 0, 0, 0, 0, 0, 0, -311, -15, 109, -252,
    -17, 30, -556, 0, 29, -133, 33, 77, 162, -324, -123, -144, -286, -82, -131, -411,
    -332, 33, -188, -42, -315, -103, 58, -327, -68, -245, -707, -480, 516, -1093, -303, 0,
    -179, -72, 105, 61, -221, -137, -310, -23, -131, -187, -520, -251, -208, -73, -10, -493,
    -42, 85, 0, 0, 0, 0, 0, 0, 0, 0, 0, 0, 0, 0, 0, 0,
    0, 0, 0, 0, 0, 0, 0, 0, 0, 0, 0, 0, 0, 0, 0, 0,
    0, 0, 0, 0, 0, 0, 0, 0, 0, 0, 0, 0, 0, 0, 0, 0,
    0, 0, 0, 0, 0, 0, 0, 0, 0, 0, 0, 0, 0, 0, 0, 0,
    0, 0, 0, 0, 0, 0, 0, 0, 0, 0, 0, 0, 0, 0, 0, 0,
    0, 0, 0, 0, 0, 0, 0, 0, 0, 0, 0, 0, 0, 0, 0, 0,
    0, 0, 0, 0, 0, 0, 0, 0, 0, 0, 0, 0, 0, 0, -383, -17,
    305, -162, 0, 829, -468, 0, 0, -72, -50, 206, 330, -290, -188, -319, -247, -28,
    -98, -581, 61, -14, -210, -41, -510, -30, 173, -289, 770, -247, -670, 294, 0, -426,
    682, 7, -74, -211, 41, 323, -208, -213, -553, -65, -44, -136, -506, -387, 390, -108,
    29, -453, -80, 170, 0, 0, 0, 0, 0, 0, 0, 0, 0, 0, 0, 0,
    0, 0, 0, 0, 0, 0, 0, 0, 0, 0, 0, 0, 0, 0, 0, -509,
    0, -86, -20, 0, 0, 173, -1, -33, -78, -14, 210, 302, -338, 33, -331, -269,
    -6, -114, -598, -6, 85, -221, 127, -608, -132, 151, -217, -119, -211, -122, -109, -17,
    -347, -188, 0, -137, -325, 78, 283, -102, -76, -243, -142, 115, -100, 10, -163, -118,
    -80, 35, -489, 112, 172, 0, 0, 0, 0, 0, 0, 0, 0, 0, 0, 0,
    0, 0, 0, 0, 0, 0, 0, 0, 0, 0, 0, 0, 0, 0, 0, 0,
    0, 0, 0, 0, 0, 0, 0, 0, 0, 0, 0, 0, 0, 0, 0, 0,
    0, 0, 0, 0, 0, 0, 0, 0, 0, 0, 0, 0, 0, 0, 0, 0,
    0, 0, 0, 0, 0, 0, 0, 0, 0, 0, 0, 0, 0, 0, 0, 0,
    0, 0, 0, 0, 0, 0, 0, 0, 0, 0, 0, 0, 0, 0, 0, 0,
    0, 0, 0, 0, 0, 0, 0, 0, 0, 0, 0, 0, 0, 0, 0, 0,
    0, 0, 0, 0, 0, 0, 0, 0, 0, 0, -97, 0, 0, 410, -141, 0,
    0, -57, -93, -202, 0, 0, 566, 0, 0, -2, -5, 45, -170, 0, 0, 0,
    0, 0, 0, 0, 0, 0, 0, -70, -28, 0, 0, 0, 0, -158, -4, 0,
    0, 0, 0, -461, -61, 0, -63, 0, 0, 0, 0, 0, 0, 0, 0, 0,
    0, 0, 0, 0, 0, 0, 0, 0, 0, 0, 0, 0, 0, 0, 0, 0,
    0, 0, 0, 0, 0, 0, 0, 0, 0, 0, 0, 230, -1, 0, 0, 482,
    -94, -15, 23, 779, 1228, -19, -31, -263, -52, -531, -236, 682, -8, 407, 0, 0,
    -1, -3, 0, 0, 0, 0, -38, -5, 0, 0, 423, -464, 310, -61, -2, 1419,
    31, 0, -246, -5, -232, -461, -65, 444, 0, 0, 0, 0, 0, 0, 0, 0,
    0, 0, 0, 0, 0, 0, 0, 0, 0, 0, 0, 0, 0, 0, 0, 0,
    0, 0, 0, 0, 0, 0, 0, 0, 0, 0, 0, 0, 0, 0, 0, 0,
    0, 0, 0, 0, 0, 0, 0, 0, 0, 0, 0, 0, 0, 0, 0, 0,
    0, 0, 0, 0, 0, 0, 0, 0, 0, 0, 0, 0, 0, 0, 0, 0,
    0, 0, 0, 0, 0, 0, 0, 0, 0, 0, 0, 0, 0, 0, 0, 0,
    0, 0, 0, 0, 0, 0, 0, 0, 0, 0, 0, 0, 0, 0, 0, 0,
    0, 0, 0, 0, -87, 300, -136, 341, -31, 548, -26, -19, 424, -68, -22, 275,
    330, -297, -209, -392, -250, -49, -144, -492, -182, 38, -203, -51, -371, -143, 35, -126,
    -439, -330, -334, -636, 15, -704, 171, 2, -94, -39, -33, 98, -130, -174, -207, -113,
    -140, -111, -364, -8, 112, -139, 8, -451, 71, 16, 0, 0, 0, 0, 0, 0,
    0, 0, 0, 0, 0, 0, 0, 0, 0, 0, 0, 0, 0, 0, 0, 0,
    0, 0, 0, 0, 0, -190, 475, 139, -8, 0, 88, -113, 0, 101, -146, 4,
    104, 230, -260, -58, -374, -183, 84, -122, -325, 142, -27, -39, 81, -261, 82, 76,
    -86, 98, 0, 112, -281, 0, -370, -55, 0, -154, -10, -7, 229, -74, -180, -203,
    -227, -130, -162, -374, -291, -160, 62, 92, -518, 28, 186, 0, 0, 0, 0, 0,
    0, 0, 0, 0, 0, 0, 0, 0, 0, 0, 0, 0, 0, 0, 0, 0,
    0, 0, 0, 0, 0, 0, 0, 0, 0, 0, 0, 0, 0, 0, 0, 0,
    0, 0, 0, 0, 0, 0, 0, 0, 0, 0, 0, 0, 0, 0, 0, 0,
    0, 0, 0, 0, 0, 0, 0, 0, 0, 0, 0, 0, 0, 0, 0, 0,
    0, 0, 0, 0, 0, 0, 0, 0, 0, 0, 0, 0, 0, 0, 0, 0,
    0, 0, 0, 0, 0, 0, 0, 0, 0, 0, 0, 0, 0, 0, 0, 0,
    0, 0, 0, 0, 0, 0, 0, -18, 0, 172, 501, 0, -378, -221, 0, 25,
    -2, -13, 383, 434, -141, -50, -365, -177, -44, 18, -204, 146, 229, -104, 109, -45,
    -175, 265, -33, -451, -346, 278, -150, 0, -206, 837, 0, 38, -29, 110, 458, -128,
    -87, -216, 189, 176, 57, 9, -179, 131, -44, 319, -148, 145, 174, 0, 0, 0,
    0, 0, 0, 0, 0, 0, 0, 0, 0, 0, 0, 0, 0, 0, 0, 0,
    0, 0, 0, 0, 0, 0, 0, 0, -77, -51, -353, 214, -1, 61, -285, -6,
    0, 21, 107, 205, 431, -83, 96, -171, 16, 203, -31, -11, -115, 342, -44, 232,
    -270, -25, 293, -76, -223, 76, -881, -248, 0, -283, -278, 0, -119, 115, 225, 294,
    -25, 88, -231, 172, 155, -176, -467, -27, 90, -64, 248, -408, 178, 229, 0, 0,
    0, 0, 0, 0, 0, 0, 0, 0, 0, 0, 0, 0, 0, 0, 0, 0,
    0, 0, 0, 0, 0, 0, 0, 0, 0, 0, 0, 0, 0, 0, 0, 0,
    0, 0, 0, 0, 0, 0, 0, 0, 0, 0, 0, 0, 0, 0, 0, 0,
    0, 0, 0, 0, 0, 0, 0, 0, 0, 0, 0, 0, 0, 0, 0, 0,
    0, 0, 0, 0, 0, 0, 0, 0, 0, 0, 0, 0, 0, 0, 0, 0,
    0, 0, 0, 0, 0, 0, 0, 0, 0, 0, 0, 0, 0, 0, 0, 0,
    0, 0, 0, 0, 0, 0, 0, 0, 0, 0, 464, 0, 0, 0, 0, 0,
    0, 0, 0, -765, -133, -370, 434, 301, 361, -131, 548, -346, 479, 0, 49, 217,
    626, 134, -45, -439, -598, 112, 0, 0, 0, 0, 0, 0, 0, 0, -238, -85,
    63, -147, 122, 153, -334, -295, 283, 482, 0, 0, 339, -365, -156, -668, -703, -472,
    0, 0, 0, 0, 0, 0, 0, 0, 0, 0, 0, 0, 0, 0, 0, 0,
    0, 0, 0, 0, 0, 0, 0, 0, 0, 0, 0, 338, 0, 0, 0, 0,
    0, 0, 0, 0, -999, 752, 0, 247, 766, 0, -1219, -279, -308, 90, -119, 0,
    243, 404, 0, -1905, -350, 0, 85, 0, 0, 0, 0, 0, 0, 0, 0, -705,
    416, 255, 313, -464, -113, -1645, -200, 0, 177, -43, 0, 99, -93, -577, -1041, 543,
    49, 0, 0, 0, 0, 0, 0, 0, 0, 0, 0, 0, 0, 0, 0, 0,
    0, 0, 0, 0, 0, 0, 0, 0, 0, 0, 0, 0, 0, 0, 0, 0,
    0, 0, 0, 0, 0, 0, 0, 0, 0, 0, 0, 0, 0, 0, 0, 0,
    0, 0, 0, 0, 0, 0, 0, 0, 0, 0, 0, 0, 0, 0, 0, 0,
    0, 0, 0, 0, 0, 0, 0, 0, 0, 0, 0, 0, 0, 0, 0, 0,
    0, 0, 0, 0, 0, 0, 0, 0, 0, 0, 0, 0, 0, 0, 0, 0,
    0, 0, 0, 0, 0, 0, 0, 0, 0, 0, 0, 0, 0, 426, -238, 25,
    258, 0, 37, 131, 0, 14, 180, 85, -338, 382, -79, 363, -183, 138, 669, 135,
    50, 601, 541, 476, 428, -266, 440, 70, 687, 0, 0, 80, 0, 0, 0, 0,
    0, 154, 350, 439, 435, 193, 208, 237, 331, 278, 202, -31, 56, 512, 361, 336,
    -65, 437, 603, 0, 0, 0, 0, 0, 0, 0, 0, 0, 0, 0, 0, 0,
    0, 0, 0, 0, 0, 0, 0, 0, 0, 0, 0, 0, 0, 0, 316, 498,
    58, 51, 0, 31, 677, -55, 32, 168, 298, 699, 346, 69, 124, -18, -28, 8,
    89, -42, 384, 44, -9, 148, 100, 311, 335, 369, 0, 50, 5, 856, 0, 0,
    0, 0, 268, 463, 143, 325, 199, 178, 69, 199, 331, 150, -125, 462, 463, 350,
    412, -127, 268, 453, 0, 0, 0, 0, 0, 0, 0, 0, 0, 0, 0, 0,
    0, 0, 0, 0, 0, 0, 0, 0, 0, 0, 0, 0, 0, 0, 0, 0,
    0, 0, 0, 0, 0, 0, 0, 0, 0, 0, 0, 0, 0, 0, 0, 0,
    0, 0, 0, 0, 0, 0, 0, 0, 0, 0, 0, 0, 0, 0, 0, 0,
    0, 0, 0, 0, 0, 0, 0, 0, 0, 0, 0, 0, 0, 0, 0, 0,
    0, 0, 0, 0, 0, 0, 0, 0, 0, 0, 0, 0, 0, 0, 0, 0,
    0, 0, 0, 0, 0, 0, 0, 0, 0, 0, 0, 0, 0, 0, 0, 0,
    189, 188, 6, 157, 0, 0, -22, 0, 0, 217, -94, 914, 271, -127, -114, 48,
    -132, -55, 28, -199, -28, 308, 228, -43, 5, 117, -97, 136, 0, 34, -365, -394,
    0, 0, 0, 0, 133, 72, 612, 195, -208, -147, -37, 203, 297, 32, -197, 276,
    -2, 165, 8, -270, 106, 284, 0, 0, 0, 0, 0, 0, 0, 0, 0, 0,
    0, 0, 0, 0, 0, 0, 0, 0, 0, 0, 0, 0, 0, 0, 0, 0,
    0, 11, -267, 0, 579, 0, 0, 196, 0, 0, 76, 146, 366, 242, -119, 79,
    -253, -162, 378, 10, -449, 95, 361, -317, 192, -239, -96, 215, -3, -313, 0, 7,
    0, 0, 143, 0, 0, 130, 214, 401, 504, -136, -232, -259, -399, 72, 253, -163,
    -60, 308, -141, 126, -68, -114, 537, 0, 0, 0, 0, 0, 0, 0, 0, 0,
    0, 0, 0, 0, 0, 0, 0, 0, 0, 0, 0, 0, 0, 0, 0, 0,
    0, 0, 0, 0, 0, 0, 0, 0, 0, 0, 0, 0, 0, 0, 0, 0,
    0, 0, 0, 0, 0, 0, 0, 0, 0, 0, 0, 0, 0, 0, 0, 0,
    0, 0, 0, 0, 0, 0, 0, 0, 0, 0, 0, 0, 0, 0, 0, 0,
    0, 0, 0, 0, 0, 0, 0, 0, 0, 0, 0, 0, 0, 0, 0, 0,
    0, 0, 0, 0, 0, 0, 0, 0, 0, 0, 0, 0, 0, 0, 0, 0,
    0, 0, 0, -158, 0, 0, 0, 0, 0, 6, 0, 0, -1590, 160, -181, -471,
    356, 295, 259, -83, 97, 150, 0, 0, -298, -67, 3, -64, 179, 88, 0, 0,
    0, 0, 0, 0, 0, 0, 0, 88, -334, 30, -341, 786, 39, 0, -99, -208,
    293, 0, 6, -151, -833, 239, 0, -428, 180, 0, 0, 0, 0, 0, 0, 0,
    0, 0, 0, 0, 0, 0, 0, 0, 0, 0, 0, 0, 0, 0, 0, 0,
    0, 0, 0, 0, 37, 0, 0, 0, 0, 0, 0, 0, 0, 4, 0, 0,
    25, 0, 0, 0, 25, 0, 0, 142, 0, 0, 296, 0, -540, 0, 2, 0,
    0, 0, 0, 0, 0, 0, 0, 0, 421, 0, 0, 0, 43, 16, -444, 0,
    0, 234, 407, 0, 530, -112, 30, 1, 0, 235, 0, 0, 0, 0, 0, 0,
    0, 0, 0, 0, 0, 0, 0, 0, 0, 0, 0, 0, 0, 0, 0, 0,
    0, 0, 0, 0, 0, 0, 0, 0, 0, 0, 0, 0, 0, 0, 0, 0,
    0, 0, 0, 0, 0, 0, 0, 0, 0, 0, 0, 0, 0, 0, 0, 0,
    0, 0, 0, 0, 0, 0, 0, 0, 0, 0, 0, 0, 0, 0, 0, 0,
    0, 0, 0, 0, 0, 0, 0, 0, 0, 0, 0, 0, 0, 0, 0, 0,
    0, 0, 0, 0, 0, 0, 0, 0, 0, 0, 0, 0, 0, 0, 0, 0,
    0, 0, 0, 0, 0, 0, 60, 46, 329, 533, 0, 516, 343, 0, 45, 208,
    241, 804, 499, -230, -138, -218, -239, 117, 15, -451, -131, 62, -203, -92, -443, -80,
    45, 68, -46, -320, 330, -162, 0, -449, -104, 0, 1, 86, 90, 150, -260, 120,
    -583, -117, 56, -80, -511, 199, 37, -117, 65, -480, -20, 160, 0, 0, 0, 0,
    0, 0, 0, 0, 0, 0, 0, 0, 0, 0, 0, 0, 0, 0, 0, 0,
    0, 0, 0, 0, 0, 0, 0, 70, -333, 253, -1046, 0, 146, 657, 0, 53,
    -49, -232, 371, 215, -217, -131, -267, -254, 119, -15, -238, 270, 106, -201, -39, -423,
    105, 114, 171, -178, 32, -134, 278, 0, -448, -102, 0, 6, -207, 402, 174, -205,
    234, -407, -101, 110, -1, -137, -91, 261, 138, 128, -434, 104, 282, 0, 0, 0,
    0, 0, 0, 0, 0, 0, 0, 0, 0, 0, 0, 0, 0, 0, 0, 0,
    0, 0, 0, 0, 0, 0, 0, 0, 0, 0, 0, 0, 0, 0, 0, 0,
    0, 0, 0, 0, 0, 0, 0, 0, 0, 0, 0, 0, 0, 0, 0, 0,
    0, 0, 0, 0, 0, 0, 0, 0, 0, 0, 0, 0, 0, 0, 0, 0,
    0, 0, 0, 0, 0, 0, 0, 0, 0, 0, 0, 0, 0, 0, 0, 0,
    0, 0, 0, 0, 0, 0, 0, 0, 0, 0, 0, 0, 0, 0, 0, 0,
    0, 0, 0, 0, 0, 0, 0, 0, 0, 27, -5, 37, 603, 0, 81, 65,
    0, 92, 150, 181, 242, 419, -128, 22, 70, -68, 12, 92, -118, -107, 90, 182,
    118, -255, 138, 190, 249, -106, -579, 292, -337, 0, -98, -226, 0, 131, -1, 264,
    366, 15, 118, -11, -111, 120, 111, -174, -103, 182, 19, 176, -380, 150, 291, 0,
    0, 0, 0, 0, 0, 0, 0, 0, 0, 0, 0, 0, 0, 0, 0, 0,
    0, 0, 0, 0, 0, 0, 0, 0, 0, 0, 168, 214, 352, 279, -8, 492,
    537, -134, 352, 109, 194, 305, 332, 16, 61, -136, -58, 228, 41, -120, 53, 233,
    131, 103, -162, 155, 292, 189, 481, 0, -325, -846, 12, -189, -688, 182, 96, 54,
    445, 363, 21, 86, -162, 63, 283, 36, -285, 137, 306, 112, 286, -326, 242, 351,
    0, 0, 0, 0, 0, 0, 0, 0, 0, 0, 0, 0, 0, 0, 0, 0,
    0, 0, 0, 0, 0, 0, 0, 0, 0, 0, 0, 0, 0, 0, 0, 0,
    0, 0, 0, 0, 0, 0, 0, 0, 0, 0, 0, 0, 0, 0, 0, 0,
    0, 0, 0, 0, 0, 0, 0, 0, 0, 0, 0, 0, 0, 0, 0, 0,
    0, 0, 0, 0, 0, 0, 0, 0, 0, 0, 0, 0, 0, 0, 0, 0,
    0, 0, 0, 0, 0, 0, 0, 0, 0, 0, 0, 0, 0, 0, 0, 0,
    0, 0, 0, 0, 0, 0, 0, 0, 0, 0, 0, 0, 550, 0, 0, 0,
    0, 0, 0, 0, 0, -889, 103, -193, 654, 499, 60, 0, 625, 8, 169, 0,
    0, 67, 0, 454, 0, 159, 123, 273, 0, 0, 0, 0, 0, 0, 0, 0,
    -334, 111, 665, 249, 127, 77, 0, 387, 216, 352, 0, 12, 174, 8, 299, 108,
    -148, -307, 0, 0, 0, 0, 0, 0, 0, 0, 0, 0, 0, 0, 0, 0,
    0, 0, 0, 0, 0, 0, 0, 0, 0, 0, 0, 0, 0, 0, 0, 0,
    0, 0, 0, 0, 0, 0, 96, 0, 0, 55, -196, 0, 0, -34, 0, 127,
    -97, 0, 1, 0, 1, -159, 0, 0, -203, 0, 0, 0, 0, 0, 0, 0,
    0, -193, 0, 464, 4, 7, 65, 0, 0, 18, 104, 0, 4, 60, 0, 6,
    0, 0, 90, 0, 0, 0, 0, 0, 0, 0, 0, 0, 0, 0, 0, 0,
    0, 0, 0, 0, 0, 0, 0, 0, 0, 0, 0, 0, 0, 0, 0, 0,
    0, 0, 0, 0, 0, 0, 0, 0, 0, 0, 0, 0, 0, 0, 0, 0,
    0, 0, 0, 0, 0, 0, 0, 0, 0, 0, 0, 0, 0, 0, 0, 0,
    0, 0, 0, 0, 0, 0, 0, 0, 0, 0, 0, 0, 0, 0, 0, 0,
    0, 0, 0, 0, 0, 0, 0, 0, 0, 0, 0, 0, 0, 0, 0, 0,
    0, 0, 0, 0, 0, 0, 0, 0, 0, 0, 0, 0, 0, 0, 0, 184,
    321, 103, 550, 19, 66, -118, 0, 60, 180, 152, 416, 514, -177, -100, -370, -92,
    282, 156, -225, -6, 280, -33, 65, -242, 37, 262, 350, -49, 0, 76, -15, 0,
    -312, 458, 0, 99, 1, 530, 434, -171, 203, -284, -59, 285, 85, -166, 284, 193,
    36, 258, -200, 42, 368, 0, 0, 0, 0, 0, 0, 0, 0, 0, 0, 0,
    0, 0, 0, 0, 0, 0, 0, 0, 0, 0, 0, 0, 0, 0, 0, 0,
    293, 236, -640, 97, -2, -590, 642, 0, 172, 136, 430, 695, 399, -118, -12, -614,
    -38, 269, 43, -189, 175, 338, -4, 144, -257, 235, 325, 379, -779, 0, -118, -199,
    0, -18, -335, 0, 67, 135, -75, 433, -75, 27, -99, 6, 312, 53, -109, 180,
    209, 33, 247, -352, 230, 341, 0, 0, 0, 0, 0, 0, 0, 0, 0, 0,
    0, 0, 0, 0, 0, 0, 0, 0, 0, 0, 0, 0, 0, 0, 0, 0,
    0, 0, 0, 0, 0, 0, 0, 0, 0, 0, 0, 0, 0, 0, 0, 0,
    0, 0, 0, 0, 0, 0, 0, 0, 0, 0, 0, 0, 0, 0, 0, 0,
    0, 0, 0, 0, 0, 0, 0, 0, 0, 0, 0, 0, 0, 0, 0, 0,
    0, 0, 0, 0, 0, 0, 0, 0, 0, 0, 0, 0, 0, 0, 0, 0,
    0, 0, 0, 0, 0, 0, 0, 0, 0, 0, 0, 0, 0, 0, 0, 0,
    0, 0, 332, -398, 32, 805, 307, 126, 878, 49, 501, 211, 306, 459, 480, -31,
    169, 196, -51, 215, 146, -127, 118, 219, 195, 134, -93, 252, 462, 196, -73, 17,
    -104, -97, 0, 242, -2, 0, 105, 189, 271, 254, 51, 217, -49, 99, 234, 98,
    -148, -154, 201, 111, 295, -145, 226, 369, 0, 0, 0, 0, 0, 0, 0, 0,
    0, 0, 0, 0, 0, 0, 0, 0, 0, 0, 0, 0, 0, 0, 0, 0,
    0, 0, 0, 277, -178, -166, 192, 77, 179, 540, -37, -148, 166, 134, 354, 438,
    59, 72, -98, 148, 364, 100, -140, 63, 315, 172, 296, -135, 146, 446, 317, 621,
    -610, 317, 219, -369, -81, -31, 287, 164, 220, 424, 439, 148, 192, -11, 97, 397,
    164, -12, 417, 445, 223, 390, 51, 242, 475, 15, -202, 245, 164, -152, 367, -100,
    -312, 172, -3, 14, 305, 235, -214, 214, -14, -101, 395, 22, -272, -3, 132, -364,
    180, -338, -141, 232, 2, -211, 192, 183, -76, 328, -145, -218, 205, 18, 133, 317,
    43, -510, 186, -109, -107, 302, 32, -160, 58, 387, -343, 0, -24, -46, 394, -42,
    -198, 132, 171, -195, 400, -41, -270, -136, -67, -130, 215, 346, -384, 85, -321, 0,
    123, -66, -248, -168, 247, -280, 74, -69, -270, 514, 12, -148, 220, 61, -130, 357,
    -98, -648, 122, 73, 14, 276, 208, -86, 448, -229, -52, 416, 60, -183, 75, 335,
    -331, 96, -170, -650, 335, 61, -330, 112, -67, 151, 343, -122, -584, 208, -58, 42,
    287, 4, -370, 266, -143, -114, 307, 7, -98, -38, 439, -321, 0, 69, -66, 347,
    -29, -215, 80, 79, -131, 159, -399, -652, 242, -62, 83, 95, 296, -270, -81, 0,
    0, 0, 13, -206, -112, 317, -278, -96, -78, -30, 487, -35, -114, 135, 95, -98,
    411, -101, -249, -220, -94, -134, 132, 139, -288, 464, -59, -94, 171, -124, -220, -113,
    226, -294, 62, -363, -226, 154, 5, -114, 65, 305, -233, 618, -24, -138, 371, -86,
    -77, 333, 191, -447, -37, -291, 1, -8, -43, -42, 65, 0, 0, 0, -359, 104,
    152, -153, -135, -59, 77, -51, 354, 181, -238, -204, -97, -62, 242, -100, -282, -11,
    -398, 0, 196, 5, -305, -106, 119, -353, 13, -61, -332, 261, -14, -283, -9, 347,
    85, 31, -251, -329, 84, -71, 107, 252, -25, -424, 242, -195, -350, 281, 17, -325,
    -147, -52, -351, 61, -125, -356, 283, 34, 10, 131, 111, 616, 303, -220, -53, 368,
    70, 584, 191, 155, -211, 485, -218, 481, 325, 57, 103, 149, -392, 47, 0, -78,
    267, 527, -79, 0, 130, 27, -271, 310, -203, -716, -93, -90, -144, 483, 187, -350,
    -7, -230, 0, 69, -35, -394, -355, 158, -486, -101, -190, -297, 344, 15, -20, 145,
    -10, -133, 94, -204, -740, 100, 223, 258, 536, -228, -28, 262, 65, 974, 337, 48,
    -135, -7, 349, 144, -104, -103, -249, 193, -88, -290, 106, 108, 67, 507, -214, -312,
    -21, -111, 53, 89, -126, -545, 238, -198, -198, 259, -6, -181, -192, -21, -173, 0,
    -196, -50, 273, -88, -218, 28, -14, -78, 194, -250, -785, 70, 1, 320, 324, 467,
    -217, -218, 0, 0, 0, 4, -211, -245, 287, -164, -62, -166, 40, 336, -43, -137,
    -171, 45, -91, 372, -2, -145, 148, -69, -150, 212, 33, -466, 675, -389, 23, 384,
    -69, -404, -179, -7, -479, 11, -386, -484, -59, -63, -49, -79, 227, 493, 891, -265,
    -342, 443, -90, 332, 620, 285, -523, -306, -346, 0, -332, 0, 0, 0, 0, 0,
    0, 0, 0, 0, -79, -52, 274, 43, 150, 438, -473, -684, -207, 12, 321, 382,
    423, -211, -169, -141, 0, 254, -6, -112, -39, 352, 82, 51, -114, -2, 422, 19,
    -71, 277, 292, -46, 365, -264, -412, 19, -12, -86, 190, 168, -205, 298, -268, -162,
    109, 39, -90, -278, 181, -197, 176, 47, -138, 120, 41, -53, 14, 220, -315, 403,
    -103, -160, 283, 33, 210, 404, 148, -338, 307, 140, 65, 596, 127, -29, -87, -314,
    -155, 0, 204, -50, 524, -79, -58, -71, 196, -211, 25, -214, -500, -629, -76, -123,
    92, 100, -579, -295, 215, 0, -87, -291, 64, -854, 185, -330, -577, -42, -563, 2,
    22, 126, 252, 35, -470, 149, -170, -577, -39, 60, 68, 87, 316, -23, 390, -5,
    -239, 588, 143, -169, -7, 184, -347, 185, 117, -418, 735, -8, -409, -178, 215, 97,
    572, 46, -477, 186, -16, -144, 243, 223, -549, -248, -439, -216, -233, -127, -5, -172,
    302, -558, 0, -361, -22, 97, -48, -19, -34, 206, 220, -149, -594, -463, -462, 0,
    0, 0, 0, 0, 0, 0, 0, 0, -55, -230, -584, 368, 432, 0, -348, 141,
    227, -20, -103, -14, 145, -104, 223, -52, -221, -100, -48, 6, 91, 132, -131, 466,
    134, -53, 0, -405, -253, -685, -53, -647, -952, 620, -71, 100, 14, -18, 41, 108,
    -179, 449, 48, -36, 605, -21, 206, 226, 247, -386, -242, -331, -143, 51, -131, 67,
    -379, 0, 0, 0, -422, 15, 116, 0, -139, 202, 131, -29, 426, -23, -894, -143,
    11, 128, 330, 274, -317, -181, -139, 0, -70, 48, -60, -161, 286, -334, 3, 62,
    -289, 430, 201, 83, 341, 111, 111, 572, 130, -613, 180, 342, -79, 481, 1111, 161,
    352, 12, 576, 450, 379, 190, 403, -71, -99, 565, 162, 190, 239, 66, -105, 511,
    228, 1047, 101, -238, -261, -297, 74, 460, 371, -129, -416, 286, 9, 463, 340, 145,
    265, 206, 151, -56, 0, -396, 553, 512, 160, 168, 264, 356, 498, 272, 87, -163,
    -116, 123, 163, -96, -6, -409, -115, 845, 0, 369, 84, -7, 510, 170, -247, 146,
    -151, -322, 355, 137, 387, -80, 266, 675, 536, -664, -449, 107, 207, -22, 333, 190,
    375, 131, -300, 55, 492, 48, 22, -247, 288, -377, 268, -216, -263, -82, 33, -24,
    759, 0, -110, 338, -79, -484, -260, 178, 672, 84, 139, -182, 281, -251, 552, 478,
    301, 39, 662, 442, -307, 0, -461, 409, 385, 284, 198, -328, 508, -166, 515, 139,
    -755, 420, 507, -255, 858, -92, -75, 6, 0, 0, 0, 123, 350, 110, 299, 169,
    883, -331, 300, 633, 179, 7, 249, 404, 191, 110, 83, -186, -181, 53, 124, 245,
    -66, -733, 504, -18, 10, 347, 224, 85, -146, 533, -440, -60, -576, -86, 139, 49,
    34, 217, 607, 833, 462, 112, -526, 19, 52, 262, 351, 71, -548, -9, -208, -13,
    -78, 156, 32, -305, 0, 0, 0, 304, -139, 117, 146, -200, 91, -50, -105, -270,
    -260, -474, 37, 62, 107, 141, 49, -350, 79, 48, 0, -171, 159, -183, 114, 296,
    -180, 105, -65, 9, 256, 146, -24, 272, 664, 495, 707, -346, -109, 395, -41, 109,
    -83, 113, 501, -27, -455, -47, 372, 203, 198, 227, -72, -56, -31, -619, -393, 55,
    146, 417, 389, 238, 101, 274, 382, -93, 440, -74, 403, -18, -98, 12, 486, -221,
    551, 564, 460, 573, 56, 0, -277, 0, 190, 1247, 460, 123, 15, 556, -116, -464,
    -228, 304, -463, -475, -3, -202, -117, 362, -329, 107, 159, 0, 484, 123, 198, 140,
    77, -512, 122, -25, -170, 66, 42, 33, 98, -132, -360, 336, 204, -457, -100, 204,
    528, 310, 203, -11, 728, -185, 369, 449, 172, -265, -248, 128, -347, -106, -19, -129,
    147, 8, -194, 89, 156, 98, 326, -56, -66, 118, -114, 173, -47, -230, -592, 275,
    119, 359, 331, 304, 358, 172, 350, 331, 0, 73, 453, 221, 241, 271, 315, 200,
    506, 494, 204, 268, -49, 398, 620, 857, 380, 79, -32, 0, 0, 0, 279, 347,
    146, 262, 436, 268, 177, 561, 290, 249, 324, 288, -131, 342, 260, 871, 255, -103,
    96, 217, 314, 181, 158, 478, -64, 62, 678, 43, -651, 154, 85, -553, -336, -178,
    -668, 85, 262, 813, 77, -517, -314, 225, -243, 36, 8, 356, 151, 147, 213, -293,
    144, 185, 0, 257, 0, 0, 0, 0, 0, 0, 0, 0, 0, 207, 295, 324,
    109, 230, 321, 141, 326, -497, 334, 375, 751, -59, 152, 106, 41, 0, 608, 294,
    -139, 115, 349, 313, 212, 237, 389, 434, 189, -125, 558, 241, 516, 159, 249, -116,
    265, 323, 787, -7, -147, 53, 360, -61, 888, 524, 222, 555, 197, 757, 106, 609,
    250, 13, 126, 214, 187, -166, -81, 296, 789, 9, 79, 283, 269, 663, -450, 107,
    -162, 333, -136, 534, 996, 285, 476, 386, -308, -290, 0, -75, 650, 345, 216, -491,
    1, 328, 220, 6, 744, 1003, -98, 77, -592, -76, -12, -132, 0, 194, 0, -105,
    -66, -94, -343, 491, -435, -64, 135, -356, 329, 307, 211, -201, 429, 374, 548, -1203,
    -134, 150, -145, -304, 3, 0, -113, 110, -122, 0, 265, -932, 224, 10, -312, 158,
    356, -190, -240, 1052, 306, -736, 143, -448, 416, 575, -50, 42, 390, 145, 474, 294,
    306, -126, -394, -213, 0, -402, 39, 232, 269, 0, 0, 0, -217, -867, -263, 0,
    0, 0, 0, 0, 0, 0, 0, 0, 0, 0, 0, 0, 0, 0, 0, 0,
    0, 0, 0, 0, 0, 0, 0, 0, 0, 0, 321, 51, 207, 355, 93, 838,
    -178, 42, -38, 253, 233, 161, 41, 3, 499, 20, 214, -272, 338, 355, -270, 269,
    -139, -275, 410, -831, -126, 299, 165, 432, 835, 608, 302, 433, -77, -64, 313, 322,
    549, 485, -333, -145, 113, 275, -68, 400, 204, 282, 0, 0, 0, -856, -60, 241,
    143, -107, 293, 223, 218, 409, 157, -989, -303, 533, 608, 425, 471, 150, 146, 494,
    0, -281, 266, 428, 251, 294, 109, 547, 298, 549, 385, -101, -270, 69, -240, -814,
    -101, -127, -57, 7, -299, -373, 311, -168, -319, -89, 311, -336, 629, -138, -594, 531,
    49, -258, -141, -864, -224, -79, -120, -368, -192, 260, -302, 730, -391, -680, -508, -103,
    -560, 118, 167, -555, 160, -456, -343, -78, -297, 193, -116, -1184, 5, 0, -281, 38,
    207, -114, -361, 76, 94, 6, 642, 239, -461, -1198, -174, -759, 81, 997, -271, -512,
    -636, 0, 587, -144, -467, -959, 64, -306, -627, 6, -229, 370, -153, -201, 187, -136,
    -217, 436, -630, -42, -139, -233, -62, 207, 83, -356, -180, -254, -8, 423, -91, -108,
    -264, -156, -154, -282, 20, -135, 497, -145, -176, 212, 60, 151, 559, 38, 28, 137,
    -199, -172, 180, -55, -319, 285, 24, -211, 431, 35, 174, 18, 729, -311, 0, 62,
    -162, 6, 1, 34, 242, 116, 241, 699, -339, -171, -821, -221, 149, 215, -250, -79,
    -293, 0, 0, 0, 129, -109, -551, -422, -174, 192, 149, -112, 651, 75, 313, 51,
    431, 211, 0, -110, -146, -726, -125, 194, -102, 128, -5, 290, -442, 67, -338, -366,
    244, 28, 676, -388, -380, -104, -162, -547, -329, 179, -117, -235, -381, -53, -563, -210,
    0, -133, 67, 116, 179, -672, -140, -100, -699, 46, -654, -949, 0, 0, 0, 0,
    0, 90, 216, -18, -287, -163, -49, -434, 255, 0, -85, -131, -368, -424, -451, 273,
    -469, -442, -77, 0, 288, -176, -227, -877, 153, -583, -780, -5, -279, -125, -28, -199,
    66, -346, -342, 123, -195, -553, -393, -113, -106, -515, -184, -454, -204, -603, -665, -215,
    -366, -168, -382, 14, -549, -664, -199, -734, -53, -207, -92, 30, -637, 55, -185, -435,
    -152, -224, -65, 304, -95, -151, -357, 337, -48, -142, 264, 80, 141, -28, -309, -311,
    0, 166, 109, 433, 77, -62, -420, 9, -754, 315, -6, -653, -393, -365, -170, -13,
    290, -551, -617, -213, 0, -375, 141, -177, -500, 30, -1129, -502, 153, -532, 441, -169,
    -266, 142, -9, -356, -153, -339, -817, -268, -314, -54, -581, -129, -51, 326, 97, 107,
    363, 38, -475, -290, 327, -547, -1, 127, -633, 538, -204, -87, -155, -111, 188, 615,
    257, -743, 90, -181, -282, 111, 104, -570, -554, -314, -557, -212, -642, -41, -506, -171,
    -743, 0, -343, -243, -22, -344, -549, -42, -318, 97, -34, -230, -513, -64, -386, -24,
    40, 50, -203, -454, 0, 0, 0, -539, -222, -176, 25, -379, -161, -333, -203, 19,
    -232, 154, -187, 887, -267, 595, -419, -298, -45, -13, -138, -238, 221, -363, -408, 322,
    -8, 107, 184, 93, -491, 379, -26, 0, 0, -52, 297, 0, 0, 0, 0, 0,
    0, 0, 0, 0, 0, 0, 0, 0, 0, 0, 0, 0, 0, 0, 0, 0,
    0, 0, 0, 0, 0, 0, -181, -170, 319, 287, -168, -50, 359, 199, -88, -31,
    -349, -77, -397, -133, -654, 0, 0, 0, -208, 172, -222, -45, 750, 0, -282, 355,
    -79, -178, -287, 3, 312, -162, -300, -135, -815, -305, -227, -38, -392, 921, 83, 439,
    -278, 380, 177, -61, 59, -691, -427, -542, 215, -3, -257, -608, -172, -431, 181, -402,
    141, 42, 46, -147, 336, -105, -51, -122, -22, 45, 388, 134, -137, 421, 288, 562,
    -158, -65, -412, 0, -107, 49, 282, -148, -366, -453, -615, -260, -5, 0, -96, 0,
    -420, -162, -477, -123, -469, -1129, -196, 0, -58, 814, -400, -260, -50, -891, -682, 582,
    -388, -214, -32, -220, -123, -628, -277, -182, -289, -255, -540, 78, -216, 809, -70, -76,
    640, 125, -166, 577, 59, -115, -245, -133, -270, -59, 285, -134, -230, -106, -268, -420,
    -492, 483, 281, 72, -441, 283, -229, -360, 161, 86, -539, -673, -211, -21, -2, -272,
    -270, -489, -83, -357, 0, 310, -164, -534, -392, -370, -679, 37, -394, 310, 0, 519,
    0, 0, 0, 0, 0, 0, 0, 0, 0, 0, -592, -540, -299, -330, 262, 0,
    -304, 223, 74, -33, 7, 158, -183, 169, 328, 134, -198, 258, -180, 201, 178, -7,
    -138, 686, 91, 295, 792, -33, -407, -613, 96, -547, -277, 281, -716, 270, -32, -265,
    -542, -311, -356, 217, 205, -301, 219, -161, -220, 226, 230, -348, -689, -171, -175, -466,
    -364, -403, -561, 0, 0, 0, -436, -396, -166, -72, -110, 144, -67, -155, 531, -185,
    -409, 277, -98, -109, 175, 233, -250, -527, -250, 0, -264, 60, 20, -101, 327, -373,
    -378, 246, -236, 518, -214, -483, -18, 219, -165, 471, -41, -171, 208, -121, 251, 553,
    -17, -369, 351, -155, 527, 429, -50, -260, 9, 350, -277, 72, -228, -158, 249, -150,
    -312, 336, 28, 224, 439, -282, -199, 313, -161, 316, 187, 196, -386, 523, 65, 359,
    418, 78, 140, 187, 510, -424, 0, -417, 76, 614, -178, -438, 192, -118, -304, 70,
    -148, -658, 68, -114, 397, 187, 539, -475, -22, 166, 0, -261, -158, -463, -583, 381,
    -334, -165, -123, -290, 425, -281, -322, 27, 112, -426, 560, -258, -292, -440, 128, 47,
    325, 195, 71, 529, 183, 194, 322, -246, -278, -176, -154, -24, -276, 369, 181, 535,
    -236, -401, 23, 299, -40, 492, -406, -553, 833, -228, -101, 16, -113, -506, 327, -215,
    -36, 216, -278, -217, -57, 49, -144, 0, -72, 175, 375, -83, -455, -23, 131, -82,
    634, -135, -240, -266, -142, 48, 646, -194, -619, 100, 0, 0, 0, -29, -60, -54,
    136, 335, 412, -488, 33, 353, -205, -623, -197, 63, -211, 720, -305, -225, 114, -70,
    236, 336, 50, -205, 333, -403, 176, 47, -135, -91, -56, -18, -413, 681, -717, -603,
    49, -176, -248, -444, 146, 116, 545, 87, -551, -213, -161, -29, 503, 255, -606, -481,
    -145, 33, 99, -1, -371, -8, 0, 0, 0, -943, -158, 299, -232, -564, -89, -134,
    -190, -135, -469, -587, -594, -17, -33, 446, -152, -315, -231, -392, 0, -811, -132, -422,
    -417, 193, -552, -15, -104, -309, 256, -23, 35, 254, 180, -454, 642, -356, -101, 476,
    161, 403, 330, 179, -194, 304, 67, 446, 760, -61, 111, -40, 508, -17, 400, -499,
    -137, 806, -28, 33, 569, 79, -24, 675, 50, -530, 195, 177, 521, 451, 461, -106,
    529, 95, 826, 336, 108, 423, 205, 162, 0, 0, -505, 448, 298, -138, -320, 88,
    592, -38, 578, 563, -68, -148, -1, 340, 109, 455, -28, -112, -100, 0, -19, -50,
    21, -618, 319, -361, -158, 91, -61, 224, 48, 556, 116, 199, 152, 438, -315, -184,
    -129, 375, 220, 1121, 313, 565, 883, 249, 549, 397, 291, -225, -56, 492, 542, -129,
    324, 64, 317, 5, -103, -267, 194, 493, 697, -5, -196, -108, 91, 443, 132, 157,
    -509, 316, -352, 443, 340, -38, 175, -505, 259, 275, 0, -104, 345, 473, -21, -148,
    -138, 174, 464, 82, -18, -560, -495, 262, 804, 344, 433, 243, 281, 0, 0, 0,
    77, 2, -42, 536, 348, 316, -193, 466, 704, -150, -60, -478, 123, -778, 332, -421,
    238, -426, 47, -100, -228, -237, -415, 810, 259, -6, 85, -62, -12, -238, -533, -212,
    -402, 39, -790, 679, 52, 91, 1451, 17, 342, 203, 396, -324, 260, 240, 655, 632,
    635, -140, -60, -20, 0, -60, 0, 0, 0, 0, 0, 0, 0, 0, 0, -41,
    44, -425, 329, 144, -7, -470, -497, 108, 353, 901, 678, 289, -120, 130, -570, 0,
    284, -26, 68, -203, 647, 411, 51, -328, 515, 588, -260, -201, 163, 211, -335, 748,
    -480, -387, -131, -163, 132, 60, 118, -218, 87, -447, -4, 240, -104, 145, -307, 470,
    19, -7, -44, 149, 51, -233, -362, -85, -79, 161, 368, -53, -506, -207, -178, -67,
    -126, -207, -428, 455, -282, -262, 595, -237, 184, 562, 91, 315, 0, 50, -276, 345,
    -162, 230, 165, -11, -191, 165, -260, -266, -159, -478, -153, -351, 105, -310, -274, 383,
    0, 86, -420, -70, -889, 37, -116, -887, -238, -982, -234, -152, -89, 53, 325, 104,
    161, -126, 76, -124, 58, 36, 186, 59, 109, -134, -13, -33, 827, -53, -343, -69,
    -111, -342, 8, 243, 133, 516, -28, -212, 89, 475, 542, 256, 40, -483, 171, -199,
    189, 74, 402, -412, -329, -272, -110, -462, 39, -361, -340, 195, 542, 0, -25, 67,
    203, 54, 37, 256, 295, -244, -55, -419, -149, 16, 0, 0, 0, 0, 0, 0,
    0, 0, 0, 135, -223, -175, -64, 601, 0, -157, 229, 176, -89, -220, -200, -38,
    -35, 158, -131, -300, 170, -286, -303, -39, 33, -464, 698, -300, 23, 485, 52, 211,
    -294, -347, -20, -382, -85, -163, 274, -157, -474, -93, 293, 101, 676, -6, -115, 924,
    -129, 231, 236, 278, -473, -282, -454, -144, -112, -144, -458, -523, 0, 0, 0, -765,
    379, -32, -155, -110, -67, -112, -355, 415, -610, -62, 169, -10, 439, 177, 260, -324,
    -56, -144, 0, 212, -101, -214, -133, 451, -255, 97, 1, -33, 550, -288, -107, -570,
    -296, -29, 83, -126, -418, 130, 101, -175, 153, -5, -426, -400, -188, -741, 13, 55,
    -251, -384, -227, -62, 47, -401, -181, 234, -182, -117, -513, -76, 184, 271, 158, 161,
    -285, -398, 324, 214, -331, -616, -46, -524, -4, 127, -582, -72, -746, -113, -170, 0,
    -83, 691, -591, -154, -463, 176, -127, -721, 750, -182, -601, -99, -83, -177, -47, -352,
    -327, -40, 526, 0, -132, -3, -284, -121, 433, -356, -520, -160, -217, 39, -23, -374,
    -30, 3, 224, 185, -52, -9, -501, 643, -143, 470, 387, -762, 226, 48, -94, 679,
    -94, -53, 267, -170, 214, -849, 115, 34, -61, 509, 247, 79, 250, -292, 1273, 16,
    103, -425, -165, 365, -292, 295, -151, 481, -91, 477, 338, -155, 114, -184, 211, 201,
    0, 508, 677, 304, 30, -33, -18, -112, -176, 1264, 295, 331, 246, 588, 549, 891,
    -85, -192, 426, 0, 0, 0, -24, -530, -155, 252, 124, 249, 134, 530, 603, -248,
    -413, -537, -348, 451, 482, 250, -762, -88, -397, 330, 236, -22, -490, -59, -181, -385,
    630, -11, -288, -352, -433, -447, 0, -473, -356, -262, -100, 253, 108, 256, -30, -217,
    326, -239, 39, -23, 424, 334, 300, -264, -269, 151, -133, 297, 162, -146, 521, 0,
    0, 0, -55, 378, 419, -161, -279, -362, -30, 108, -10, -433, -349, -254, 66, 354,
    176, 128, -343, -3, -137, 0, -43, -104, -196, 64, 499, -288, 190, -191, -293, 410,
    -334, -527, -293, 69, -328, 125, -87, -468, 131, -442, -277, -452, -487, -549, -317, -793,
    -412, -108, -28, -343, -652, -157, -821, -709, -467, -469, -77, -228, 45, 172, -222, 198,
    295, -254, -768, -196, 50, 345, 142, 120, -305, 397, -354, 476, 476, -202, -67, 106,
    302, 16, 0, 399, 288, 398, -342, 19, -343, -512, -701, 184, 242, -689, 184, -242,
    -250, 39, 176, -634, -25, 269, 0, 426, -235, -320, -217, 104, -552, -177, -105, -325,
    89, -386, -477, -236, -345, -522, -235, -314, -683, -370, -138, -60, -97, 268, -270, 336,
    -314, 246, 447, -286, -422, -339, -31, -442, -141, -165, -330, 3, -425, -575, -497, -318,
    -354, 88, -364, -526, -141, -546, -479, -471, -590, -686, -665, -642, -552, -514, -532, -394,
    -540, -192, -517, 0, -395, -348, -241, -451, -585, -301, -384, -392, -387, -708, -934, 121,
    -480, -120, 267, -45, -590, -621, 0, 0, 0, -443, -352, -436, -74, -338, 43, -519,
    -24, 25, -414, -440, -548, -432, -231, -451, -483, -271, -210, -306, -300, -522, -590, -398,
    42, -220, 318, 464, -292, -350, -344, -240, -641, -498, -592, -814, -8, -522, -798, 156,
    -459, 62, 365, -590, -385, -76, -442, 316, 84, 108, -520, -337, -330, 0, -602, 0,
    0, 0, 0, 0, 0, 0, 0, 0, -364, -526, -361, -489, -500, 28, -763, -1168,
    -70, -152, 166, -41, 102, -240, -30, 191, 0, -44, -366, -310, -338, 340, -324, -23,
    -385, 28, 70, -409, -295, -110, -8, -132, -203, -278, -376, 20, -204, 382, 90, 58,
    -357, 32, -313, -9, -315, -121, -58, -266, -106, -260, -496, -153, -423, -306, -322, 69,
    -36, 391, 182, -250, -251, -533, -672, -1, 236, 27, -175, -295, 289, -489, -38, 276,
    -309, 121, -750, 121, 641, 0, 266, 57, 394, -309, -540, -108, -133, -370, 66, -151,
    -780, -210, -442, 32, 145, -248, -526, -538, 200, 0, 389, -233, 120, 619, -19, 23,
    -596, -546, -212, -227, -237, 153, -61, 387, -294, 472, -274, -164, 173, 348, 113, 69,
    -267, 174, 263, -433, 0, 247, -257, 426, 215, -407, 234, -661, -447, 324, 659, -332,
    -441, 733, 214, 20, 656, 218, -24, 470, -151, 137, 122, 260, -419, -499, -451, -82,
    13, -687, 173, -110, 0, 0, 0, -377, -157, -458, 0, 0, 0, 0, 0, 0,
    0, 0, 0, 0, 0, 0, 0, 0, 0, 0, 0, 0, 0, 0, 0, 0,
    0, 0, 0, 0, 0, -254, -408, 156, -441, -359, -618, -988, 15, -57, -415, -311,
    -122, -650, -449, -416, -492, 819, -32, -181, 50, -116, -216, -291, -463, 153, -730, 183,
    -122, -166, -257, 419, 62, 398, -160, 222, 367, -66, 392, 658, 179, -237, -162, -5,
    289, 63, 128, -43, 265, 0, 0, 0, -420, 589, 243, -286, -592, -13, -1, -116,
    -98, -162, -698, -191, 83, 526, 428, 193, -103, 99, -3, 0, 257, -310, -234, -466,
    349, 42, 422, -279, 312, 361, -352, -124, -370, -248, -487, -171, -272, 2, -262, -413,
    374, 363, -393, -484, 178, -266, -135, 441, 20, -325, -46, 13, -478, -306, -1152, -417,
    -163, -359, -365, -392, -104, -257, 56, -276, -81, 234, -524, -316, -511, -37, -926, 245,
    -1069, 251, 101, -401, -316, -943, 695, -52, 0, -511, 93, 702, -527, -604, -93, -40,
    -1076, 299, -134, -410, -146, -207, -39, 175, 354, -903, -672, -129, 0, 16, 143, -258,
    -851, 67, -175, 45, -364, -802, 212, -315, -891, -272, -315, -754, 147, -409, -314, -577,
    -263, 533, -543, -80, -433, 680, -1168, 618, 464, -513, -81, -419, -35, -725, -177, 160,
    14, 125, -128, -540, -110, -225, -2, 234, -236, -215, 5, -311, -426, -309, -11, -563,
    -9, -641, 263, -474, -412, -79, -262, 202, 236, 0, -461, -218, 214, -230, -515, -467,
    248, 39, 163, -433, -288, -1035, 214, -6, 26, -164, 866, -243, 0, 0, 0, -278,
    -107, -511, 346, 226, 133, -332, 229, 762, -202, -540, -815, -573, -771, -440, -98, -730,
    -44, -579, -182, -167, -449, -417, -333, 155, -555, 246, -227, -495, -106, 209, -450, -325,
    -129, -400, -124, -724, 61, -900, -672, -184, 0, -137, -800, 0, -646, -505, -338, 216,
    -843, -680, -318, 368, 573, -630, -131, 299, 0, 0, 0, 450, -10, -26, -305, -1259,
    -271, -177, -309, 0, 0, -123, 535, -662, -896, -194, -216, -731, -362, 0, 0, -211,
    -390, 26, -84, -560, 246, -86, -378, -313, 58, -147, -176, -97, 780, -579, 124, -446,
    216, -425, -147, 310, -24, 448, -359, 203, -585, -32, 273, -84, -773, -349, 447, -13,
    93, 3, 61, 424, -25, 296, 178, -309, 77, -117, 43, 596, -772, 401, 397, 324,
    442, -24, 249, 101, 913, 474, -356, 26, 33, -473, 56, 0, -476, 276, 267, -142,
    -64, 341, -8, -358, -313, -346, -447, -14, 75, 667, -220, -175, 36, -335, -116, 0,
    661, -234, -191, -393, 428, 813, -540, 401, 485, 461, -159, 99, 332, 250, -29, 157,
    261, 35, 129, 393, 401, 449, 685, 446, 1005, 193, 940, 767, 17, -613, -535, 753,
    -174, 214, 418, 328, 1161, -83, -77, -295, 181, 515, 781, 15, 376, 683, -81, 497,
    379, 371, -548, -524, -409, 364, -473, -382, -131, -438, 0, 0, 0, -360, -261, 120,
    -84, 245, -233, 185, -165, -133, -77, -7, -745, 0, 0, 0, 0, 0, 0, 0,
    0, 0, -172, -176, -312, -20, 274, 0, -333, -65, -69, 0, 0, 0, 0, 0,
    0, 0, 0, 0, 0, 0, 0, 0, 0, 0, 0, 0, 0, 0, 0, 0,
    0, 0, 0, 0, 0, 0, 0, 0, 0, 0, 0, 0, 0, 0, 0, 0,
    0, 0, 0, 0, 0, 0, 0, 0, 0, 0, 0, 0, 0, 0, 0, 0,
    0, 0, 0, 0, 0, 0, 0, 0, 0, 0, 0, 0, 0, 0, 0, 0,
    0, 0, 0, 0, 0, 0, 0, 0, 0, 0, 0, 0, -157, -44, -326, -144,
    121, -259, 207, -347, 297, -393, -540, 874, -269, -336, -246, -359, -545, 494, -134, 174,
    -534, 111, -168, -249, -365, -297, -125, -395, -72, -367, 102, -327, -30, -411, 31, 39,
    -314, -325, -128, -29, -494, 617, -587, 12, 732, -395, 353, -417, -80, 538, 0, -85,
    -75, 546, -99, -211, 137, -185, -29, -308, -78, 172, -311, -632, -588, 76, -658, -912,
    -1069, 0, 0, 6, -510, -471, -458, -364, -270, -861, -642, -881, -394, -29, 54, 276,
    331, -230, 51, -725, -115, -778, 208, 228, 386, 228, 484, 772, -118, 12, 898, 10,
    -611, 419, 440, 276, 497, -337, -707, 419, 106, -392, 203, 753, 491, 903, -361, 232,
    318, -64, 491, 453, 436, -322, -346, 20, -214, -248, 49, 49, -154, 166, 29, 0,
    -562, 71, 271, 232, -56, 739, 155, 225, 357, 0, -517, 0, 0, 0, 0, 0,
    0, 0, 0, 0, 0, 37, 61, -538, 280, 452, 0, -653, 533, 493, -203, -9,
    -641, -248, -97, 176, -471, -36, -105, -192, -107, -195, -39, -276, 141, -416, 502, 1093,
    -440, -819, -829, -743, -330, -1128, -127, -1356, 73, 37, 57, 172, 638, 627, 871, 302,
    159, 555, 43, 437, 648, 552, -39, -45, 17, 223, 191, 93, 40, 435, 0, 0,
    0, 88, 577, 444, -274, -236, -378, -73, -306, 220, -297, -138, -479, 173, 652, 494,
    572, 33, 118, 600, 0, 452, -259, -25, -280, 486, 285, 383, -256, 516, 537, 249,
    28, 615, 154, -413, 598, -179, -490, -69, 64, 98, 357, 236, -280, 15, -182, -173,
    268, 190, -372, -42, 120, -412, -88, -205, -235, 186, 198, -150, 354, 187, 497, 367,
    190, -607, 442, 206, 555, 480, 166, -423, 295, 37, -7, 391, 233, -123, -437, -158,
    37, 0, 197, 193, 578, 172, -389, 425, 373, -469, 498, 204, -773, -404, -163, -495,
    213, 265, -788, -58, -246, 0, 353, 140, -375, -892, 5, -95, -257, -41, -757, 468,
    222, 94, 395, 395, -933, 392, -243, -842, 162, 172, 210, 178, 601, -262, 580, 15,
    -254, 524, 55, -425, -143, -365, 131, -389, -28, 85, 244, 230, -60, 564, 516, 436,
    758, -25, 310, 53, 102, 272, 494, 127, -458, -5, -451, -246, 396, -126, -172, 77,
    454, -183, 0, -325, -60, 357, 53, 33, 233, 147, 187, 924, -403, -461, -316, -46,
    204, 537, -30, -368, -29, 0, 0, 0, 5, -345, 9, -6, -543, 39, -357, 70,
    482, 214, 116, 325, 33, 176, -112, -288, -460, -179, 227, 128, 237, -259, -316, 785,
    26, 833, 226, -217, -303, 26, -259, -564, -426, -821, -508, 144, 90, -67, 444, 301,
    -153, 11, 79, -594, 204, 74, -177, 37, 571, -393, -277, -773, -732, -346, -93, -146,
    112, 0, 0, 0, 35, -161, 191, 140, -121, -153, 144, -320, 373, -270, -350, 0,
    245, -357, 389, -38, -347, -288, -78, 0, 69, 170, -57, -13, 294, -287, -27, 39,
    -325, 478, 308, 129, 431, 558, -68, 280, -346, -585, 407, 261, 331, 153, 286, -51,
    258, -197, -13, 385, 194, 228, -231, 179, 160, -90, 182, 73, 604, 262, 203, 275,
    -54, -112, 243, -76, -59, 344, 538, 985, 410, 359, -210, 80, -348, 619, 212, 238,
    132, 121, -245, 160, 0, 29, 356, 363, 250, 19, 473, 178, 321, 590, 3, -271,
    -450, 194, -250, -303, 54, -508, 95, 149, 0, -135, 171, -282, -150, 239, -259, 16,
    84, -304, 233, 216, 394, 597, 317, -81, 257, 264, -493, -97, 43, 131, -21, 230,
    -18, 417, 683, -134, 584, 343, 93, 350, 311, -41, -124, -94, -95, 285, 182, 126,
    211, -114, -152, -30, 5, -269, 268, 83, 142, 244, -25, -544, 223, -124, 408, 422,
    186, 226, -337, 111, -2, 0, 111, 480, 137, 269, 321, 260, -69, 229, 378, -37,
    -453, -121, 615, 921, 406, 221, -55, -58, 0, 0, 0, 288, 207, 42, 563, 170,
    830, 380, 655, 631, 272, -220, -44, -403, 86, 151, 9, -114, 20, 45, 143, 65,
    -184, -274, 233, 261, -10, -174, 272, -420, 204, 370, 98, 168, -212, 454, -26, 107,
    177, -2, 356, 30, 722, 562, -11, 381, 215, 731, 128, 120, -64, 403, -57, 0,
    164, 0, 0, 0, 0, 0, 0, 0, 0, 0, 254, 338, 280, 50, -244, 112,
    228, -332, -167, 374, 562, 223, 83, 137, 336, -19, 0, -39, 385, 417, 32, 180,
    876, 532, 195, 403, 534, -50, -307, -171, 336, -501, -205, -18, -610, -650, -47, -213,
    -590, 286, -650, 68, 98, -371, -195, -330, -263, -621, -134, -746, -751, 113, -789, 222,
    9, -149, 90, -386, -31, -153, -768, -82, -286, 73, 400, -275, -53, -374, 203, -516,
    -554, 305, -195, 83, -169, -229, 123, 0, -167, 258, 132, -128, -452, -374, -186, -258,
    336, 232, -526, 0, -345, -736, -451, 397, -419, -164, -716, 0, 0, -513, -201, -572,
    -588, -372, -463, -322, -438, 144, 131, 312, 173, -49, 525, 235, -102, -726, 37, 53,
    -143, -142, 424, -622, 771, -447, -114, 851, 84, -124, -316, -397, -350, -32, 545, -569,
    558, 0, 24, -325, 358, -290, 698, -497, 82, 227, -71, -44, -95, 363, -519, -501,
    -592, -430, -360, -349, -391, -836, 55, -219, 0, -269, -75, 282, -83, -1266, -350, -444,
    61, -92, -387, -321, -420, 0, 0, 0, 0, 0, 0, 0, 0, 0, -367, -276,
    -1261, 145, 265, 0, -555, 304, 50, -204, -175, -910, -517, -65, -373, -91, -241, -184,
    -340, -104, 245, -265, -257, 278, -404, 235, 196, -534, -1133, -81, -992, -244, -137, 71,
    -533, -1276, -36, -337, -244, -55, -172, 197, -249, -301, 469, -188, -78, 245, 71, -741,
    -442, -270, 28, -155, -393, -531, -973, 0, 0, 0, -346, -643, -369, -119, -415, 170,
    29, 182, 195, 332, -336, -729, -150, 68, 249, 285, -443, -526, -75, 0, -51, -187,
    -89, -534, 211, -284, -495, -135, -241, 504, 395, 480, 372, 202, 262, 615, 16, -464,
    649, 134, 534, 615, 1222, 452, 769, 453, 445, 609, 498, 176, -83, 320, -742, -186,
    202, -280, 466, 361, 425, 409, 637, 244, 1187, 332, -340, -101, 34, 400, 181, 454,
    -296, 530, -320, 165, 97, 97, -282, -114, 5, -150, 0, -224, 199, 963, 336, 96,
    185, 555, 197, 317, 398, 42, 31, 306, 11, 537, 340, -641, -211, -104, 0, 253,
    288, 134, -91, 578, -162, -577, -97, -271, 435, 340, 552, 515, 229, 162, 728, 431,
    489, 666, 415, 250, 157, -587, 112, -50, -147, 225, 424, 561, 641, 278, 79, -242,
    474, 315, -66, 173, 338, 138, 470, 124, 356, 312, 337, 315, 34, 518, 680, 6,
    478, 66, 608, 485, 627, 365, 749, -70, 792, 814, 408, 0, 502, 830, 953, 666,
    825, 49, 778, 218, 671, 28, -207, 152, 754, 58, 638, 282, -158, 258, 0, 0,
    0, 725, 695, 944, 114, 424, -11, -53, 884, 1044, 381, 821, 417, -255, 430, 223,
    -80, -546, 628, 452, 687, -162, -50, 119, 199, 79, 47, 513, -254, 304, -463, 640,
    -297, -336, -694, -392, 221, 14, 398, 452, 392, 1199, 54, 321, 0, -73, 421, 532,
    65, 17, -201, -39, -190, -269, 79, -66, 106, 636, 0, 0, 0, -264, 185, -71,
    429, 962, 213, 283, -47, 162, -59, -31, 367, 449, -100, -124, 392, -439, 51, -191,
    0, 443, 387, 524, 176, 528, 288, 101, 520, -5, 546, 265, 469, 239, 208, 205,
    404, 272, -52, 193, 89, 347, 159, 36, -158, 2, -595, -180, 200, 259, -393, 447,
    258, -622, -300, 117, -238, 123, 220, 197, 369, 322, 121, -326, -93, 666, 214, 361,
    898, 215, 469, 155, 987, 462, 1182, 226, 834, -33, 489, 41, -64, 0, 779, 988,
    1085, 433, 624, 622, 567, -231, -365, -110, -308, 402, 368, 503, 280, 517, -363, 547,
    -117, 0, -189, 689, 402, 819, 668, -518, 327, 499, 122, 697, 175, 451, 472, 257,
    133, 69, -37, -73, 67, 296, 202, 28, 16, 97, 691, 490, 639, 719, 217, 395,
    106, 243, -116, -60, 515, -295, 459, 220, 240, 0, 352, 756, 508, 301, 107, 358,
    221, 411, 260, 270, -674, -654, -590, -503, -409, -323, -316, -514, -447, -532, 0, -544,
    -274, -187, -63, -331, -269, -235, -106, -73, -392, -807, -517, -220, -139, 566, 149, -410,
    -567, 0, 0, 0, -220, -347, -658, -88, -172, -269, -642, -123, -15, -57, -216, 199,
    41, -15, -155, -639, -495, 381, -194, -344, -94, 358, -336, 576, -879, 560, 785, -253,
    -362, -478, -277, -942, -716, -513, -367, -436, -235, -677, 92, 14, 196, 230, -62, 48,
    -44, -399, 122, 502, 307, -526, -653, -23, 0, -362, 0, 0, 0, 0, 0, 0,
    0, 0, 0, -160, -304, 117, 224, 263, -44, -1126, -631, -862, -176, 322, 257, 170,
    -269, -414, -232, 0, 69, -95, -147, -562, 29, 143, 225, -442, 93, 247, 192, 87,
    -178, 434, -17, 85, -741, 209, 708, 16, 390, 157, 196, -879, -116, -463, -187, -404,
    7, 90, -782, 387, -572, -420, -223, -574, 145, 94, 134, -103, 72, -460, -307, -595,
    311, -498, -22, 23, 553, -103, -223, 431, -671, 503, 225, 110, 629, -520, 242, -310,
    0, -166, 519, 367, -52, -137, -162, -222, -159, -543, -341, -29, 92, 148, 215, 467,
    452, -239, -484, -336, 0, -77, -650, -458, -130, -479, -262, -934, -523, -1025, -97, 0,
    0, 0, 0, 0, 0, 0, 0, 0, 0, 0, 0, 0, 0, 0, 0, 0,
    0, 0, 0, 0, 0, 0, 0, 0, 0, 0, 0, 0, 0, 0, 0, 0,
    0, 0, 0, 0, 0, 0, 0, 0, 0, 0, 0, 0, 0, 0, 0, 0,
    0, 0, 0, 0, 0, 0, 0, 0, 0, 0, 0, 0, 0, 0, 0, 0,
    0, 0, 0, 0, 0, 0, 0, 0, 0, 0, 0, 0, 0, 0, 0, 0,
    126, -95, -167, -126, -387, -414, -154, -153, -468, -44, 8, 537, -422, -267, 421, -518,
    -189, 306, -532, -482, -1348, -469, -645, -880, -399, -637, -656, 5, 219, -205, 600, 103,
    -256, -336, 52, -234, -77, 673, 857, 347, -163, -94, -29, 0, -200, 0, 0, 0,
    0, 0, 0, 0, 0, 0, 1, -103, 19, 46, 207, 327, -361, -668, -375, 177,
    746, 382, 618, -133, 53, 0, 0, -43, -93, 49, -478, 456, 451, -578, -384, 433,
    430, 343, 382, 464, 44, 504, 340, 464, -79, 46, 110, 116, 490, 279, 242, 92,
    216, -280, 428, 75, 209, 128, -24, -2, 540, -54, -77, 776, 145, -15, 191, -123,
    -584, 517, 423, -585, 26, 105, 285, 716, 55, -143, -134, 41, -49, 98, -5, -168,
    -222, -722, -361, 0, 275, -119, 716, 76, -147, -67, -41, -239, 114, -28, 423, -720,
    418, 374, 416, -13, -448, -744, 12, 0, -282, 219, 62, -957, 533, 287, -669, 344,
    -236, 362, 264, 793, 441, 147, -9, 334, 797, 84, -192, 116, -119, 551, -792, 27,
    384, 704, -721, 244, 373, 3, -403, 202, -385, 36, -289, -199, -101, 240, 762, 287,
    -13, 511, 214, -9, 205, 380, 25, -76, 43, 300, -208, 497, -43, 507, 529, 451,
    200, 105, 372, -10, 0, 451, 378, 532, 635, 453, 75, -177, 123, 249, 0, 0,
    410, 335, 488, 483, -242, -754, -122, 0, 0, 0, 631, 748, -146, -252, 372, 31,
    295, 457, 859, -108, 92, 549, -263, 482, 155, -17, -15, 0, -71, -357, 136, -199,
    -207, -365, -415, 710, 66, -929, 78, 0, -33, -429, -68, 0, -163, 87, 16, -449,
    494, 42, 0, -275, -30, -640, 8, 200, 166, -233, -325, -719, -359, -553, -33, -394,
    -610, -188, 125, 0, 0, 0, -236, -249, 31, -647, -567, -259, 118, 266, -115, -134,
    0, 0, -155, -342, 81, -733, 182, -696, -110, 0, -193, 246, 547, -562, 324, -157,
    -203, -174, -486, 351, 446, 308, 289, 432, 166, 553, 375, 242, 236, 225, 618, 38,
    592, 124, 430, -39, -107, 158, 3, 336, -120, 260, -209, -155, -7, -306, 116, 300,
    203, 559, 308, -9, 43, -68, -43, -64, 302, 71, -35, 510, 204, 404, -233, 828,
    539, 542, 322, 642, -15, 57, 0, 198, 696, 772, 333, 642, 475, 562, 454, 494,
    -19, 204, -186, 504, 473, 164, 335, 216, 298, -440, 0, -121, 253, 294, 114, 673,
    98, 151, 836, 864, 736, 320, 152, 178, -4, -384, 305, 305, 302, -101, 331, -40,
    399, 191, 362, 769, 509, 552, 919, 656, 385, 297, 342, 595, 526, 666, 660, 172,
    270, 113, 482, 476, 20, 762, 405, 191, -65, 269, 507, 271, 267, -456, -382, -436,
    -554, -106, -234, -363, -483, -87, -204, 0, -221, -224, 301, 103, 115, 153, 52, 247,
    257, -310, -26, -11, -233, 35, 84, -50, -375, -368, 0, 0, 0, -51, -83, -289,
    210, -155, -172, -371, 168, 205, 213, -39, 8, 599, -415, 282, -200, -377, 181, 19,
    -351, -189, 390, -349, 66, -295, 658, 2, -272, -332, 0, 46, 273, -282, -44, 285,
    204, 0, 0, 0, 0, 0, 0, 0, 0, 0, 0, 0, 0, 0, 0, 0,
    0, 0, 0, 0, 0, 0, 0, 0, 0, 0, 0, 0, 208, -598, 86, 55,
    -178, 220, -58, -4, 477, 600, 479, -68, 626, -54, 415, 0, 0, 0, 0, 263,
    -482, 610, 438, 0, -88, 559, 391, 321, 265, 692, 535, 18, 684, -270, -301, 682,
    177, 537, 420, 142, -172, 488, -77, 419, 173, 363, 327, 46, 339, 5, 332, 19,
    78, 132, 308, 718, 201, -521, -358, 559, 242, -332, -201, 247, 98, 481, 153, 105,
    520, 406, 725, 76, 505, 39, 818, -407, 89, 0, 169, 712, 599, 290, -54, -219,
    59, -538, 521, 311, 333, -239, 89, 262, 14, -302, -364, 190, -51, 0, -9, -210,
    -198, -177, 302, -347, -230, 170, -193, 351, 478, 657, 457, 341, 9, 590, 418, 570,
    457, 303, 280, 506, 606, 262, 625, 664, 322, 917, 564, 550, 188, 647, 40, 398,
    365, 623, 397, 330, 299, 228, 773, 478, 1030, 288, -100, 707, 323, 279, 387, 323,
    -209, -197, -160, 69, 345, 55, 137, -66, -196, -537, 0, -106, -225, 284, 398, -397,
    344, 324, 342, -46, 833, -769, -71, 0, 0, 0, 0, 0, 0, 0, 0, 0,
    286, 152, -338, 382, 229, 0, -135, 75, 295, 348, 293, 461, 110, 103, 345, 361,
    252, 53, 312, 218, 252, 115, 161, 535, 267, 216, 815, 25, -108, -41, 278, -366,
    -185, -363, -148, 287, 405, 241, 352, 582, 571, 902, 689, 475, 784, 385, 564, 401,
    398, -91, -32, -107, -82, 206, 306, 177, 26, 0, 0, 0, -191, 387, 293, 355,
    281, 480, 342, 319, 667, 180, -53, 319, 465, 557, 541, 388, 77, 302, 111, 0,
    371, 460, 519, 504, 467, 385, 410, 523, 542, 628, -28, 109, -198, 157, 229, 251,
    -163, -284, -247, 23, 111, -119, 198, 75, 256, -120, -43, 15, -58, 95, -169, 117,
    40, 38, -200, -268, -42, 6, 64, -136, 173, 89, 289, -136, -543, -160, 17, 123,
    -90, 103, 50, 246, -14, -80, -111, -37, 142, -127, 114, -5, 151, -17, -421, 37,
    -59, 104, -84, 128, 232, 404, -96, -343, -111, -4, 83, -103, 50, 79, 362, -89,
    -3, 87, -58, 74, -194, 34, 148, 130, -55, -194, -67, 34, 123, -146, 82, 104,
    59, -184, -117, -440, 68, 39, -51, 78, -116, 286, -95, -359, -118, 57, 35, -88,
    74, 18, 121, -251, -456, -214, 63, 152, 1, 79, 35, 80, -41, -182, -154, 85,
    214, -29, 108, 117, 289, 24, -96, -21, 26, 134, -125, 94, 88, 9, -17, -61,
    33, -15, 202, -101, 15, 97, 266, -182, -331, -362, 52, 195, -18, 144, 77, 163,
    -63, -31, 57, -5, 139, -123, 100, -48, 133, -25, -102, 86, -63, 114, -135, 294,
    232, 204, -29, -42, -141, -62, 123, -73, 265, 196, 526, -15, -106, 45, -74, 7,
    8, 152, 210, 498, 45, -60, 305, -16, 33, -207, 201, 325, 326, -57, -185, -82,
    -22, 93, -184, 16, -6, 88, 18, -43, 199, -59, -45, -183, 137, 68, 179, -152,
    -137, 21, -82, 4, -146, 73, 219, 86, -28, 325, -102, -60, 58, -197, 17, -8,
    3, 3, 99, -54, -103, -18, -216, 16, 15, 64, -35, -262, -20, 38, 39, -122,
    181, 148, 30, -176, -509, -237, 60, 64, -188, 101, -102, 203, -41, -206, 35, -30,
    -21, -237, -54, 154, 473, -100, -170, -2, 58, 19, -153, 158, 36, 145, -17, -75,
    -40, 98, 116, -158, 80, 68, 118, 30, -6, -162, 37, 90, -149, 112, -354, 454,
    -43, -329, 24, -27, 85, -90, 185, 137, 305, -56, -355, -330, -2, 91, -71, -10,
    -13, 125, -88, -40, -34, -20, 29, -193, 23, -106, 171, -66, -341, -163, 56, 152,
    -138, 228, 16, -56, -247, -479, -144, 109, 109, -110, 53, -135, 168, -162, -389, 59,
    4, 43, -137, 16, 84, 176, -81, -443, -286, 84, 182, -80, 28, 1, 248, -23,
    -13, -63, 66, 173, -80, 84, 56, 149, 29, 24, 1, 45, 139, -129, 115, 78,
    4, -13, 60, -7, -14, 126, -166, 39, 135, -106, -27, -191, -241, 19, 212, -63,
    62, 69, -25, -63, -66, 83, -18, 141, -131, 65, 68, 83, -23, 93, -23, -9,
    125, -141, 66, 179, 457, -33, 358, 29, 6, 29, -211, 228, -213, 498, -13, -795,
    -33, -86, -157, -120, -22, -245, 262, -25, -757, -117, 30, 194, 19, 10, 40, -24,
    -47, 115, -109, 17, 132, -95, -55, 25, -25, 84, -3, -61, 1, 108, -145, 41,
    -165, 97, 3, 169, -41, -76, 74, -132, -50, 161, 44, -144, -196, -72, 32, 151,
    -71, 119, 64, -74, 2, 26, 75, -89, 19, -201, 64, 17, 19, -15, 46, -14,
    -51, 87, 1, 202, 314, 621, -228, -147, -198, 12, 152, 75, 154, 67, 196, 37,
    -356, -151, -37, 7, -9, 25, 85, 354, 6, 137, 1, 1, -42, -21, 103, 385,
    543, -203, -99, -468, -17, 121, -96, 6, 179, 306, -41, 48, 27, -61, 23, -100,
    95, 2, 248, -177, -97, 21, -91, 195, -13, 77, -9, 62, -80, -64, 257, -79,
    125, -90, 94, 81, 226, -169, -250, 157, -133, -7, -149, -30, 182, -45, 7, -142,
    19, -4, 160, -166, 158, 115, -28, -116, -384, 33, 70, 135, 31, 39, 191, 573,
    -181, -560, 60, -47, 146, -95, 27, -130, 550, -222, -30, 181, 55, 93, -138, 86,
    90, 239, 72, 0, -156, 63, 174, -63, -30, 1, -63, -35, -9, -16, -53, 43,
    -175, -3, -138, -53, -151, 61, -115, -32, 111, -110, -188, 214, -73, 44, -52, -121,
    -7, 98, -168, 1, 11, -206, 76, -200, 205, -35, 56, -135, -63, 15, -89, 38,
    44, -42, -71, 166, -167, 247, 211, 434, -19, 308, -142, -26, 185, -5, 144, 180,
    415, -81, -373, -102, -124, 123, -70, 103, 9, 450, -26, -53, 221, 10, 154, -138,
    58, 325, 81, -48, 110, -177, -3, 88, -205, -22, 7, -121, -18, -54, -72, -46,
    52, -215, -5, -59, 116, -87, 44, -31, -73, 50, -171, -65, 78, 98, 55, -173,
    -52, -74, 82, -170, -33, -21, -82, -86, 107, -85, -46, 44, -176, -7, 11, -13,
    -47, -100, 13, 144, 101, 27, 326, 51, 156, 30, 73, -48, 203, -492, -314, 491,
    43, 587, 156, 0, 689, 89, -215, -28, -334, -378, 362, 329, -566, -595, 46, -167,
    -277, 499, 328, 636, -16, 49, -848, 167, 256, -453, -239, -57, -229, 240, -162, -336,
    110, -280, -269, 587, -233, 69, -32, -53, 553, 238, 217, -215, 430, 317, -430, -1374,
    -52, -466, 142, -508, -172, 102, -326, 33, -622, -678, -324, 163, -347, -213, 304, 213,
    -17, -115, 164, -183, 194, 143, 206, 286, -12, -551, 990, 563, -383, 149, -124, 26,
    -445, -773, -1372, 92, -312, 212, 185, -92, 382, 771, -469, 432, 299, -248, -273, 53,
    -277, 908, -91, 329, -189, -350, -10, -566, 42, 95, 116, -34, -49, 81, 96, -36,
    73, 143, -108, -27, 140, 151, -179, -51, 210, 20, 226, -125, -346, 417, 96, 54,
    -226, 305, -1230, 115, 99, 648, 421, 180, 255, 236, 402, -17, 129, 15, 172, 146,
    -7, 446, -114, -45, 101, 92, 199, 553, 498, -293, -135, 58, -162, -219, 122, 153,
    606, -203, -85, 252, 71, -393, -327, -54, 411, -153, -245, -7, -262, 427, -116, -141,
    39, 170, -249, 129, 618, 35, 0, 137, -29, -39, -258, -161, -164, -167, -238, -288,
    -449, -2, -185, -263, -268, -277, -68, -113, -389, -329, 67, 103, 525, -32, 267, 549,
    -959, -219, -276, 423, -38, 107, -88, -158, -210, -230, -144, -789, 44, -96, -96, -233,
    -112, -211, 20, -190, -390, -289, 179, 272, 10, 875, -144, 945, -273, -330, -142, 206,
    557, 193, 150, -234, 383, 112, 196, 1, 226, -550, 234, 760, -38, 249, -16, -867,
    -558, 86, 51, 104, -354, -351, 272, -3, -129, -22, 95, 95, 303, -8, 3, 228,
    6, -274, 184, -71, 405, 227, -373, 801, 129, 111, 130, 319, 282, 36, 189, -44,
    -93, 178, -114, -314, 661, 221, -75, 538, -350, -111, 55, 231, -48, -279, 45, 81,
    38, 383, -323, 198, 225, -40, -221, 122, 111, 108, -285, 310, -274, -39, -40, 22,
    141, 94, -279, -21, 28, 139, 118, -106, 205, 74, 83, -30, -100, -305, 2, 46,
    -413, -38, 127, 24, -23, -71, -63, 267, -151, 155, 53, 99, 128, 19, 48, -144,
    84, -36, -6, 26, -5, 33, -203, 129, 3, 83, -136, 103, 49, 119, 124, 87,
    -228, 83, 10, -181, -141, -10, 107, 132, 12, 96, -86, -100, -92, -95, 0, -4,
    -40, -197, 102, 171, 103, -43, 145, 84, 101, -66, 46, -60, -227, 407, -372, -79,
    14, 24, 147, -292, -311, -266, 311, -210, -159, -491, 181, 409, 265, 57, -133, 40,
    363, -270, -398, 157, -22, 80, 400, -496, 272, 139, -405, -515, 106, 176, 22, 33,
    -1, -30, 1, 34, 59, -44, -15, -122, 62, 37, 331, 106, 114, 17, 45, -75,
    -78, -126, -89, -133, -185, -273, -8, 158, 142, 87, 114, 5, -65, -86, -3, 270,
    -33, 63, -117, 72, 54, 163, -23, 148, 182, 141, 106, 209, 150, -234, -113, 301,
    -742, -53, -114, 32, 249, 567, 642, 491, -19, 220, 47, 25, -79, -419, 84, 437,
    159, -43, -148, 426, 16, 517, -86, -305, -58, 105, 64, -198, 124, 53, -58, 174,
    -89, -36, -408, 222, -353, 135, -48, -201, -81, -249, 237, 555, -9, -298, 74, 136,
    251, 368, -486, 458, 877, -61, 395, -463, -53, -4, -298, -125, -199, 36, 337, -230,
    -47, 104, 146, -287, -298, 229, 107, 39, -199, 48, 113, 355, -63, 149, 597, -312,
    202, 250, -99, 234, 394, -92, -572, 249, 637, -365, 55, 55, 126, 301, 16, 109,
    198, -736, -150, 151, -177, 53, 300, 25, -15, -59, 266, 248, -218, 57, 137, 187,
    32, 193, -82, -145, -54, -57, 58, -18, -24, -144, 325, 101, -13, -36, 105, 149,
    17, -114, 167, -315, -122, 106, 123, -121, 790, -7, 79, 153, 78, 46, -209, -245,
    -51, 87, 39, 102, -92, 275, 39, 184, 14, 130, 172, 58, 242, 151, 304, 418,
    564, 169, 464, -368, 127, 49, -154, 383, 134, -22, -510, 49, -431, 188, 121, 89,
    -62, 109, 265, -18, 31, 480, 44, -8, 40, 60, -139, 680, 196, -20, 130, 112,
    262, 156, 118, -81, -74, 16, -188, 58, -92, -86, -190, 194, -13, 143, -168, 57,
    266, 37, 138, 41, -110, 218, 226, -45, -113, 73, 56, 170, 108, 117, -17, -20,
    24, 64, 168, -43, 28, -147, 135, 22, 55, -3, 42, 209, -152, 56, -90, 26,
    -155, -225, -546, -700, 9, -102, -203, 400, -483, 250, 572, -376, -396, 515, -249, 412,
    647, 539, -216, 72, -1262, -95, -183, -214, -34, 134, 1002, 1086, -35, -216, 585, -358,
    -192, -137, 323, 82, 200, -80, -240, 159, -572, -275, 406, 738, -26, 324, 332, -136,
    453, 64, -12, -105, 218, 276, -361, -257, -146, -388, -839, -14, -51, 482, 46, -156,
    591, -485, 226, 34, -143, 390, 94, -10, -295, 191, 546, 27, 415, -106, -844, 215,
    228, 220, -81, -430, 153, 983, 101, 224, -204, -135, 712, 613, 46, -368, 142, -147,
    -439, -78, -70, 70, 274, 191, -248, -127, -86, 264, -571, 632, 643, 789, -236, 454,
    -671, 29, 200, -13, 100, 296, 248, -255, -186, 183, 60, -213, -194, -46, -251, 303,
    -121, 28, 269, -47, 323, -146, 447, -277, 153, 16, -78, -437, 29, 115, 351, 153,
    272, 136, 68, 59, -251, 39, 299, 77, -24, -68, 231, -218, 262, 71, -112, -392,
    25, -1378, -17, -109, -322, 198, -106, -101, -293, 980, -522, -74, -54, -451, -44, 419,
    -199, 5, 325, 603, 506, 329, 228, 1952, 1090, -267, 338, 141, -161, 595, -26, -370,
    -134, 147, -231, -288, 27, -249, -292, -193, -235, -253, 124, -56, -694, -261, -37, -121,
    -811, -542, -428, 103, 9, -969, 415, 704, 746, -47, -69, -125, -517, -93, 62, -123,
    -18, -44, -60, -980, -31, -29, 72, 18, 317, -141, 74, -19, 56, -135, 153, -169,
    -185, -162, 142, 75, 799, -379, 118, -41, -24, 155, 440, 121, 240, -26, -315, -381,
    -124, 11, -603, 76, 151, -150, -132, -423, -419, -244, -173, -100, -532, -12, -431, 280,
    343, -606, -252, -44, 353, -30, 210, 113, 288, 124, -401, -24, -46, 367, 17, -401,
    -329, 99, -39, 110, 330, -39, 148, -162, 522, -280, -98, -45, -805, -63, -29, -301,
    -36, -230, 101, 354, 277, -561, -128, -202, -198, -124, -319, 236, 332, -21, -148, 261,
    -45, -97, -158, -25, 194, -51, -128, -253, -149, -62, -105, -14, -181, -65, 267, -59,
    -645, -38, -159, 245, 30, 12, 338, 268, -207, 364, 138, -29, 14, -66, 41, -6,
    128, 120, -131, -108, 52, 101, -32, -5, -191, -129, -120, -122, -114, -38, -104, -69,
    -75, -249, -88, -159, -133, 50, -8, -58, -44, -184, 206, 59, 171, -586, 541, 80,
    96, 100, -58, -249, -132, -139, -438, 54, -42, -156, -206, 56, -185, 109, -110, 39,
    50, -68, 117, -596, -528, 427, -20, -252, 1112, -738, -26, 141, -249, 36, -179, 4,
    -277, 0, -213, -226, -216, -340, -67, -167, 99, 271, -617, 35, 33, 79, 159, -188,
    -728, 58, 426, -276, -466, -35, 51, -54, -45, -101, -213, -100, -252, -163, 42, -233,
    -91, 188, 54, 19, 50, 274, 76, 52, 32, -333, -190, -209, -330, -650, -660, 434,
    -21, -18, -14, -31, -130, -5, -430, -70, -61, -136, -42, -144, -65, -22, 59, -153,
    93, 123, -193, -337, -470, 113, -78, 40, -1213, -728, -30, -158, -691, 456, -241, 85,
    266, -620, -20, -4, -278, 234, -601, -371, 16, -402, -2, -2, 570, -310, 29, 190,
    -243, -370, 105, 263, -515, -346, -67, -243, -282, -311, 242, 86, -330, -744, 356, -281,
    -10, -48, -286, -786, -760, -485, 430, 3, -70, 12, -199, 381, 218, 206, -101, 222,
    539, -71, -309, -491, -104, -169, -3, 167, -275, -38, -98, -988, -227, 72, -89, 770,
    199, -306, 485, -42, 94, 87, 388, -294, 10, 53, -646, 274, -102, -140, -185, 52,
    726, 524, -432, -627, 368, -70, 42, -198, -268, -289, 127, -238, -267, 302, -62, 151,
    105, 19, 16, 158, -46, 314, 127, -33, 42, -100, -85, -180, -176, -12, -222, -48,
    -173, -104, -75, 24, -202, -61, -135, 15, 5, -95, 158, 200, -374, 162, 61, 24,
    -249, 606, -6, 125, -42, -66, -61, -124, 23, -135, 26, -112, -56, -261, -85, -37,
    -42, -55, -75, 5, -97, 40, 102, 131, 70, 111, 327, -170, -757, -25, -51, 113,
    -248, 33, 290, -66, -282, 502, -90, 35, -363, -413, -209, -22, -59, -257, -543, -74,
    -97, -124, -145, 17, -69, 165, 109, -216, -41, 122, -56, -40, -105, -142, -151, 47,
    -175, -45, 61, -153, 105, 26, 103, -82, 61, 117, -72, 41, 120, 64, -170, -277,
    188, 52, 84, -56, 85, -109, -28, -76, -72, -162, -104, 6, -67, 25, -64, 39,
    -18, 1, 4, -65, 168, 117, 227, -173, 137, 232, 227, 44, 45, -585, 97, 201,
    136, 261, 83, 94, -189, -221, -215, 97, 284, -4, 100, 193, -156, -334, -239, 38,
    93, 212, -232, 223, -240, 355, -633, -175, -241, 162, 253, -154, 165, 387, 82, -94,
    279, -197, 130, 82, 48, 545, -278, 132, 162, -71, -82, 135, 332, -211, -274, 40,
    349, -279, -410, -66, 164, 183, 60, 85, 49, 424, 180, 106, 107, 131, 206, -314,
    39, 133, -219, -193, -188, -107, 89, 257, -26, -244, 443, 201, -267, -1075, -287, 73,
    90, -123, -193, -394, 157, -125, -247, -226, 80, 182, 28, 510, -244, -288, 528, -294,
    6, 182, 496, -16, -877, -54, -170, -137, -281, 138, 183, 211, -13, 11, 51, 299,
    56, 187, 57, 197, 230, -114, 209, 328, 154, -118, 155, 56, 73, 451, -105, 48,
    -58, -298, 266, 667, 97, 137, 232, -11, -38, 210, 15, 205, 123, 10, 89, 147,
    -68, 26, 64, 364, -6, 94, 98, 116, 237, -219, 151, 327, 52, -182, -21, 98,
    6, -348, -36, 69, 138, 169, 49, -162, 154, 133, 482, -91, 406, 162, -241, 355,
    139, 290, 143, 658, 14, -141, 333, 191, 75, 17, -241, 109, 91, -108, -50, 39,
    140, -118, -47, -56, 150, 199, -53, 57, 194, -47, 188, -422, -7, -28, 86, 151,
    -226, -77, 117, -355, 218, -301, 70, 84, -64, -15, -77, -25, -14, 329, -10, 80,
    234, -66, 290, -13, -127, 236, -96, 27, 109, 330, -184, -311, 354, 415, -546, -245,
    -270, -27, 90, 8, 45, -228, 434, 273, -331, 287, 162, 18, -248, -146, 346, 377,
    -551, -522, -373, 83, 118, 131, 28, -676, 175, 272, 186, 48, 155, 446, -268, 190,
    65, -192, -191, 100, 7, 89, 290, -178, 63, 197, 326, -93, 177, 44, 133, -225,
    -126, 436, -18, 90, -296, -196, -838, 147, 38, -99, 118, 80, 54, 204, 8, 207,
    58, 117, -255, 74, 99, 103, -131, -168, -350, 166, 294, -50, -23, 152, 505, -240,
    -427, 59, 146, 513, 142, -116, -186, 395, -125, 188, 177, 87, 236, 223, -80, -240,
    441, -133, -383, -216, 229, 340, -7, 90, 151, 316, 12, 185, -14, 191, 286, 22,
    134, 67, 147, 99, 276, 139, 178, 315, -16, 263, 242, 117, 34, 216, 151, 100,
    157, 107, -27, 233, 128, -67, 116, 233, 179, 400, 114, 252, 230, 71, 44, 32,
    95, 136, 212, -51, 215, 208, 202, 116, 280, 157, 96, 327, -168, -476, 30, 123,
    -64, -456, 35, 114, 174, 7, 52, -297, -313, -417, -168, -181, 96, 562, 114, 314,
    -333, 261, -498, -288, 64, 271, 270, -130, 148, 54, 341, 404, 163, -111, 160, 328,
    115, 124, 49, 104, 96, -71, -24, 105, 309, -46, 191, 141, 83, 63, 225, 83,
    33, 200, -45, 165, -179, 141, 163, 46, -73, 200, 400, 128, 170, 142, 39, -72,
    201, 214, 68, 115, -74, 120, 101, 120, 88, 186, 170, 72, -28, -186, 77, 310,
    -68, 278, 94, -1030, -8, 226, 189, -483, 36, -204, -194, -374, -123, -9, 340, 347,
    -61, 322, 108, 129, -74, 12, 45, -54, -243, 297, 113, 55, -605, 72, -137, 97,
    -6, -111, 211, 104, 318, -16, -466, -196, 237, 259, -104, 225, -72, -329, 12, 506,
    -70, 37, 260, -9, 566, 251, -94, 302, -277, -163, -46, 485, -17, 231, 53, -493,
    -482, -393, 215, 157, 133, -141, 133, -93, 133, 22, 74, -269, 88, 67, -234, -20,
    -168, -271, 308, -16, -466, 98, 367, 211, -99, 479, 308, -177, 378, 39, -11, -50,
    117, 89, 769, -228, 73, -525, -87, 150, 153, 7, 70, -38, 544, -324, -2, 49,
    164, 269, 44, -20, -110, -71, -96, -148, -86, 49, 140, -133, 9, -138, -191, -161,
    -6, -120, 6, 21, 81, -4, -102, 84, 91, -419, -117, 194, 241, -50, 40, 56,
    -98, -204, 78, -29, 19, 76, -137, -105, 19, 56, -77, 82, 66, 50, 272, 274,
    -123, 308, 1537, 611, 150, 555, -112, 126, -137, -1, 147, -237, -181, -89, 165, 1,
    270, 11, 225, -34, -48, -570, -125, -286, 163, 197, -12, -178, -43, 270, -159, 3,
    -113, 156, 217, 4, -21, -111, -168, -174, -199, -157, 65, 105, -191, 15, -60, -54,
    -101, 84, -83, 6, 200, -122, 147, 3, 18, -120, -98, 384, 87, 129, -86, 25,
    -79, -164, -142, -180, -76, 38, 117, -79, 25, -27, -26, 10, -76, 106, 206, 254,
    58, 249, 13, 67, 197, -687, -232, 350, 314, 741, 393, 115, 705, 140, -307, 50,
    175, 355, 16, 136, 19, -110, -68, -79, -181, 253, 467, 47, 243, -68, -6, 194,
    384, -218, 53, -120, -396, 115, -354, -248, 355, -307, 15, 194, -220, -90, 660, -488,
    444, -55, -237, -56, 142, 198, -255, 194, 56, -161, -228, 38, 113, 145, -255, -67,
    -147, 350, -99, 415, 8, 10, 271, 273, -685, 302, 20, 117, -59, -494, -226, 100,
    -160, -181, 218, 101, 151, 1196, -307, -334, 124, -228, 502, -320, 179, 344, -86, 381,
    -122, 304, 84, 390, -172, 22, -544, -44, 53, -57, 132, 209, 556, -265, 354, 32,
    544, 22, 80, 3, -43, -1, -172, -185, 134, 163, -52, 150, 130, 38, 180, -322,
    149, 385, 32, 46, 101, 167, 320, 121, 124, -34, -86, 777, -19, 167, 214, -148,
    128, 647, -433, -339, -605, -185, -409, 257, -43, -63, -225, -243, -503, 359, -223, 119,
    275, 347, -124, -172, -633, -22, -453, -463, -555, -125, 75, 44, -65, -651, 220, 266,
    479, 401, 101, 6, 1, 466, -20, -917, -101, -125, -258, 225, 346, 162, -88, 34,
    40, -125, -7, -253, -25, 125, -105, 194, -303, -181, -134, 173, -260, 13, -335, 150,
    -316, -431, 158, -269, -426, -37, 227, -304, -173, -185, 40, -156, -314, -377, 88, 18,
    -98, 262, -79, -138, -271, 331, 263, -270, 29, -283, -5, 15, -190, -322, -152, -38,
    10, 87, 80, 10, -34, 231, 475, 266, -504, 49, 156, 316, 267, -170, -79, -7,
    181, 170, 363, -20, 144, -240, 379, -428, 461, 162, 98, -178, -115, -197, -195, -304,
    334, 14, 498, -452, -300, -14, 192, -421, 73, -337, 207, -76, 13, -11, 100, -13,
    77, -74, -114, 468, 225, 223, -52, 184, 196, 182, -618, 22, 124, -449, 85, -53,
    -70, -314, -459, 173, -95, 242, -192, 159, 656, 191, -208, -198, 61, -200, 18, -25,
    -6, -128, 69, 215, 126, -1, -236, 210, 38, -641, 341, 105, 287, -103, 225, -500,
    209, -54, -278, 72, 182, 275, 207, 204, -92, -224, 247, -544, -55, 87, 161, 69,
    -24, -200, 231, 184, 19, 67, 67, 108, -14, -143, -300, -250, -196, -170, -161, 10,
    -75, -162, -49, -218, -105, -219, -81, -51, 21, 28, -18, -180, -193, 66, -24, -508,
    -44, 75, 76, -12, -41, -137, -230, -263, -132, -106, 4, -83, -183, -109, -90, -60,
    -143, 21, 23, 1, 190, 3, 129, -328, 205, -354, -637, -125, -44, 352, -48, -247,
    -640, -191, 23, -70, -80, 80, 57, -209, -16, -774, 82, 83, -354, 139, 73, 409,
    196, 67, -300, 185, 104, -57, 49, 80, 186, 23, -42, -179, -120, -292, -119, -63,
    -12, 80, -60, 64, -210, -11, -88, -62, 0, -14, 85, -142, -218, 88, -82, 59,
    106, -350, 80, 121, 87, -15, -89, -112, -154, -44, -29, -37, -57, -126, -21, -18,
    62, -81, 134, 119, 31, 491, 300, -67, 156, 582, -461, -369, -234, 317, 383, 615,
    -39, -407, -166, -369, 271, 420, -117, 215, 118, -215, -8, -170, 155, 337, 144, 0,
    -221, -333, -261, -310, 406, -118, -319, 77, 66, -102, 151, -32, -83, 141, 570, -177,
    269, -211, -183, -358, 463, -24, 478, 97, 144, 140, 141, 371, 222, 228, 675, -218,
    291, -523, 73, -109, -32, -66, -367, -203, 120, 248, 161, -133, -10, 82, -218, 37,
    115, -198, -104, -104, -121, 54, -50, -201, 721, -470, -196, -167, -787, -407, -155, -386,
    -47, 74, -53, 180, -90, -99, 803, 193, -70, -27, 369, 499, 103, -52, 784, -234,
    126, 120, -99, 309, 233, 467, 46, 112, 127, 85, 251, 60, -10, -202, -197, -174,
    -190, -65, -7, -117, 58, 12, -207, -106, -120, -50, 93, 86, 107, 160, -107, -130,
    565, 87, -432, -225, -7, 107, -15, 16, -169, -197, -159, -50, 51, -35, -81, -88,
    41, -225, -10, 13, 48, 173, 178, 70, 201, 324, 214, -104, -8, 555, 280, 138,
    285, -110, -248, 59, 112, 588, 89, 38, 174, 175, 3, 17, 492, -421, -321, -485,
    -138, 80, 117, -7, 30, -17, 289, -125, 146, 3, 79, 160, -18, 115, -42, -77,
    -7, -3, -36, -5, 20, -91, 55, -243, 145, 96, 34, 191, 69, 43, -7, -154,
    8, 132, 218, -331, 114, 17, 195, 50, 60, -66, -34, 26, 4, 112, -2, -47,
    -153, 70, 2, 96, -33, 211, 239, -290, 216, -452, -40, -601, 11, -530, 28, 453,
    -366, -342, -127, -181, -434, 30, 148, -394, -133, -400, -98, 504, -562, 94, -351, -576,
    -497, -474, -103, -1146, -406, -219, -564, -429, 28, -154, -219, -586, -139, -777, -94, -228,
    127, 504, 41, -90, -446, -50, -655, -410, -23, -347, -726, -7, 332, 67, -312, -207,
    -470, -366, -537, -22, 170, -31, 47, -516, -404, -296, -55, -103, 1208, -5, -79, 305,
    -34, -251, 71, 601, -253, -305, -223, 294, -348, -160, -941, -148, -407, 102, 345, -230,
    335, -66, 123, 324, 108, -200, 273, -352, 0, -72, -209, -386, -454, -90, -54, -486,
    -140, 417, -538, -285, 136, -256, 324, -394, 307, 382, 197, -540, -80, 166, 181, 32,
    -3, 227, -47, -6, 53, -149, 4, 293, 170, -48, -27, -7, 31, 302, -163, -191,
    -133, -246, 0, 63, -236, 50, -484, 185, -108, 593, 160, -117, 235, -144, -459, -592,
    97, -379, -11, 15, -156, 475, 97, -82, -97, -243, 21, -699, -245, 81, -47, -427,
    229, -194, -350, -180, -364, -431, 104, -2, -96, -129, -147, -4, -101, 1044, -322, -28,
    -54, -12, 333, 768, -296, 305, -250, 331, -12, 0, 266, -13, -190, -191, -90, -610,
    -291, -622, -313, -864, 218, 127, 33, 0, 12, -300, -27, -56, -791, -751, 401, 382,
    271, -145, -173, -159, 367, 390, -103, -51, -339, 149, 151, -127, 6, -143, -338, -290,
    -169, -89, 83, -315, 28, -99, -263, 205, -224, -95, 9, -58, -138, -279, -214, 1,
    -396, -378, -211, 96, -105, -104, 34, 499, 3, -242, -99, -56, -650, -299, 418, -211,
    -215, -12, -5, -519, 228, -220, -277, -688, -237, 195, -294, -262, -136, 32, -272, 6,
    -227, -13, -686, 15, -69, 427, -179, -457, 353, 234, -337, -105, 652, -609, 208, 49,
    -128, -303, 84, -266, -166, 342, -68, -49, 112, -161, 107, -64, -128, -29, -372, -308,
    0, 553, -365, -619, -137, -545, 186, -504, 0, -288, -300, -78, 185, -58, 147, 148,
    20, -611, -184, -110, 106, 70, -603, -288, -113, 237, -222, 276, -9, -219, 172, -238,
    -29, -480, 319, -668, -640, -216, -42, 25, 16, 22, 100, 472, -177, 340, -118, -24,
    266, 28, 36, -241, -195, -173, -213, -47, -69, -114, -192, 47, -96, -98, -271, -33,
    -126, -58, -433, -333, -233, 75, -331, -461, -315, -369, -79, 126, 40, -63, -124, -221,
    -294, -64, -57, -23, -212, -160, -131, -114, 38, -134, -2, 194, -128, 22, -335, -702,
